-0,00293187942026736
-0,00332683993192708
-0,00795416483560305
-0,00520267733149355
0,00382603462497985
-1,42345810375324E-05
-0,0038708481629709
0,00210439355676267
-0,000541850184342753
-0,00672049304317706
-0,00591290727067408
-0,000599341714102468
0,00591944123431608
-0,00901143347684716
-0,0013456619968586
0,000250449356067453
0,0066064331757866
-0,00709063213183108
0,000804502708280691
-0,00185926199511591
-0,00701990596811283
-0,00492017316395425
-0,00708206059275291
0,00591453589308752
0,00986178610467435
-0,00753902444501362
0,00781159046935457
0,000832158909566774
-0,00521035037711745
-0,00351146042976131
0,00496793612603468
0,00296271790422626
-0,00597296109488181
0,0064247201126415
-0,00291865486853052
-0,00412566102098572
-0,00143494403429321
0,000848130258128988
-0,00462002287542319
0,00421998062224701
0,00821873870007309
-0,00295636187817829
0,00278424666569768
0,00475910479881387
-0,00887061159859625
-0,00148580873347931
-0,00510949932495195
-0,00104281675335389
-0,00137690010643012
-1,87417951303624E-05
-0,00573537817041903
0,0044310758139526
0,00583978802703311
0,00671690759096151
0,00473303002060066
-0,00801170625631311
-0,00624477933917417
-0,00386870072869058
-0,00506694017591403
0,00133878445443134
0,00215165314766654
0,00528514182551098
-0,00277305729200873
-0,0073953962420797
-0,00227474306525889
0,000156340568020823
-0,00676674746230929
0,00593469894594379
-0,00122016611875548
-0,0136118191492809
-0,0162555154375288
-0,0134856973483797
-0,00269187072006168
-0,00197852798761231
-0,00550431451779951
0,00335721670110122
0,00109009805611809
-0,00237486130463291
0,0039545970112666
0,000817013266218512
0,00728671839646391
-0,00130041311194453
-0,00777540704131844
0,00487887382268853
-0,0077870128200329
-0,00946949846086535
0,00712495662181528
-0,00278503585427975
-0,0083434384219638
-0,00527451980360125
-0,00841720172477818
-0,0095168778783201
-0,00753384518806035
-0,00158394654632108
-0,0167584704251271
-0,0212784450516992
-0,0300098807992472
-0,0256133931408696
-0,0317796994360178
-0,0283093042839665
-0,0352927527048556
-0,0277479906338254
-0,00913799081197965
-0,00999058829086793
-0,00261694851663386
0,0116709000383431
0,0114643838404273
0,0120911506399269
-0,00163431902770034
0,00953604592772984
8,81426446770371E-05
0,00613977350114834
0,00254128794769817
0,00417678002287175
0,00402269958245176
-0,00670019030162432
0,00242055394632688
0,000591360613651363
-0,0140852910319817
-0,0136975085106005
-0,0150302578282916
-0,0187453257009556
-0,0258242479923555
-0,0393383473272557
-0,0504926954761322
-0,034500404366679
-0,025996313407691
-0,0349138224788086
-0,0133184229150747
-0,0134010889865546
0,00165353630583739
-0,00127229138424431
0,00836868209459589
0,017058993189404
0,0210861166359548
0,0204657729336837
0,0122529811300175
0,00818133340933017
-0,00327294676558288
-0,00635908543009093
-0,00658625282188237
0,00746726943993348
0,00977848305439139
-0,00842730060336288
0,00236662715042068
-0,011982830913506
-0,016805770464339
-0,0268045247215779
-0,048665767518692
-0,0337739108850801
-0,0428581963050443
-0,0415563991220133
-0,0348681317213136
-0,0288582291558456
-0,019747985665773
-0,0240117686462639
-0,00771096989806684
0,00797275903096068
0,0182678128827427
0,030375135914885
0,0462660024965363
0,0498242931874905
0,0466310880864587
0,0346626647929947
0,0154386334455336
0,00394157109408707
0,00630717845330608
0,000213889280748651
-0,00284582140522349
-0,00776222605175855
-0,000333640551604435
0,00405577946362917
-0,0121957793550486
-0,00987714681499927
-0,034220206748623
-0,0341124015277341
-0,0398107872715717
-0,0386014234049989
-0,0353580915967645
-0,0326110321414879
-0,0430977102714483
-0,0527365488976678
-0,0520851736653771
-0,0333273666450758
-0,0203076516234509
-0,00708048199100236
0,0118135403874874
0,0188147499291659
0,0248332802398988
0,0330634109872203
0,0510366162310496
0,0561728462732547
0,0357825186431222
0,0182726907383287
-0,00356642861326263
-0,000386250603037929
0,00155011663207977
0,00809371533847367
0,00765061638186351
-0,00801955383733114
-0,0136736735342443
-0,0132471290394231
-0,037887565588111
-0,0253958582312325
-0,031162649243237
-0,0205526910948808
-0,031176794174315
-0,0288313198485981
-0,0374748686586922
-0,0593020239703312
-0,0658880864078584
-0,0583579532757841
-0,0395784785321728
-0,0230192807706986
-0,0159861852146759
0,00409629990871313
0,0124006921216376
0,0292938063305271
0,044189898227576
0,066902150146004
0,0470902655698898
0,0175320855036927
-0,00316679286052002
-0,004091321778373
0,00823804618895508
-0,00753216835168188
-0,00439795682292678
-0,00665621027764709
-0,0113405117636591
-0,0134563650192428
-0,0246343021597137
0,00142054427024251
0,00868259818070138
0,00408812562608113
-0,00465270646110244
0,0023125361680527
-0,00990189501380009
-0,0288668423807431
-0,0646313249102847
-0,0791420859836338
-0,0619457025734226
-0,0502365903579701
-0,0339682853693927
-0,0265655229444067
-0,0059366320370333
0,0147424989158752
0,0385213210102493
0,0421738824552716
0,0494033861060368
0,0203294403082331
0,0101702088196353
-0,00952501579761379
0,00190840287554658
-0,00892171005703404
0,00109111948998751
0,00301872288034087
-0,0023844415028001
0,00448519700649005
0,0150441206639661
0,021544737594686
0,0424168785772628
0,0552139383134903
0,0591636386452422
0,0681148704553102
0,0572416014632021
0,0136565057368152
-0,031282245652176
-0,0677286307324456
-0,0639273945011212
-0,0527627748916687
-0,0511420335558965
-0,0436308012915421
-0,0328324180226393
-0,00878849830579796
0,0185617086371292
0,0377523229221315
0,0252449102029071
0,00146007742730167
0,0033804902288659
-0,00332764296477649
-0,00214181161166218
-0,00453626485909366
0,00147778877839745
0,00701786634908305
0,00880660064217637
0,00640420670670205
0,0321009753576493
0,0684335294565765
0,087075086619504
0,0865460478908949
0,0984581864711629
0,0920823155874076
0,0870854119432803
0,0623344948382509
-0,0033348922803925
-0,042048078650603
-0,0660446591548405
-0,061665154675532
-0,0540610118171894
-0,0525301195167991
-0,0367959319649044
-0,0222149803889597
-0,00332974882013572
-0,000622025406011755
0,00409896881049113
0,00795702380170953
0,00560314525463652
-0,00286110763998503
-0,000721750051014897
0,00477021428284846
-0,000807974432629118
0,00500719126094888
0,00525621410487784
0,0292803595349634
0,0612320589480515
0,0720474350110621
0,0865059328965219
0,0871594568041232
0,084841384164488
0,0937467781952124
0,106258028318054
0,080673300776687
0,0258851597826997
-0,00308595294230536
-0,0175266595814749
-0,0312680143267321
-0,0350092459379376
-0,0375785975049774
-0,0344998348367909
-0,0376009189148486
-0,0193970315577617
-0,0281925953770413
-0,00229877129698327
-0,00230187697848921
0,000497828891144091
0,00877636177898877
0,00190403794004679
-0,00550161412497101
0,00268830141467569
-0,00315015705994495
0,0111086817996458
0,0189894669497946
0,048071078526553
0,0601260158028679
0,0812423945671945
0,0576225867748263
0,0668332000173998
0,0685374137731016
0,0674211541486739
0,0786419521871701
0,0475287518765293
0,0344034452430243
0,00882304852357783
0,0239856151280373
0,0100222803505435
0,00681708718375754
-0,00620583974524342
-0,0216119836960236
-0,0339498069873621
-0,0345483748149492
-0,0103448724223975
-0,00306725106259775
0,00576477403227328
-0,000811997622807841
0,00874315298215106
-0,00186854098572866
-0,00695380545909216
-0,00684626630851334
0,00410734301056466
0,0124541917849188
0,0387433683893488
0,0534974443408851
0,0387692153776357
0,0363318085316661
0,0152911592872617
0,042736288683158
0,0544492688647479
0,0636428208487572
0,0473522909354692
0,0563937075016507
0,0263924082439682
0,0191957760242055
0,0192576880178602
0,00807228886495048
-0,00191452308234019
-0,0147838755681667
-0,0249364643740779
-0,0257496997832459
-0,00491156328041225
0,000351016159852044
0,00875491175327892
0,00770052231054072
0,00404286747399645
-0,000757029752013242
0,00382868238198054
-0,0062011267798528
0,00356104460567541
0,0196978508621882
0,0128884982387507
0,0163997233044078
0,0105147645159213
-0,00884531594317991
-0,0102478144472955
0,00557831812590219
0,0543435873700722
0,0565032540986115
0,0468112109705223
0,0347150413506978
0,0275138428058139
0,00430884619031333
0,000140019281473399
0,00798611854109493
-0,00250333276894409
-0,0173597178494164
-0,0172849746884089
-0,030974123527455
-0,0206489681162339
0,0035600479531345
0,00727808202461249
-0,00864955997147683
0,000828769309927833
-0,00116959941731401
-0,0079868280583446
0,00269821191568337
-0,00647147562516862
-0,000715347967750133
-0,00636369160987945
0,00244550466291461
-0,0229929949855717
-0,0207612580542799
-0,0127112041567641
0,0220573929533502
0,0439802207994259
0,0444910197240176
0,0458835473348866
0,0280869384305919
0,00425154629601012
-0,00389308503944259
-0,0162279721527839
0,000636734258545387
-0,0220118932536993
-0,0238615230752515
-0,0158561484998028
-0,0187137688889923
-0,0150543108173548
-0,00505336583084655
-0,00704779409537185
0,00957960340938687
0,00198470666049908
0,00160589506569235
-0,00998017500889422
-0,00138574504618948
0,00352125779364872
-0,0268426216261472
-0,0117805317819961
-0,0238809689285798
-0,0135719947981464
-0,00228974555885569
0,023719093824094
0,043953034678819
0,0580521377848645
0,0466625752468923
0,0314968742992281
0,0407391913357595
0,0195603202981378
-0,00446654237389061
-0,0247765860393265
-0,0311167144337454
-0,0241893524844817
-0,0374337501114623
-0,0368090237432596
-0,0140875127924855
-0,00631503806498607
0,00411054417146023
0,00188359588685273
0,00835316550273497
0,00194273306612984
0,00112643925392131
-0,00460947983588556
-0,00241697413010713
-0,0163810313996438
-0,0306957000255801
-0,0268126599451735
-0,0215434254392483
-0,00296280609018204
0,00784324127406109
0,0452014939828243
0,0567045439760011
0,0618062299660172
0,045617206158936
0,0415775454033476
0,0158496902000357
-0,00192008733815725
-0,0220282092236934
-0,0335423875604372
-0,0318396423963741
-0,0370237729717922
-0,0319691326624281
-0,0279957995101572
-0,0173654702791987
-0,0207742634974878
-0,0154143317574372
-0,00724697859837928
-0,00626355292785623
-0,000133595665195421
-0,00350942097157054
0,00497013174695078
-0,02081211280329
-0,0274389280995106
-0,0366354232041366
-0,0108125863421989
-0,0227281981946961
-0,00676090632298005
0,00321039349336703
0,0238526863285463
0,01416722306853
0,00860347140112669
0,00784968801803583
0,0211989409975886
0,000736857730355537
-0,0198991715126801
-0,0515416587314769
-0,0462568878360057
-0,0529877982213619
-0,0383032429904831
-0,0347344163346992
-0,038050765231836
-0,0117266651602776
-0,0153213573664997
-0,00137929553651871
-0,00367044284482714
0,00241501418168681
0,00478054658249247
0,00456132603517626
0,000920405044444208
-0,0199947694665045
-0,0254100236425041
-0,0363682640914006
-0,0198245041923929
-0,00497837668422822
-0,007580234424507
-0,00926465690165906
-0,017179620758909
-0,0301512374357264
-0,021228493923865
-0,0150575628040693
-0,00869396713870559
-0,0271357650511874
-0,0281600489154811
-0,0442705679235209
-0,0334906632035007
-0,0420258214226847
-0,0262219388280425
-0,0401969597749983
-0,0207038987900218
-0,00858471320906847
-0,0122403999892649
0,0042580875174215
0,000526819360852857
0,000877469725024844
0,00980837216591852
0,00713977944941915
0,00159444805040147
-0,018206254131443
-0,0383609566782349
-0,0441219704950861
-0,0211152205683215
0,00441320121883934
0,00360344219003957
-0,00989757134683833
-0,025918041807214
-0,0191008295961148
-0,0237315994746772
-0,0130419176616367
-0,0179354848607055
-0,0204180503431855
-0,022432844113025
-0,0286612619404996
-0,0209234985461515
-0,0283044909552936
-0,0282555101394411
-0,0258261609959608
-0,0179278763574892
-0,00271037955396682
-0,000224940451867959
-0,0109679490024751
0,00209028003043055
-3,96920183158339E-05
-0,00837323525895094
0,00688102483309278
0,00723081102624381
-0,0270763650074649
-0,0328574969916472
-0,0400186582305359
-0,0282234325395298
-0,0123262113872034
0,00741121984553902
-0,00701797885282489
0,0049836469603772
0,00260355229138055
-0,00191386179574256
0,00920054222766031
0,0042205212769095
-0,00218416524290998
-0,00506911971595237
0,0067976374894641
-0,0168590394914146
-0,00507397349593466
0,00399155803770757
-0,00758417600747438
-0,00427846398478283
-0,0107781833436481
-0,00563634699436784
-0,00183398156104184
-0,006312195955512
0,00571378568953183
0,00453432214084881
0,00796972533681228
0,00227701464392553
-0,00984361402534156
-0,0255680810776198
-0,0307803819361569
-0,0363927751651743
-0,0274315884706321
-0,0196502698775477
-0,0204234149004375
-0,00743106287341253
0,0110596802052611
0,025295955106108
0,0252606011603962
0,015815776291116
0,0113423203936742
0,0125486308820946
0,0229135064860372
0,0193688507576479
0,00864913825954405
0,00967090332725914
0,0111499000412856
-0,000210054673968667
0,00746551163802789
-0,00973381847639896
-0,010301601210637
0,00021380069831298
0,0044629617030228
-0,00197515390439665
0,00497874499996134
-0,000332255279346898
-0,0128984653977643
-0,0183539868703374
-0,0235297948656994
-0,0342889411086141
-0,0515507278008345
-0,0349849220164376
-0,0367135919711737
-0,00981321495984507
-0,00932097176802104
-0,00251968617304405
0,0187290452890111
0,0219442511892069
0,00925503256172282
0,0213991468575663
0,0165567201489395
0,020991893325486
0,0113418415090177
0,0277980434522518
0,00430282733099434
0,0105334488706069
0,00174586504960206
0,00307379495740219
0,00304682247240506
-0,00716980707604494
0,00857249357671127
-0,00202204815671875
0,00470829852610282
-0,00109051220395312
-0,00108593204760005
-0,00892228731650327
-0,0246933272237726
-0,0250823728549597
-0,0202296110050994
-0,0231045008811434
-0,0309489180497832
-0,0309818349516645
-0,0131220525178846
-0,0296048712163393
-0,024685209062327
-0,00814362228971777
-0,01112277217533
0,0123060664982342
0,0107011644305937
0,0167687206918497
0,0265854235532114
0,0261620517028121
0,00603527357492852
0,000431636240315538
0,0060138521258009
-0,0056791636192443
-0,00385241900451242
0,00452045111258359
-0,00558971887249021
0,00857001038201619
-0,00968740932628857
-0,000990215597265832
0,00462658861532325
0,00217154262199294
0,00442638602801309
-6,11302314296202E-05
0,0019125459111959
0,00238493107366001
-0,00407519608073029
0,00210596857012367
-0,0156135402790123
-0,00684750247886824
-0,0150813484573594
-0,000841249481482475
0,00266480404710626
-0,00157167532047507
0,0124465179695873
-0,000363992951860812
0,00965269295852636
0,0011180026009151
0,00450017848598591
0,00155467890948563
-0,00714922517156521
-0,00554559077458962
-0,00326576447368803
0,00900209616878328
-0,00809820811175658
-0,00137302687921237
0,00462247905071009
-0,00376983588271301
-0,00836479556245407
-0,00451179733753104
-0,00753945978542513
0,00790153366800173
0,0038993260075047
0,00688733180277488
0,00412612513355765
0,00264191720626329
0,00165272012734338
0,0111685637061187
0,000978444727660316
0,00650199787858398
0,00593446502835386
0,00729431402890249
0,000645417013521105
-0,00199198878209978
0,0101566578781212
0,00557213964727138
0,0056959625950516
0,000693766085359768
-0,00146443318937207
-0,00636043995283781
-0,00872848496634209
0,0080158082945346
-0,0031186083951586
-5,45619009316729E-05
-0,00331348662884603
0,000396480909733326
-0,00348742996970538
0,00712652087654308
0,000736911005824882
-0,00517905129598987
0,0099190362007871
-0,00726061938754461
0,00631607282194468
0,0065856820704635
-0,00110059627802061
-0,00495228273238927
0,0106870090313724
0,00865464442185179
0,00566820681012659
6,81756712636512E-05
0,00834990319260287
0,00962596799236417
-0,0072532674236702
-0,00847316211850772
0,00938722591546881
-0,00103329301428033
0,00686711800298409
-0,00897836483967414
-0,00942258792902463
-0,00243689436113317
0,00370666061234971
-0,00587804390856905
0,00775168091885358
0,00799623050633642
-0,00580406642323549
-0,0060121114160922
-0,000131565290564468
-0,00807590738780606
-0,00318709344285871
0,00883063598481502
-0,00980671782968879
-0,00214532269730481
-0,00667724688382691
0,00909738263510112
0,000537124132244244
-0,00146161477739682
0,00746730261397979
0,00134223774603672
0,00736377948772338
0,00410268067107661
0,00447074325497763
0,00725871953985594
0,00570401771725342
0,00916346471717743
-0,00412287154892593
-0,00796889127137554
0,00546434390147419
-0,00449580846098056
0,000669189472994389
0,00784173804234794
0,00355223249343794
-0,00450906513003123
0,00654551845814358
-0,00685092737849791
0,00104486105087476
0,00568146857339103
-0,0051521558433713
0,00812205719928533
0,0020640689386723
-0,00541067525822232
0,00471625236771094
0,00816264933896012
0,00110077762176255
0,00610410139781311
-0,000824341066750247
0,000187192935712761
0,00616839108166254
-0,00635897082230493
0,00101204289084282
0,000876284270421149
0,00142935222440836
-0,00447931840805178
-0,0063373503434859
-0,00352526860010124
0,0030923623838892
0,00644794107249376
-0,00158206162582248
0,00858821620167616
0,00211910205526236
-0,00783340901990225
-0,00147443555477002
-0,00562390656192665
0,00126601512818971
-0,000942126552387692
-0,00446760213371525
0,00535421628282785
0,00278623437758148
-0,00778357955624973
0,000723400498447206
0,00834133534633076
-0,0020162553898532
0,0145616756231551
0,0156740701543389
0,0100948464544695
0,0164514832562739
0,0131147334961591
0,00222589608941066
0,0138969889651893
0,00240582448872978
0,00693250719255641
-0,00357247861216222
0,00210269671891517
0,00466664673872153
0,0099289853870538
-0,00353583220091454
-0,00194977817682073
-0,00816692080263371
7,13212714305681E-05
0,000102350280980793
0,0046929039371459
-0,00277573266833242
-0,00347666253018423
-0,00308995334744728
0,00195870603067054
0,0106845784148803
0,00674534643278065
0,00372129228925204
-0,00136151670950131
0,00728580799118536
0,0116397851733418
0,018041885046304
0,0178232195721469
0,0203167684836487
0,0227848961302859
0,0122701558711212
0,0131895020788454
0,003489818698213
0,00482358177699282
-0,00135875446292022
0,00730612094895569
0,000174265713460232
-0,00131720078805745
-0,0014535122045565
0,00614853479720118
0,00604540459428293
0,00650117708180703
-0,000375589255456921
0,000938239015999877
-0,00834637813143369
0,00628182736772363
0,00186376862863378
-0,00875734498405531
0,0015608327028573
0,00315243108569115
-0,00551094458512356
0,00542640199713302
0,00306541050359778
0,00454239839281137
0,0112524229371243
0,00746638983573905
0,00710439436112951
-0,00163183291148513
0,00286329145989414
0,0110080511077408
0,010544630152113
0,00189090917133311
0,0075744234993952
0,00851416864495119
0,00266068377297025
0,00449382107032615
-0,00804595262546468
0,00116402362993174
-0,00677946024424371
0,00349722359548525
-0,00599665254073277
0,00652201001878677
0,00329120265154621
-0,00676612121195219
-0,00426168482235083
0,00124147984229143
-0,0155425228448428
-0,00414723075522725
-5,81485259276129E-05
0,00280093487844743
-0,00501447584931768
0,0197452298516001
0,0142601615355915
0,0180353052460241
0,028871972119099
0,0231705939255647
0,0250853891593055
0,0173534384024792
0,00987628131467253
0,0120309992699089
-0,00131625532038655
-0,00550816203500044
0,00832100903520803
0,00246911162956497
0,00878355962308426
-0,00432231156822402
0,00991888197417459
0,000987221750677388
0,00642597287715433
-0,00751946887617158
-0,00391236833571192
-0,0210993176413615
-0,00520312650491774
-0,00594773056893304
-0,0104638000184314
-0,00943276489382596
-0,000117108270931494
-0,0192773434158684
-0,0185149998250334
-0,0247612880348071
-0,0261994830872607
-0,0105246623626817
-0,00869252700805592
0,00849792824500859
0,0157980047315284
0,000779322749101214
0,00530247140601443
0,0118278841902516
0,00282421407417855
-0,00962628889685319
0,00183116672333558
-0,0060102810917046
0,00754620551998791
-0,00411956572035014
-0,0033442084987445
0,00892363730848243
0,00573609329569325
-0,0132458807031704
-0,010561765105462
-0,0148802074947689
-0,000315859392035819
-0,00382510229135002
0,00894758857204409
-0,00313758664364379
-0,0116565396528347
-0,0342494069504295
-0,0588321294895339
-0,0900912588206344
-0,0830831068514573
-0,0585238336253717
-0,0471980502428364
-0,0158657002457127
-0,0139476910106151
0,00923093957052998
0,00712495914915702
0,0100850008445803
-0,00850460254124369
-0,0113458560623163
0,000799363952950942
0,00633820200293421
-0,00920201493469673
-0,00472525103333544
-0,00931546878072193
0,00464747989703734
-0,00200457647034793
-0,00793679899996351
-0,0144407669457761
-0,00188193637972748
0,00459979720774707
0,0109852111528896
0,012939629130981
0,00227343700534559
-0,0202255693972371
-0,0511428002880344
-0,0648020967330154
-0,0860831100629647
-0,093297762977544
-0,076570864709689
-0,0444261119743108
-0,0250090100344132
-0,0233628059887111
-0,00161571692116571
-0,00492877698645678
0,00626465489037874
0,00176943298883001
-0,0183445067214493
-0,0158813130646091
-0,0107287806559846
0,00757710938349014
0,00450521026716293
0,00860179776646452
0,00429875610916193
-0,00773616153644215
-0,00185241116678977
-0,00520161945754138
0,0081228550089625
0,0121359224162052
0,0101462583741315
0,0226408041841227
-0,00213372536462846
-0,00847605142604914
-0,0278319255982906
-0,0378055898945802
-0,0819536617705305
-0,0793757729863627
-0,0438896814748661
-0,0354715232995921
-0,0189820272287315
-0,010448629009979
-0,0138026102752481
0,00472552580795612
-0,000949316244927417
-0,00598420685242994
-0,0148480065325971
2,82242747322745E-05
-0,00619798951958955
-0,00646239374842881
-0,00019695413245741
-0,00890851326052938
-0,000491253614125882
-0,00848068059255831
-0,0090697968999259
0,00521442118885204
0,01347748808793
0,0149625674807053
0,0189931396401679
0,00813982238551532
-0,00410863715449851
-0,00542413425919324
0,00415459926590133
-0,0148231864062438
-0,0482093528842055
-0,041560310579874
-0,0102446792608669
0,00808280630165434
-0,00344190376472197
-0,00273115597541267
0,00274058740169837
-0,00414097575228571
0,0126001053244694
0,00684193075130764
-0,00232442091549507
-0,00897853691644211
-0,00171011700530533
0,00971420190532291
0,00213571902577422
-0,00197779837718246
-0,0098287625694934
0,00178388957576127
-0,00783662997115456
0,00264564943391113
0,0135938561827438
-0,00299562818367117
0,00476059261147807
-0,00284223890735879
0,00674746789699586
0,013696473123018
0,0166048998393737
-5,73603349138407E-05
-0,0247637709983481
-0,0132208125738663
0,0128322966095204
0,0179252775491487
0,00559738397980353
0,0120428106300675
0,0173958751283019
0,00994924170612305
0,00587427555244474
-0,0106139894860866
-0,00797871861432311
-0,00229051419614939
-0,00517363911905763
-0,00196437497820785
-0,00807959016093754
0,00060993451658008
0,00223464218386332
0,00674472042871395
-0,0043116709135017
0,00440124721903299
0,00731210059879137
-0,00585817272603508
-0,00840386967499056
-0,0110355295108264
0,000568955321969408
0,0103978701418629
0,0226722243966694
0,0139317931829496
-0,010190954006721
0,00965524159032027
0,0214553959563343
0,00539174859267926
0,00820866459760351
0,0127507858448701
0,0159507862279462
0,0126956763465134
0,00140919386923202
-0,0191424482315409
-0,00105651507292306
0,00199609210286336
-0,00962683502353181
0,00981685066165001
0,00068161133619926
0,00503482938633349
-0,000695478744907207
0,00340996614720663
-0,0044320032852323
-0,0038860478342603
0,005138457570317
0,0041568409161861
-0,011027222151604
-0,0129977626925071
-0,0136140941982108
0,0103247996069516
0,0330269132274915
0,0184572527428388
0,0155176097966419
0,0270311899495921
0,0271335129304544
0,0141020488580019
-0,00461521116969853
0,0114817389117415
0,0171270829975709
0,00893644497717742
-0,0145228022539759
-0,0140115211315162
0,00298263595316359
0,00989700075785069
-0,00961938072183123
-0,00197202935703317
0,0024934881806917
0,0024478115616084
-0,00402394760559213
0,00394865428551854
0,0062535611452994
0,00696555172544796
0,00744887413488102
0,0055108044258057
-0,00245086194912489
-0,0250126241506314
-0,00841771734616232
0,0203182111245664
0,0501046690245555
0,0324706370887452
0,0332898182018825
0,0309930796537619
0,0358854332499023
-0,000160307415618832
-0,00191969866298336
-0,00286054207106411
0,0172025165604098
-0,00495747811165724
-0,00505158151676571
-0,0032890003330035
-0,0056175942189823
0,00750317082044202
0,00305978014039374
0,00871986657614989
0,0037797818520969
-0,00453548836686773
0,00728032671279116
-0,00298653796983219
0,00123688480442401
0,000241791769221529
0,00321852651540368
0,021370579938058
0,0114395241680333
0,0119466699104974
0,0221560730161996
0,0458201269076146
0,0563656376655233
0,0441017339860301
0,0570436168413223
0,0475077965904325
0,0374550458803042
-0,00492195622935339
-0,0159562525206624
-0,0207159244772015
-0,00244509455325913
-0,00276139185335941
-0,0025863103780292
-0,00260626002996189
-0,00522490134442347
0,0118975103674388
0,00186139697819119
-0,000843661452098299
-0,00439381488586115
0,00375121888356685
-0,00467186422497092
0,0080770486832177
-0,00488605611917434
0,00469472599748215
0,017602453287741
0,0263058879574273
0,0440617774946186
0,0541029921394929
0,0723096881032035
0,0756540280029505
0,0777968747840883
0,080346704203318
0,067923143883505
0,0623815756803163
0,0296985404491006
0,00216379520952303
-0,027006402537591
-0,0255598276700355
-0,0253860820781101
-0,00699241227215834
-0,0169710485786491
-0,00738532438988677
-0,0010078792997488
0,00579134772794146
-0,00763342894437087
-0,00853317611528777
0,00512743174802858
-0,00351835270155786
-0,011285243578623
-0,00332840269179656
0,00327106880482475
-0,00205773594539251
0,00442367071157809
0,0364663422896254
0,0696236124489581
0,111021223564576
0,121159511212576
0,138155926712056
0,123828306679919
0,0918772143099698
0,0514864790571914
0,0303095114560309
0,00622218842601076
-0,0282976508305479
-0,0211336073406743
-0,0438005129570639
-0,0236634714261815
-0,0205855973054163
-0,000804668668882046
-0,000947800438929282
0,00572701057517216
0,0138813543134996
-0,00554964906470434
-0,00353204874752973
0,00218169468171107
-0,00733115593251201
-0,000581951016979409
-0,00306933845416524
-0,0070812608501584
-0,00724142307096235
7,540285040997E-05
0,0174636975106073
0,0599163691072271
0,0946961987970705
0,121273540675755
0,128612195437346
0,11162199517961
0,0613060339692674
0,0295011960497818
0,00874034590675458
-0,0115115288089854
-0,0186884111730086
-0,0292108121725497
-0,0185837974348666
-0,0142643874294887
-0,0155204530714721
-0,00413032040054981
0,00205978715714375
0,0115209194291698
-0,00485327894450447
-0,00152641594634279
-0,00588071344669003
-0,00309773747576582
0,00359236325646096
-0,0119702841642051
-0,0197679590112757
-0,0151385981972624
-0,0262974680059657
-0,022948346243419
0,00601277369891581
0,0338774443021302
0,0675906639498809
0,086648711856803
0,0794106840092089
0,0584756659438097
0,0216984998193821
-0,0185492940070913
-0,0199565612878606
-0,00979818329965088
-0,015395009115172
-0,010913057542136
-0,0134465197863124
-0,0041595827167974
-0,0155380017753808
0,00870185932307596
0,0147427051548918
0,0109212669302352
-0,0016200212538945
-0,00195091257778161
0,00849650030945231
0,000808850392144568
-0,00235156045910408
-0,0109956213726547
-0,00553097767494791
-0,0199609806730812
-0,0235848992347408
-0,0185757329547637
-0,00549398659615481
0,0197003022940126
0,0127850414161261
0,0232379584354141
0,0246891906781098
0,0110175883419606
-0,0288639435078382
-0,0326563054687443
-0,0194737019192988
-0,0098676433379669
-0,00686675869046222
-0,0109235616500688
-0,0104105120253999
-0,00422647130082098
-0,00572479721688805
0,0068871322056273
0,0200406750338398
0,00246287812778529
0,00953285267529262
-0,00496571427190622
-0,00557297433924191
0,0090596413295869
-0,00240384101948772
-0,00449081529078114
-0,0107205383724688
-0,00945588719222296
-0,0284432858769442
-0,0200079660669017
-0,00827360526607233
-0,00683110206004168
-0,0173061941594217
-0,00797964246983385
-0,0129112643680442
-0,0327545070774043
-0,0296594290147323
-0,0344224204831749
-0,0231939345859402
-0,0239072860263596
-0,00158408116035792
-0,000433206723028967
0,00938897349721668
0,00555582415189238
0,0168718157550541
0,0166704947041259
0,01364673669795
0,0121707972390684
-0,00185147086026718
0,000154989624532367
0,000152427606481766
-0,00774322026679312
-0,00638847053350768
-0,000958555457683299
-0,00323136409623359
-0,0161179993252421
-0,019725507093896
-0,0229778593044753
-0,0157689631792009
-0,00856643541736556
-0,0324157633093859
-0,021266247202991
-0,0308977408679415
-0,0286348145930986
-0,020908562955064
-0,0309211920167327
-0,0143299738636812
-0,0234745625731886
-0,00854137856548965
0,0082499499997465
0,00967022847041372
0,0103210798212891
0,0152463692618328
0,0124528627288083
0,000770085490820305
-0,00187928731077884
0,00284575269384006
0,00634962978396417
-0,00678911355695744
0,00394842071176899
0,00322623006684064
0,000629271112444111
-0,00117399668314444
-0,00405903799384914
-0,0224077659803815
-0,0183048579773669
-0,0262177699893056
-0,0238091776653299
-0,036966692618257
-0,0346903915417429
-0,0292982516778368
-0,0271574380279367
-0,0056507951686694
-0,00500255880549617
-0,0137997652338956
0,00451130054494393
0,00482409415280321
0,0127693796407991
0,00786479335541653
0,010137472651496
0,0151509098328883
0,00753687519141851
-0,000902843900758416
0,00156098285219258
0,00848605861198136
-0,00908900503515784
-0,000422500265027629
-0,000181204048069754
-0,00615932226933507
-0,00323872556579592
0,00395187740878167
-0,000527092210865188
-0,0124329242445204
-0,00560125235397816
-0,02291453891364
-0,0196383439258164
-0,0288482885273469
-0,0198844951137908
-0,0258018818257205
-0,0217253167228638
-0,00504938529487104
-0,00848438687653656
0,00764921208659903
0,00981154318415943
-0,0106542971050957
-0,00218501172493683
0,00666295832723509
0,0138440657177042
0,00600684007309816
-0,00147750920985576
-0,00204104481426384
0,00301004381517172
-0,00235242633812501
0,00439497841398578
0,00765220677370774
-0,00969376103938267
-0,00609950077538355
-0,00920251067382502
0,00679757635670784
-0,00764983848736958
-0,00808909755630603
0,00507441804352092
-0,00841928194723948
-0,00463456289683237
-0,0140827294239874
-0,0351146050205615
-0,0407502592317192
-0,0428273444447671
-0,0306595568385588
-0,0242013212914107
-0,0169634131411531
-0,00886784368626464
-0,014616326633802
-0,0169657447712669
-0,00460409037868237
-0,000459865780322942
0,00650218013855938
-0,0019210708084016
-0,000492640168713195
0,00375532896872168
0,00106185622701764
0,00153052303237303
0,00688180433441037
0,00640254103411107
0,00880458309259479
-0,00833100475293165
-0,00420341370611372
0,00204303572870981
-0,00948758048152258
-0,00565653685574678
-0,00294868849962554
-0,00572665672577308
-0,0120200996076458
-0,00840958789520616
-0,0127963929256391
-0,0169681248171562
-7,21780194269466E-05
8,64748956305498E-05
-0,0148151363467282
-0,0178325031704854
-0,0130402012822181
-0,00661307386023822
-0,00482247479287631
-0,00739158680880212
0,0052586077076759
-0,00156157711829003
-0,00665421844700632
-0,00430871850105183
-0,00554554172165317
-0,00298822062694851
-0,00660898386342869
0,0052140614368087
0,000932413596162765
-0,0070958349653966
0,00181197922295517
0,00164404289369509
-0,00855996044482153
0,00149285723285905
0,00931160498647025
0,00429136620628061
0,00521686214427587
-0,00166468034445582
-0,00965914773257334
-0,00524667336982267
-0,00938913734842974
-0,00520088564854786
0,00761594195390549
-0,00674090468910468
0,00819397676062069
-0,000929853762263001
0,00274245938752215
0,00912909167129261
-0,00384814974888875
-0,000215161087763923
0,000117328394269201
-0,00764058394247693
-0,00684417290466101
0,00289320904430617
-0,00930311295171413
0,000140887540830713
0,00833966053944997
-0,00989132619457847
-0,00240227102879541
0,00351191851008307
-0,00873622904472809
0,00279642196036709
0,00556738940792502
0,00853215408443108
0,00449860615399601
0,0018273254725278
0,00910731074358677
-0,00377630205084549
0,00832999645314763
-0,0019448253543996
-0,00522200456781958
0,00529491193373451
-0,00190645659896846
-0,00664321782842428
-0,00694931764013568
0,000472974279184349
0,000685746944828773
0,00966896383076392
-0,00285200961532631
0,00506619281837074
0,00410996877314056
-0,00570833401554652
-0,000924204844480477
-0,00884565886056314
0,0027923322156036
-0,000547436834567896
-0,00151128037437391
-0,00144781359104071
0,000819574639021461
-0,00074698698546491
0,00608466120729633
0,00540343739742532
-0,00878299882042007
-0,00266844714088767
-0,00607649062244632
-0,00164410561638194
-0,000146523025386147
0,00951587383216003
-0,000670786792272806
-0,00331182839647044
0,000451277805830835
-0,0029998831948998
-0,00896950580618992
0,00836931769793079
-0,00463633544613455
0,00487730207227422
0,0042700918812751
0,00979904492376328
-0,000157473315558151
0,00022391276910152
0,00945514059600194
0,00867069670868604
0,00296068342074784
0,00253509271424641
0,00937516949864954
0,00698609391898741
-0,0062656568554858
0,0044826427814427
-0,0041036814248895
-0,00454541241134787
-0,00525046546224905
0,00298375713467088
0,00739180750066414
0,00203198831462082
0,00714829017782945
0,00645237962102885
0,0129117784251942
0,00172622638715233
0,0211772715408409
0,0187238606728206
0,00553801378575926
0,0135742437742072
0,0101605424347463
-0,00378704820958208
-0,00284751881732519
-0,00177154409872939
-0,00630306166610849
0,00110501749026823
0,0061589438636596
0,00797541133033829
0,00518669050894058
-0,00131798605684314
0,0086482769534593
-0,00925153841956828
3,01092831384188E-05
0,00792747335032917
-0,00801363204610273
-0,00299349389284898
-0,0032366287813721
-0,0054941017833771
-0,00984975047622769
0,000493897104867585
0,00402524240476543
0,00914965098546178
0,0217938182501077
0,0490879106843887
0,052976095203453
0,0641636836767037
0,060399508914079
0,0571578708374242
0,027251564891475
0,0245788379569656
-0,00094902958232626
0,00790023829459561
-0,000285824924174235
-0,00176590627421487
-0,00183650239921943
0,00252911008546553
-0,00225384956509828
0,00191777345656716
0,00329916762648443
0,00275182898050491
0,00790794805341439
-0,00394316490147344
-0,00414968812783195
-0,00287751306840059
-0,00948233746326355
-0,0125656901130117
-0,0178274420376173
-0,0288193941682852
-0,0358442089386878
-0,0300368432748311
-0,0099517175708143
0,0094387540340841
0,0292173854674148
0,0440085751948885
0,0641570889056612
0,044749479359201
0,0422814319756342
0,0154665465572245
0,016469046774405
0,00557478231956144
-0,00464679407644631
-0,00939482688511367
0,00746415241851907
-0,00810182364569131
-0,00150659082993241
-0,00621664061271025
0,000803522418421671
-0,0090696384846996
-0,00299756560673602
-0,00591110906994338
-0,0203729986720011
-0,0100221705771283
-0,0195638793614294
-0,0330948934422931
-0,0472391327129198
-0,0700725095546906
-0,0773251664432709
-0,0882808993544987
-0,0851702030926842
-0,0615981651165838
-0,0343612371390381
-0,00909633317144519
0,00129815765444713
0,00761752838661855
-0,00611205506685588
0,000413430956185372
-0,00171697252743212
-0,00523788944761191
-0,000960436438973451
-0,00944852802367323
0,00545562459830018
-0,00731080744290296
0,00580834304002742
-0,00861230597899889
-0,00316615269256903
0,00599488399996096
-0,00270404890790841
-0,00923741589340131
-0,0143971846469543
-0,0170656539306489
-0,0260491975103843
-0,0243666347678947
-0,0483889335752896
-0,0508624804392951
-0,0764915178634684
-0,0695181456976617
-0,063644190005764
-0,0507610570516839
-0,0527837362010256
-0,0464410786497583
-0,0433770234018341
-0,0475358837299667
-0,0260044901381888
-0,0137812929485692
-0,0279072246858894
-0,0107188096057393
-0,0068220924465437
-0,0101700519365293
-0,00835052185465617
-0,00888052265518968
0,00931715079012146
-0,0021840159566458
0,00154652572877575
-0,00321962735015606
0,00262357847615296
0,00472643460870608
0,00669926201071471
-0,000566354769634047
-0,0108649384459264
-0,000643224790283544
-0,00728835757166956
-0,024889793580701
-0,038974389429108
-0,0229450187596053
-0,025243980523618
-0,0188775337245604
-0,0325476916716959
-0,0469367395112281
-0,0503552494624719
-0,0544386122002813
-0,0491576792187852
-0,0477080002055738
-0,0338960195239709
-0,0231058928142141
-0,018472983304491
-0,0075754596890482
-0,0048294769003764
0,00610525985676175
-0,0087453835042576
0,00463616024750333
-0,00248569912908735
0,000414197043199012
-0,0012007651225971
-0,00476484230593935
0,00130189844218513
0,0116171915851905
0,000274489520686936
0,0138695936180966
0,00211218453290373
-0,00301419300258467
-0,00149737756236031
-0,0159640069003364
-0,00983682365738005
-0,0240900688314344
-0,0263181597165641
-0,0526213538837043
-0,0496195105056294
-0,0343983861854686
-0,0529432297151157
-0,0587097421251738
-0,0533139501873767
-0,0510026311988143
-0,0217121643843218
0,00165350188942386
0,00233074608899888
0,00358487088336545
0,00230717302645433
0,00396843777987648
0,0119270568759568
0,00385136932815364
0,0102787721548525
-0,00145939897690649
0,00387806703348966
0,00429571581314799
0,00820745668457785
0,00736220041362871
4,86896757311773E-07
0,0189850900363831
0,00563887907626878
0,0101503341055
-0,00398407025246545
-0,0170652502899427
-0,0337456302547927
-0,043320149779677
-0,0346113988278055
-0,0438888221989602
-0,0454873185258858
-0,0612114171343592
-0,0673016044653691
-0,0541305375475937
-0,0346661351072925
-0,0096817750195596
-0,0016308940865919
0,00535062232530717
-0,00503216634646016
-0,00491142087268496
0,00916001780647587
0,0048666637176887
0,0106736024902111
0,0108325887551961
-0,00370262137385491
0,00537922320980112
-0,0115401236346541
0,0115113551224198
0,0119913673862089
0,0173655705522182
0,025856063042723
-0,00649916985715116
0,00148961335087173
0,00130481314303458
-0,00929209094617396
-0,0139030054446178
-0,0131320758079503
-0,0167058963146441
-0,0181322527311379
-0,0480796130607042
-0,0422116968847522
-0,0376431904806408
-0,0163833880108892
-0,0041650909114808
-0,00855074246276531
-0,00419413071411495
-0,000999839052214276
0,00620062332044902
0,00130820142415179
0,00339265843098706
0,0135924696815859
0,014570471072622
0,0037146421162862
0,00549993997043156
0,00679244314441555
0,00512221498807923
0,00497790371925365
0,0257863553933212
0,0126287320491381
-0,00998184700164478
0,00717810937574818
0,0424439757682581
0,0349853485383253
0,0213697383609866
0,00507350782178762
0,00568517242096893
0,00265508902468566
-0,0105036005819523
-0,0190468853914078
-0,0204285141547021
-0,0200140976840125
0,00423448590543477
0,00673025093028098
-0,0066496526459625
-0,00213285468019777
-0,00547165649884164
0,00663919931534052
0,0193055899055042
0,0146559593740049
0,0229310039650776
0,0128230670918485
0,00986487576437936
0,00658542841279185
0,00130426672754716
0,0194544864799516
0,00503148864317797
-0,00244373781535456
-0,0297534570353457
0,0351858060822122
0,0765924998746113
0,0500702348201595
0,0364137715442157
0,0348083730072712
0,0202001922401117
0,0219177947295722
-0,000287339151973965
-0,0109100502421842
-0,0140975754396368
-0,00656437211515853
0,0012149483828764
0,00393060558575418
0,00323730068886769
0,00592087170342218
0,00337175073283968
-0,00455330371557847
0,0153858267847534
0,0245302793191835
0,0170839337907482
0,0197129058244192
0,0227632594744579
0,000326915630993839
0,00821297571071801
0,0119253419905182
0,0120923479603792
-0,0275258706988523
-0,0205473206872083
0,0413346439918863
0,0861808468928126
0,0611983654347618
0,0339865623675577
0,0508141313056376
0,0428312956678745
0,0271420954131332
0,0171626140751809
0,00998718645163056
0,00490591382229657
-0,00942899057849363
-0,000594020701168345
-0,000961589128322344
-0,0066171259388372
0,0095648316384857
-0,000458087003978985
0,00460155986575727
0,0172109820256943
0,00856588528853374
0,0302798603857996
0,0351898074666096
0,0352763635445653
0,0167551833730491
0,0103334956673129
0,0176387602930753
0,00908424289199877
-0,0209726282627853
-0,0112350253439112
0,0525853086648703
0,083334453302765
0,0538224211733236
0,0454204651992069
0,0554643028901328
0,0618146100206708
0,0377855516081297
0,0279280301555884
0,0162109492608202
-6,85344666490588E-05
-0,00621448473203109
-0,0064369529342556
0,00139590956539939
-0,000199932692930382
-0,00809876382794341
0,00132649214267384
0,00635834678295711
0,000784508650087667
0,00937646416069655
0,0153897108970163
0,0351806754942452
0,0310779657099731
0,0212017733274459
0,0134930816196601
0,0233258109221529
-0,0035326356466801
-0,0370814787019898
-0,00641474768728366
0,0601425025649955
0,0795174077341325
0,0574181711960501
0,0613248446870029
0,0568198668068262
0,0629434519148359
0,0479493723982371
0,0320504301394237
0,00490551352290042
0,0112267139380355
0,00174574497851937
0,00430384226071318
0,00930576763452613
0,00344629487415916
0,00769844583046294
-0,0011487776682867
0,00727650152909361
0,00602600683012479
-0,013986281574894
0,00160388819030822
0,0321108300395829
0,0369081419235127
0,0227912219626718
0,0281435124957807
0,0296905893706709
-0,00538349781122051
-0,024224230798594
0,0275481009923108
0,0600255994766273
0,0565066924503588
0,0467918046413598
0,031060547565865
0,0266203022271555
0,025979774027568
0,030139572426455
0,0030505948833476
0,00804318495983116
-0,0112053661993906
0,00160721852472609
-0,000245031730553754
0,00445034573381728
-0,00211411943291972
-0,00273028790529125
0,00874650119268277
0,00537853507168203
-0,00311373639695157
-0,0320816247339256
-0,00782201065127562
0,00885275006495414
0,0151719567431709
0,0187439421781103
0,0241816112882075
0,0210215135743233
-0,00107735403886505
0,000358926075867877
0,036292151192367
0,0441164292478701
0,0244986155120946
-0,00208397089088755
0,00893358808173433
0,00178081525632381
0,0124216643466879
0,00284359012272258
-0,00156888729381034
-0,0225705957995256
-0,020192247175241
-0,0029231552724992
0,00575142300510623
0,00677105788398159
0,00506615686983697
-0,00101204160847626
0,0065291438052726
-0,00745042535258287
-0,0183070253486288
-0,0423736121346575
-0,0515123346807062
-0,0354159244130026
-0,0183216327926909
-0,00235954679736631
-0,0057019888243607
0,0155476747174742
0,00305261710834635
-0,00201792339222506
0,0246402376294173
0,0193348828100997
-0,0103779501807766
-0,00634078168962871
-0,00581175857880305
0,000904806162764801
-0,0144934712989564
-0,0264034076838358
-0,0306026139884634
-0,0359247613719968
-0,0270451063781118
-0,0138826179278271
0,00758912541709704
0,00634064758115646
-0,00198100893459446
0,00791493438507966
0,00603229026931579
-0,00931060370120319
-0,0263767473210965
-0,0537970073318778
-0,057725082776736
-0,0660467506214798
-0,0665428200633875
-0,0574345570182324
-0,0274800306399587
-0,00190794723881601
0,0142026194583531
0,000915903227513808
0,0100322901448356
0,0112536655027101
-0,00752206664356355
0,0108659219319112
0,00498843515502217
-0,00454320859463717
-0,0160670541248193
-0,0233400903409301
-0,0331425103822336
-0,0358428094777068
-0,00687696199910519
-0,0145558613577702
0,0024520896502816
0,00256074943271696
0,00909229088532379
0,00573229100652346
-0,00559638287197849
-0,00883078595047642
-0,0219379153101025
-0,040641282484546
-0,0803198625249454
-0,089799321733875
-0,0858889273889974
-0,0701466518937076
-0,0293543470939469
0,00678496900547655
0,0265936259642736
0,0317597440335379
0,0397547799918909
0,0240448355683472
0,0365360719908479
0,0172160197539468
0,00763607497129931
-0,0262911689532731
-0,0335294075072215
-0,0370049162315748
-0,0454547702286507
-0,0300346102327816
-0,0124228964624522
-0,0067385128420048
-0,00792519082804219
-0,00132815732790298
-0,0071274050621476
0,00229898805064006
-0,00513550969385191
-0,0133961927400897
-0,0157770622980797
-0,0358432447256115
-0,0544055784395573
-0,0790269730375334
-0,0804174559604161
-0,0698374843273495
-0,0414629366899702
-0,0114284725631907
0,0173641521385807
0,0446955405972246
0,0410182626796748
0,0197594445780705
0,00753544495377319
-0,00906844158988016
-0,0269510372466346
-0,0360957017895964
-0,0443408545016092
-0,0355616349947728
-0,030937339726351
-0,0152369247337221
-0,0108163297961542
0,00112492204455624
-0,00959793384017971
-0,00522434697368613
0,0050725844409405
-0,00806825110507665
0,0081647858661562
-0,0119622630131719
-0,00799454893013199
-0,0163612500811308
-0,0387199296012662
-0,0564129256656218
-0,0586296268399654
-0,0632801635470305
-0,0737899732292293
-0,0642339135652399
-0,063172052342692
-0,0596528627352659
-0,0496597507023962
-0,0503791079183362
-0,0442103973641269
-0,0473750691308353
-0,0394634398894265
-0,0367533397940937
-0,0239282988814199
-0,0183303789638776
-0,00733210490995802
-0,0152311169498169
0,00694110485622598
-0,000173572701833537
-0,00868048300550852
-7,22220190735044E-05
-0,00535494797646764
0,00568782119810946
0,00699319643567373
0,00343042288793696
-0,0062207370680424
-0,00107102142198847
0,0024801105158153
0,00042997562909674
-0,00673947163677112
-0,0231751353883239
-0,0414512120083012
-0,082480019941863
-0,102271667612537
-0,0976357693366535
-0,0834292147320597
-0,0780164238663257
-0,0767070759492668
-0,0460513591068194
-0,0312631903047588
-0,019452980664552
-0,0111324214595928
-0,0102569576072911
0,00251990504287303
-3,92895715044504E-05
0,00361277372705418
-0,00221556796124531
-0,00187707209931102
0,00931510174615081
-0,00689677653689719
0,00613282877771781
-0,00839881535465357
0,00794814055974731
0,00323796397990017
0,016904016104931
0,0082605417654012
0,0314273791508373
0,0351627125312522
0,0246960035835463
0,0214995029464714
0,00314010332361621
-0,0190748648343301
-0,0210918695742095
-0,0269458888961686
-0,0165758706773678
-0,00991421390432208
-0,00615753612820158
-0,00994094461658972
-0,00357029814670886
-0,00452688040324069
-0,00115759264987432
-0,00772105537573446
0,000290710771014079
-0,00737128325221113
0,00410481557143202
-0,00937786258901736
0,00914639447775967
0,00901348956814664
-0,00447961081493628
-0,00978997680193525
0,00801510397538621
-0,00418129019457856
0,0158767680376991
0,0215045657460035
0,0408669813774072
0,0454050772598249
0,0527905940013433
0,0507018118890823
0,0441781972418213
0,0407768357905966
0,0244724041146176
0,0354563895680574
0,022932488914573
0,0213086674057675
0,0145712846935185
0,00283389566779471
-0,000990626190712923
0,0148579511391712
0,0121989331302654
0,00838024308429951
-0,00370347180306214
-0,00460942399112002
-0,00621710976114842
0,00893545574889926
0,00767478254515435
0,00465045706119875
0,00193638917614538
0,00485327664523072
0,00699376986226413
0,00939820906171916
-0,00478071125195613
0,0121650817392653
0,00936616249701873
0,0120693990611519
0,0204906171919909
0,0164298090505145
0,0149749521810738
0,024073816889061
0,0182605516947225
0,0157202208596214
0,0209374847482398
0,0100876713943332
0,00713034320705736
0,00708236854589676
0,011485234939386
-0,00249243405284152
-0,000298383450063314
0,00348412760466534
-0,000846746953400001
0,000445673269730294
0,00869150139255107
-0,00965933227895728
-0,00947651102183224
-0,00137363244377711
0,0042351572747506
0,00231056660986998
-0,00994516354982982
0,00860620455248387
0,00580632306435528
-0,00506311472636294
-0,00835658550516634
-0,00581587001247612
-0,0081374973366708
0,00457125600554751
0,000726122581586448
-0,00130297135868417
0,00439515867020512
-0,00177902451717345
-0,00416041749521819
-0,00231132561257332
0,00981454062807328
-0,000734052212330983
0,00207369643509359
0,00379439616738706
-0,00947471551370992
0,00567242245754626
0,00503563859796316
0,000832013213463134
-0,00968737128176138
0,0020672805849776
-0,00373655823699038
0,00913742342923648
-0,00420192114738837
-0,0035006705268755
0,0094068121907333
-0,00861718564229886
0,00431317255567441
0,00943442877355703
0,00377281848982573
-0,00836492558865106
-0,00120092313326938
-0,00296325454160723
0,00813431600953188
-0,0073846123136349
-0,0062675408797744
0,0028780562108959
-0,000352156677019589
0,00727252210363397
-0,00662091224296992
0,00193054229576632
0,00384735933218494
-0,00670036535556445
-0,00046437379460054
-0,00653982555332585
0,00217457023084842
0,000514028300770573
-0,00113750446175109
-0,0029810122181573
-0,00170040681571719
0,00900766819669291
0,0073746817639911
-0,000777176763292951
0,00827151684010006
-0,00635971466033396
0,00845217046153298
-0,00786636637862612
0,00791740924543594
0,00466062059691614
0,00413743277329349
-0,00164557050590518
0,00258388363508506
0,00246515597225954
0,00145811865583364
-0,00825725335350208
0,00690291932689632
0,00136901289748753
0,000140739267752483
-0,00106239939001595
-0,000164611597962008
-0,00251060231131844
-0,00440508752241231
0,00767285777715479
-0,00254287913202059
-0,0016179135775277
0,00821992125279267
-0,00703619288142593
-0,00039820277616298
-0,00766209559406251
0,00432475924227608
-0,00110659534624504
0,00252103094448809
-0,00270099020598483
0,0011383760470766
0,00479859407715393
-0,00562994070770093
0,00977837726637412
-0,000846136642645694
0,00519792889919459
-0,00481425762213134
-0,00696845739776646
0,00675353581828347
0,00712074458253165
-0,00454980909737532
0,00740303406447561
0,0114443740690104
-0,00689198289626742
0,00311905005332543
-0,00139549020228714
-0,00294858100332221
-0,00888340190665515
-0,00945143598233308
0,0100255988572511
0,00724421925027994
-0,00915288146545779
0,00342786592125328
0,0097113190217462
-0,00823010221972601
-0,000109189217353813
-0,00457321604842386
0,00549680914814865
0,00255158208479107
0,00568303272213997
-0,00936575164122393
-0,00410900505902697
0,00703673888038546
-0,00271666312288844
-0,00566295179047904
0,0107811891870306
0,0126765824362069
0,0134534825462929
-0,000853160514557025
0,0119060735298505
0,000380580287485865
0,00274721944521112
0,00545666839690051
0,00201127572476244
0,00500178646550096
0,00238357213379039
-0,00119323222698474
0,00662541655766811
0,000965175263088681
-0,00831045302797038
0,00567367643847767
0,00338269330253019
-0,00158618108340111
0,00252438312035938
5,93194956105309E-05
0,000247416029685359
-0,00872576301245
-0,00534573228200826
0,00819799610391585
0,00974751784759438
0,00109587105929203
0,00234039224285144
0,00443758761804449
0,016801107603435
0,014553480560399
0,0196710116244772
0,0213645688594481
0,0150100750504574
-0,00155018618756431
0,010112391178156
0,00118468232840511
-0,00277647184291848
0,00567617352150252
-0,00767920626435501
0,00370498459407348
-0,00142562675794006
-0,00162894356663813
-0,00710540562892069
-0,00476819774989278
-0,000548973153600923
-0,0090171834542496
-0,00127507741830082
-0,00552720410555908
0,000559807392533424
0,00917100923967499
-0,00432985721124325
0,00547328161844032
-0,00801573825608453
0,00354412337312948
0,000894382976447392
0,00847322986663183
0,0107922694653966
0,0230636749863655
0,0115027254419157
0,0148850915847971
0,019892532005757
0,0159152097608937
0,00145324577572833
-0,00147606567564782
-0,00336658114476782
-0,00667236682922641
-0,00326239196759348
0,00135677472722286
0,00409453117702517
0,00133022138016865
-0,00359707322115982
0,00491010404745394
-0,00652399884374998
0,00723073603768758
-0,00898685276262065
-0,00821740816832367
0,00773698591938503
0,00778680182066214
-0,00407173413537549
0,0045318284966392
-0,0137723670669597
-0,010772897909246
0,00612031111550168
0,0160035066138318
0,0174742521558481
0,0263399085818806
0,0537690983935908
0,0590311586267631
0,0398335033065153
0,0131363730423399
0,0122939244207052
-0,00815153237555993
-0,00791708216569556
-0,00420902539655272
-0,000543007009191737
-0,00529706334097764
0,00483388042800682
-0,00178077819147394
-0,000836040894242283
0,00658566591487163
-0,00360857244922866
0,00236226833582416
-0,000966361861322118
0,0096059396445276
0,00298176803078145
0,000483944157267144
0,00146873408215544
-0,0067702377696161
0,000800985174158558
-0,00310934294282496
0,0126901831027342
0,026122996428587
0,044090527889584
0,0583266680032811
0,0722957950266501
0,0787950119157132
0,0537246168778366
0,0412167992783261
0,0104632182567253
0,0011639811356051
-0,00371571051797083
-0,00542680205859314
-0,010939352453068
0,0030854060124463
0,00562741593280675
0,00846825828064823
-0,00934049441888836
-0,00495737183211608
0,00796921982645093
0,00108897851128275
-0,00318624559222396
0,00172277523256707
0,00044191116548783
0,00152876495972878
0,00149679603515153
-0,00211807068441984
0,00651177304588364
0,0141067822953118
0,0142163997937123
0,0420368388160458
0,0513557458279638
0,0652648312732446
0,0650780184468047
0,0564552822198051
0,0453664377440806
0,0229343320375344
0,0159219126969124
-0,00690295070804586
-0,0078130562418985
-0,0111909901265181
-0,00564018943441072
-0,00745643707029062
0,0130511005837048
0,00641087579264472
0,0105007769644429
0,0010530434802899
-0,00458141033578998
0,00370121642085993
-0,00340883546530326
0,00820657939833775
0,00265741086775827
-0,000940347902190386
-0,000373436976799267
-0,00465720451838793
-0,00251828192824024
0,00622101433020132
0,0146099493637596
0,0422951062193439
0,0435184692233541
0,0498390099180392
0,0474403643126859
0,027335087372618
0,0209531882410474
0,00933672244240554
-0,00866624549152035
-0,0144887140838588
-0,0103092891906086
-0,0104165598263094
-0,000961732068881793
0,000777307396638457
0,0106018483780256
0,00295455996029914
0,00314345230569108
0,000623484602332834
-0,00802046152558348
-0,0051515532772499
0,00272284935455861
0,00777495064188258
0,00273328712454894
-0,00869148738139266
-0,00588302906068853
-0,00618432690311559
0,00679619613910154
0,00622257501502338
0,00701411989114991
0,0271882853077266
0,0105049796881997
0,0110948770665722
0,0257014625366966
0,020392829121751
-0,00609886166169447
0,000557510445535508
-0,00851226509893448
-0,00714938777931026
-0,00717293420372972
-0,00781183659082811
0,00237237216142453
-0,00270710621716216
-0,00256169772723861
0,00438850338410839
-0,00895043469455271
0,00894371324654207
-0,00819488957885707
0,00707921331130979
-0,00951169063113096
-0,00850149193903389
0,00599329322068739
0,00752996304627209
-0,00930284744699244
0,00665421321298121
0,00132615292622798
-0,00604061174275887
-0,00345537662070552
0,00619271382869113
0,0127508105726325
0,0158955478497776
0,00979809259625173
0,0143897531034178
-0,00612699442996611
-0,0147458974952514
-0,0168610774349593
-0,00764525956833629
-0,00377701292951981
0,00171595254155475
-0,00345863986542348
0,00696876133194928
0,0061734632133273
0,00884557893970726
0,00999405023588353
0,00519068015297498
0,000595403251011638
-0,00447901498318887
0,00112359745001407
0,00869683830539342
0,00963402747812607
-0,00803481705148289
0,00465689451832719
-0,00391374567157951
-0,0152692489325298
-0,023081448353435
-0,0182371169135531
-0,00794605402911782
-0,00179731066505003
0,00223694459130012
0,00791225225186392
0,0156998834166339
0,00214342303778895
-0,0155293748916573
0,00486670716395737
0,00561125673218526
0,00709480802715089
0,00303986955401135
0,005975009085907
0,00650203498336234
-0,00149276419158049
0,00264710883268013
0,000486226977752393
-0,00190810946393816
-0,000910817422710533
-0,007284042448267
-0,00463480869931744
0,00719549374614612
0,00648703484550544
-0,0091044040816409
-0,0161660037213095
-0,0245892942197826
-0,0229989296266055
-0,0292280403768533
-0,015995771892473
-0,00398600185822383
0,0118008247297753
0,0171843898791388
0,017556827082448
0,0101743779666415
-0,00259572856160839
0,00620158682239744
-0,00520738664911224
-0,00501613514452175
-0,00731832368389376
-0,00419695764839115
-0,0105965259007714
0,0010192800441642
0,00846569555487354
-0,00577043655097885
0,00836965954766101
0,00561133320124815
-0,00300283958698653
0,0026415649508519
-0,000525403160547757
-0,00314076487358629
0,000373440416553521
-0,00875568209476532
-0,0275181291719704
-0,0401817173639875
-0,0330268322472938
-0,0398014111851803
-0,0291507015189124
-0,0084550939119254
-0,000854258697200131
0,0105566074702702
-0,00125292146954656
-0,00112110675243672
-0,00515825164478876
-0,0112721088450301
-0,0217767464303022
-0,0241969703459749
-0,022543975372267
-0,0099918128997027
-0,00439615832829053
-0,00564983206779565
-0,00640151943636334
-0,00765255079161946
0,00957929462794586
0,00660463487813212
0,00770023893411956
0,000722827664338499
0,00750956933935804
0,0025440175084639
-0,00655172561091727
-0,0135429927219179
-0,0398885784685012
-0,0492708701636415
-0,034893087166532
-0,0400644076833465
-0,0187266100398472
-0,0267717061837462
-0,0166248068998436
-0,0153445632869343
-0,0115069988699958
-0,00355717925992166
-0,0101791459794876
-0,0137738879120485
-0,0169771260192802
-0,0229768296678095
-0,0175728737044525
-0,0221788236127463
-0,0117485190326693
-0,0020657445308714
-0,007476573608646
0,00622665999430268
0,00167540076367935
0,00416321678803254
0,00812078429448024
0,00972283400843502
-0,0081026345981065
0,000183102438920592
-0,001645272300674
-0,0147997575226291
-0,0299987773530915
-0,0384469378041501
-0,0347087112718038
-0,0206631309357586
-0,0179219998722784
-0,019206580851606
-0,00367368462133134
-0,00492917148159481
-0,0224744215518459
-0,0270643081843808
-0,0178720553663529
-0,00963037383676074
-0,0147330263133242
-0,00740978223520849
-0,0165477404830061
0,000147331893310305
0,00317501687739781
0,00123230106821748
-0,00261077683049027
-0,000977904072250744
-0,00518649374584564
0,00645923292329195
-0,00650325201288948
-0,00532225085226185
-0,000691537840591802
0,00113590490341656
0,00739443369367069
-0,0126316187719017
-0,0219566080524424
-0,00989479102552816
-0,0198828471697786
-0,00716242797920625
0,00485971127537371
0,0145281022063886
0,010136590530072
-0,0129644972103671
-0,0129882050615724
-0,00359065082514374
-0,0143344362116665
-0,00239629442377974
0,000604728512479333
0,00337264865371229
0,00796148207288561
-0,00210202775506229
-0,00395575312414093
-0,00125281620386239
-0,00644886679877476
0,00388520134386385
-0,000293843470245415
-0,00931558191970729
-0,00780882723100021
-0,00127821020034115
-0,00698086240418303
-0,00646658191217568
-0,00561822188103566
-0,00113954131425624
-0,0102426776713081
-0,00834317947497106
-0,00320630923466052
0,0165359218018303
0,00887255267461337
0,0177148171823026
0,0150772976590451
-0,00191990713191968
0,00434170990315925
-0,0104182147346177
-0,00228163434995723
0,0122077851584871
0,000812788230633586
0,00305498512122775
0,00804343473821547
0,0155382239933593
0,00336878390762228
0,00840110919269961
0,0068098437997744
0,00206845213199483
0,00984954360359563
0,00690303362520162
-0,00998202096511177
-0,00806976039474979
-0,00105486770619571
-0,00322930060806557
0,00738306999214559
-0,00451279391151767
0,0124421469730155
0,0148456241836469
0,00850710132429426
0,0171885751986092
0,0265810071938529
0,0175391223865225
0,0239068762487855
0,00242653291729134
0,0108664303392455
0,00660469715340173
0,0109147314177281
0,00511956329559923
0,0226049117408152
0,0138106406984185
0,0106838791704066
0,00150181056142143
-0,00198149329470025
0,00132603230932655
0,00448060500925866
-0,00270972020558942
0,00123176978275873
-0,00702622979372369
-0,00992379427883951
-0,0019900012992037
-0,00135540384785037
0,00385399347803706
0,00260643775655731
-0,000113339891361725
0,00304373240964829
0,00667899939747553
0,0162116849716814
0,0286498034770286
0,0292835038645835
0,0248334316375866
0,0175274025242789
0,0258743838217606
0,0202310801398301
0,0200604466347864
0,00295691310520716
0,0161592826771418
0,00622189086707115
0,00627609783025014
0,00349221211573527
-0,00367735801030893
-0,000842334610240131
0,00498660718611984
0,00365534565476579
-0,00137029831697485
-0,00382054281094283
0,00573611335827971
0,00950341384326299
-0,00846615194071305
0,00413306330734015
0,000335819535074615
0,00308207012819723
0,0071488387838484
0,0136413397515666
0,0201700298141424
0,0277341240845291
0,0125569565463773
0,029238913339732
0,0258534771823735
0,0305500378998585
0,0210813907312138
0,0085905102028983
0,0178316387325923
0,00904481429719012
0,00658148041679737
0,000539654300954747
0,00636246138132333
0,0033244616594179
-0,000809155212290891
-0,000815277775212258
0,0100507744836422
-0,00718762742770275
-0,00469703151758282
0,00758184679530129
0,00980519806377547
-0,00649506425174099
0,00673535637315752
-0,00852597225732312
-0,0065509795500385
-0,00948013092993158
0,000147477274744396
-0,00257299998572279
0,00457109798673419
0,0052412318666869
0,0118813322209642
0,0289026708937817
0,0238642261035758
0,0132299614927595
0,0268330937920345
0,0218672746724387
-0,00114305010447437
0,0145798277163649
0,00543328747396892
-0,00148808175468644
0,00462588684033581
0,00972894081285127
0,000325578287226939
-0,00603500145661879
-0,00532745884547869
-0,0054389914486244
0,0051768982300321
-0,00293203018666551
0,00406830658004909
0,00512533500563602
0,00587063979165193
-0,00184928941365317
-0,00280894386177255
0,00672703496313576
0,00641942251139297
0,00476858796951912
-0,00298041204657297
0,0174409745288256
0,014226691851234
0,0179736516151448
0,0177646143736735
0,0157248790338282
0,021442143817772
0,0146246286688661
-0,000459558247150156
0,00185052509413352
0,000344210788180419
-0,00465683145372618
-0,0023857900383586
-0,00391684949438948
-0,00510792703339223
0,00888180505757162
-0,000358986640079058
0,00789644979088262
-0,00665120238328304
-0,00929385908270386
0,00401874092129
0,00365672466981072
0,00749558659153785
0,00912587921350513
-0,00494994742313164
-0,00843913171761541
-0,00107075540616856
0,00117876446838518
-0,00181589872445752
0,0117570679868822
0,0115660977627589
0,0204245614111198
0,0137020264613078
0,0129694031476994
0,0210583385613247
0,00309679461842965
0,00415184277539218
-0,00399239429774433
0,0114370878784314
-0,00131260328500957
-0,00491924012553866
0,00670718666059857
0,00857029166262875
0,0048046705139076
0,00401647774016667
-0,00207953658855276
0,00730418874838631
-0,00370390408492983
-0,000509788855216367
0,00689645283710978
0,00862655818398416
-0,000623732013113087
0,00345005647368756
0,00547930302302563
0,00948682823641788
-4,083644352866E-05
-0,00615485615895426
0,00765240868575413
0,00544712535374695
0,0105015697151966
0,0244537415681151
0,0121594347849445
0,0143357131895807
0,0129504551184306
0,0202209643453044
0,0163416108954546
0,0218378786699872
0,00377122044095315
0,00928885206570203
-0,00235997020924456
0,00320713614458083
-0,000323196944135086
-0,0089217127974194
0,0073749016035172
0,00715713335090732
0,00820064664458505
0,00554444608071095
-0,00707474108649173
-0,00469734958126086
0,00725468494801535
-0,00562708232316096
-0,00724223104481979
-0,008779675264938
-0,000863733193487826
0,00823839942904343
-0,00557881784906629
-0,00327262037553568
0,00693670444756288
0,00276533183123642
0,00326859406734319
-0,00201956810023372
0,0124176711781716
0,00985779222064573
0,00446059978907169
0,00185361982857647
0,0122734961336303
0,000255151466913422
0,000488428323815398
0,00726879608564565
-0,00983718073632266
-0,00186571207143573
0,00318490248648195
0,00357719394892272
-0,00414347693051373
-0,00427098862560046
-0,000380510431891546
-0,00147073054289014
0,00615011869750457
0,00833051962700231
-0,00898282610690795
0,0034109723586049
0,00838696499752078
-0,00285014931879529
-0,000274145407443455
-0,00569390195338599
0,00671079980185417
-0,00569666539248707
0,0100306345391563
0,00264082160780593
0,00644155827875418
0,00115940553305948
-0,00191229738667176
0,00802485545959023
-0,00317404793071923
-0,00693685688892296
0,00580609280675283
0,00537416811991169
0,00238231728599394
0,000356125643808031
0,00856356922470199
0,000548152583906497
-0,00333407079490557
-0,00371405827520139
-0,0047046722167659
-0,000863134083740009
0,00119064643568855
-0,000858411291082582
0,005188047511125
-0,00713364458509425
-0,00251331227482916
0,00359423783309489
-0,0029613968045271
0,00375469837046913
-0,00457066063516338
0,00271901591341897
-0,00763087460378548
-0,00163327225075337
-0,00594406882659779
-0,00565739505279225
0,000525920405297505
0,00464148354467074
-0,00192845232408887
0,00675093245541255
-0,00916818601040551
-0,000625941031903932
-0,0095034285353047
0,00550840160600301
-0,00302284172411209
-0,00705209215965685
2,01815273706725E-06
0,00427684118704723
0,00616711852893565
-0,00420253109848245
0,00976695040230032
0,000466708694801997
-0,00326845447239391
0,0020632282118979
-0,00824681882451914
-0,00957123748393997
0,00283796384120909
-0,00289202197352996
-0,00151397181065084
0,00652867204062392
-0,00544684827592481
-0,00798635462065243
-0,00647355369251853
0,00399402385655486
0,00194832760400546
0,00355649244086749
-0,00971035970614058
-0,00293531284417907
0,00095479855279375
-0,00213583155541951
0,00979360683943896
-0,00608367484628967
-0,00752339509200463
-8,50032503181154E-05
-0,00454587226479588
0,00592126881513804
-0,00135970554843531
0,00568224482968554
-0,00783813637878884
0,00223793986730326
0,00285010856706894
0,00319561810801943
0,0073305203342072
-0,00908512519328033
0,00285734459925271
0,00197941463032229
-0,00843688579905691
-0,00413859005857718
-0,00868143636687802
-0,0132477483947868
-0,00630145224566701
-0,0165254113581843
-0,0156181134009683
-0,0100254016511464
-0,0101917077551934
-0,00336944605014731
-0,0141408958744414
-0,0107603387708548
-0,0108985770391068
0,00145832998414728
-0,00805863584279377
-0,00737247795077987
-0,00701046777749922
-0,00185245210856779
-0,00402926048917196
0,00584486472226906
-0,00197397161548545
0,0067202845556953
-0,00372093053760428
-0,00442376700213899
0,00092056896777585
0,00587287353268112
-0,00731862391254897
-0,00103457011845758
-0,0157549831820063
-0,00726898332323052
-0,0121757528950569
-0,0155349746735887
-0,00156203447091988
-0,00987826171643334
-0,0264341058102821
-0,0346772967075336
-0,052691521323851
-0,0487799172422123
-0,0352482180457135
-0,0251238940950594
-0,0113394285247481
-0,00709268703157079
0,00507640235505272
-0,00358547073125717
9,5652663059037E-05
-0,00798972781653969
0,00241816065852445
-0,000929435308582691
-4,00763860856034E-05
0,000297053862918223
0,000166564948100562
-0,00067374720369716
0,00553733265603824
0,00897073960978298
-0,00302176747991928
-0,00184683876701199
-0,00105537680868847
0,00653223754237975
0,0242094515583183
0,0313033319160069
0,0320150584905081
0,0186038526336251
0,00417960965804907
-0,0179181499608699
-0,0163283991039419
-0,033057682099851
-0,0293553548486867
-0,0232374554878004
-0,0160987381607116
-0,00332086309933578
-0,0101232708948667
0,00481244173340274
0,0014885427183982
-0,000624366962703956
0,00781082840534431
0,00687402657087614
0,00903968728659846
0,0104748435354758
0,00751964413315328
0,00318267957919247
0,00101100555364621
0,0144074319839381
0,00427762822701132
0,01252298018866
0,014097119651619
0,0436390911454877
0,0390869275792849
0,0351907458997429
0,0300672650870184
0,0281895897356128
0,00614003304023494
0,0110347202805661
0,00929470788281488
-0,000452493811375289
0,0205357063150619
0,00922210582078477
0,000731724807715284
0,00980665259947488
0,00505315482134518
-0,00227677781250673
0,00594803579936799
-0,00358484841937775
-0,00613604203617947
0,00764246331700013
-0,00193149038490233
0,00696445667144631
0,0130772012074865
0,00449190760350946
0,00272949578793527
0,0129894387628449
0,0118116056536422
0,0052747650090721
0,0169390814006767
0,0236998937591746
0,0379077101294653
0,0301028093959965
0,016010762129143
0,00691577534982264
0,000938209114013637
0,00915021491870255
0,0334664937666245
0,0346942786275805
0,0515607845720522
0,0319746664813789
0,0194939914121108
0,00639971204212226
0,0209675279382673
0,00699102830510945
0,00411566033705455
-0,000699129855966972
0,00327100286266469
-0,00804047136350406
-0,00380618405731235
0,00174832053631962
0,0119289750509712
0,0183491402277425
0,0127791114774003
0,00436870828186801
-0,0100077879554027
-0,0116566554721101
0,00761489611236482
0,00309739280363994
0,0141868608335958
0,0149383773342812
0,013605697104344
-0,0091865279654368
-0,00256109134671038
0,0160890396891482
0,0428441212942783
0,0542717940389451
0,0393155972463693
0,0369004327761377
0,0339049008540688
0,0249245768791754
0,0207505188840409
0,0159258830899662
0,0050768383863442
0,00770854101963851
0,00198068915058336
-0,00370113090955718
0,00457542952670173
0,000467949362990179
0,00922266588977387
0,00427065500774859
0,00470662840817545
-0,0158678956342918
-0,0210930711935165
-0,0268750825711428
-0,0281497776226762
-0,0145232035458874
0,00276074387141085
0,0179805795292564
0,0211313529562705
0,0271091359090955
0,0141150067481871
0,0464437700605754
0,0513178348939609
0,0500026293604334
0,0384169573366975
0,0190972597316965
0,019814458322139
0,0177152142704441
0,0314652997126879
0,0235799196625365
-0,000998893649543406
-0,00596906580795664
-0,00578109223940326
0,00193352047893653
0,00681982564366184
-0,00624542561078765
-0,00623040185435773
-0,00439066662349717
-0,0099357984788265
-0,0224158275120015
-0,0422697155941194
-0,0464240239532572
-0,0444789468202736
-0,0264790676076293
-0,0212554689686852
0,0070046402024421
0,0395546818696414
0,0635599749384306
0,0436541976720211
0,0424373874179014
0,0421057926237493
0,0294734706635058
0,00864091546132436
0,00617656416951536
0,0227952349994939
0,0329493584315163
0,0288389392116828
0,027189937437587
0,0151506236590057
-0,000308542693709215
0,00935230383787932
-2,43640915905879E-05
0,00114784246090327
-0,0117214888770236
-0,0100793892246136
-0,0104715847032014
-0,0316558097661536
-0,0414773877801286
-0,0348114723757701
-0,0465018690748218
-0,0477957926992607
-0,0237536662725302
-0,00887056249304289
0,0238840984432875
0,0706409970070581
0,0840649092129987
0,0389237055784475
0,0196043033334578
0,00778570822211155
0,00847703829342389
0,00879539690449307
-0,00496956668608968
0,0181199138713755
0,0248807299678103
0,0218081068469926
0,0157053492192053
-0,00365443930263196
0,0101993565740583
0,0079809372226791
-0,00673558152920046
0,00668633197175805
-0,000645729014579405
-0,00454873280725975
-0,0159685719777622
-0,0104474038662772
-0,0375630575303889
-0,0253050757305515
-0,031886243036256
-0,029182422821301
-0,0216229749368415
-0,00617264404775328
0,0265348409187093
0,083327716727664
0,0633530005365996
-0,00559536563413151
-0,0477029814184327
-0,0422396333897745
-0,0328459382862198
-0,0348090287780767
-0,0268424835552229
-0,00346421793044405
0,0165674636762239
0,00404446007745628
-0,00242060826781301
0,00366890762322702
0,00140019831987818
0,00163571651284558
0,00948676930013416
0,00105641020200631
0,00432977084758364
-0,00847840946902064
-0,0146136449542242
-0,0113723894372882
-0,0104650883509778
-0,0153348314560084
-0,00269078815437142
0,0179506082442856
-0,0086261611033686
-0,00494233973046874
0,0300191902331617
0,0872466545426915
0,0151931013298226
-0,0682251276602292
-0,101099656164803
-0,088346577274095
-0,0467764870023662
-0,0393562970402786
-0,0168686525168197
0,00312717766870891
0,0139299436730575
0,00799305860806603
0,000559658539300809
0,00855521003316949
0,005504942579787
0,00692131201183769
-0,00543922254927411
-0,00139066762406662
0,000920328335186846
-0,00118102872018453
-0,00381066481860549
-0,00334339917934806
0,00318941221878445
0,00979771669511506
0,0159788937067668
0,030469751886456
0,000128419561189652
0,00259655910735044
0,0424370393003271
0,0697515972658224
-0,0214691697833621
-0,0869980297530035
-0,101885382262419
-0,0779788937966013
-0,0390242043177
-0,0328636020612102
-0,0233856243667495
-0,00931918243986428
-0,00481203770943503
-0,00688512148533799
0,0022244713989821
-0,00528053986879836
0,00680563141993189
-0,00467246615785308
0,00488978793348691
-0,00812024217642017
-0,0120974597670174
-0,00760627896555813
0,00400292011512144
0,00540616334258983
-0,0119317010899752
0,00307127295248781
0,0268419043068295
0,0312731753123593
-0,00974961288255569
0,00226065203028624
0,0502013599065814
0,0269996721394172
-0,0368544752714748
-0,104162318450173
-0,0932109222672933
-0,0552306838776743
-0,0162927119598044
-0,011346854730997
-0,0158517256332378
-0,0104449889860268
0,00158519923534106
0,00409097691167986
0,00577048541940447
-0,00128529871713092
0,00310554171044275
-0,00762436614498363
-0,00186096586053537
0,00315131729045194
-0,00911329722378746
-0,00665033065051499
0,00976697141055365
-0,0031559077071107
0,00339466879757805
-0,00352241344449723
0,0283598545543079
0,00846528473759491
-0,0261827572293635
-0,0147494146591373
0,023335225795355
-0,00641006337199331
-0,0688182275437393
-0,106186571269697
-0,070635456725374
-0,0228174995723414
0,00307489220275436
0,00765924795198417
-0,00077197617174608
0,0046708788585428
0,00692735006311014
0,00572447880732734
-0,00632992190039979
0,0102042203769443
0,00938797289662254
-0,00112838304416714
0,00447923330861502
0,00191859444098551
-0,00122077831940523
-0,00314983623347614
0,00667015906352799
0,0110500708421303
-0,00683885097739489
-0,0137139300277721
-0,0210388603562551
-0,028682049806253
-0,0745403980934414
-0,0582569864510097
-0,0265878917739997
-0,0430954538107769
-0,0960909375794718
-0,10125609165893
-0,0526738083346558
0,0127839227912389
0,0403158635773029
0,0266752989583788
0,000648499960586505
0,0110468756294818
0,00734632693748251
0,00572213631192485
-0,0113861904902897
0,00770499308052803
-0,00368377408448012
-0,000599292940739213
-0,0079974081801959
0,00361337400145934
0,0120935457503195
0,0127702458443152
0,0247338382588445
0,0192978609202317
-0,00698091828836341
-0,0357260142803
-0,0488515696000449
-0,0708421734174374
-0,104048336720877
-0,078175375411767
-0,0560995889647771
-0,0617138532654669
-0,0830247992228816
-0,053744547404478
0,000149002028402504
0,0239084413694065
0,0397545010657422
0,0282808371524021
0,026353788107685
0,0173301946004942
0,00810169397979186
0,00817695730800864
-0,0123086039843507
0,00968312282705321
-0,00194840899833538
-0,00781043427956593
-0,00829226825948223
0,00842710364491286
-0,00152094625125927
0,0130810859882891
0,032285933278705
0,0280591716841791
0,0107437925636915
-0,0161973855132081
-0,0432829709636648
-0,0761153481470367
-0,0715522540054194
-0,0566118845186808
-0,0340906145466926
-0,0304455194933863
-0,0330559964130533
-0,00810532529446509
0,0179036963151959
0,0220355002904457
0,0266283397747171
0,0215930576807032
0,0214646132732552
0,0195593575931218
0,00388964561895965
-0,0110031762891871
-0,00119723189308752
0,00307556817102815
0,00465829236490514
0,00469377062141385
-0,00564621206791961
-0,00446065161954399
0,0112419746753935
0,0231087117623099
0,0272820090637689
0,0377455058403161
0,023883636051161
-0,00838408460988395
-0,00804718382837693
-0,0146471217819794
-0,0203266630581166
-0,0124190710224725
-0,00593007903581417
-0,000616610378360277
-0,00496545911820605
0,0164653714375065
0,00807668990573004
0,0106604225074418
0,0221884664011071
0,033125237122728
0,0184756620835392
0,0124073312803948
0,00658263188292617
0,00714233550882208
0,00209702795603167
0,00863596054100535
0,00689419516609155
0,00470082416883708
0,000647575136853507
-0,00554635898515809
0,0166724616431416
0,0320280348436004
0,0356263557856586
0,0534356351237062
0,0422370036792351
0,0326175015902707
0,0253819060756399
0,00912514454409013
0,0204749724882922
-0,00139828774257666
0,0026654523112618
-0,00434990533522267
0,00239655223372334
0,000682327864867062
0,0113384815909321
0,0153534120613369
0,0115762832888081
0,0321036285680377
0,0183128977657257
0,00975308062016077
0,0059236031113435
-0,0119108121850582
0,00393629905346527
0,00535711498784086
0,0043214178615462
0,00951120185732224
0,000472015805641161
0,00384777912754387
0,0181339373647197
0,0143648297783133
0,036539103484479
0,0515683018682608
0,046548007027816
0,0447561386635932
0,0253361539614158
0,0232031951887845
0,0150487687191321
-0,0206500751230817
-0,0115550698246985
-0,0147342179564698
0,0157950871810487
0,0058111091038645
0,0162331274544945
0,0136753442527569
0,0157655133884393
0,0221233213971896
0,0175336662257326
0,000277479436033086
-0,00598182648330533
0,00182891863207959
-0,00101515773515423
-0,00812364952911932
0,00108614935857634
-0,00985061806591458
-0,00375301192209066
0,00493614655166645
0,00031305166292151
0,0200911689154262
0,0249330322136152
0,0496465205373484
0,047577742429109
0,0445214842690351
0,0431117388055209
0,0395150287342573
0,0326545438567624
0,0122553489370861
0,0105658519186977
0,0160591736816381
0,0389775371056226
0,0341291573622894
0,0405582341742703
0,0140869725562629
0,019220759951475
0,00783960812866813
-0,00537607790267597
0,00255930333980212
-0,00296720363275982
-0,00778861860379248
-0,00523633460330938
-0,00924153413019168
-0,00778392525079509
-0,00882715118994338
-0,00313955124148147
-0,00567881256888855
0,00785749726863144
0,00901550090916614
0,0137081636862831
0,0335951622802458
0,0369613033319576
0,0395612079454541
0,035746087949542
0,0359169887316873
0,0309247130601501
0,029936612925897
0,0163454814627545
0,0276521553310282
0,0357209714554563
0,0230483611884096
0,0219668165454259
0,00793345367353689
0,00173702625020636
-0,0182685179534631
-0,0113628663737017
0,00402445601542047
0,00349857022553826
-0,00578437530069779
-0,00537333176190643
0,00510479295188052
-0,00077073450701811
0,000446392144284394
-0,00513406591263323
0,0100398265885433
0,000507523034306488
-0,00599586731480501
0,00615345046115032
0,0020642616608704
0,0115333433450965
-0,00936835484911664
0,00203167710154807
-0,0118199059007262
-0,00399689616356773
-0,011328810397947
-0,0126332745299391
-0,0083899556758562
-0,0120164312765947
0,00106537698246468
-0,00959193163140092
-0,00735453407225999
-0,00994048165491896
-0,00842924313457708
-0,0181758292290587
-0,00759940375730458
0,000713114811750496
0,0025299341067268
-0,00647812657806872
0,00860883944664613
0,00123745909483985
-0,00240475322697533
-0,00157593337426704
0,000622028192671514
-0,00677296418106307
-0,00584616952075163
-0,014075507125289
-0,00143764885130837
-0,0192486842331828
-0,0236691658000384
-0,0131474903559525
-0,00877502919822408
-0,0129896550891454
-0,00812005309699912
-0,0105688723313481
-0,0182382761349998
-0,02424590272064
-0,0216131950911561
-0,00547096455245773
-0,0116768915262224
-0,00209478875506003
-0,0166024691285451
0,00276162458657651
0,00795468996005417
0,00889036544409686
0,00302590532538595
-0,00901751491393911
0,00310547742392332
-0,000536408447910291
0,00849964112904837
-0,00150681844516975
0,00754097085331612
0,00836089247952808
0,0015127090158127
0,00116438588166853
-0,00360995849761089
-0,00261841518236742
-0,0123341039218902
-0,0145777215243997
-0,0118808880520079
-0,0174978982720825
-0,0166845640717619
-0,0244198149945685
-0,00901099130610471
-0,020713785205837
-0,0119099202832887
0,00138736949926299
0,00222405875658723
0,00656614918182529
-0,00358842448766016
-0,00964591619649419
-0,00147497950718128
0,00535238025692851
0,00368326909682891
-0,0088102523062504
-0,000161591922008243
0,000604885616621415
-0,000729205827568288
0,00198394870943574
0,000787112168402928
-0,00527695866081722
-0,0026567139234873
-0,00248407707734019
-0,00282250770327749
0,00531733512776876
0,00637357762165539
-0,0102665832956464
-0,0083477009687341
-0,00619661431074941
-0,00457367894776454
0,00720014957612223
0,00601309491720938
0,00329344229216638
-0,00621267058741908
-0,00838132334125822
-0,00274184656844244
0,00823404522010658
0,00849051334539378
0,00732665270401063
0,00198224593130745
0,00486385879857284
-0,00523454498277723
0,00410545335808092
-0,00859874959969835
0,00731702540876205
0,00960898849163623
-0,00790871964670192
-0,00531522860532404
0,00079109487626287
-0,00679443934783081
0,00946595787977146
-0,00580218463009325
0,00443416486235064
0,00615561430163477
-0,0039052560245177
0,00929044429179767
-0,00843499332593521
0,00519724943743601
-0,00772990332922271
-0,00528371103494221
-0,00422605891895242
0,00502238442889526
0,00146910577615216
0,00194343978163946
-0,00138950874628011
-0,00758294794595938
0,00336761166032758
-0,000257498952680034
0,000440913527477958
0,00292864584966034
0,00110243086288796
0,00174606210167802
0,00169751241416555
0,00962524065730406
0,0058402668385954
0,00995758632196001
0,00324566550238322
-0,00381860345699019
5,43353028246418E-05
0,00598317714875255
0,0046213445895058
0,00537356331027245
0,0013264640724739
-0,00948307942691658
-0,00359212740684848
0,00416877399731548
-0,00684232492796102
0,00896199260483044
0,00962842696498383
-0,00692164225741564
-0,00392107053752003
-0,00685090881559652
0,00611718175781052
0,00261455634255147
-0,00356335579629814
0,00982482831265679
0,0032425592022462
-0,00783798642355855
0,00279075914658176
0,00489997335472143
-0,00375862316869135
0,00234877930597811
0,004243857867198
0,0078615273226579
0,00210149205233509
-0,00230318119795779
0,00248881751446825
0,00466397444060789
-0,0106627381342226
-0,00553561810909355
-0,00720450402040303
-0,00282836366033113
-0,0155858908999114
-0,0173041887946092
-0,0166185531055243
-0,0168751633595614
-0,0200065113400776
-0,0126074119826836
-0,016763385037439
-0,00538491223188038
0,00158588273412477
-0,000646760595507923
-0,00403530037577495
-0,00568645342500822
-0,00438844832506407
-0,00262439235955236
0,0052787565446968
0,00885101543685934
0,00304091101188255
0,00591580593768312
-0,0033387629191106
0,0011591792982155
0,00338670803879282
0,00516304472945465
-0,000169524483969847
-0,00778941063677574
-0,010649139873671
-0,0012884728116648
-0,00985389117294681
-0,00735056342858219
-0,0301528793745674
-0,0287905221689477
-0,0254610078760127
-0,0311148866871205
-0,0234281779314314
-0,0330208279054294
-0,0277249976076101
-0,0302663179935565
-0,0363226671664022
-0,0162929875894305
-0,0086122070457138
-0,0141341096169716
0,00503857563696554
0,00792004376586102
0,00639460248987248
0,00218256561838531
-0,00778127626412608
-0,00224397847999073
0,001635486467319
-0,00525301837711202
0,00245637834849298
0,00392852793772367
-0,00773410101557221
-0,00478884033881718
0,00742321817529072
-6,84578088175813E-05
-0,0174533270026763
-0,0183651984768623
-0,0121397006907413
-0,0227049480940488
-0,0195592414845967
-0,0102363631002267
-0,0131585687457801
-0,012554235793454
-0,0104677844340933
-0,011806557402981
-0,00793441194625804
-0,00730965663457713
-0,00647019447585145
0,00541806826786972
0,00298121298094868
-0,00180460676033797
0,00750980321858752
0,00690298035662264
0,00921277816802491
-0,00671010308745788
0,00327567298583485
0,00399702726729216
0,0086747297084118
0,00948283736093249
-0,00622897992440506
0,00893601101470897
-0,00540302708991523
-0,00801485925510954
-0,00982226413416889
-0,0177469268524601
-0,0191248520155106
-0,0155140598054222
-0,0238936089302121
-0,0344400762674639
-0,0320977442355526
-0,0354987445698661
-0,0324197657871731
-0,0221471550133233
-0,0172283964691982
-0,000212012534826774
0,00963771266382581
0,0249795987370755
0,021851901205947
0,0139353240792322
0,0144692634154406
-0,00245036332916583
0,00921008036786973
0,00671879418041501
0,0050053072177945
-0,00309474696951342
0,00881126779258897
0,000976288097798428
0,00416288660892755
0,0119799193964797
-0,00876738845565453
0,0012128094526211
0,00407395254854919
0,00320053867912268
-0,0086400858461651
-0,00560621424821374
-0,00785182285392088
-0,00103092914284785
-0,00413676939478977
-0,0168501063759071
-0,0173609289096438
-0,00849181698466125
0,00328889237157599
0,0176327567643437
0,0232768719008024
0,0253461234160048
0,0442506682693027
0,0261217745658684
0,0161824061385594
0,00741717981597828
-0,00884489768473249
0,00995348117949054
-0,0048232260174841
0,000190004638369057
-0,00625374496027442
0,0146181720870565
0,0160420054659378
-0,00119985768865052
0,00581475978855178
0,00682937689283609
0,0130740500386182
-0,00430652824907166
-0,00083447846117518
0,0176484417080815
0,00597560248676325
-0,00256647367490094
0,0137945033700411
0,0155590376078196
0,0128356069965006
0,0309776732861786
0,0286318311066028
0,0403367752372281
0,0408044501553631
0,0368242742731828
0,0455069831992959
0,0504247384460947
0,0153838516572374
0,00925574646603861
0,00152206471158419
0,00357649337095851
0,00475396748875168
0,00796444892093013
0,0129465472301642
0,017392568935039
0,0173951137811646
-0,000147890882340461
0,00823783169398574
0,01243094808939
0,0240834188514998
0,00471542213419988
-0,00972281773313037
0,00601930009334458
0,00341244284346832
-0,00485966529556552
-0,0112038469094214
0,00989212091919973
0,0177561416332436
0,0328714616128364
0,0319008223068061
0,0244772641832182
0,0200755580199557
0,0368860740330773
0,0408086859798379
0,0515129650451284
0,0281958913436814
0,00802792500256701
-0,00600354481245763
0,00780666537916912
-0,00709250362488952
-0,00486832133615731
0,00828556267889478
0,00521881628347811
0,0208759971729972
0,0242787299519955
0,0230514584292843
0,0329284734216521
0,0142690208772972
0,00881604272034045
-0,000228533465756025
0,0100028437597329
-0,00936686207452472
-0,0239886535658104
-0,00769522814355585
0,00576782757394048
0,0172582221411302
0,0324789168529984
0,00959375299858837
0,0225148801093607
0,0177022816698134
0,0149106489407863
0,0230862080542257
0,0429238413388468
0,0193297820036402
0,00137791169140376
-0,000825262363559459
0,00689349035958943
-0,00527843011658777
-0,00599973161067708
-0,00369261510218095
0,00915294115345481
0,032264580017664
0,0243084397375017
0,0453607328233358
0,0348628346880843
0,0093164153067521
0,0249727271767306
0,0116530514771927
0,00762389489824073
-0,0058785280039076
0,00579700147945463
0,0256663937997127
0,0260137249482264
0,00645322181014864
0,00319719418746573
0,00467779251260548
0,00491638462633011
-0,00597571127440031
0,0118390063944507
-0,00421924848673585
0,0175229280990528
0,0145200548683946
-0,00257125653113513
-0,00886865214422133
0,00361147508347546
0,00738280948054212
0,00515380882544889
0,00636004270156498
0,0166800188007112
0,0297586101997241
0,0394565484701745
0,0402981566549762
0,027474546756791
0,0428177572991825
0,0419317530733753
0,0307442327896999
0,0381665449358272
0,0383316765497004
0,0699483565135287
0,0734605880476506
0,0437848639426348
0,0342179004146828
0,0264797371669132
0,0097177680809185
-0,00321808851851473
-0,00337248767686933
-0,010824602750543
-0,00987669299478126
-0,00674729839648998
-0,00271547862162775
0,0105152926956417
0,00451513106617315
-0,0030382526373473
-0,00863589074779001
-0,00123154437110105
0,00631787586809721
0,0241505407118562
0,0251213440077967
0,0295409158298854
0,0456072911411918
0,0403634255709973
0,044836436662125
0,0547835937783898
0,0318692295847298
0,0248228479481145
0,0650849472612045
0,108906906853492
0,0865264422155502
0,0382745329786706
0,0403045120985049
0,046710896334506
0,0353325153206192
-0,00136014469605492
-0,0271456576654751
-0,035068099814205
-0,0395237291940767
-0,00923453682398557
0,00288215920985563
0,00937056482503443
0,00766489771586056
-0,00457051686442862
0,00845088426489095
-0,00195557253651153
0,00098764727776271
0,015754082823088
0,0264192026748436
0,0119956758362542
0,0137389716699274
0,0285345194419024
0,0280335668370912
0,0141028228138919
0,011932554470562
0,0354476897295242
0,0805025309518711
0,0886376597632793
0,0517610534824237
0,043024173581456
0,0574817249617782
0,059405209808596
0,038941065372244
0,00619009360909096
-0,0193088125136563
-0,0418954396262492
-0,0562890996850904
-0,0261296177704755
-0,0099321264680903
0,00157597348159979
-0,0064055344062592
0,00462605015543891
-0,00413791592595426
0,00349952142174858
-0,0061250697633036
0,0048813754348758
0,00295921614618671
-0,000624969172780162
-0,0108431657426796
0,00772357019773994
-0,00953781177005449
-0,0223642564940096
-0,0219471202510181
0,027539986911331
0,0724867647868116
0,0604516811590206
0,0473260757900959
0,0422295603265385
0,0561390262354699
0,0482933391804415
0,0136003220346092
0,00265405993435468
-0,0154309566265561
-0,0411523686313222
-0,0455762289082984
-0,0249358532014634
-0,0124598034392589
0,000680378242563469
0,00288542278716931
-0,0032916943128361
-0,00323013314417345
0,00871432318721511
-0,00244145497628363
-0,00698921931228123
-0,0120164415746059
-0,0319003703546968
-0,0473491433046525
-0,0335223441333981
-0,0523828919734449
-0,0625424006087801
-0,0362894549359077
0,0289817115684313
0,0580428400576717
0,0454058074132166
0,0509084322057268
0,0499431714941894
0,0377472726452293
0,0304847524921994
0,00602113188310068
-0,0216311853207232
-0,0165198704173599
-0,0354521790665647
-0,0388703177226567
-0,0299368762371597
-0,00610408440895051
-0,00391395129359046
0,00535261604402697
0,00537255514400862
-0,0041651292678482
0,00492083601578291
-0,00500030469085687
-0,0048773790322885
-0,0322511378336278
-0,0644765263690434
-0,0533083361067036
-0,0447462773919213
-0,0556085230359502
-0,0718889251678583
-0,0427392566847376
0,00769313091977208
0,0436939157292303
0,0435825827233537
0,0480427688374773
0,0298438801812859
0,00781110603816421
-0,00534906358354755
-0,0109040862335089
-0,0220555461291574
-0,0238830529335626
-0,0286861853904269
-0,0330925014027087
-0,0208947683275995
-0,00783889124278154
0,000248857104173397
0,000651531636287844
-0,00759405620284102
0,00421909045066494
-0,00417081463407985
0,00623151944073186
-0,0132321865740113
-0,0481543325025643
-0,0631150791745552
-0,0584514088025133
-0,0457391235092009
-0,0591744350836022
-0,0664136568575094
-0,0518196290853426
-0,00554889219101989
0,027566097278701
0,0298290197331631
0,0283267272565758
0,0123959773391102
-0,0190126400802956
-0,0256921893454911
-0,0215746737114267
-0,0226652833021733
-0,0234496747810504
-0,0391694150617354
-0,0230918702235331
-0,0188848703873573
-0,0168325988330032
-0,00832929322625009
-0,00668775585525523
0,0063726681402799
-0,00152307582276132
0,00527240724954442
-0,000277709830682458
-0,0172420007260021
-0,0433835293347285
-0,0410575479706935
-0,0559593564159821
-0,052061778714321
-0,0487873378247367
-0,0801131787934806
-0,0920933755120195
-0,0768387646193943
-0,022277296885625
0,00240191663145087
-0,0173045222116314
-0,0219078775081375
-0,0403509031234079
-0,0363132646095994
-0,018450439998662
-0,0244740413364328
-0,0231694475899059
-0,0415860889520537
-0,0307328377258272
-0,0274535082966662
-0,0211794580536336
0,00589366968997024
-0,00182620640083927
0,00076806914276162
-0,00450575413911921
0,00528340679600447
0,000367798045794434
-0,0153858469208481
-0,0380319976838702
-0,0237628637177458
-0,0265644891850922
-0,0326120703453347
-0,0580617053564276
-0,100801955977005
-0,135272628588403
-0,117813382527928
-0,0660651255396145
-0,0380660918143135
-0,0361084020890061
-0,0241787524908889
-0,0306546152469616
-0,0252541835931787
-0,026921219338695
-0,0147167904391217
-0,0400108479990326
-0,0474152805979923
-0,0322972697727667
-0,0328550732783062
-0,0108116695774358
0,00506481283167179
0,00669030143060454
0,00919716115072237
0,00290586695167516
-0,00306920570313095
0,000784163102962611
-0,00479701891681191
-0,0291379803231033
-0,016768156511689
0,00227363296931827
-0,0191949072761792
-0,0282085442749285
-0,0534821382444794
-0,0721386565577244
-0,0676889096185039
-0,042600807848421
-0,0356379285295315
-0,0340634661170063
-0,0436215734142737
-0,0201051233623291
-0,0243560267569118
-0,0250232930121397
-0,0192049029606925
-0,0396522830446673
-0,0487673560980979
-0,0362674493948884
-0,01829042498043
-0,00140922165944073
0,00101203837471149
-0,00217809068375714
-0,00824889388214865
0,00614802091960725
0,00725228704434088
0,0109861313205586
-0,00763632237706223
-0,00791923026351309
-0,0127170627903237
-0,00242280656171429
6,49256345389689E-05
-0,00773736834512997
-0,00790787791166142
-0,0231730799995126
-0,0176171834903048
-0,0335508699504246
-0,0392158553017235
-0,0313779498858832
-0,0373069114258485
-0,0355507482468796
-0,0374566429555491
-0,031379221846149
-0,0223973508554196
-0,0301307650456313
-0,0272811588064154
-0,0299906125355426
-0,00730683131251072
-0,00214964949180074
-0,0079311325394498
0,00341667089123596
0,00140671124892375
0,00437306216506829
-0,000612633057396564
0,00992098010169637
0,00140041505290723
-0,0125431606713199
-0,000584340957762405
-0,0163452609786588
-0,016232284016241
-0,0163397871860406
-0,00106167897750043
-0,00502549563477601
-0,00520180078673932
0,00531561327015846
0,00968693663122293
0,00157536733978577
0,00129602326011389
-0,00149467349216839
-0,00254674647736831
-0,00889087814154602
-0,0199113310494411
-0,0168231169116136
-0,0219376456947173
-0,0112487523541868
-0,00181283420789492
-0,00335369084646373
0,00755828760425736
-0,000971255863228057
-0,00851059965719963
-0,00212658301560515
0,00937176153894204
0,004878902479606
0,0061993499501839
0,00576052514646665
-0,00527363425241235
-0,00924915834389083
-0,00669243536831226
-0,00884222671235234
-0,00873480922387724
0,00144640549131285
0,0104359935995968
0,0281535644191347
0,0393132105124218
0,0456591809581509
0,0355024632674561
0,0405825087217639
0,0352281136989937
0,0262561110827131
0,00598182280152991
0,00410457345944731
-0,012105165148414
-0,00183848980161538
-0,0100857034025502
0,00471616952546352
0,000701307654745535
0,00946150884938496
-0,00184011621952062
0,00709926431863535
-0,00713995047812769
-0,00799176893581473
-0,00370336026220867
0,00417786624310906
0,0049736889608777
0,0116675095073246
0,0104916664658077
-0,0012061165177287
0,00380643633489788
0,00204609808236048
-0,00205293490339624
-3,00984515009275E-05
0,024582278525744
0,0345439453834938
0,0445136233542744
0,0506825479391122
0,0464896135380004
0,0295268345892496
0,0289587885174769
0,0120587390356646
-0,000348667341703963
-0,00612391036011912
0,00431653722749477
-0,00538043713007181
-0,00212783089053704
0,00242188306172466
-0,00232030877485886
-0,00150330734043536
0,00148531039462214
0,00725575620725046
-0,00835686254717267
-0,00113829095990388
0,0168619689425591
0,0167698592309317
0,0238020608928037
0,0313600701489123
0,0308814819507585
0,0278347395470621
0,0421558572062072
0,0385349510109755
0,0385236341213139
0,0312090378791909
0,023878538050856
0,0343126038077606
0,0315821083346911
0,0222233819146616
0,0122425812978314
0,0027168068917458
0,00981968389599595
-0,00335512713657551
0,00913522849596416
-0,00399343001774528
-0,00578286855390435
-0,00884916698506529
0,00394176793933928
-0,00806112398303166
-0,00259811537926929
0,00936923762324477
0,00996389425719654
0,00206441335363542
0,0102750751764348
0,012919774882573
0,00826739054650528
0,0162970213962007
0,0178172576256282
0,0134134161512869
0,0119461246756743
0,0109667461741218
0,00961536227933055
0,00558874655895374
0,00854614579726247
0,010897976825922
0,00347796709073169
-0,00394911084417774
0,00562780421755364
0,00744560222195789
0,00923125894142247
0,00759697471413394
-0,00328174746800204
0,00369457926297356
-0,00800844817329592
-0,00602243169956954
0,00327603785008008
-0,00352721852880307
0,00847129249874097
0,00478057542572756
0,00968123012008752
0,00568564913770274
0,00603772453653155
-0,00281221113070514
-0,00646494119080374
-0,000901233836792977
-0,00667491682387756
-0,00405667449978369
0,00615954031084576
0,00768207545706198
0,00973746647455925
-0,000916714764601297
-0,00773777063600986
-0,000732196441492598
-0,00486256657619062
-0,00799841197258499
0,00621288708817921
0,000490012391722996
0,00595929969065444
-0,00563948817725527
0,00718329790848461
-0,00877665730136291
-0,00248459238209044
0,00830304994168833
-0,00653598544957861
-6,5335999273386E-05
0,00265571689822512
-0,00383987789686764
-0,00145825488095091
0,00317060179690393
-0,0059435880724078
-0,00660994214779229
0,00675776290556312
-0,00836861272266536
0,000592227033615217
0,00434039930549469
0,00294132025849715
-0,00920839224367664
-0,00812822053325189
-0,0088136106387226
0,00210012127277447
-0,00603819524684837
-0,00172988666767715
0,00759424980617792
0,00798277893941047
0,0013277601969092
0,00692892223453565
0,00872292985148864
-0,000642164307945484
-0,0096224362680793
-0,0020542434007182
-0,00696540271722032
0,00115684046929555
0,00426350393065415
0,00759727751724295
0,00845091016890989
-0,0018897120253283
0,00757708590564857
-0,00657077339323014
0,00319930787507772
0,00598454328751394
0,0064876021390083
0,00685306109108624
-0,00756609264918093
0,00259285730991075
0,00463566283329446
6,34201442752598E-05
0,00814921959387547
0,00732354410167852
0,000170023775406711
-0,00110618296274406
0,00543655427960653
-0,0014253067132172
0,00422024699006051
0,00213381406973815
0,00322987042183299
0,00295322936631424
-7,88421882683618E-05
-0,00967972899772214
0,0021362543535122
0,00300574176619097
0,00393278704673647
0,006802765202317
-0,00183542294702057
-0,00476455950259732
-0,00897345743632025
0,00229198036174871
-0,00724441813926036
-0,00527493060148629
0,00342342840025973
-0,00148431228874343
0,00788079266706391
0,00982658418092064
0,000496846737639773
-0,00470750740203449
0,00502342928727515
-0,00141051743411468
0,000161657545145649
6,23781627888594E-05
-0,00214038571499567
-0,00623229441619455
0,00967224396384847
-0,00795491575958138
0,00955611174152626
0,00177357180378127
0,00271235054184926
0,00467067887758402
0,00702752810764477
-0,00784416336465821
-0,00562421563809003
-0,00453059304985996
0,00818500775822103
0,00726089239144572
0,00133333759755715
-0,00957087236594405
-0,00721284791236097
0,0116860866958146
0,00161994156918253
0,0120690911672743
0,00835615577547051
-0,00102306679788066
0,00108820858244852
0,00638374954988149
-0,00419248066946777
-0,000508701969532527
0,0145041530226346
0,0208079683914707
0,0204113032931518
0,00572543500464775
0,00869800450164695
-0,00394430999764916
-0,0031318661252173
-0,00540398196638367
0,00668281631670174
0,00121481065797138
0,00498373063978913
0,00260782189323
0,00743812426619134
0,00636307636477269
0,00248624682901134
-0,00350217283811287
0,00649476178230234
-0,0071578465321145
0,0153738351343295
0,00754510375733063
0,0140173699098511
0,0261941489747372
0,0108450514807806
0,00624189316120628
-0,00507662517253941
0,00113073448057491
0,00140854072527931
-0,000943432546727528
0,00809205927154818
-0,0094435475034748
-0,0133717793752502
-0,0343034658049542
-0,0232720448742075
-0,0124437191765493
0,00150244131145708
0,00425951977250799
0,00571815939191373
-0,00172343452487499
-0,00413964495137384
0,00869216686053768
0,00913524343591893
0,00385453880034162
-0,00938804160712039
-0,00936662908236931
-0,0018711314586886
0,0058479424365555
0,00541177307118803
0,0276503599971755
0,0320104618819699
0,0392062596420714
0,0412516208922715
0,0392636075843936
0,0442636583958484
0,0464378295258569
0,0454046709453248
0,0543628773829309
0,0501062469739388
0,0270915761552509
0,000420327599577028
-0,00997959283724149
-0,0351354349534161
-0,0156065998428061
-0,00482669474522899
0,00835281792031509
0,0120153864254687
0,00278949347438941
0,00658956687948673
-0,00816554471764972
0,0080790349499369
0,00759444886853837
0,00153720846419041
-0,00304683091927146
0,00418879220146485
-0,00727730722287847
0,0086585873685797
0,0245290351143246
0,0350098375524798
0,025726821387958
0,0154313693927521
0,0232986511575942
0,0319137616259417
0,0291634040462711
0,033783021127176
0,0382964342804319
0,0429953116459676
0,0251950881808707
0,0127162625301218
0,00740514817329245
0,00531324503949834
0,000180583297531623
0,0102804174162305
0,012792334668167
0,0035165603745645
-0,0015854788431815
0,00249539495827657
-0,00709401353781899
-0,00576046714648476
-0,00506053184733473
-0,0108797070342401
-0,00357864167149775
-0,00840996834638205
-0,0233069512669627
-0,0105213231001561
-0,0227534230481171
-0,0150873517399645
-0,00838748270109288
-0,0172888564022678
-0,0152908106500082
-0,00452055573415248
0,00516805405601568
0,0324407114968548
0,0164700890075554
0,00402986634688309
-0,000449357718202446
-0,0160026577770536
-0,00608189714664928
-0,00067435987835301
0,0273640153504533
0,0212116995962515
0,0326401676465839
0,00936859318072275
0,0124148240706051
-0,00790473823782657
0,00491830966943654
0,00428250969979112
-0,0057431957546859
-0,0158858855365024
-0,0190542471103415
-0,022334757367052
-0,0337468565517647
-0,0393092854615734
-0,0329422860651225
-0,0284877201320094
-0,0187993111466583
-0,0302581816097119
-0,024640334320842
-0,0305438920452279
-0,0211353506516995
-0,0220073163140099
-0,018066739266868
-0,0334973634491179
-0,0289005070510392
-0,0258169459788477
-0,00590855690932016
0,00549482923177572
0,036772079764595
0,0450317409008725
0,0378620981698281
0,00878032813398354
0,00704293987798796
0,00340557391276912
-0,00546228436703906
-0,00504176346507572
-0,00604150535779105
-0,0152808169599568
-0,0192433881738512
-0,0222246230407604
-0,0225147224205949
-0,0342071086796801
-0,0245710095311341
0,00076582139438296
-0,00283849867978425
-0,0126210293896094
-0,0320111454094406
-0,0481778000473035
-0,0802399421890343
-0,0870918461353347
-0,0572288874377553
-0,0565630926730551
-0,0388731147065344
-0,0234488842855126
-0,00885030078868613
-0,000676994638345575
0,0177565926349896
0,0226927717406369
0,0279079247083633
0,0147994313587928
-0,00435443707949941
-0,000401260602196273
0,00733512956843061
0,000240919984426029
-0,00450265102307498
-0,0168439126105056
-0,019399199242298
