-0,0087284884037117
0,00174872626166266
-0,00142140076096235
-0,000732901203787373
0,0075120918999948
-0,00687332960631388
-0,00401239696611296
0,000788474190416034
0,00447283970866019
-0,00152632684052285
-0,00946503703457538
-0,00134627204916732
-0,00323526361793849
-0,00326695305129209
0,00655958796275495
-0,00974352647633389
0,00588133840629893
-0,00457241428763252
-0,00855820046670651
-0,00806888109914441
0,00528635051813272
-0,000527021833940884
-0,00431753768321012
0,00282997053714002
0,000404909649121068
-0,00258710673665027
0,000121516636629364
0,00871046715355966
-0,00806933272540073
0,000938708042231718
0,00153929566570525
0,00398582940641131
0,0028503997680183
-0,00607142312075805
0,00688339222690359
-0,00834483336526434
0,00033338996688321
0,00551520617118165
-0,00355370070987506
0,00449859898805755
0,006156543399266
-0,00128151291839543
0,00265579703903548
0,00867190798947143
-0,00641903711487848
0,00836893560219183
0,000698495202948578
-0,008722384318549
-0,00911419447558885
0,00890785740154968
-0,00774502882583665
0,000480026806619937
0,00137470979773193
-0,000827840329533367
-0,00843668021188894
0,00179853343022919
-0,00393373605512722
0,00574862870189763
0,00886102273268325
9,87213299224288E-05
0,0029955722159177
-0,0027287314470152
-0,00119012850493929
-0,00662998265263105
0,00654269342215671
-0,00427859511078068
0,00446178524182937
-0,00884977826444223
-0,00240177557582569
0,00176699697934623
-0,00404835241142235
-0,0140121059193442
0,00404705728681188
-0,00839370191173602
-0,00938931090055797
-0,00767573557022414
0,00411783528733082
-0,00445771218624473
-0,00162777602064378
0,00160575420409306
0,00649468162448313
-0,00127622641422244
0,00773254573239598
-0,00701437561633735
-0,00132979604011858
-0,00894443427163383
-0,00738912111564701
-0,0063268230892309
-0,00764732847364161
-0,00491964970560798
0,00540815537503561
0,00399902140026162
0,00529398035848399
0,00371648179025176
-0,0121066048524971
-0,00547515250912487
-0,0150483327517685
-0,00759310291320214
-0,0171778835981064
-0,0039865644856124
-0,022210474140275
-0,0193481439943861
-0,0149374220590727
-0,0173316472194279
-0,00929640684173512
-0,0124532729450822
-0,000320507930990084
-0,0062653868964457
-0,00700620081483762
0,00515194890566278
0,00507959828105427
0,00910073246764984
-0,00331390914195865
-0,00297818991506009
0,00353770249758378
-0,00570395251089233
-0,000392706471855694
-0,00409486951084919
0,00497157767964379
0,00581775748654743
-0,0064669153237593
0,00138880627470813
-0,00945919264907314
-0,00408490598516402
0,0103796402717466
0,0059912303964329
-0,00749779789554397
-0,0130746906495244
-0,0168277286525859
-0,00820408482795549
-0,0164757193661969
-0,0112291442298697
-0,00829153643887109
0,00224868044219748
0,00110487920563462
0,000717204140114253
0,00830234623667895
0,00219554604722489
0,00410349240393837
-0,00331709159512399
-0,000587847368134114
0,00800520749669765
-0,00991073841691088
-0,00267848569891568
0,000517542060923078
0,00764460763290064
-0,000180290911469752
0,00238828724618646
-0,00335861787746773
0,0117863042338345
0,0172092043761018
0,0172288102636212
0,0200637962337038
0,0131512226028365
0,0178268299399236
0,00770145092402914
-0,00306872523218485
-0,0060765597824047
-0,00293704772574087
0,00807401556076131
0,016718291645021
0,00955482085457022
0,0193378629805018
0,00569466651507992
0,00495179516556445
0,000268131808976051
0,00459756181109615
0,00484963626417142
0,00793736657963012
-0,00506053516259461
-0,002868760671122
0,00859907661799774
0,00384443049409302
0,00204967660800405
0,00312694095283754
0,00423595812213397
0,0132628665332518
0,0166863389608765
0,0219379496935135
0,0135537162066208
0,0170358184559157
0,0207317744077791
0,0185486728382799
-0,00440343375674043
-0,000379322560974563
-0,00258067852926713
0,0063006877315416
0,021081901883106
0,0263458071513232
0,0275313495763367
0,00863354212574324
0,0171533017376983
0,00814864500741295
-0,00342404075157321
-6,26788200713428E-05
-0,00972752744200931
0,0085025539794068
0,00307211866771602
0,00851636212391194
-0,00590132170514794
-0,00260827797690497
0,0124698733458129
0,0165318530738201
0,0261081789131447
0,0219561015929596
0,0149371956119864
0,0177861550605263
0,0174522182848741
0,023730726524144
0,00290866589211658
0,00461632349190015
-0,00604604287232656
-0,00729986116674892
-0,00736933055962027
0,0065707101691876
0,0163075870070156
0,0276930135464407
0,0292723931046234
0,0259431959508724
0,031993708295312
0,0248352428829093
0,0154907748890046
0,00892062926375121
0,00965501319868231
-0,00610876486092623
0,006891503416699
0,00414650538947343
0,00579270114124112
0,0186004544093688
0,0109560879403119
0,0177548425830792
0,0339068865952339
0,0312078488593753
0,0282694059121996
0,014549359402273
0,0218123875581456
0,00623129433092819
0,00237156407352833
0,0202389184844349
0,0228717522195566
0,0188264664872742
0,0168576694106706
0,0323886528163421
0,0272867290988833
0,0365930392042871
0,0255854518210225
0,0368952572063794
0,0181335129872072
0,0265862581105574
0,0063865021624484
0,00301581278572633
-0,00310548104255198
-0,00705297760972473
-0,00821374066652929
-0,00046502351116593
0,00327522606902557
0,0174096216001634
0,0192238721284672
0,0250294810916104
0,0258078207372337
0,020737846856795
0,0193395243174325
0,00975700846242742
0,0159086374687088
0,0223226200362483
0,0309737534222624
0,0474987399991613
0,058474325116624
0,0379329044946795
0,0338745073432037
0,0154307327689792
0,0197145902121606
0,0242716859947409
0,0262398078049979
0,0180406117687338
0,0185521396441924
0,0236753244485427
0,00554292261138198
0,0118577700450916
0,00721821157667157
0,00830052306597114
0,00279176480128029
0,0104824251932686
0,0117743366858846
0,0161621543398103
0,00490824088075726
0,0205809670650579
0,015440935586122
0,0022442115424441
0,00497377602737133
0,00716594225785195
0,000283609758337119
0,00465176731728876
0,0203970001041429
0,0495708627709932
0,068392129035855
0,0305584028581297
0,0139308895114504
0,0101561773343508
-0,00114920307547996
0,00593808942184968
0,0156701360387841
0,0122866592471675
-0,00256969032845986
0,000110086338065995
-0,00206636291876124
0,00369993605672389
-0,00171539666472559
0,00447877253357479
-0,00947728989676697
0,00504080220218955
0,00603813349704745
0,00990697367230407
0,0142718921990271
0,00884859001067249
0,00285982168786313
-0,00639702173537665
-0,0107060661648273
-0,00456827753485349
0,00357584211536092
0,00156878303183793
0,0283236331036932
0,0642861255523674
0,0529830670915509
0,0200109721151115
-0,0030940538152206
-0,0130859639306029
-0,0022331651948702
-0,00519407338031925
-0,0111283315343022
-0,0134567567978833
-0,00932535675039764
0,00418256968138588
0,0118861918355586
4,55504905162835E-06
0,00948775084096853
0,00555490690030058
0,00777829427897868
0,00636679544157206
0,00743555370032603
0,00296976429256926
-0,0010255278760877
0,00117744968527633
-0,0208733250215805
-0,00993561074117368
-0,0267510496155642
-0,0129526148237662
-0,00901524347114948
0,00504289680765885
0,0365695858280516
0,0534876155652758
0,0292710514354626
-0,00873175112634243
-0,0147009722772577
-0,0028636717291499
-0,0156884050837892
-0,0172108711103548
-0,0247186756678832
-0,0267920930352526
-0,0184632353783446
-0,01554498470837
-0,00803982690811971
-0,00944671044858899
-0,00293158765984157
0,00305470404054347
-0,00475709707300006
0,00871084002447613
0,00517595202893079
-0,000355611722602628
0,000429901099624717
-0,0268883018867364
-0,021623931242324
-0,0268685530764571
-0,0449747766179677
-0,0407381800310778
-0,0277387158290052
-0,0144585780131915
0,0220351303205525
0,0297742527794904
-0,0009591742488033
-0,0161253281996324
-0,0183213537524342
-0,017552177942145
-0,00136795207837112
-0,00649144654564632
-0,0199513082015801
-0,0200696678919559
-0,0297006168528769
-0,0156839345093992
-0,00327659843319586
0,00572523507718411
0,000449382785920315
0,00164094296689104
-0,00316196265083587
0,00445990846934328
-0,00204969589685559
-0,00248512390110047
-0,00795326845620273
-0,0237419284426086
-0,0324387252053357
-0,0469243115029733
-0,0639116726844666
-0,0771024469291124
-0,0626556321396452
-0,0378425161555093
-0,000703727074641963
0,00718722561045204
-0,0141309523103606
-0,0342398179192665
-0,0286455826469524
-0,00104319709737863
-0,00256329178825709
-0,0131931850631644
-0,018286283618846
-0,0231553247296657
-0,0206300929076164
0,000972925235695468
-0,00744324048408798
-0,00268953297441326
0,00657244195123331
-0,00313947688428595
0,00639441772592654
0,000896357598710705
-0,00848318717309144
-0,0109296728186967
-0,0135891419028532
-0,0351445726372765
-0,0435913012634953
-0,0556031058910273
-0,0723150096577303
-0,0787845203516585
-0,0663232734072534
-0,0303850719331805
0,000750954416192909
-0,00726725272526535
-0,0122843426705788
-0,0306835346749381
-0,0188606938815486
-0,0044336327092203
-0,00260932732116134
-0,0162932367567251
-0,015125153769132
-0,0279114574277833
-0,023592812623552
-0,00541740543902158
-0,00846997916380655
0,00782513125757136
0,00538717800091561
0,00403094940043288
-0,00492649777571063
-0,00220121352163578
-0,00440409120826351
-0,00619279478872296
-0,0093806206788819
-0,0312965579862524
-0,0404482249559944
-0,0503463475914558
-0,0692680400467723
-0,0616846225708035
-0,0411156044939021
-0,0184075864005317
0,00226827705027087
0,0130161547272791
-0,0109378146329658
-0,0249628849199045
-0,022375752397747
0,00335776540963976
0,00643931490714773
0,00137386791743931
-0,0170499185353305
-0,0211913833980045
-0,0104315814321075
0,000854949908200806
-0,0104010484909808
0,00560303117546984
0,00587889477285995
0,00609928629179452
-0,000643173200832193
-3,76373612810259E-05
0,00986104074096924
0,00250978939553921
-0,0131242402670512
-0,0183623177667141
-0,0417218521700515
-0,0384767478720945
-0,0538399941213421
-0,0454147493616661
-0,0358411275358572
-0,00376696947251425
0,00968231379924107
0,00950362818123638
-0,0199174348870596
-0,0117715337793198
-0,0132265510487918
0,00128634751708131
0,00276191036038781
-0,000291955596279531
-0,0115527345178107
-0,00891463954835854
-0,00734489886835526
-0,006259811312834
-0,00761238451847947
-0,00899148858775905
0,003057788210426
-0,00503716278348655
0,00799337126070399
-0,000895751997392337
-0,00288984389317427
0,0114379653896359
-0,00329187951709284
-0,00521565880735527
-0,0274983425983014
-0,0270670564283132
-0,0262062719220046
-0,0318632271329435
-0,0250747557270579
-1,06964395589648E-05
0,00955150020850997
-0,0130703054303048
-0,0151009752110369
-0,0153032561570336
-0,0136596041604728
-0,0174690866436273
-0,0116187056294525
-0,00988462916773679
6,96384985191066E-05
-0,00240556592749838
-0,00641391558112232
-0,00866799861742775
-0,0091777897718407
-0,00637795328674041
0,0032627538473286
-0,00883549622420509
-0,00984669307253229
0,00084300450632285
0,00217788998933404
0,000846142166148923
-0,00625364229313537
0,011083036189024
0,0072404940550466
-0,00170178645053294
-0,0156391375144997
-0,0195594786008634
-0,0227715669390258
-0,00129341428960199
-0,000728122700265222
-0,00526204810103537
-0,0246038670772752
-0,0102039640421923
-0,0153099944155565
-0,000718667244899482
0,00288469313801887
-0,00865939918304947
0,00761185186896631
0,00460299866555733
0,00421259556736819
-0,0110448953691093
0,0066462579338605
0,000561154481294917
0,00225483508103987
-0,00387951218238078
0,00949005265352686
0,00922426936366041
0,0106744894169784
0,00296850493433506
-0,000788133875846581
0,00550360386237674
0,0180081425052653
0,00988549040031664
0,020382226357799
0,0111586999375116
-0,000909887686374541
-0,000984440155877686
-0,0195770591065888
-0,0108104749265195
-0,020183469414255
-0,0191075916412604
-0,0166330194712156
-0,00447371207611947
-0,00101511778463785
0,010630029739796
-0,000555430242039915
-0,00156091114801201
0,000586651470385346
-0,00978957214675624
-0,0036323218261055
0,00119899181352683
-0,00737806794915891
-0,00692430314412535
0,00178585461763297
-0,0035438083829346
0,000973793125820049
0,00552311245108686
0,00540607885043717
0,0195000340845031
0,030116402231352
0,0267731088759746
0,0265203213621978
0,0248254144009613
0,0145729767187719
0,00211158130006391
-0,0117409973945227
0,00594551183274252
0,0126301170226785
0,0131586298595011
0,00740570646814782
0,0181294407926591
0,0158836287967523
-0,000648613128500713
0,00169177823630244
0,00228853647466952
-0,0118163573554708
-0,00138408801517069
-0,00757472815910308
0,00477422821739503
0,00756905328369825
0,000100139659450045
-0,00484808252269661
0,00380396421560442
0,0116306904982667
0,00474596524414569
-0,000702143331801312
0,0156936251099326
0,0275995348210204
0,0362931158924095
0,036580544536059
0,0296073956987403
0,0347118293219086
0,0262255722766466
0,0333889159768155
0,0406909720600645
0,0410076028870446
0,0302967391021138
0,0265448263490471
0,0196192591846997
0,0102823568733313
0,00244641163211706
-0,00104878219605502
0,00662214201774235
0,00402569194566259
-0,00292521212331034
0,00157771187164782
0,00842480770942588
0,00285471964725791
0,00866715986219568
-0,00467262470846652
0,0073210069535614
-0,0018837408486597
0,00449124386301546
0,0126336709490139
0,0107942843487378
0,0149058174820132
0,0352815436074456
0,0388640028230647
0,033263272942505
0,0427324463592327
0,0460290644521937
0,0402915054215032
0,0418549278836383
0,0379725712874755
0,0266110275035134
0,0162089967276335
0,00545159472226436
-0,00537436556824839
-0,00179723287685577
0,00419382187208062
0,000167081259864539
0,00638532813030429
-0,00288942617959602
-0,00924857835142545
-0,00219212154413056
-0,0093789026697068
-0,00305743877452679
0,00770163425137365
0,0016509457078481
0,00895794325841149
-0,00701154846122775
0,00995430522889775
0,0120337230461339
0,0120575271988283
0,0210869937490722
0,0284644173792627
0,0354281739078057
0,0298365344568305
0,0262691192860346
0,0323698991627035
0,0158507418091236
0,0248819532365952
0,0103706183286594
-0,0035418611923354
0,0060186967877582
-0,0123480744349155
-0,0116326661898419
-0,00017747127368776
-0,000513224405164624
-0,0103980000924405
-0,00769759117695056
0,00276875459522326
-0,00786549431709023
-0,00821062717503432
0,00325331686681757
0,00955268569269808
0,00969779873412042
0,000498886123284819
-0,00269952447837726
-0,00393942902671498
0,00780609676751836
0,0130521308150953
0,000186062954634848
0,00529423648448006
0,0118018299634315
0,0204858961512319
0,0135067088614034
0,0201349798076359
0,016060203535715
0,0100899990311264
0,00387780656578869
0,00574732272344028
0,000544937799435661
-0,000578049037620526
0,00243999847164015
0,00510052193114936
-0,0024219513916232
-0,0062106242989892
-0,00874928724791975
-0,00599274930842057
0,00723390744087456
0,00436904531641353
-0,00299833431513903
0,00133927834748257
0,00622425233769428
-0,00119102442626036
0,00387156425976195
0,00252508518061416
0,00625477818439358
0,00528274168547281
0,010318160205096
0,00636026910521631
0,00650664748437487
0,00666094799846728
0,000643557094183235
0,00393824671007395
0,0139511431696077
0,00448351794758135
0,0109638163145956
-0,00434240897188444
0,00329222676970066
-0,00518655829635585
0,00767460845829401
-0,00986210991376589
0,00234789725273894
-0,00176193739556915
-0,00994649625452148
-0,00124462381688666
-0,00412171345861708
0,00639256497677069
0,00142740283693532
0,0056599351650383
-0,000786494161368579
-0,00699366174498278
-0,00214728053355679
-0,00911077595984218
0,000681237254582623
0,000603773468549495
-0,000673592311037845
-0,00777915683579839
-0,00466827472913293
0,0107404881649641
-0,00577066351626686
-0,00666742481865262
0,00768381026906576
0,0110300422566415
-0,001821513119993
-0,003271979710998
0,00215546210617552
0,00278702248959122
-0,00672744465689331
-0,00636971841289565
0,00107343602745971
-0,00993046565477856
0,00213500893308549
0,00147479770308118
0,00530060853590286
-0,00352510072920709
0,00915910597851458
-0,00198412859439111
-0,00123961539531109
-0,00483932281604005
-0,00356355851216407
0,00881386655327578
-0,0088507763197882
0,00953078514874484
-0,00974860513571119
-0,00479142872374106
0,00993974856098171
-0,0087031668232303
0,00289688986189084
-0,00664627477934941
0,00571691734883193
0,00155358686781553
0,00671133537623628
0,00229786105095309
-0,00666593959399776
0,00813998416910878
-0,00445571542459341
0,00354706466828802
-0,0077750085004489
0,0050790449208948
0,00750845307368248
0,00338405453291911
0,00311292770929305
-0,00219685013973939
-0,00524886108713637
-0,000813377830578655
0,000871329321931735
0,00637040961364769
-0,00446117015616132
-0,00592388226468183
0,00130864642796732
-0,00881714752868882
0,00320715857404382
0,00963814503988851
0,00378298338021754
-0,00544355544118778
0,0110909055260495
0,00638892818848002
0,00902841980714486
-0,0086948233375193
-0,00434473462057961
0,000367155569474017
0,00988168657169895
0,0102196793188808
-0,00193630019427129
0,00944885150001609
-0,00659090055099368
0,00988454775917546
-0,00185926270292106
0,00716062436679407
-0,00906938530461368
-0,00438795868977344
-0,00420912009394221
0,00368133968379411
-0,00234644465047653
0,00305559129813259
-0,00427539461449082
0,00336630823545274
0,0050345402143824
0,00203826158849309
0,00575516927039478
-0,00446874153014096
0,00955706187065812
0,00454933067952857
0,0104543006285184
0,0147866136629977
0,0191122819205387
0,0171949860705479
0,0178426658800584
0,0166933660636185
0,0136603946221837
0,00372067293094303
0,00728748945719274
-0,00726540237059673
0,000734857607444959
-0,00218520115604285
0,00383007332917294
0,00313517854121079
0,00989165230649135
-0,00460424388507579
-0,00412892612355246
0,00103418143979934
-0,0017665135038795
-0,0016028007673257
-0,00684252188031786
-0,00437833043574033
0,00553293881028545
0,0108453513019787
0,00470225468451624
-0,00511806888465166
0,0159632653269405
0,00878172339354974
0,00724077066840565
0,0185304278934509
0,0206020604161736
0,0160165888391482
0,0270747455777321
0,020319270109724
0,0127285385468374
0,0138222313685241
-0,00326152602068536
-0,00148144474781519
-0,00838381509118057
-0,00129048295079501
0,00906221094603137
0,000892981624667319
0,000459388236346153
-0,00565929343721796
-0,00636308735998491
-0,00991005480552626
0,00928201123466554
0,00256356670319923
0,00340040529703526
-0,000674092457042398
-0,00456831834675411
-0,00561684192889272
0,0074445861426356
0,00106602237550925
0,00235328136746357
0,00878130012315549
0,0321867828810829
0,0393648337753978
0,0271343695151814
0,0384102665066825
0,0164901598303264
0,0224218291219335
0,0164098033537861
0,0125075784515075
0,014951253144872
0,0026625004764454
0,00278796087919152
-0,00992549189597128
-0,00688064181835663
-0,00396139170379387
-0,00542166417694163
0,0099418334668722
0,000349125773808513
0,00981294621704749
-0,000408036199160207
0,00218209600575479
0,00472315654708248
-0,000539615110751226
0,00374127339135412
-0,000267606152243224
-0,0114516962279269
-0,00757711906039094
0,002731406328314
0,00807618597279895
0,0118276618879958
0,0242073827724868
0,0306031541457965
0,0298805394118096
0,0219082902681518
0,0100150524332659
0,0176386619264618
0,0028510931026342
-0,00477796303394065
-0,0113326382313521
-0,0129464570545823
-0,0143410638474952
-0,016222499580208
-0,0106604280169085
-0,00128939538165188
0,00504319603046198
-0,00328082706466356
0,00636531217845397
-0,00273736139824033
-0,00385181721579821
-0,00666530931278224
-0,00764134277985382
-0,00123963027251281
-0,000205902142257193
-0,00128120030390246
-0,00848765135141887
-0,00930437582378504
-0,00325156036737585
0,00446606790254134
0,0224410024484736
0,027690149045215
0,0223570610795894
0,0197085483208352
0,0156977946919012
0,00336575377794631
0,00496284772681371
-0,0124158478305087
-0,0175616123213858
-0,0124707599332742
-0,0269919912096336
-0,0109465970638665
-0,0126409518692417
0,00829815167201512
-0,00142621447964495
0,00321041331620149
-0,00732427585504153
0,000763420182751122
0,00135415582539308
-0,0115384318066696
-0,014795176144892
-0,013214995177263
-0,0172385953521806
-0,00891128250693988
-0,0227191028319566
-0,0219524235529439
-0,00499005642428336
-0,00273035059296506
0,00505331469170561
0,0075854477158986
0,00757598957865158
0,000282438269082885
-0,00490226532147602
0,00794591727904256
-0,0076692174708268
-0,0215178542008612
-0,0238519187420336
-0,0302662928099509
-0,0348122463459753
-0,0134689066060935
-0,00154002166961509
0,000757045613651796
-0,00993669664396091
0,00862967028707765
-0,00683449419074883
0,00204580711371077
-0,0112907023269731
-0,00944082910476583
-0,0141538640126798
-0,0199255678781038
-0,0119421675219965
-0,0282907942569608
-0,0139637463502088
-0,0246271901409701
-0,0257901367946846
-0,0128934640796385
0,00528717083884419
0,021106990072484
0,0141818017302506
0,0045496739150994
-0,00179606067987122
-0,0135938018394952
-0,00903060454053129
-0,0120332082993287
-0,0328739197359541
-0,0264057722231375
-0,0275577724219148
-0,0246976246443474
-0,00623170237415631
-0,00625731444666133
-0,00693631858221141
0,0047742482905792
-0,00250628684111519
0,0046879217916141
-0,00880059469845734
-0,00828672243877413
-0,0159746528084616
-0,0190826910267588
-0,0135712339454811
-0,0181212573957512
-0,0280441400909608
-0,0218398418845885
-0,0265522782314655
-0,0139416662026194
0,0125400120504545
0,0229347999137971
0,0195790242926583
0,00725228280827997
-0,00808749309339277
-0,00727669511844768
-0,0156934873394758
-0,0187131617252682
-0,0184920323114906
-0,0205228240907262
-0,0211876112842535
-0,00966138754835199
-0,0165341666268685
-0,00883919124666844
0,00258328978673627
-0,00122896333364275
-0,00773210947543201
0,00306231701075035
-0,000896548519743261
0,00176205583738208
-0,00167265550470793
-0,0246112219404923
-0,0122707065214501
-0,0260391355040725
-0,0281345936968726
-0,0176093642092628
-0,0272332461165049
-0,0157296189615902
9,67686572722859E-05
0,0316475468164107
0,0114079845500184
-0,0030695299253445
-0,019411542298601
-0,029819812127291
-0,0272660235021038
-0,00901554697923478
-0,017120169588029
-0,00140275879527814
-0,00102003604822303
0,000103216961538905
0,00128134669095029
0,000261567478358642
0,0092029058018952
0,00575714358624382
-0,0025447113605711
-0,00265612196177729
-0,00540459292380818
-0,01477108512804
-0,00725419017057924
-0,0164016432515937
-0,0123951645165773
-0,0159625300220056
-0,0139711312034454
-0,0274545900412148
-0,0283839314174309
-0,0236241266569009
-0,00595882347046002
0,00703932672256415
0,00501707809016868
-0,0195158578888618
-0,0399980815963311
-0,0434083771980986
-0,0216445007290283
0,000927267240994513
0,00186048428348566
0,0119276648371875
0,000378266500284787
0,00834661189853354
0,00722401311464349
0,00557827737388279
-0,00509240018399187
-0,00211726951856193
-0,00976157148563988
0,004517880830692
-0,00912162055156215
-0,00863145966877573
-0,0169235543139042
0,00198783174647634
-0,00455734597664349
-0,0122392059089038
-0,0249082231275092
-0,0332419173077545
-0,027446635049299
-0,0336706685806604
-0,0308816443947154
0,000821607789296259
-0,00401083095043449
-0,045668182855929
-0,0522357207849901
-0,0406225611045711
-0,0212762111982156
0,0140167830479301
0,0127610884453895
0,0311404354244278
0,0155300103499626
0,0119767594138813
-0,00667439218602508
-0,00772116364856849
-0,000502387477168691
0,0070669513820078
-0,00192187027613978
-0,00034290980073176
-0,0086209397865439
0,00149020705766168
-0,0128265704883399
-0,00880882221325219
-0,00527821523768412
-0,0197434402427902
-0,0228159744305872
-0,0271732281260096
-0,030047695311437
-0,0449378629981233
-0,0305076463592902
-0,000588154898899442
-0,0214540928939373
-0,0542358820505862
-0,0665076181129559
-0,0384945835865975
-0,00622449926077953
0,018156221940847
0,0296602603120725
0,0327628543552911
0,0193870122684609
0,0100258986906114
0,00490147866032057
-0,00192400950371292
-0,0050668355964204
-0,00592450501187998
0,000402689514220429
-0,00133006417510739
-0,00707623951029811
0,00448816560061182
0,000458272614661467
0,0117182420266104
-0,00113383932367306
0,00673700450720624
0,0092341328547243
0,00414379009594513
-0,0195569699673718
-0,0527658091045929
-0,0295608953760843
5,05929663622179E-06
-0,0256119737618911
-0,054551213020515
-0,056996132005366
-0,0376017807969765
-0,00630275405019689
0,0149416052712066
0,0246892664454979
0,0356745195710553
0,0234384536344377
0,0145072119656475
0,00445942248372085
0,00712921691154655
-0,00542387927578511
0,00677469073721485
-0,00276824083973562
0,00418494627627578
-0,00867129877450888
0,00182079490219651
0,0151523555820728
0,00682032127570877
0,0154081643651639
0,0183012385004187
0,0244783983975751
0,0132345937606253
-0,0219187789000757
-0,0320286417193639
-0,0121849713024563
0,00243251253205861
-0,0237239343400316
-0,0636137439802443
-0,0554028168432887
-0,0309296320606811
0,00170241236596862
0,025188569455826
0,0208732106058058
0,0262207496758475
0,0246716938960131
0,00863429789579021
-0,00546867048947929
0,00755199525265725
0,00648747211463879
0,00559197453090715
-0,00883828040022783
0,00129176661118459
-0,0063014850189136
0,00429672677149277
0,016235092169445
0,0188651362774663
0,0221583958222088
0,0181818092821935
0,031396877998897
0,0112785674376235
-0,0110949504804947
-0,0146909487734726
0,0119675428190934
0,00558742172625197
-0,0259052121594029
-0,0689799615460617
-0,0549491079280456
-0,00840269658491044
0,0195408597802373
0,0256163377425644
0,0175233078601627
0,033860086961256
0,0290449951042436
0,00680303246144685
-0,00109702087170917
-0,00408287582540001
0,000127122928158158
0,00780751218917198
-0,00720633086243729
0,00519926722241042
-0,000698499739928988
-0,00493431376197047
0,0165625732639829
0,0302030641160301
0,0301953509622468
0,0248191303462056
0,0295485220422221
0,031919366397534
0,0223991172119857
0,0140669690638188
0,0266607135501049
0,00146333167694186
-0,0241729902104774
-0,0405497036051016
-0,0289947810228292
0,0137076742315314
0,0285174562110289
0,0289959357417213
0,0265744446252796
0,0222526224058931
0,0131753983100556
0,00698956020083741
0,00996078981581068
0,0090156117479055
0,00131553796074166
-0,00770337122006025
0,00245603794128363
0,00724016764314307
-0,00535365178773945
0,00309403291438806
0,00622981750339333
0,0230514469430165
0,0181792002575789
0,0413498494165266
0,0424725062203158
0,0424142149448672
0,0423170362013157
0,0356234959154621
0,0417597552819141
0,0165717723591886
-0,00201162602872677
-0,00958647457483492
0,013837286409955
0,0160061701331731
0,0322173691380275
0,0297182049838009
0,0176818369578869
0,0189753099969621
0,0110169811509262
0,007767316020148
-0,00164821165870283
0,00301857418458769
-0,00522856746256803
0,00442496496734441
-0,00129138539513913
-0,00953345487274453
-0,00779633716136251
0,00558942368371704
0,00763537356283023
0,0163628823218529
0,0220671737154063
0,0300272123742691
0,0422874735881234
0,0614764187332873
0,0783479291937633
0,0586639475996536
0,0410467531882235
0,0337285550780669
0,0270485831715499
0,0266104992341452
0,0251675477487831
0,0321708945317502
0,0115869258752207
0,00970094220290319
0,0226297239599935
0,0244344980109269
0,014292965063827
0,00929180166870278
0,0107103616168894
0,00260887297492787
0,00721209810722101
-0,00602080683038608
0,000736295669921479
0,004376625579232
-0,00893803762815451
0,000239607532693293
0,00453338384476336
0,00713077902411639
0,0133117585522784
0,0232915218583484
0,0254462483469319
0,0511342027279363
0,0607917720047576
0,0440110384264967
0,0492093379056134
0,0297868514940088
0,0253066127910742
0,026677346312547
0,0201131232838649
0,0210681809664792
0,0170192143696552
0,0113902513152426
0,0121351759613721
0,00914399028127852
0,0155235779785302
0,00201612109242365
0,00218268195602783
-0,00713464461958038
0,00998583655795313
-0,000490671621357768
-0,00315637649411176
-0,000833719305873446
0,00262398001484357
0,00575958686401179
0,00778340099267972
0,00562427250650708
0,00149444168991542
0,0187379838186918
0,0193203761870116
0,0218174618180513
0,0267539318202292
0,0224577769025082
0,0116159984412934
0,0209070336131751
0,0339241459442416
0,0106826504074455
0,00288669400282149
0,010239721545417
-0,00507210718530596
0,00359332422751634
0,0129957675819119
0,00265200766574617
0,000613429224145047
-0,00333582932727866
0,00760207462827365
-0,00354700233504837
0,00292844205803747
-0,00957962384544727
0,00593215452953926
0,00427390455995792
0,00668222884451399
-0,00388296186151754
0,000102656611146519
-0,00324084446531764
0,00497504571577449
0,0149232255239973
0,0195652695483504
0,0102770037118749
-0,0147469502419576
-0,0217803062878936
-0,0245164789194713
-0,00716400363548742
0,0101479215647214
-0,0101920682514342
0,00211085948154232
-0,0210567355081165
-0,0115040971597304
-0,0100852458496405
0,00221379849762947
0,00888857479352819
-0,00476211967027718
0,00389673418019204
0,00882968570655902
-0,00196755864271945
0,000364675242972504
0,00824761905625817
-0,00659687016000825
-0,000469749176403268
0,00761117392712051
-0,00248234378231149
0,00664405665351876
-0,007898816850073
0,0100215205754317
0,0072473231301313
0,00202365278076718
-0,00976578093646332
-0,0245420647572311
-0,0374654300841346
-0,0384853481888974
-0,0246260965785467
-0,0194882877276985
-0,0169130912276485
-0,0174176417633805
-0,0122778494851796
-0,014065123746875
-0,00837149107768493
-0,00484413806111374
-0,00641997082840926
-0,00660452410225163
0,00660407067450393
0,00873994171600282
-0,00262401478178737
-0,00372228724589678
0,0076490694739153
0,000954417312030876
-0,00558890418910876
-0,00237942853739176
0,00892867980523207
-0,000773151670034521
-0,00729716998271117
-0,0109529065529128
-0,0144927427925826
-0,0253270321850569
-0,0299003910922327
-0,0197964721745613
-0,0308618828067158
-0,020098206168063
-0,0218613232032296
-0,0155247781228077
-0,016342607287344
-0,0141520121457064
-0,0185566077066726
-0,0162747194889601
-0,00921047492653457
0,000781725778123389
0,00576703602934516
-0,00750725665205291
-0,0066303258922759
0,00779539852350777
0,00881857338687913
-0,00185281788550914
0,00816060883838712
-0,00421010121433535
-0,00847181900006673
-0,000441955918244701
-0,00178939061782475
0,00225548099588215
0,00475129215910008
-0,0162937158531534
-0,0168058316208819
-0,0259738113175426
-0,0231700166309943
-0,0215461269551507
-0,0192146699961982
-0,0145694186294719
-0,0158358631047481
-0,0231953215706003
-0,0159626340729054
-0,0193239760917451
-0,00983551695537092
-0,0157760970914761
-0,00971910589506127
0,00218082802632551
0,00166354290671608
-0,00646352807343227
0,00295803509008656
-0,00782396946694589
0,00745586637980083
-0,00788350650942116
0,00278776776641038
-0,00906650221863133
-0,0054963115302363
-0,00790071885863742
0,0020685015374737
0,00815288759104583
-0,00212488672375355
-0,0101709594957668
0,00504670766260105
-0,00474682890786537
-0,0125686308945014
-0,0104638602975417
-0,00608269812013767
-0,0142115451907367
-0,0125809846873667
-0,00625555529371099
-0,0103907098322572
0,000595181989421148
-0,00133693100228484
-0,00097872103400563
-0,0101739576593214
0,00311209723197687
0,00468793471328023
-0,00880815784613472
-0,00112992971456576
0,00826459609962622
-0,00608810681667556
-0,00629974853075098
0,00300456586899448
0,00755789000427252
0,00661828005528929
-0,00347129089453783
0,00658224698540803
0,00674789456729892
-0,00119850548171203
-0,00550893064640569
0,00623728846370082
-0,00463086687718004
0,00829806891759931
0,00424611203483483
-0,00229237904929663
0,000954263028034287
-0,00624424878154163
0,00639823062683688
0,00694818219966463
-0,00923954183236368
-0,00204434665500667
-0,0101616193192648
-0,000863474931182211
-0,00733620185477802
0,0090659214583404
0,00832593231168668
0,000506443181310988
-0,00359276998489758
-0,00900447103148535
0,00894963765467966
-0,00407249013617285
-0,00677307360655306
0,00323070424293666
0,00391963128648681
0,00479058479647645
-0,00436560582107194
-0,000454992386724331
-0,0080787924947584
0,0044854504496257
0,00774985917739098
0,000801586076059187
0,00533125473900291
0,0052680165002264
-0,00951070193329292
0,00355584286135263
0,0090731384105323
0,00586868642636979
0,00682751808167785
-0,00744088909469586
-0,000741073456937948
-0,00101129181264494
0,00761471384093851
-0,00657608065594737
-0,00258851553899633
-0,000144602782160325
-0,0061515061166843
0,00440712230019603
0,000261239218647237
0,00835729043854275
0,00826392267749827
0,00602226592415118
0,000181667902591484
0,00579491614738324
-4,36578674284431E-05
0,00875917112687754
0,00327398599517101
0,00249592580951933
-0,00508179587840828
-0,00987312646767305
-0,00706514892680159
-0,00759551497999378
-0,00695968276522731
-0,00691387300814156
-0,009710913619471
0,000846665107151563
0,00320665376322664
-0,00512826931747658
-0,00112092242151917
-0,000737404600453778
-0,00984643223789084
-0,00750743281206934
0,00368042793266435
-0,00615188089020172
0,0017366024254526
-3,9070532675399E-05
-0,00168720397711136
0,00980300704939431
-0,00418078021806701
-0,00593428843903022
0,000941225924128421
0,00123371900464869
0,00929135035597619
-0,00639408943622661
0,00631793583544008
-0,00785091629342306
-0,00850455565544604
0,0106095918735115
-0,00317807933385361
-0,00603796810880415
-0,00692909164845326
0,00064679241678465
0,00628677146509488
0,0127360908617974
0,015123812498507
0,00204608576623716
0,000550438598111967
0,00787503178003648
-0,00490973502094918
0,0075662181924429
0,00708291825241821
0,00912882717163215
-0,0043953543277278
-0,00892620650070077
0,00822983086958054
0,00577825172607706
-0,00765665917548195
-0,003662811133737
-0,00591544548811098
0,0100843744474572
0,000513769143580746
0,00369140840566397
-0,00283926211187531
-0,00832060774511729
0,00157814402293608
0,00476192818887207
-0,00395797668944568
0,0122278008051689
0,000613640906919137
0,014036635056612
0,00872148516271227
0,0143859857083191
0,0224192691656513
0,0121863497130598
0,0129496437596409
0,0143395100431785
0,00845679226698315
0,0108937777574898
-0,00401863097279311
-0,00445200280773046
-0,00601014208077286
0,00360106815627454
0,00648207126021482
-0,000933744614447347
-0,00271276818619607
0,00189139581602335
-0,00441379237953369
0,00812129230180955
-0,00478928753201072
-0,0101666797100509
0,00779650002857249
0,00269049353820781
0,0036633809274709
-0,00818485481605137
-0,00436760551882374
-0,00800333094018141
0,00578607046393822
0,000429793237109412
0,00107931497429608
0,00684618314928015
0,00793094215694598
0,0122381133158967
0,014684229180418
0,010140132893231
0,00714927167304231
-0,00144392551992742
0,0114643051696791
0,00882168592373326
0,00203419862000831
-0,00534573034577781
-0,00571024249672516
-0,00454763643189689
-0,00779360365951136
0,00927420174188343
0,00586959766091368
0,00612906318868654
0,00453052196672111
0,00212116167053522
-0,00454610677787812
-0,00326941744265667
-0,0171664645261443
-0,0240201183850948
-0,018615882772222
-0,0254857504916221
-0,0113741316210472
-0,0053295546796244
0,0028815870549072
0,00362566856810953
0,0111040266160413
0,00189980273000861
0,0137753703235243
-0,000511035161463908
0,00281601508481565
0,00639816534531738
-0,0103197361109749
0,00488537865947256
-0,00583110386947521
0,00112725163225613
-0,00765021226343535
-0,00594160523076616
0,00232377708404887
-0,00289014745333942
-0,00483499554019417
-0,0122739261097176
-0,000596416296151036
-0,00731797823099325
-0,0127000309773151
-0,0130653803905165
-0,022988288487178
-0,0216737400782267
-0,0287792170651247
-0,0378449650445137
-0,022831413701982
-0,0228301557486462
-0,0259836544450138
-0,00767311162002028
-0,0127996133481159
-0,0195942897766655
-0,0114996376438982
-0,00780402311548398
-0,0138876102275728
-0,0146098371779414
-0,016704273058531
-0,00882458036790467
-0,00448762631214341
-0,00878429010900714
0,00602794592467419
-0,00381017606832173
0,00830750142829602
0,00906839375289764
8,33870745892777E-05
-0,00864003606835084
-0,00307978016319631
-0,0119216685989185
-0,0175988454314541
-0,00302218785694892
-0,0027708242146607
-0,011468848486952
-0,0200349200868089
-0,0274652961783695
-0,0275248180551106
-0,0305856324115899
-0,0293285704800075
-0,0371348352704266
-0,0283131427827022
-0,0252017875234556
-0,0251623598735903
-0,00966154299010724
-0,0135956729574671
-0,0244016288010606
-0,0222127611388518
-0,0212705614743154
-0,0149604242613959
-0,00167504015442843
0,00866145783558655
-0,00306858582577606
-0,00556046017570003
0,00659602531415198
-0,000636192968096782
0,00169190884211863
0,00438532409584606
-0,00720800292762872
0,0085295853928291
0,00687406753986236
0,00413602907218431
0,00247119067175679
-0,000320782221285596
-0,00529801053230088
-0,00873661043646181
-0,0211780816240539
-0,038282327337121
-0,0292146922406814
-0,0354851169115858
-0,0418077218094849
-0,0284314699132993
-0,028032697459818
-0,0274606980160222
-0,0266569393868738
-0,0116590873397283
-0,00826158115085586
-0,00403327949895089
0,00462279033339693
0,00218946514735349
0,00658226897355178
0,00449825615066903
-0,00138294994429673
0,0113331325241685
-0,00350209790520647
0,0042894151187
0,014703763404517
0,0193768078789304
0,0164606315128692
0,0223577695781984
0,0327414376032811
0,0144714746238775
0,0177838506891222
-0,00633012371694105
-0,00877738640096435
-0,0179627006253899
-0,0323843418159882
-0,0341504646912822
-0,0175872580888584
-0,0163271771074024
-0,0123861075371805
-0,0171812499161945
-0,0177844125829922
-0,0136372985998003
-0,0190953813662595
-0,0140451928155552
0,00391598765755166
-0,00366549493816887
-0,00703582648468632
0,00817280257095298
0,000728702981214292
0,00712289537062618
-0,00469512843660897
0,0117486925892078
0,00580398718045509
0,0284732452998612
0,0349784701966706
0,0256980243828124
0,0232617122939388
0,0232304298443122
0,00279079949479505
-0,00782036945356961
-0,00472841820652469
-0,00587913887710488
-0,00337896287953077
0,000533924805650265
-0,000264671235745407
0,012436149441994
0,00151126177662308
-0,00116590543647145
-0,00412815089668899
-0,00305456093895375
-0,0150975786466876
-0,00852912704298146
-0,00920120383173195
0,00498955373649181
-0,000915091072333228
0,00556295667741295
0,00627527262239683
0,0124780128365988
0,0114009616637983
0,0115544147756274
0,016121101911944
0,0146182024906839
0,0288015465295095
0,0155521336449905
0,0111896611557053
-0,00454686009678597
-0,0144166772819063
-0,00208662476378073
-0,00701270868718582
0,00544099717310322
0,0116571580030208
0,0186526842702765
0,0244751341181517
0,0192669629327992
0,0171323437756359
0,0130846759275121
0,00599276367013601
-0,00661573942042925
0,00103722799911822
0,00559121472605282
-0,00976176727385972
0,00967566490557483
-0,00224399233681907
0,0037511680075701
0,00477652984877087
0,00821414011324658
0,00842580206974523
0,00325855967503535
0,00517528195708598
0,00174457218813284
0,0107523176814656
-0,00187471764563466
-0,0219529883132689
-0,0160436958362149
-0,0146525727655267
-0,00231716788932691
0,0104780523616787
0,0371172070203072
0,0385647645966222
0,0407908697601892
0,0509334036505087
0,03470330565064
0,0162151109642316
0,00769758656168807
0,00124515433757575
-0,0182204867135734
0,0052564858654033
0,0100384503233868
0,000896669600723765
0,00915325723300531
0,00805901011329542
-0,00596544637913099
-0,00442624231958952
0,0105674496148623
0,00616531102942818
0,00479000523644777
0,00969812213247179
-0,00621133123579867
-0,00259464488538224
-0,014408446394944
-0,0320522645330675
-0,0300730299256629
-0,0222880066577168
0,000579472833231402
0,0402133417562633
0,0564698241866989
0,0553665158463194
0,0444417439474003
0,0341043568148049
0,0329308665145237
0,0169004509347192
-0,000831923163161659
-0,0108104155145524
-0,00896558394831995
0,00529850031211309
0,00412756675801038
0,00883903917440766
-0,00925215896459784
0,00843390012790005
0,00380559171768102
0,00694943106559287
0,00360252947443614
0,00821269191938549
-0,0029571096876314
-0,00766452515601912
-0,00465959269923447
0,000906205551326872
-0,0319446680124443
-0,0407407277493688
-0,0296226600605621
0,000335931864935246
0,0205747891468923
0,044970699817334
0,057259370235223
0,0476001110133004
0,0453632894666009
0,0289192986043272
0,0220175491394633
0,00839721455440106
0,00649982976180286
-0,0126670048207959
-0,00797561260468558
-0,000194951962550954
0,0101316428673985
0,0001500119255883
0,00347654113713879
0,00910675944468535
0,00574796299428665
0,00872839491526131
0,00817438741341037
0,00337186381444164
0,00135910160125075
-0,00760842422412603
0,00656989209569792
0,0031450064087899
-0,0185223119568247
-0,0137592261790499
0,00716788193283717
0,0410802118352288
0,0499671406482916
0,0689252789342756
0,0593364873624914
0,0344680714336848
0,0332202471731148
0,00771551592067722
-0,0101173159870758
0,000482412591551192
-0,00526275364672336
0,00141926656731928
0,00268845745384863
0,00385656333797056
0,0108177929536746
-0,00246525503897842
-0,00955398904510643
0,00293997970097435
-0,0030178851968227
0,00647990053133181
0,00572752582930123
0,00472284895037791
-0,0104957592077141
-0,00643344906314268
-0,00023328466591296
0,0101637752489657
0,026844968587658
0,0473890816309445
0,0697847610372734
0,0760988003988695
0,0719340776138733
0,0586596744562752
0,0561509337038438
0,0372430725336043
0,00409381447852836
-0,0111148625292967
-0,0300450382731458
-0,0086742308431908
-0,0161815093816651
-0,0117114130959605
-0,000425342608881176
-0,00972689536950359
-0,00769692469666797
0,00354411873352025
-0,000990051156601394
0,0096667608058391
0,00920068550053647
0,00853319891517281
0,00124300199331677
-0,00865796144283888
-0,023207887251029
-0,0189701270816513
0,00467670991660955
0,0221586661365156
0,0502759878398104
0,0728365025108679
0,0863791641600656
0,0762276440334845
0,0866176457231479
0,0726146518485302
0,0479010637918817
0,00369789956294281
-0,0131829039456005
-0,0292764715576709
-0,0291449181802641
-0,0179878445244426
-0,0200568221668261
-0,0180244542840826
-0,00752722727248513
-0,0100307428998554
-0,00629435944495597
-0,00867186904372672
-0,0017563671642299
-0,00870967630385565
-0,00835393229342207
0,0022952262892767
0,00297446286322934
-0,00596743069334262
-0,0129930467671374
-0,0269677949975034
-0,00686854705126868
0,0230968475447354
0,0599541447531522
0,0677210723627563
0,0750549198451639
0,0629105763254647
0,0600763288583084
0,0455157041817685
0,0186004992663175
-0,0209089985956728
-0,0307009027528579
-0,0333214823807259
-0,027216381382727
-0,0114510147222451
-0,0119833437387003
-0,00897734936880613
-0,00614212522148238
0,00127061292027211
-0,00494146226008229
0,00908806928418773
0,00648912580646278
0,00820034847816014
0,00271457671678093
0,000582376011948638
-0,00914003718680825
-0,0239473688074437
-0,0222627003504992
-0,0327874580408367
-0,024087123726154
0,00842486209945731
0,0259745767820354
0,0390086544880263
0,0247752346002817
0,0268420485463154
0,0182203456608241
0,00987251149544713
-0,00677306174408807
-0,0218893384861786
-0,0163548938665519
-0,0233470725261977
-0,00315370080940897
-0,00827936698017257
-0,0118484130433986
-0,0121399518651112
0,00376769580700945
0,011814987674537
0,0094348586821456
0,00608740496145443
0,00133642093370893
0,00335001770097298
-0,00192013520690333
-0,0057000381579896
-0,00528032297057853
-0,00707421290681584
-0,0297906486501145
-0,0367245518546898
-0,0205467009357968
-0,0173195649409982
-0,0103162527515702
0,00492247381816995
0,00191566679067007
-0,00786521860919353
-0,00230326584108052
-0,00949118609051558
-0,00439784094547698
-0,0121082206722434
-0,00521054635561494
-0,0079805478162505
-0,0120237531817668
-0,0158450921592362
-0,0157053886479032
0,00660127804902907
0,00729563340156247
-0,00469018745911422
-0,00803865533994962
-0,00647870502919913
0,000553220576087099
0,00132868394817325
0,00953619556172751
-0,00487892693737276
-0,0134909187558037
-0,00611242549802271
-0,0173228092536243
-0,0325173384644621
-0,0366076005098693
-0,033227010749648
-0,0278348759016731
-0,023688717770214
-0,022337146909249
-0,0235819721569333
-0,00937462013231441
-0,0171805469828893
-0,017098682991255
-0,00285348865619035
-0,0128641219965364
-0,00345135283068036
-0,0107023779756234
-0,00794358863219822
-0,00530988271557438
0,0112808383606678
-0,00626901249234972
0,000168043119447462
0,00153307641128114
-0,00162690793375927
0,00313917006410125
0,00101851409585404
0,000772237668616731
-0,0025946098623577
0,00326513582485098
-0,0166345154756799
-0,0107278887635849
-0,0301169858016995
-0,0320385053468678
-0,024424999407379
-0,0307979620948634
-0,0225824050002291
-0,0299908388318031
-0,0362996071104616
-0,0186261767513487
-0,0191856385976172
-0,0181448465223558
-0,0107425644387316
-0,0137293783253491
-0,00917366122533647
-0,000706037212551958
0,00906438468679545
0,00470674243020556
0,00683131104625118
0,00942041755713826
0,000280784633505089
0,00950093558216806
-0,005759459353502
-0,00502343368243282
0,00965226326121588
-0,00533958701199833
0,00363352475378109
-0,00593754127255069
-0,00975156428032775
-0,00733631975224257
-0,0154990113174128
-0,0211315015474219
-0,0220214455089629
-0,0309040490580691
-0,036650956081326
-0,0352642423506104
-0,0314157179403923
-0,0194673901791918
-0,0177860264367251
-0,0108643575052959
-0,0062948240853597
-0,00770771472547757
-0,00449190646303847
0,00236370870141284
0,00947159066474458
0,00480316527324186
0,00203465153061064
-0,00357067170998378
-0,00252762240352731
0,00658853671883392
0,00412061498608479
0,00829909677538048
0,00543560002717916
5,75569132610972E-05
-0,00239706579350585
-0,00714206755884787
-0,00106132449083249
0,00427752923285273
-0,0114402197183991
-0,0102654657295819
-0,00614547722280344
-0,0127231566380657
-0,018660319360526
-0,0151193903888765
-0,0150074582540875
-0,000507039703018255
-0,0003647867978203
-0,00559187357756093
0,0145320496752002
0,0159660983044789
0,003110024345509
0,00213641123093017
0,000734399905952529
0,00127315313398441
0,00362414871316529
-0,000988983053623313
0,00624399723410608
0,00543058039039901
-0,000351633660634549
-0,00155779140608282
0,00451489655045555
-0,00165034673719217
0,00873935467151372
2,87724873949954E-05
-0,00972132815303605
0,0044952126538716
0,00771777448441135
-0,00392283598367083
-0,00741105135351973
-0,00817727743050562
0,00595046603286152
-0,000365036942952649
-0,000400236430168932
0,00896721841121189
0,00545859015784188
0,011526497885183
0,0154942224824222
0,0159389344820165
0,00184589241662615
0,0128421173492833
0,0115860880579892
-0,000685523617714996
-0,00275642789850188
-0,00116081199711936
0,000993580739154541
-0,00101245075785
0,00301112755829497
-0,0026840801689234
0,00774378764338036
0,00907635833093727
-0,00259896707376417
0,00627614009278853
0,000101279410015433
0,00950666243029099
0,00860256847811143
0,00190004079195635
0,00711715294664565
0,00934680241062949
0,00239428839792552
0,00774983373251491
0,0181655750115634
0,00643996836317113
-0,000183420590191566
0,0155587004114079
0,00082176033181718
0,0133672317114569
0,0121185799875412
0,00201725438550436
0,0104321796883717
0,00924903937937819
0,00225100257378203
0,00971443152342624
0,00117199360303924
0,00205481138295645
0,000409540874142918
-0,00310954779996981
-0,0085499706950737
-7,29952613231707E-05
0,00902941799677416
0,00160127974655539
-0,00844229949988664
0,000551415694985662
-0,00218342805269483
-0,00753724196072553
0,0030699599639397
0,00756869005515825
0,00715153568664176
-0,00237011533091842
0,00823186100985339
0,00959253378484231
0,0110782492462217
-0,00640252835325912
0,00191561133778606
0,00505277497137018
0,00823969280530475
0,000619863617645237
-0,00336446492218592
-0,00161555292664183
-0,00615004156336844
0,00230780822900751
5,76952146634918E-05
-0,00718757200855183
-0,00217535793416917
0,00890220776149175
-0,00306390761074792
-0,00227159469959866
-0,00489563840203715
0,00799938574340166
-0,00118761586546321
0,000937001039710362
-0,00120889131501731
-0,00610125744533784
0,00512522364739572
0,00420065953126208
-0,00152862299770518
-0,000639350791759486
0,00994800412722617
0,00881431787166913
-0,00426010557445976
-0,0020963804946894
-0,00782725389945658
0,00193597161766886
0,00293762419975252
-0,00889598667570203
0,0091951377872355
-0,000235661049483187
-0,00114707877447227
0,00695380339257131
0,00435054529195211
-0,00993789533150284
-0,00961394920927191
0,00313358884916342
-0,00381158047067541
-0,00325519009179212
-0,0084564154681081
0,00874354395956897
-0,00729366029064346
-0,00115090333648568
0,00542643675934962
-0,00479338140662748
0,00223344346575451
0,00878850641924887
0,00843463901525917
-0,00332966804113233
5,19640823474782E-05
0,00620710405653668
-0,00242395737869267
0,00686346620085132
-0,00400368866882529
-0,00134462462346106
0,000674437507731617
-0,00209016923382737
-0,00727869147996559
0,0059173245382259
0,000144702426661341
0,00813659510574725
-0,00012519620830435
-0,00327937125846714
0,00970706997425625
0,00717175343873527
0,00887548407487361
-0,00184944179460846
-0,00635090117945092
-0,00124263402359546
0,00057284259522968
0,00566402034469573
0,00780202800487455
-0,00132386003678707
0,00318815126491448
0,000644620349724653
-0,00174222021871547
0,00296692870805925
-0,00397609115031644
-0,00587197883353824
0,00974447045110185
-0,00246897787577662
0,00814329677581793
0,00145911736207865
0,00637635722195125
-0,002533445223422
-0,00488510666236854
0,00383627636238848
0,00205365172922052
-0,00375220455251176
-0,000291507873098426
0,00267118733570498
0,000563105284498589
0,000353706428014538
0,00663294792018502
-0,00657813906510274
-0,00113382379548974
0,00600884367151321
-0,000852187952202942
0,00819142228248617
-0,00382542033828377
-0,00617196207895815
0,00491949253808697
-0,00108134716779683
0,00513269451056084
0,0032548307895518
0,00760800295435786
0,00838906775219693
-0,00568544636168127
0,00701290039092572
-0,00515367272986689
0,0153224446741696
0,00176199203531937
-0,00130990090290168
-0,00506553297136982
-0,000571797593372669
-0,00423057785594576
-0,00604640906552329
0,00558158371925318
0,00630420460039087
0,00468235509107243
-0,00335839028160944
0,00694238059080317
0,00764225857849142
0,00908858494192808
0,00789224935046946
-0,00483924393842846
-0,00270548998075334
0,00151324585402067
-0,00103890055643475
-0,00961000783575866
-0,000394538159939018
-0,010642171504086
-0,0105182210510138
-0,00559481767925095
-0,0103932243193283
-0,0132467492523462
-0,0140629882991725
-0,00337863409061257
0,00635744708161999
-0,00419584069600757
-0,00829021295144168
-0,00557851469067758
0,00187469927443348
-0,00718700806842728
6,3642100099189E-05
-0,00126317876696599
-0,00109632774518372
0,00038863322339462
8,81152006359073E-05
0,00905768426091303
-0,00439276076592168
-0,00922850246758061
0,00293182718397505
-0,00615627480050863
0,0102107212125002
-0,00206434139074487
0,00867798397679932
0,00301743232138704
0,0128624565878107
0,00477694459988066
0,005048149965585
0,000751962491836398
0,00908695837069463
0,012354400767951
0,0134774252070411
0,0242569546842293
0,0244272395558193
0,00728994280395234
0,00191989683454116
0,00649854524938507
-0,0119394366791918
0,00247900655749705
0,00944476940791029
0,00267293394251681
0,00212065526785671
0,00867100922578166
-0,00822241948909048
0,00332053141357402
-0,00123179050844534
-0,000559310424074005
0,00673378105751302
0,00784380764923332
-0,006923829601733
0,00236245171107437
0,00909649363703557
0,00818757644778957
0,013061180376494
0,00936161296531394
0,0233141874047951
0,0137407513812066
0,0196472813001209
0,0240256884651004
0,0261217148318245
0,0222810244986982
0,0249789906905029
0,0197127637676471
0,0122051845399952
-0,00292218675606868
0,0106173632369999
0,0119551416192307
0,00796500745556148
-0,00251794337053393
-0,00436803719993221
0,00304672975147684
0,00913093602567533
0,0031840658671941
-0,00684641015863556
-0,00840687770890681
0,00197344988229236
-0,00935874101604632
-0,00531549181598355
-0,00717351804379662
-0,00770167845572254
0,00366303594416686
0,0121833279327304
0,0154507874115549
0,00573861584001717
-0,00028693211820749
0,0106176153141293
-0,00614741633654771
0,00347153996973292
0,0106686587804759
0,00251927285697384
-0,00807264827243974
-0,00216804328485297
0,00233988105672831
0,0207697231413215
0,0133550715596264
0,0213430632432273
0,0161150261080725
0,000792973141053192
-0,00671679436185526
-0,00985952526169796
0,00579880282885099
-0,00994813542897798
0,00387997824722003
0,00204657268751875
-0,00455609105172603
-0,00467793911360461
-0,0152470865127613
-0,00971771395654873
-0,00732389132221149
-0,00392807894251574
-0,000970166148918198
0,000530417208157706
-0,0186678714241526
-0,0190608584880021
-0,0274735999087739
-0,015577002031649
-0,0302792014759615
-0,0224591714050885
-0,0198007226750964
-0,0166372230995219
0,00680175268082752
0,00751068858513488
0,020012235031274
0,0174162205277373
0,0235574040099963
0,00255890256957926
0,00457506001347775
0,0038112290737313
0,00419065313677011
-0,00441236973219277
0,00591707493033278
0,00168987222128952
-0,0143245692294635
-0,0168610013401728
-0,0165647223752872
-0,0141848085683015
-0,00407226220754893
-0,00344407404024868
-0,00737362237804641
-0,011490999706303
-0,00814244012133935
-0,0172815470486515
-0,0395491615185578
-0,038562484434983
-0,0273728249775825
-0,0389166957068786
-0,0168787586861716
-0,0105905023718268
0,00505302938770889
0,0128567528136992
0,0221420586471167
0,012136654816157
0,0185384577734384
-0,00300317494157551
-0,00116598337107563
0,00124739688129332
-0,00157270706837853
-0,00347319065154942
0,00355796648151225
-0,0107944063159632
-0,000689147207342561
-0,0139670093008113
-0,0106458816809275
-0,0205085480496135
-0,00897067331627833
-0,00172182763722825
0,000215634672782371
-0,00218835594169925
0,00685238690655415
0,00637762217400588
-0,0156164049842261
-0,0441245753009745
-0,0255365374251939
-0,0218171681426791
-0,0356415869893098
-0,0147880138343375
-0,0153101844743548
-0,00241781532067206
0,0129964354907538
0,0208534171124697
0,00423088509625335
0,0121733505761152
0,00931329328463604
-0,0083242540818978
0,000829697044300915
0,0042388251582848
-0,0113392965580501
-0,0126984260165283
-0,00239197270944142
-0,00586185089613226
0,000821334760768062
-0,00564108215526192
-0,00902249598593631
0,00551932293921212
0,0237190017932158
0,0390029930804537
0,0393095015043854
0,0165656336723726
-0,00536678740680719
-0,0314259979001033
-0,0146090829489921
-0,00976964941171684
-0,0323662326000005
-0,0225419585421379
-0,0148613981873904
0,00328189269672342
0,0111765239748444
0,00498962408419067
0,0156899059700537
0,00119190285421048
-0,00195612254708482
-0,00493573234676906
0,00771495177932093
-0,00994486148974948
0,0071666889826181
0,00527559057661965
-0,007374754915814
-0,00551634108443219
-0,00216271699616943
0,00699160489324888
0,0124571107182151
0,024670521097002
0,0448513560720007
0,077255033827848
0,0880872639066558
0,0458728440194415
0,00951222648677344
-0,0104668742198054
-0,00424735436946147
-0,00561809759847089
-0,0254541535445953
-0,0420049923882218
-0,0225252152523518
0,00154051164290986
0,0156288982528841
0,0162987291603313
0,00945854261008625
-0,00942240386291851
-0,00165310674599098
0,00796035845688094
-0,00356327450569478
-0,00973277277876843
-0,00811711746480583
-0,0062006786596733
-0,00832218040150631
0,00216130563699234
0,00438552512985123
-0,0013702075765421
0,0154713697676952
0,0386316256997817
0,0743543939241286
0,0931821111655595
0,0900102737475233
0,0344019756307361
-0,00122496665213284
0,00701718772151308
0,011678246187769
-0,00408862004069442
-0,0407245797766818
-0,0384470218441164
-0,00677700782469639
0,00754184691991949
0,032194246608935
0,0152545350479552
0,0121413177580302
-0,00533400045746483
0,0088388018832803
0,000344419791037937
0,00222399748649128
-0,00106722490147212
-0,00404169038666808
-0,00222608160341032
-0,0110687885684913
0,00276413359708668
0,00390396491296908
0,0129462084976566
0,0135063644409502
0,0210171359850158
0,0527594638556649
0,0675426154043962
0,0690015879331378
0,0230064560571843
-0,00685215346693848
-0,00731250588448647
0,00931760638086336
-0,0218623604532493
-0,0297995164457477
-0,0255426928129755
-0,00401672261117325
0,025893495468107
0,0137373645731239
0,0256789124760309
0,0166016922551361
-0,00553166800494809
-0,00615675759880724
-0,00812123340531391
-0,0095137609348382
0,00613648920729867
0,00223028052717303
-0,0086873212460401
0,00346195454970504
-0,0064490310978405
0,00266602564846051
-0,00381553400033491
0,00481719439311958
0,0156458290017148
0,0271424173590431
0,0398484702287531
0,0164774437958186
-0,0171695469433729
-0,0357374230305309
-0,0171823709948669
-0,0127074246339059
-0,018832675325261
-0,0282568130814302
0,00424752128067334
0,0212175507259691
0,0302659188253927
0,0256490872626617
0,0141753990898734
0,00738425364653987
0,00343013087851539
-0,00214488303808187
0,00723605235430246
-0,00135871972582639
-0,00128149062234631
0,00142104229215803
0,00753602836192137
-0,00351480163736649
-0,000931285620378345
0,005052081076244
0,00293970229811445
-0,00375847206784697
-0,0064518224531314
-0,0011606731656568
0,00269969747925785
-0,0228324202391328
-0,0468349929246
-0,046155875980308
-0,0447376064625373
-0,0244653852165358
-0,0220190965570617
-0,0036924267449351
0,016989831812621
0,0282374860122454
0,0252065296410612
0,0155738205847598
0,01868137536045
0,0102867373928532
-0,00488581094000326
-0,00282278307251229
-0,00550919204679785
-0,00747995188342405
-0,00655821018977205
0,00184319929251628
-0,00889463854348589
0,00217056947851201
0,00344320537918687
0,00500229650918671
-0,00938560629619443
0,0091854972094607
0,000259662119334719
-0,00522519728774903
-0,0219610311548211
-0,0325628886038055
-0,0643440603232256
-0,0562795451262949
-0,054514433775543
-0,027999532186589
-0,00923963161845235
0,012955112724533
0,0234662551547647
0,0178500346670017
0,0207119536128494
0,0140723051125723
0,00901340134794726
0,00814578323920215
0,00268665993435067
-0,00671667159385064
0,00666792001106349
-0,00922614634391094
0,00266627241375304
-0,00895197143139754
-0,00921003663107352
-0,0111100476039469
0,00115861410429155
0,0052707062620237
0,000324704622865181
0,00981768279990885
0,00369486277382943
-0,00625477624489022
-0,0110355433434889
-0,0368847089906231
-0,0575778952598277
-0,0691996787979564
-0,0446876901337457
-0,0158361803067765
0,0109482655027968
0,0333865657143443
0,0232077461218013
0,0218728396748133
0,00252914095988562
-0,00151552882115934
-0,00775165723272922
-0,000559496142737357
-0,0130585265603952
-0,0080443693623743
0,00133639530523596
0,00150930739652666
0,00641945214001474
-0,00739734640400498
0,00792664904971215
-0,00140509366079049
0,0102709427353359
-0,00386317310578557
0,00716403404338106
0,0146001982071287
0,0135134154563654
0,00380426613098451
-0,0109758964827315
-0,0178329784878462
-0,0316696334367563
-0,0288327292561443
-0,0152356544170102
0,0108330389395978
0,0331181342511074
0,0316024211678822
0,0188584875937077
0,00968292931188397
-0,0017877709699414
-0,00627863617484695
-0,0102985924483423
-0,00157513403086507
0,00341502740415447
-0,00611637010393487
0,0098738171798531
-0,00232166202381331
0,00501826686101004
-0,00273003051968385
-0,00943320265942683
-0,00161818397164475
-0,0057280262496062
0,0110274570180035
0,0169930049132463
0,00840944388147255
0,0102769246343084
0,00914351879631035
0,0121189012963136
0,00544794754300479
0,00399164884427856
0,00572842528428352
0,0208110673837903
0,021110627180914
0,0318597841206696
0,0240324584122024
0,0193250635920003
-0,001657742535436
0,00175735557373336
-0,00420793497906671
-0,00405209322013249
-0,0131612568733923
0,000515703483985535
-0,00698932008675631
-0,00383869097176822
-0,00217539336307854
0,00317519713136491
-0,00705217085046262
0,00359993017527687
0,0044675804136433
-0,00702220371737616
0,0161337229288914
0,016760033443366
0,00611804153551749
0,0088290581596716
0,0231243030062338
0,0251614102600016
0,0178632249147013
0,0176799323348208
0,0180654536637917
0,0184801310023549
0,0254920719968126
0,0114527818770532
0,0202770194483248
0,00615713378637849
-0,00440888421955479
-0,00820751702596861
-0,0192914346240635
0,0003866557839927
-0,0122249139613947
-0,00485332902822865
0,00471945095094828
0,00137601995257913
0,00961920110384681
0,000825394980632108
0,00733353173557901
0,00707162054722054
0,00882109434983459
-0,00131650670195828
0,00292553359149097
0,0106230333732719
0,00607199714880212
0,0201350347865562
0,0340942275337084
0,0360286995239963
0,0478729186574276
0,0303032473769424
0,0327264894359619
0,0121912229037785
0,00423920955690766
-0,000615504184459381
0,0118983192635331
-0,00490987179832909
-0,00318150665335845
-0,00820175281442035
0,00310211617599641
0,00376607373100887
0,0022178015419727
0,00103017966126127
0,00769927586234454
0,00766213065214718
0,00305490424533137
-0,00549492387822593
0,00110798699178562
-0,00107094811031428
-0,0027355222851169
-0,000821035132578409
0,00932490902287805
0,00997970378610306
0,0106531661702382
0,0280046913721004
0,032004156002025
0,0406539930821061
0,0449872141513468
0,04178108918555
0,0189005270544948
0,00775757455393938
0,000290149297800632
-0,00292553247440392
0,00600682347821389
-0,00375942523798459
0,000546914035690893
0,000390501793191414
0,000370595890262631
0,00747017122547386
-0,0013592186468556
0,00065539612622054
-0,00927440450343146
0,00106399916627631
0,00145522174027526
0,00868484659059199
-0,00791727398037732
-0,00272212614398639
0,000706503840335091
-2,40170774680478E-05
0,00861051765129261
0,0103314772228601
0,015270210192011
0,00898015365576808
0,0083210872528677
0,0172166269932201
0,0150538985282053
0,010841321568744
-0,000281150887321867
0,00136486459552129
-0,00126056864072453
-0,0102920527429147
-0,00381489435239448
0,0014334374578527
-0,00994605942652901
0,00112941161779726
-0,000471303344324524
-0,00341314559180089
0,00700403740206244
0,0014813395773389
-0,00566545877201998
0,00892055478828054
0,00120372050963515
0,0018224464132555
0,00896179873822114
0,00521087318673082
-0,00324281902434138
-0,00681303227176389
0,00732945339875907
-0,00739926392260588
-0,00283535596866379
-0,0140370734500315
-0,0183720786817579
-0,0194625952977058
-0,00730645562659452
-0,0176239867542048
-0,0197390134168633
-0,0069614597691642
-0,0223114295150617
-0,0181372562171895
-0,000185394350866295
-0,00853208987110945
0,000786179503004289
-0,00596254916146961
-0,00148465771635427
-0,00516259225813144
-0,00917284196949094
-0,00389076713977487
-0,00178193498123345
0,00820769413290904
-0,00193759573248103
0,00505129362226059
-0,000266670310062668
0,00832783403363595
-0,0051230378200137
0,00739411093159534
-0,00605486598654654
-0,00550805652229701
-0,0052338155372881
-0,00846915205801816
-0,017399172285887
-0,0193148728576202
-0,0172579467263225
-0,0117911563275183
-0,0120179307807771
-0,0191979331220019
-0,0198946016888725
-0,013018418575865
0,000160746671300101
0,000804393340289746
-0,00481442737066039
0,00181599405060369
-0,00583611316710356
0,0021405162329536
0,00241118302851087
0,00709000001418266
-0,00492560544746258
-0,00431179709467655
-0,00720296233762194
0,00401770884823879
0,0043713707450644
-0,00923380280809188
0,00579966675798168
-0,0089349177073336
0,00882916862126735
0,00952714420638021
0,00608435083911579
-0,00572148164562471
0,00891932139755987
-0,00983022198724152
-0,00806799775114309
0,00695670551480336
-0,00500144681549548
0,00035529682040038
-0,0100616718325699
0,00426179171630949
-0,0106070647533221
-0,00995050930914871
0,00235916041964727
-0,00481550344407303
-0,00617596883003934
0,00564035482577594
0,000602938556393113
0,00451159903524052
0,00179194511463491
0,00568368727140301
0,000606025937295531
0,00752937529121031
-0,00408305962294483
-0,00213858573331432
0,00275517389772235
0,00967926568336751
-0,00533010748928883
0,00636853718961055
0,00530480637927764
-0,00803439275270067
-0,00270094836722172
-0,00433579717499008
0,00434374992498215
0,00317638382472149
-0,00271461740667479
0,00605306488940217
-0,00468826367272449
0,00418002747659573
-6,51130406489186E-05
-0,00294909939772873
-0,00547876229299175
0,00162182402406904
7,6345833985296E-05
0,00641887441110745
0,00661186947329523
-0,00548049784055003
0,00312737028725789
0,00753173855018417
4,57229884554284E-05
0,00870025036796008
0,000163258635515003
-0,0087081542046313
-0,00069010903923343
-0,00675077433909603
-0,000835880745388899
0,00894039400801304
0,0087939726555116
0,00169887803360231
-0,00176873303417749
-0,00642528304867741
0,00424889820470775
0,00112680434239418
0,00722358191070347
-0,0100115252015877
-0,00127971238255135
0,00462769959538313
-0,00402037958178391
0,009164893336819
0,00777394040567521
-0,00223424013808123
0,000327627804948315
0,00641741400750285
-0,00542328792411056
-0,00525895548763636
0,00116244956439475
0,00898420191322649
-0,00254697054277499
-0,000501934034052274
0,00124886290208541
-0,001764810572649
-0,00347060134944858
-0,00286674876912837
-0,00375909717467443
0,00628982913110583
0,00107708490424766
-0,00531924976527356
0,00422714482681858
-0,000945660723321739
-0,00812907814074683
-0,00426696832462687
0,00390325637866358
7,7775622347146E-05
-0,00808415350593961
-0,00895832157171922
-0,00363420970310907
-0,00264130999653652
0,000152529623723469
-0,00262718553970709
-0,0036155809491338
-0,00862137057310138
0,0082589556496206
0,00378436345274032
0,00951840937115178
-0,00787459017609925
-0,00165913368186873
0,00374034755571762
0,00671584207732978
-0,00543129548136593
0,00207360922454811
0,000312422798021428
0,00166053761686662
-0,000176126162783435
-0,00902032653632454
-0,00856408776943401
0,00930305828279414
0,00154581860397828
0,00166184358467912
-0,00186084623761205
0,0038800533170429
-0,00404944147820138
0,0071338630942675
-0,0017002351165032
-0,00524229944744035
-0,0113574645476186
-0,00745720481235544
0,00127602668888087
-0,00253676296229978
0,00706811205595556
0,00160339589747973
0,00804484077512558
-0,00514783842590372
0,00753868494068211
-0,00822518115780558
-0,000545947301243484
-7,75942623230123E-05
0,00284742623567889
-0,00217481088468154
-0,00483570179387681
0,000670763277518459
0,0126352336028536
0,00706983149444578
0,0142791153226622
0,0272554044940557
0,0290352339347043
0,0377530447773316
0,0314218806229688
0,0342873476194629
0,0192764431289782
0,011696923722146
-0,00125300070400952
-0,00380234004921902
-0,000567376188064265
-0,0132327084354171
-0,0110727384640043
-0,0124934114945821
-0,0116905688964019
0,00579707872305794
-0,000806947837776116
0,00122418332283019
0,00129605840234883
-0,00707961031099763
0,00798085507842752
0,0022020028200072
0,00414609434858806
-0,00363321036509987
0,00747135291321435
0,00465311473050518
0,0129116341180827
0,0179797729837397
0,0180191457116693
0,0397689277226367
0,0279552085479678
0,044406109172795
0,046001559283106
0,0463670611581948
0,0319450715543424
0,0274706782590209
0,000644824190714133
0,00572342835373767
-0,00735726727700404
-0,00892514578904932
-0,0123676813023931
-0,0109082014668305
-0,0136440889088614
-0,0058819894667551
-7,10799272348899E-05
0,00575349308302534
0,00671621992191238
-0,00388127084536537
-0,00331414726441321
0,00448797912040054
0,00847747147986477
0,00577076933091684
0,0133628451803264
0,0167409253976546
0,0181906068240477
0,0313708019104892
0,0195518231669514
0,0259699575971274
0,0232449830004721
0,0438994283921788
0,0284284015593472
0,038167940488476
0,0189510775665551
0,0121187568533438
0,00669849003908791
-0,0031468336758817
0,00418646859552826
0,00103507902026701
-0,00121999810775208
-0,0187887941062147
-0,0109904783691754
-0,0041542389524906
-0,00578546095489857
-0,0036553567312462
0,00730974134363624
-0,00245075498149745
-0,00534829082891939
-0,00610856584332577
0,00487049984101898
0,0129400436234529
0,0103106844926004
0,00949910528012773
0,00909384355231207
0,0152113079302489
0,00541046199358082
0,0120599235744905
0,0207794378697589
0,0245156117972912
0,0145388930852802
0,016930888320679
0,0163425484783095
0,0152345831769813
0,0127836205840715
0,00461870377415353
0,00216191667565254
0,0041604844608101
-0,00849666160259892
-0,0217604742203266
-0,0274477311015633
-0,0135075882264955
-0,0105592499727748
-0,00559078207522774
-0,000590717524485919
0,00953821068827549
0,0077520610594423
-0,00859196772543478
-0,00303487334751075
0,00598931527978512
0,01736789574178
0,00499834459673464
0,0114527257525841
-0,0088236591059242
0,000606978642942122
-0,00925824672689788
-0,00584556893826129
0,00393923229104244
0,00441081568417825
0,0136236009031283
0,00812909848929649
0,0248911656622723
0,0128625947091118
0,0224625554466632
0,0108906293305403
0,00306058074271554
0,00159797716179476
-0,0199341192609561
-0,0245230512236547
-0,0208301027542711
-0,0120735716096548
-0,00397280350847438
-0,00932389531244804
-0,00812005718403924
-0,00957757904503371
-0,00706233295912874
0,00531786159022963
0,00066845880819236
0,0116602481779658
-0,00385432361988179
-0,00657533786761956
-0,0300909179136584
-0,0340578060750962
-0,0355239676479537
-0,0294898185490957
-0,0275486405132081
-0,0185672357841236
0,00310862373087429
0,0294472264953714
0,0207305159305643
0,026563581830752
0,0145935176849628
0,0210221741921361
0,00666742528273376
0,00444491419455467
-0,0180267140639666
-0,0209367596662989
-0,0127226674456979
0,00179685387010763
0,00953258676846034
-0,00662120197261434
0,00396676709766442
0,00459568261527856
-0,00910269582351894
-0,00218313165809146
0,00331910940728608
-0,00763637713063014
-0,0087639406411007
-0,037575553330447
-0,0401605499102002
-0,0499254556775217
-0,0673335729446306
-0,0798397204947326
-0,0700856861675457
-0,0460607237740944
0,00174997617438782
0,0398886796277251
0,0403956487887619
0,0301887441519142
0,0180986836970914
0,0201162759258063
0,00015410743294737
-0,0109156531803403
-0,0224687671285428
-0,013879733846213
-0,00010631737444926
-0,00469700382681873
-0,0030736645534357
-0,00808907097380879
0,00582897384922619
0,00622415340820514
-0,00506417769618125
0,00109830515980454
0,00579009483550301
-0,0174832512380798
-0,0170572572220939
-0,0482329624297359
-0,0650303575413447
-0,0569423484272336
-0,0794971708715521
-0,0804177549363971
-0,0681759998785534
-0,0345703414802036
0,0197512908158264
0,0466279222646431
0,0256702688457713
0,00784235962066438
0,0138964002649811
0,0141982388875708
0,0101398460788635
-0,012735011521384
-0,021114643180577
-0,0155387529870331
-0,0111307902811418
-0,00802654118590957
0,00681704074550154
-0,00156237440785076
0,00342746535962247
0,000546635624632346
-0,0004227750199481
-0,00565404903524905
0,00415252438738151
-0,0129057071476981
-0,0399449761798231
-0,0462014935140217
-0,0626649491574746
-0,0601455150377295
-0,0749099895261025
-0,0811729794046871
-0,0731438290195321
-0,0112870392747653
0,0369073526949758
0,042356552068762
0,0083446687083252
0,00297744173172493
0,0122918077854589
0,0152263295697315
0,00662219619722148
-0,0205707074638187
-0,0163810774347525
-0,0195419830225313
-0,00279606934623314
0,00436624204576967
-0,00620576162708671
-0,00287678249899968
-0,000948962914070385
0,00473696795025911
-0,00393806898352043
0,00349193101490948
-0,00884497498409976
-0,0178909875541159
-0,0353793249293705
-0,0486103012421814
-0,0501094803577535
-0,0560040531907468
-0,041878457243647
-0,0550599613100134
-0,0454727524760372
0,00362623483327404
0,0278680300938367
0,0233943357248962
-0,0156322907098631
-0,0100444248819837
0,00538275963560063
-0,00233782630708362
-0,00173025741839089
-0,0245982508403619
-0,0208817107427008
-0,0241395265896506
-0,0153847578321636
0,00898959634039351
-0,00102183112902559
-0,00360403760509781
0,00219353835248126
0,00915854519156263
-0,000105408687964344
-0,00824441452318685
-0,00529224363572391
-0,00962806209297562
-0,0372355412738503
-0,0384031848202612
-0,0383273487640447
-0,0284494805160867
-0,0373592819656265
-0,0271121774255694
-0,0223106976840402
0,00798894931710362
0,0230174781862263
0,00632438153715195
-0,00298123048846682
0,000845507418821456
0,0163484046777542
0,00526665738507515
5,72892070705769E-05
-0,0123150342069942
-0,0284966625593416
-0,0239867941231111
-0,0161302249031313
-0,00917552995714632
0,0023217263876027
-0,00815228808808389
0,00733604835092874
0,00769740364204152
-0,000321600506979463
-0,00440112319040227
-0,00921768245964059
-0,014546379368309
-0,0119999910908744
-0,0245497255182887
-0,0194384029356109
-0,0102247299449999
-0,0283992963979035
-0,0224255243567989
-0,0126054313523962
0,022670928017043
0,0207540408081418
0,00444284019328642
-0,0103322744013109
0,0169180539259233
0,00474515919334445
0,00940843592654599
6,8850513348923E-05
-0,019271096829684
-0,0186246812831359
-0,0131852430735876
-0,0121479696005041
0,00946736182611697
-0,0025411086625192
0,00290282082807115
0,000668059246895705
-0,0076750660838515
0,00855278371084871
-0,000861799747202933
0,00070998855342631
-0,00468976336179212
-0,000310301192743822
-0,0103804074892702
-0,0196933707612213
-0,00750624642632477
-0,0212425860596031
-0,0154465360507046
-0,0141626725785256
0,0239974877245509
0,0270375131710011
0,0157957885933898
0,0037773277329752
0,0100992594601168
0,0091689274569395
9,80155564125031E-05
-0,00401740630061788
0,00260111494828089
-0,0156347920837506
-0,0122199041982802
0,00851701400914425
0,0103275406648587
-0,00395545657514196
0,000466064357515296
-0,00396703676971003
0,00664452023076272
-0,00918594795443674
-0,00159012593957821
0,00205983491859957
0,0091725558028111
-0,00161471681751638
0,00234947642276294
0,00367196309420041
-0,0136087753789115
-0,0169688446805758
-0,0158406327399889
-0,0125732169619135
0,0130087164791094
0,0232109000188424
0,0102656975828228
0,00454341293889507
0,0028091696944919
0,0106273433833213
0,015416325684608
0,00512645565976437
0,0069831058753492
-0,00489243675097027
0,00838713562648613
0,00593552683483208
-0,00339660459552774
-0,00301153092921201
0,00292495954436906
0,00928351469315657
0,00385195825659663
-0,00217581579156204
0,00780601595708421
0,00959930406495862
0,0165342052927137
0,0103894813019547
0,00402103311323767
0,00490383909047392
-0,0177706688309017
-0,016854879465845
-0,0106338303958545
0,0145723933828069
0,0224236157567644
0,0312532514783409
0,0151124938693504
-0,000251831933498327
0,000972545057196326
0,000877469424914207
0,00574430114727883
0,0116446212786191
0,0190028162138356
0,0179914528037176
0,0156305305982074
0,00350919795154983
0,00192555123576151
-0,00784577727636699
0,00362335704091731
0,00422966892231778
-0,00501796277527642
0,00375820811125725
0,0192063044161652
0,0145170151120938
0,0244564116782905
0,0231648596995048
0,0107589630397368
0,00152532135774335
-0,00549631347791206
-0,00784146852610455
-0,00562217384718128
-0,0108089588516607
0,002442461357673
0,00318118546270186
-0,0161272438277831
-0,011078517613222
0,00350743608533074
0,014519667383265
0,00514853657751134
0,0198849938056887
0,014049901098972
0,0129245065030504
0,0242784144880235
0,0171867704046175
-0,00339858545988755
-0,00522226732587925
-0,0063638960611149
0,00810798438177816
0,00319498753689258
-0,00331684059268872
0,0144713384891409
0,0181337204092013
0,029831116447981
0,0279846627764864
0,0231496892784823
0,0175127817236732
0,0100501455643445
-0,00574904497150138
-0,0127473867664437
-0,0101912184562959
-0,0126586714540686
-0,016235690657213
-0,0280926738930518
-0,00970117767248056
-0,00694786878216894
-0,000204042959910641
0,00854709637558283
0,0136108360951723
0,0237303776185814
0,0109741798734365
0,00820245478071801
0,00672661275010609
-0,00615585694077605
-0,00881545445632312
-0,000890041249875239
-0,00998201112012466
0,00352934414804592
-0,00731544767667147
0,0173033751958545
0,0132581109652843
0,0256173474650628
0,0272218836011589
0,0290278497366772
0,014003356408152
0,00295410095007579
-9,05156726757666E-05
-0,0165610354474564
-0,0239612857576406
-0,0201334289621999
-0,0252291935366532
-0,0114821509620329
-0,0130276619622642
-0,00702239733127224
-0,00421483129862608
0,0181573038780851
0,016826126652009
0,0078240295276098
0,00593441400831768
0,006806862225525
0,0134744605179503
0,0109489677118036
0,00839143673660015
-0,00607019948313784
-0,000110917223462967
-0,00909993615354914
-0,00370295298450451
-0,00317541823055758
0,0116869594378111
0,0131599464336104
0,0284870962425103
0,0178534430349141
0,0269525619326304
0,0186049923108257
0,00282030169641553
-0,00928080322695234
-0,024207692060236
-0,014163762840095
-0,00654309593683618
-0,0050945327434606
0,000149723021965891
-0,00306933820183668
-0,00158740933557898
-0,00172288907060724
0,00145609727025796
0,00437502386554525
0,0136093458891145
-0,00410925286664802
0,00974378549294226
-0,00730118073492093
0,00519530745513444
0,00611967348321567
-0,000800703498907714
0,00325115778169183
-0,00903945780203817
-0,0043985151745707
0,00484845648119764
0,00476657234118104
0,00953824576152336
0,0114286328861662
0,0229646370822039
0,0125039779485861
-0,00481178257163957
-0,00637497565209437
-0,0177093479756855
-0,0182485847189105
-0,0204734634255389
-0,00461636197869084
-0,000884082032995651
-0,00760870393528908
-0,00695697732400374
0,000234228668250106
-0,00651650524794951
0,00110818827719495
0,00345785422484066
-0,00314555668750365
-0,00159684182043215
0,00137618189213519
0,00699435385762074
-0,0088464802032553
-0,00735110854606661
-0,00637109535577292
-0,00572515574100907
-0,0030704589069451
-0,0017619009572384
0,00989445744368094
0,00792626935376839
-0,000956333775123678
0,0103750086504688
0,000530830285642114
-0,00703241986752806
-0,0101580879054356
-0,00267942189791932
-0,00450098574315822
-0,00192670822072671
-0,0129065977021615
-0,00836007372127632
0,000699375516340905
-0,0182165032275811
-0,0164602022755402
-0,00619926961051048
-0,00710664950481197
-0,00629686710089075
-0,00483453691238329
0,000681633327301919
0,00942118438188243
-0,000481194820360922
0,00760706597827704
-0,00955060126238996
0,00444666694591132
0,00578266718524308
0,00765768048810318
-0,00332670905197496
-0,00763497240637748
-0,00870619963657862
0,0045831771294797
-0,00127440748961919
0,00745300888508981
-0,00346086950800747
0,00207954519700214
0,00589544202025073
0,00955828704542413
-0,00948066648946758
0,00127869460371467
-0,0014346728472876
-0,00485267470154082
-0,0124880846491496
-0,000742835696925377
0,0035018071549831
-0,00314870094756886
0,00559084167619836
-0,00172361163180528
0,000809325353385347
0,00623765770821058
0,0025576542304229
0,00742657958410055
0,00911761035170295
0,00870744444369685
0,0058658214452983
-0,00284061981865463
-0,00372188809923915
0,00411194105081382
-0,00898807963807716
0,00900429028224942
0,000607883785917602
-0,00464996300799802
0,00853497258296947
0,00492996177823672
0,0057678715100786
-0,00546713473841185
0,00962950509108211
0,00573605132384798
0,00498364959294843
-0,000160758152998782
-0,00421269456024714
-0,00108099373571338
-0,00580633914629918
0,0019265148171225
0,00468585220374044
-0,00740363303489109
0,00866020833264207
0,00725522330022787
-0,00797502278255998
0,00247392632648066
0,00836953266447854
-0,0026745880919856
-0,0031813601465809
0,000286417030862726
-0,000623141524232403
-0,00717059199872173
0,00398836984812926
-0,00199317258430902
0,00989246663484768
0,00820410989604779
-0,0054111403054012
-0,00922447066517044
0,00847956390768755
-0,00754562399397665
-0,00672492727298246
-0,00290852474321236
0,0013855131269625
-0,00231375555381665
0,0082040843107221
0,00266576077997815
-0,000240652888705371
-0,00846283745349684
0,00412372918477202
-0,00890569604398169
0,000119824274498888
-0,00715678869614228
0,00254767715583913
-0,00311649521492258
-0,00603622442858118
0,00325534951559051
-0,00149710408015973
-0,000944305235028409
0,00205291350002071
-0,00173109877469535
0,00986755064682455
-0,00795288948246878
0,00720365126487038
-0,00330067347423205
-0,00615918882943652
0,00132863457842201
-0,000992718192688919
0,000285046622948993
0,0047211362320828
0,00624448252441215
-0,00465746877466211
-0,00442814105862199
0,00151059155888417
-0,00722742370200689
-0,000670560733727441
-0,00198192343673758
0,00153879190401118
0,00120274159647652
0,00915257953999219
-0,000612868932361187
-0,00731356864669992
0,00681123480983602
0,00320268210638439
-0,00427100706578745
-0,00983340724363616
-0,00346971390464795
0,000266148185792662
-0,00293398465988862
-0,00601866791717148
-0,00341421948313981
-0,000324115536104954
0,00545887928657967
-0,00128277695698923
0,000224201379051291
-0,00743043141664581
-0,00880608597166471
-0,000357952525438428
-0,00562885055951603
-0,00605434141315015
-0,00291949114153337
-0,00617111744733518
0,00967425564509516
-0,00303780119538664
0,00793314268631014
0,00576786885174602
-0,00544549563304719
0,00133261974497355
-0,00022489914215398
0,00755406551880486
0,0059456990081564
-0,00828344238842067
0,00730015432336375
-9,5627904826144E-05
-0,00733335075986285
-0,00440442407383486
-0,00693563680225496
-0,00108378751465109
0,00173222276258191
-0,00292608085274433
0,00835942397030862
-0,00697933426002669
-0,00553944478725505
-0,000321509458292678
0,002650754293767
0,0018741925118668
0,00552807400535792
0,0132903466148842
-0,0021034192539074
-0,0039402511805798
0,00260854001957772
0,0109142813929347
-0,00147332507690905
-0,00175170485400406
0,00260140823637039
-0,00417041896623161
-0,00682642473602648
-2,94093834373212E-05
0,00532428972205347
-1,8122759656106E-05
0,00561862742324296
0,00519738920361999
-0,00950267301622967
-0,000480125659253276
-0,00192575785165916
-0,00488086734140306
0,00336044965548223
-0,00211910072873101
0,000303014757400567
0,00113257944782187
0,0176020174424134
0,0114144046583081
0,0194608765776073
0,0214226898091651
0,0120225958788625
0,0150316042472035
0,011705484610668
0,0206501121357227
0,0222201095362732
0,00930748689174299
-0,000303956607729499
-0,00104596756908066
0,000267557820873775
-0,000417545184652127
-0,000870612785470556
0,00748683820659986
0,00455011920749681
-0,000285977847076012
0,00752034269055956
0,00689747157878925
-0,00758706461264695
0,00305600973959829
0,00382132583874731
-0,00803749581065601
0,00291332894280102
-0,00336397958094827
-0,00238029615759862
0,0115248115536029
0,018405728442469
0,00469025958179608
0,0162946039318675
0,00696167706308774
0,0154630740910224
0,0253919019219517
0,00884435671980821
0,0196603803099993
-0,00166267718549606
0,00138920036750957
-0,010864678774051
-0,00598323834899434
-0,00771180449576746
-0,000877624593636796
0,000971525322152237
-0,00600907924942344
-0,00575380335651782
-0,00183399114377517
-0,00453755988485066
0,00124857755573632
-0,00970636535416883
0,000226800463619634
0,000574452558066095
-0,00591524921207984
0,00237011534791751
0,00684461148544621
0,00444299943802385
0,0106708697433945
0,0209396971200481
0,017914760134758
0,00880712458067727
0,00902878694818677
0,0155602577106316
0,0250166544576093
0,028993025572448
0,0222705745755048
0,0147354865564881
-0,0087970239267822
0,00168893003987626
-0,00189515280354232
-0,00500524262735212
0,000110119854811106
0,00547520793638404
-0,00529535086762176
-0,00157353232780588
0,000851405994431771
0,00288584480764949
0,00247250080913832
-0,00875382023240304
-0,00164718482497479
0,00683375006786642
-0,00456577329534386
0,014204327798312
0,0105495169863111
0,0163127921384341
0,0114260278322407
0,00937969287089939
-0,000456149182274978
-0,00631038463631033
-0,0273019345412612
-0,0118117350113018
-0,00540564752944549
0,00514181294931006
-0,00668327018409763
-0,00967537976699875
0,00134660564321909
-0,0141849501231848
0,00050159284304429
0,000120417352139749
0,000529744765702878
-0,00596223870612529
-0,00786643790450669
0,00186611521920585
0,00299297379104311
-0,0066715916372416
-0,0023862464077453
0,00240056240539549
-0,00746374950817042
0,00259797536624401
0,00883348717134419
0,0122897430949675
0,00806347112648749
0,00349747944478488
0,00130862736911605
-0,00178551967207426
-0,032928707856992
-0,0431154592086095
-0,0429871067737059
-0,0415160087445322
-0,0402604574189846
-0,0305840027693291
-0,0175879090234259
-0,0154631043113488
-0,00736752610471982
-0,00143826631709199
-0,00418783128188546
-0,00410716962940446
-0,00617909716568246
-0,0123271194825271
6,72913646233616E-05
-0,000785225744988918
0,00814460671314316
0,00748980941963495
-0,00495833431750276
-0,0103565541097139
-0,000604238366771652
-0,00356027486467596
-0,00804938419272975
-0,00384567951242201
-0,00501397026910665
0,000747273300645622
-0,0172891324235435
-0,0205029254334912
-0,0285780170781406
-0,0450536673483072
-0,046348146849734
-0,040430475839661
-0,0312996441141484
-0,0212619055838368
-0,000748844593786072
-0,00632536162751373
-0,00929190076726391
-0,000567371516106453
-0,0115043982431593
-0,00637605545815021
-0,0193251599207055
0,00231927171471354
0,00685840915579422
0,0057431921289353
0,000712374560605758
0,00297092731715977
-0,0107443212589632
-0,0112270025249376
-0,0132440616294373
-0,00986697849009149
7,5749033393902E-05
-0,0052893948646481
-0,00119794472541339
-0,01912555213118
-0,0273155545549181
-0,0249619012795131
-0,0288220992429252
-0,0184922557512915
-0,0206108911473459
-0,0251572996896821
-0,0148731706409602
-0,00585836884961009
-0,00523111243199051
-0,00405873030686769
-0,00346480044210023
-0,0150701480938714
-0,011223748235611
-0,0101609016506208
-0,0154121515365198
-0,0136616902509732
-0,00748945710806723
-0,00940875232522496
-0,000119830532000954
0,00185116568429424
0,00868327902840136
0,00214685388731734
-0,00451695589780694
-0,0118003334741937
-0,00517612207163343
-0,0107663810032177
-0,0114250670908483
-0,0209925658096002
-0,0145793470682265
-0,0113931737990842
-0,00467098057710312
-0,00320678513511387
-0,0250594239543508
-0,0449766464037567
-0,0101199817096591
-0,00378429240827131
-0,00385427662803627
-0,00284757183931825
-0,0160218328230034
-0,00156148352041253
0,00723402454380748
0,00319341197449469
-0,00166764751613262
-0,00349430065444871
-0,00634947021587321
-0,00115076187118113
-0,00263825925238551
0,00175111697009415
0,00668306733182627
-0,0118801130565374
-0,0129377491158531
-0,00252530252573167
-0,0168574136578724
-0,0133726743109028
-0,0149182396875912
-0,013986007428448
-0,0183810899417057
0,0049017094365471
0,0019117703923888
-0,0328214234086505
-0,0471748476308035
-0,059018850381512
-0,0198850712912681
-0,00285175866210499
-0,00548108035350273
-0,0152477059945664
-0,020217525734435
-0,0094051080204142
0,00727940612067135
0,0194146702209616
0,00685584781077251
-0,00452846510553106
0,00571598829534358
0,00535517342603565
0,00263273677212381
-0,00510631818923785
-0,00878654973456792
-0,0108950788208928
-0,0139924772622369
-0,0103642049716967
-0,00771191769857331
-0,00878713350779919
-0,00422898840386957
0,00219967514865158
0,000207293002568917
0,00264265622139011
-0,0136893395533169
-0,0588614549169273
-0,0796680959519808
-0,0658017069989837
-0,032846586766953
-0,0183404884213133
-0,0391649764038708
-0,0407835403875322
-0,0137231524077161
0,00763175738683853
0,0148697049752436
0,0126556649467306
0,0104623437573572
-0,00238054797407345
0,00946796333739013
-0,00649846941870246
-0,00712188686436622
0,00782598058696614
-0,0055597200439966
0,0042936927112954
-0,0143144570173933
-0,00280192238795119
0,0137641255410681
0,00688203175361068
0,0126154179760723
0,0283453060608767
0,0269740889029294
0,00865050998039678
-0,0158695091653526
-0,0590026771670774
-0,088854407621559
-0,0458077254635197
-0,030715321811632
-0,0281666525493688
-0,0417126867731993
-0,0351047467375526
-0,00674384237417113
0,0296199681709308
0,0401377240540831
0,0277080127863988
0,00972766223265058
0,00512990261157311
-0,00973759434542234
-0,00834083386628237
-0,00743318172827755
-0,00888508130433155
-0,000497121087403508
0,00383809597124233
-0,00515768687736347
0,000891124406442326
0,0331880006640556
0,0347483463371081
0,0377884769209685
0,0502413176727164
0,0557124862648904
0,0332438161273078
-0,0010442287369167
-0,0390392114368403
-0,0568452733612568
-0,0386450404765764
-0,0100616881937808
-0,0180895082768041
-0,0278682903109339
-0,000374331461217496
0,0138637302585843
0,0236846909395058
0,0430812510807285
0,0276286194955214
0,00766894997254711
0,0082230687853624
0,00482251934690445
-0,00629581440042181
-0,0080729633135172
0,00820942486255239
-0,000183046532796511
-0,00425673686646168
-0,00174751287277176
0,0214350816777972
0,0438121881693627
0,0425130958984768
0,0542665373049941
0,0729962794916924
0,0621038506114006
0,0619574280718725
0,0252414717653483
-0,0131593958712963
-0,0209792521138259
-0,00804647142821853
0,00485867849006546
0,00420918004124657
-0,0014626339755054
0,0148454502394772
0,0270259411806579
0,0311385921933084
0,0340221926195935
0,0336347352412918
0,01442713693152
-0,00447406734920878
0,00155845923607004
0,0087399442212122
-0,00432138194880568
-0,00480708778788097
0,00198410257766942
-0,00156179738845594
-0,000704758135343314
0,0280373595295081
0,0370801011290633
0,0449161206538449
0,0371066678156419
0,0440804512723437
0,0606286292796009
0,0261018123749005
0,011517723452814
-0,00366586737850437
-0,00473086628128071
0,010521998796391
0,00914281085283911
0,000558650819205994
0,0169905905113017
0,00312907318752208
0,0229633424846087
0,0155177481901775
0,0251812446054016
0,0180829177040139
0,00842256880602279
0,0121372142043592
-0,00273938364811193
0,000744651236769601
-0,00192984144758891
0,00629974936677428
0,00604557920591792
-0,00919675161253876
-0,0057732938851545
0,0126734340462027
0,0261110815204475
0,0320646904485925
0,0292127177262772
0,0315611172068425
0,0301298322791339
0,0109944847710607
-0,00989148431463067
-0,000804232787078201
-0,00148057497098164
0,0112291505561547
0,0219043653139124
0,0114149606854743
0,00527173035401727
0,00257570792023446
0,0204947324299779
0,0208569386847076
0,0165250651344886
0,0153450376720288
0,00686222046590667
0,00466496773859966
-0,0049944451362539
-0,00577882884549896
0,00764529656105932
-0,00157498105009093
-0,00650032896794663
-0,00674125695607347
-0,000485171452396345
0,0240595380087853
0,0189629425209849
0,0261393026425532
0,0265649002815996
0,0337230067043891
0,0414511750763881
0,0291355662998692
0,0208620681807553
0,01018179240981
0,0136915061316394
0,0267008217917162
0,0242856444689056
0,0240859374886538
0,0248690374084961
0,0175994174044665
0,0120871200331274
0,0243125500101889
0,0179963030650991
0,0256181281688387
0,0186107181732999
-0,000485777420868794
0,00527868489016482
0,00651353614547403
0,00359246728942159
0,00175511380469941
0,00727275083810898
-0,00352178196066164
0,00475219547519504
0,0146408297312407
0,0125584984887386
0,0258849039695933
0,0182672112156663
0,0248576350136008
0,0462184286744584
0,0399116909393734
0,0450681452483584
0,0273967029642543
0,0220536488207341
0,0237465644106295
0,0330746348667907
0,0277225639426399
0,0160314198607038
0,00994899006354533
0,0257525632537849
0,0175913838342741
0,025312948020607
0,0186699371547683
0,0127140606821773
0,00245596876064114
0,00580042155763323
-0,00681878871945851
-0,00574710239458229
-0,000483837624565613
0,000116026308250438
-0,0103673951073738
-0,00980461184690496
-0,00282071677414883
0,00605259392374743
0,01145644363515
0,0173522166723075
0,0164732229588682
0,0351222147448684
0,0452840465836382
0,0316092538263201
0,0381003687807284
0,0315489794924773
0,0307195874858319
0,0414258737792981
0,0302971800702733
0,0287395250235655
0,00830981943486376
0,017363049874545
0,0137072387946363
0,0135210994692339
0,0112872262335666
0,0177222716222186
0,00218878643430847
0,00843518609840429
-0,000337408145212247
0,00984833938788368
-0,00192779321102285
0,0085511029249899
-0,00415307141859563
-0,0108964931824399
-0,00898764975515896
-0,000294156868835336
0,00756872187649912
0,00733776981732202
0,00897840156213342
0,00188120852237008
0,0181846894384339
0,0252651210832682
0,0175340303116331
0,0118624108791779
0,0118886202050093
0,0192305526469955
0,010810660009771
0,00303844786487964
0,0055111187483056
0,0166897287253885
0,0114082660479096
0,0153223363513757
0,0179257162981587
0,00515545659332012
0,00566994916822522
0,00463891807149702
-0,00661097848193587
-0,00348628742690764
-0,00487270965800133
-0,00538711973524083
0,0025572990088173
-0,00364427849275729
-0,0116445778819466
0,000730713010758991
-0,00429210466789419
-0,00204374926859242
-0,00398952562363917
0,00212309911091429
-0,0165676077357406
-0,0168709644469975
-0,00912931402830302
-0,0116807987085717
-0,0124278093024466
-0,00512728472737256
-0,00666180901520856
-0,00647261453911449
0,0109472603636249
0,0104036313136246
0,0171536686794156
0,00893349649140127
0,00489023732744678
0,0013224292395051
0,00627769402487444
0,00679366616063772
0,00478446386457816
0,00705253229339259
-0,00744636439599393
0,00913571611163917
-0,00286309611081052
-0,00280076220019664
-0,00472232432823346
-0,00534263650898153
-0,00883516115143344
-0,0123195631410044
-0,0115405636267766
-0,0205072591446538
-0,0133116873395472
-0,0199908408654158
-0,0230118874316269
-0,0236335218663949
-0,0269187814308592
-0,0196280612651252
-0,0284202381525749
-0,00382398278643207
-0,018190159339748
-0,00109733848857199
-0,0068875887922621
-0,00653136712348042
0,00953010547079533
-0,00108433233806043
0,00587913318672834
-0,00214932624257999
-0,00321632656884209
0,00318854473214063
0,00526152237097804
-0,0047622560751148
0,00257001742379311
-0,00590638358622486
-0,0122129028262886
-0,00359829416989695
-0,0140334064817131
-0,0159536740124691
-0,0185593878147534
-0,0161752863561989
-0,0134680234685994
-0,0249132585003448
-0,0242565650385203
-0,00680029517204415
-0,019606801285366
-0,0223567204635304
-0,0208274047028834
-0,0242127826720388
-0,0241318677175407
-0,014339414729949
-0,0099789858456292
0,0045066981009176
-0,00313675304649024
0,00585649456752877
0,00671964270034675
-0,00830977252653056
0,003187538838567
0,00998658162541063
-0,00928555192392578
0,00919923167829405
0,00330352890709593
-0,00868120516737316
-0,00690404138149221
0,00234396336383182
-0,00617934790665103
-0,0215974977853662
-0,0204622443620512
-0,0246585523207284
-0,024253462183368
-0,0366304418809293
-0,0305703475026465
-0,0190197238714505
-0,0302649649967234
-0,0260197757531521
-0,0293608520303678
-0,0123972046826382
-0,0143836019601464
-0,0164933917299658
-0,000110740308086144
-0,00255804950873045
0,00653716583740873
0,00116556593706829
-0,00227379825520206
-0,00895538478054059
-0,00300986146228847
0,00806228647849629
0,00720637852195947
0,00668317013265713
-0,00162074358203819
0,00921394760658399
0,00906426799477506
-0,00494834571959897
-0,00499829321415949
-0,00600728691244639
0,000549581139505367
-0,00748101382541593
-0,00455141428043249
-0,0153429408933273
-0,0136213802953813
-0,0172693181745373
-0,0205124436488774
-0,0183278825570695
-0,00772850609276272
0,000274161176354723
0,00339620589826064
-0,00409564270244506
0,00181214879159841
0,00878999813432601
0,00012375110520813
0,00760861891116383
0,000767007808832123
-0,000691879275577087
-0,00587422690162166
0,000997198340947367
-0,00814167568373572
-0,00801404698659389
0,00389533819346472
-0,00610060116732741
-0,000455037064254273
0,0037341365305292
-0,00546177999015275
0,00159956466563722
-0,00963891462274505
0,00341119311084608
-0,00779902994633488
-0,0105757647923988
-0,0027520696715191
0,00225921864210442
-0,0011804166623679
0,00233940728666357
-0,00826413430710587
-0,00554911559716238
0,00536736374391306
0,00093250094829304
-0,000521983988760603
0,00533671652157024
-0,00970921153781598
0,000156918964421804
-0,00750341719831499
0,0075689531385754
-0,00553791872949243
0,00780799436280876
-0,00360146321989664
0,000761808767338194
-0,00146635380176192
0,000358890672381451
-0,00734871379907649
0,00725246874487608
-0,00227931959195031
0,00633262359366409
0,00813589885744075
0,00223224598552671
0,00602089690790554
0,00419471579776746
0,00985376886876304
-0,00186042875785037
-0,00896125833618304
0,00700576145062491
0,0046692069036277
0,00809717434369828
-0,0091063683103334
0,00958017924780966
-0,000943784877166051
0,00653905997822949
0,00471884510233945
-0,00452822806058835
0,00348689136723377
0,00293960284112934
-0,00859688935736049
-0,00360964206681105
-0,00832747870046994
-0,00626158077095709
-0,0085924751211854
0,00202240224645325
-0,000596396846506504
-0,00297676381564558
-0,00439885176580089
0,000110513812200659
-0,00446159608373019
0,00260868816733451
0,00787931375496623
0,0013699328143034
-0,00360086988937845
0,00410764641445574
0,00569786441576649
0,000766971949256156
-0,000636406295236539
-0,00831103619323
0,0013829607068021
-0,00850887236633643
0,00444363029438847
-0,00668576433943509
0,00548997085879633
-0,00560059154201327
0,0066753214489088
-0,00511809797730208
-0,00124822076002519
-0,000140523198126128
0,00604296366499875
-0,00693750526089813
0,0068713816595754
-0,000284417014931282
0,00585279823819271
-0,00864148286321034
0,00473919723601624
0,00455507728372415
0,00112685137301592
-0,00549354104470245
-0,00447202549388678
0,00389168018273355
-0,00604345352677047
0,00273201798689713
0,00352810524343674
-0,00573613710758577
-0,00770735578998826
0,00130370752510195
0,00454743693791907
0,0058225373395738
-0,00865076974766183
-0,00575268941138068
0,00625755522727043
0,00187932971835302
-0,00839331119788621
0,0099477079789842
0,00196109628861821
0,00836485103627893
-0,00174929283175119
0,00700936963548102
0,00534832660067544
-0,00547373916405008
0,00827932692188919
0,00581298728821735
0,0042728071872505
-0,00710616224170276
0,00657470138525854
-0,000498390728692974
0,00736760221771327
-0,00253151274709278
0,0126026469490739
-0,00465562880983844
0,0146612622722101
0,000313966861404777
0,0116823305749628
0,0127224455937698
0,0120230715980472
-0,00460938190977391
0,00286623862325657
0,00387424474680936
-0,00570473380556917
-0,00286628823278216
0,00161038522055171
0,00370559957592157
-0,00106990865947209
0,00199130051396382
-0,00313357508108999
-0,0049871951050528
-0,00189414856294915
0,00587911186270055
-0,000648937119836692
0,00628240886695638
-0,00384907852665374
0,00393496774573119
-0,000938421008891757
-0,00912835541750861
0,0053641695550608
-0,00203766926677485
0,00855547545032568
0,00151927756064369
-0,000673122257963287
0,00559669347031072
0,00734472583037958
0,000733825377501826
0,00714830187306818
0,0105714406787719
-0,00529436768300246
0,00111735987650843
0,0051600653938832
-0,00684756098097497
-0,00893302841055798
-0,0015034299683031
-0,00343412759338281
0,00489645774238578
0,00291860762653808
-0,00170708248095736
0,00287798752486175
-0,0056260784743814
-0,00363373601709519
-0,00875532885834357
0,0044526121049432
-0,000769753967873274
0,00814273222694097
0,0071329087105406
0,00295811147989868
-0,00922654573986617
0,00294643910218044
-0,00543367610379413
0,00561994756163151
0,00571318921773295
-0,00676126429340574
0,000788308833347389
-0,00525467652800782
-0,00882241335536874
-0,0040529718325888
0,00148973068955802
0,00284757192361306
-0,00665280046903857
0,00807770350870167
-0,000769898664329967
-0,00221566879298331
0,00595008020100653
-7,59306013574841E-06
-0,00498992396697665
0,00470923933360927
-0,00963832992171149
-0,00127741678319812
-0,000350472410198217
-0,011159935684998
-0,0121479341350837
-0,00537957224009008
-0,00261232407099253
-0,0112860965959003
0,0055674724946587
0,00605664816195799
0,0098069387317073
0,00637267764639872
0,00721086797462368
0,00286985074246191
0,000263875240703707
-0,00912241277819169
0,00431481300650573
0,00166009769515671
0,00721368389204618
0,0088899223961417
-0,000972002590188757
-0,0080286796422827
-0,00616102084458436
-0,00198461193022162
-0,00893631399920091
0,0054224076489332
-0,000341466516824114
-0,00359724545544573
0,00700482827553689
0,0032808172822851
0,00854657615076305
-0,0101443571642448
0,00485759663090204
-0,00433167832307508
0,00815211791059321
0,0106491910741842
0,00501743341589619
0,00888686818434552
0,0200948179820942
0,0109437437022519
0,011910879095798
0,00576005158016915
0,00189485006513714
-0,00325304584361425
-0,00244056415309347
0,00657055993822688
0,00641114756650119
2,22132207169443E-05
-0,00462745314173032
-0,00551778971329073
-0,000416576762610661
-0,00834454864706419
0,00154069532635449
-0,00413689897194915
-0,00400656488476037
0,00898265195169172
-0,00425479814534196
-0,00668672287164608
0,0106763735024657
-0,00285705577338471
0,0121065829028707
0,00113454940376559
0,0048996653060333
0,00766000500530109
0,0234711078636024
0,0237019597573676
0,0216267222901842
0,00941648777555436
0,0141923774878127
0,0136164445911932
-0,00656456474528355
0,00318767981117994
0,00571072977175618
-0,0037065560226728
-0,0071590902473694
0,00562292080486523
-9,49416875777923E-05
0,00443326702706138
0,00687956991044288
-0,00852712423337344
0,00723267408700494
0,00907702532357434
-0,00864254538217071
0,00331107828152841
-0,00479254445038724
0,00917759127712473
0,00162022327402255
0,00368588508425577
0,0168595297452456
0,0185989075336383
0,0152765107095585
0,0109913518588165
0,0139158273530671
0,0137311376148066
0,00662035766740304
0,00105850570948792
0,000778159703805157
0,00534310083382512
0,0111402341681521
