0,00674303599481612
0,00913175573532086
-0,00191026352900558
-0,00523747702838735
0,00311065631597799
-0,00846279749575201
0,00673374621976807
-0,00662568623974253
0,00822796229190564
0,00909966260152854
0,00749362701433414
0,00834601304416825
-0,00662525816852821
0,00732346694725109
-0,00992343294644182
-0,00451390847976861
-0,00638000749814324
0,00115743740050003
0,00134897514774882
0,000375969293702379
0,0022849046309874
-0,00251516088494806
0,00580895820437416
-0,00708389986170637
0,00354768095237561
-0,00779249797472381
0,00697060326904552
0,00397184859680564
0,00570842517340017
-0,00225089630682529
0,00116818115635225
0,0019682155046464
-0,000565808959152692
0,00691872755899949
0,00710830057959158
0,00536170516269478
0,00529613910888031
0,0071180741962453
-0,00987471490034007
-0,00194415055463831
-0,00269000678293522
0,000347715810321506
0,00733567812414805
0,0117478984715949
-0,00118713773141324
-0,00382925885552857
0,0044145693792322
0,00562168681384518
-0,00242270325119036
0,00390114548796939
-0,00841577003854995
-0,0062287589647139
0,00672883443382049
0,00510978013980658
0,00701899591694539
-0,000741803120235821
-0,00667720246905331
-0,00482636366729921
0,00121348872361617
0,000898442563216522
-0,00544737118733227
-0,00724829724638395
-0,00246291703224214
-0,000242373614215036
-0,0049030092472359
-0,0103645938625085
-0,00900835771640415
-0,0123080623234664
-0,0146517996580071
-0,0121425054453163
-0,00671751150841599
-0,00781854507404555
-0,00260481048013081
-0,0129411115682504
-0,0118134477552171
-0,0123251215779037
-0,00373465403802345
0,00127350606545846
0,00157551791658629
-0,00409821236893506
-0,00260473439700204
-0,00868768049979303
-0,00392965525106045
-0,00844414606617957
-0,00387770190549907
-0,00261023957869515
0,00524961113170067
0,00430975719828094
0,00967322196378701
-0,000189414161124373
0,00411151137710424
0,00238642227611038
-0,00357371187271594
-0,0110322485896127
-0,0197260124982526
-0,0129680928642592
0,00925946634380498
0,0103062484091957
0,0250664603819399
0,0231130802641183
0,0307873193824013
0,0154019397477309
0,0206757573173147
0,00233388751608048
0,0118215888860315
0,0111096507385238
0,00637953102317033
0,00422466547863248
0,000878916762353803
0,00731759202199405
0,00627419905163443
-0,00308991416035682
0,000861195777943915
-0,00584605972529498
-0,00652868066911995
-0,00550049138325222
0,00945374351844426
0,00154400330399874
0,00518812842110491
0,00724073078206076
0,0215869757903672
0,0305122690506876
0,0497207428247887
0,0875122946562164
0,103562058940653
0,104535749009569
0,118201554231028
0,109446719698949
0,0811187311225159
0,056144024202893
0,0760659763252889
0,0340814173036029
-0,00393570954793553
-0,00690316725244509
-0,0151194415000377
-0,00308589549545709
0,0038044135916835
-0,00315991694055728
0,00917934532901598
0,000718860704611241
0,0043031402837034
-0,00867449756649998
-0,008374899073827
-0,00342838888687385
0,00309140277791286
0,00972101115669152
0,024752304651318
0,00993328308118542
-0,00605230764569562
0,00323218813099852
0,0416406402359037
0,0772320246868539
0,0326906851527851
0,0443269896507597
0,0512655935617991
0,0430234108849045
0,0685028285661306
0,0568571710776713
0,077481968363927
0,0593759121669423
0,0436277038547266
0,00949528782179044
0,00674242236895578
-0,00914508621597249
0,00761621086935474
0,0124978434246561
-0,00552952834316584
0,0097182593059842
0,00465838537302724
-0,00589541632583334
0,00870183901413557
0,00509514289438914
0,00180126360233758
0,0161417406653323
0,00767958275726833
-0,0011911528563248
0,0199901866792116
0,0190823514031028
0,0310503630271974
0,0366974342181356
0,0452192089206882
0,0482924570340492
0,0306249482610454
0,00117585610759435
0,00128342852205598
-0,00841465999279069
0,0339173563905394
0,0433399620874605
0,0402880702746597
-0,00969804646343519
0,0181509318270444
0,0176920186534704
0,0321264978340737
0,0265449563861549
0,0153971237460518
-0,00677112120112009
-0,00374206721015886
-0,00392251849239527
-0,00717751420759299
0,007165342745455
-0,003144773127068
0,0298329798989089
-0,00010373534587331
-0,00276562772387494
0,0209262496003059
0,0162199581803979
0,00429315251735257
-0,0154185163616039
0,0101743329959804
-0,0191351593698948
0,00190330753501963
0,00815720406638472
-0,0248082248451979
-0,0353716690919433
-0,0288159733058717
0,00262412503852993
-0,00828801456219478
-0,000346806336035293
0,0273149857217324
0,0596391310237242
0,0490224082356911
0,0370767121284803
0,00401878390100377
-0,00149238905817851
-0,00362424536769192
0,00374055710376911
-0,0109646881801819
0,00348888603540418
-0,000863847689534664
-0,0137249409023343
-0,00962372046639033
0,00156282936938465
0,0194738783141644
0,00891133714261032
0,0061366683220589
-0,00907142878929515
0,00741236994602498
0,0240427080542413
-0,0218760926565049
-0,0340775794384141
-0,0251346516733828
-0,0249569796877477
-0,00569923958793382
0,0138756695798546
0,00242285495865598
0,0305164449659341
0,035392455359456
0,0470445635393705
0,083205317183917
0,0620832767387937
0,0130335943789523
0,00184085900771739
0,00898195190332974
-0,00247255124370885
-0,000959603783519914
-0,0050617269691306
-0,00732719150742286
-0,0198040782132484
0,00293950273711064
0,00893152016461562
0,0321406401778128
0,00607798660264428
0,00153697376579879
-0,000233814482338436
-0,0374126934830089
-0,0318113344549076
-0,0491129321331407
-0,030768320584029
-0,03061116787958
-0,034007493533611
-0,0264962177179691
-0,0323864949754153
-0,0147321939878982
0,0132222975567148
0,0236052685441664
0,0490205776778473
0,0953002930634017
0,0615053950979726
0,0215965681677174
-0,00220268147665823
0,00431518827591327
0,000396525730682442
-0,00802696501978522
0,00557263078781306
-0,0102115507849551
-0,033582397670114
-0,0164395794844519
-0,0138757258043028
-0,00674143271413246
-0,0214733727697314
-0,00957024396671513
-0,00165713410053327
0,0277802845593057
0,0284748030772879
0,0239544455962421
0,029497696092308
0,0305864298716768
0,016426012970793
-0,00295941022033707
-0,00294432693041232
-0,00832704759615025
-0,0444478764392943
-0,0100007276237989
0,0125170741773294
0,0582043073464633
0,0471430562329498
0,0148328646522993
-0,00351013987637023
-0,00419891587622934
-0,00981196401985412
-0,0043771645927003
-0,00588747413171936
-0,017825329913583
-0,0368715713477972
-0,0377072595746765
-0,0630158643797743
-0,056066112312155
-0,059753602008037
-0,066290462405609
-0,0272421921731441
0,0462931153806285
0,131503235537053
0,152208376754153
0,122756903070227
0,073887973569661
0,0876707102957878
0,0450651044713541
-0,00629813039830473
-0,0533204659492979
-0,103907523759858
-0,095344126063694
-0,0376303002467523
0,0229940834866857
0,0431704519925338
0,0116007430373145
0,00047045453460929
-0,0073335527949715
-0,00744081186499474
-0,014087220749087
-0,001555727971148
-0,02701233993252
-0,0492215639008727
-0,0452798011002077
-0,0728480164511467
-0,0884697066325974
-0,0670777528824872
-0,0406744947025775
-0,0186276954412963
0,0992199862677832
0,145673157686283
0,196714858589845
0,117291300920296
0,0680411116317751
0,068005447002261
0,0351179861251019
0,00510501422985549
-0,059383766797019
-0,0976756935725847
-0,120753354010513
-0,0771081243826914
-0,0268903140632135
0,0117101058352383
0,00749959439931544
-0,00765517491484093
-0,00736066924740205
-0,0052069432177593
0,000110949409031392
-0,00287357570160777
-0,0123185768481858
-0,0446614944477073
-0,0529560881716195
-0,0550694121773494
-0,0743236624737036
-0,0583038404442964
-0,110957983377755
-0,0429640043852921
0,071700868034917
0,13164866624466
0,0923352547774748
0,0672066877727615
0,0597064629383729
0,0329727811761607
-0,00333114198436631
-0,03012916453024
-0,0692177361275494
-0,102900103530042
-0,124980454350451
-0,0956950231237624
-0,0327750471714563
-0,00401816559068595
0,00104788793747669
-0,00763814042613743
-0,00409565637094788
0,00159083734137747
-0,0100765675523853
-0,00822547616313734
-0,00884901393670386
-0,03664489905124
-0,0632447969534536
-0,0820723758359014
-0,0871108687363455
-0,111553679129479
-0,152226008265376
-0,0919975482093027
-0,000937878276047684
0,0646964936915796
0,0563334362218908
-0,00455746284393858
-0,005095694118251
-0,0577821492508302
-0,094509249548792
-0,0799761132604553
-0,0892393479493345
-0,0651948489185109
-0,0974398300492179
-0,0627308897231811
-0,0304703411521875
-0,0181974575672092
0,00407041984131508
-0,00926952797815968
-0,007112402225236
0,0040628962867256
0,00268051914965233
-0,0109990328207997
0,00431501554589927
-0,026535177354108
-0,0507195294316492
-0,0818341412745962
-0,119055289811241
-0,115832287602177
-0,167939367944093
-0,102147133390424
0,00365685310911347
0,0458366464540353
0,0125232137342265
-0,0556241610099124
-0,0564967768028284
-0,104021887491827
-0,0589843117285746
-0,0451924645404312
-0,058228241127611
-0,0566111240890243
-0,052776295257649
-0,0155349103263131
0,000692524026579021
-0,00712244806664071
-0,0115407333960678
-0,0104562250212867
-0,00452016507797239
-0,00233728634224776
0,0155505334020206
0,00966602961767966
0,014870374156344
-0,0100865063807886
-0,0463086069151145
-0,0740011760188269
-0,116131027082055
-0,119429482204246
-0,135359962771268
-0,13457442965576
-0,0766518387423051
-0,0431113615104202
-0,0335663538458408
-0,0863664546031825
-0,0778097047033356
-0,0851660475424734
-0,015388886494877
-0,0132409964225947
-0,0427444475426758
-0,0366932259861683
-0,0105314501037202
0,017550371955717
0,00812228935851703
-0,0181660738571102
0,000254130199457082
-0,0116240267538117
-0,00521703664922017
0,00605909226562041
0,00208966764368305
0,0216284767271491
0,0473424090285374
0,0329701982491301
0,0209922739125684
-0,0157673192439587
-0,0807037302949403
-0,0850614621989302
-0,116188291368441
-0,15860350440467
-0,143683070160324
-0,129951026697563
-0,054649699425875
-0,0375168614169774
-0,0169100634260108
-0,0137511417630689
-0,000977993313598219
0,0296608958199146
-0,0144949533203325
-0,00927188699647825
0,00693753856545188
0,0336588406689487
0,00529050907949086
-0,0287282585725611
0,00536350233340969
0,00599873668229273
0,00331764138651938
-0,00133263650766797
0,00771265948419622
0,0453019625908906
0,0467018567370133
0,0469294953269133
0,0869778273784002
0,0155067950215394
-0,00174280603699909
-0,0275706603870738
-0,0563312445144611
-0,0893494701839587
-0,150894664626699
-0,101647228517445
-0,0195744953763236
0,000288456805375224
0,0101201124425458
0,0339344780949492
0,00963408172626955
0,0308791079620028
0,00241968323247707
-0,00370504241869366
0,0331431125559412
0,0288441969149532
-0,013978917225932
-0,0261804609212116
0,00459790902346969
0,00946257094912956
-0,00795797201267085
0,00150613908131859
-0,00481357333364754
0,0211952671045085
0,0426448689952904
0,0752448473358269
0,0823712127790105
0,0340503996131051
0,0292819226294278
0,0223481241332136
-0,00597313315036831
-0,0631210139970335
-0,0880935487887674
-0,0393176252419021
-0,0161915717149548
0,0148460062686766
0,0472032136196519
0,0537313240257798
0,0554272312513874
0,0131036194898761
0,00217350168626062
0,0405088924554804
0,0381800937504541
0,0325470585710114
-0,00551042443003224
-0,0179472527817481
0,00618702325799141
0,0026231614309305
0,000467479094149301
-0,00847567577913212
0,00379194306841017
0,0189137936791191
0,0256662416106427
0,0764174290215075
0,106996486038674
0,0671293818995161
0,0578164261034281
0,0153645051297947
-0,0187732106731712
-0,0287497515397661
-0,0784830909246577
-0,0197184122927635
-0,00322930312744104
0,00759560379043008
0,0478776922599369
0,0643106609467222
0,0474076452889991
0,0325148559033224
0,0618042029024782
0,0557682714924197
0,0458355434725131
0,0208379660153664
-0,0123772533873891
-0,00162777864475091
0,00524816966890503
0,000806787038324001
-0,0082259684244463
-0,00200113778652697
0,00691403525678023
0,0181656660692437
0,0291891482070531
0,032213859419836
0,0661509861438559
0,0530420237519542
0,0110222581914155
-0,0266205646266359
-0,0350223921734598
-0,0280466354821588
-0,0531943863370721
-0,022613362760791
-0,00512012628421925
0,0245153374522378
0,0133732852095844
0,0468815081253712
0,0454548638208498
0,0672426506592904
0,0658548685446338
0,0367378311543439
0,0225731260901934
-0,00121144577032564
-0,00812458829707927
-0,0137411455142268
0,00640041378363924
-0,00881527375570374
0,00700964570125461
0,00559832414370295
0,0110685989526744
0,00679913858481284
0,0284494384397034
0,0169491082794249
0,0136661348742899
-0,00257295795592858
-0,0245586406031524
-0,0276486628345091
-0,0228568636279262
-0,0224265984918087
-0,0565029566993181
-0,0265989659291272
-0,0237060192869363
-0,0158072850211355
0,0318452559569094
0,0625039049692795
0,0423301558071759
0,064940600500529
0,0491089680344267
0,0131755538679147
0,0102153793805489
0,00185348523407755
-0,00457696871948142
-0,0137774092139994
0,00670625128198959
0,00387500420211045
0,0073744664235853
0,00714320752636679
0,00376293774039022
0,00618524853957844
0,0211602657617234
0,0051615518592527
0,000784716588947077
0,00972593440633631
0,0277232837475973
0,0488153981805874
0,0584534342111927
0,0388467190488115
0,02364965543236
-0,0172169798681974
-0,0662007415205579
0,014813120699352
0,0607834609505223
0,0650801075017931
0,0390601476500696
0,0133711207390759
0,0247027542392948
0,000100986086287683
-0,0114984543490769
0,00389584817889705
-0,00630667224185181
0,00282943071676119
-0,00844145587559452
0,000375061775732348
-0,00397541959489482
-0,0011226259037492
0,00478060764436183
0,0131038770836955
0,0118593180792433
-0,00379936287607296
0,00716002163825693
0,0451178029997241
0,0589768506605633
0,121569723019807
0,105161477446254
0,0713636217734254
0,0589150152877937
0,0480767721101165
0,0403650494366728
0,0418656266758179
0,0533247433354701
0,0291544917832885
0,0338886529318989
0,0230335714403861
0,00758166970657418
-0,000126679171634572
0,00516675829798332
-0,000201145585490437
0,00164833013534538
0,005378252926369
0,00927822811618621
0,00947828090725387
0,00296456580653999
0,00575677172083257
-0,00577160891906552
0,0086246805477395
-0,00174365403031631
-0,00679696508105326
-0,00121908320564435
0,0144368545684974
0,0555676002652932
0,0674526159327829
0,0781209491743791
0,0357475140438253
0,0496423746946586
0,0607230734061151
0,0534541637215891
0,0504139372034178
0,0514731574616222
0,0390273248374501
0,0296685842709667
0,0234119365604597
0,0135288391893088
-0,00390254701337473
-0,000656352223967493
-0,00607674058362758
-0,00135728348235864
0,00875235002418207
-0,00498371197614387
-9,74676106578996E-06
0,00135799511864688
-0,00496081846531519
-0,00474668360070637
-0,00611582405116767
0,00829932953465078
7,57561029868168E-05
-0,00864704337406371
-0,00726388226699488
-0,00545779002243562
0,00368413594432795
-0,01330230849757
-0,0187920249176322
-0,0098457050056156
-0,00763470360280847
-0,0250216521498239
-0,00804344315537476
0,000290271617120804
-0,00283724569516624
-0,000263605349442925
-0,019039009124277
-0,00566897138154135
-0,00433178543101445
0,0056936161923012
4,62597826985253E-05
-0,00869953174565424
-0,00541359958623702
-0,00854135984486964
-0,00117706139161115
-0,000367785948499937
-0,00787284731765876
0,00121662591175019
-0,0094817640350581
0,00133538517772052
0,0075868962816729
0,00253185563292166
0,00421886321433983
0,00634745424521029
0,00451603829278408
-0,0121582042018629
-0,00146341067564462
0,00533465733970328
-0,0119193005081193
-0,0119841641375694
-0,000224729902641482
0,00417982467887744
-0,00793806028415453
-0,0111295671793477
-0,0111193514585151
-0,00826648663055841
-0,00988628549351285
0,0076295028748127
-0,00719963552411812
0,00988783135073624
-0,00795021247954583
-0,00654614083308081
-0,00151394037134663
-0,00281739517711913
0,00503732271261388
-0,00734917398418727
0,00440622914322011
0,00332342110263343
0,00739253903617735
0,00864923637297435
0,00191061784136604
-0,0013667728618564
-0,00349935645866178
0,00861486809263698
0,00450118099083248
-0,00634476969073867
-0,00316873000999967
-0,00160435787037181
-0,00334191658690814
-0,00722223419566743
0,000347884181117586
-0,00291225504731399
-0,00468008859766651
-0,00773773747390962
-0,00212241372658052
0,00522853430138367
0,00677289399168123
-0,00805889323263378
0,00936444510676174
-0,00476688926795818
-0,00139328679600418
-0,00783770208146316
-0,00218113882103057
-0,00936959538579434
-0,000706543629386715
0,00417161783562668
-0,00588693592548047
-0,00180096088705205
-0,00623406622251485
0,00640508286296807
-0,00121745660943344
0,00781042275749172
0,0121254941099986
-0,000716139212107925
0,00356532317693483
-0,00796353165931647
0,00162547784342973
0,0014494307926947
0,000456652173256083
0,00986943627103935
0,0100211182436584
0,00405352021444152
0,00425884648018059
-0,00811234548918041
-5,19248843277805E-05
0,00496204256776816
0,0081339477645857
-0,00377620289743701
0,00930501854946139
0,00980878841123022
-0,0041220679758685
0,00246630476090169
0,00398818065718358
0,00218895628258699
7,23464805490172E-05
0,000691398049860853
-0,00528326571934851
0,00322408300218915
0,00892525360098361
0,00871824240537087
0,0303722428728051
0,0340209476925032
0,024390997169757
0,0313128201548924
0,0309032137038138
0,0293336541346034
0,0137568216821055
-0,00317194210892685
0,00668760430385381
0,00258972470207649
0,00274254484581585
0,00432607440448305
0,00554990634890009
-0,0088415730600399
-0,002168322389903
0,00595627892574122
-0,00114533074719148
-0,00280113774947875
0,00109045744458701
0,00433062059082563
0,006182728692927
0,0080088006331027
-0,000185301355555175
-0,00519900594363897
0,00611434255416051
0,0252983313439828
0,0221631177053371
0,0440043337360346
0,0600347359570759
0,074734628906429
0,078834563997476
0,0623441687277794
0,0510472078394568
0,0345435979437109
0,0334070764766917
0,00363855179012214
-0,00675928630789777
0,0105446603346979
-0,0103896590133242
0,00131666027306949
0,00310758045045678
0,0164291734333986
0,00291424055983073
0,00413926947613113
0,0030670699538044
0,00500822773902129
0,00867055271376997
0,00334469533239209
-0,00578851806387496
0,00442193892146784
-0,00212522079655512
0,0173280856740991
0,0270940217819854
0,0481305129701657
0,0470180741179686
0,0369009720122818
0,0202447713440474
0,0183334303352075
0,0482916317845744
0,00977438355674322
0,00717825477457461
-0,00544131648869677
-0,00318373356318407
-0,0124239028723505
-0,00942307088147998
-0,00596056728770833
-0,0048103535503106
0,00369777513691106
-0,00911818866273841
-0,0154049594640679
-0,00726765794107917
-0,00258027235956934
-0,00774678083970622
0,00661382471984896
-0,00212844701117298
-0,00925800989462728
-0,00268829336048191
0,0181430855334931
0,0175516109773183
0,0263912631356319
0,0262096208720393
0,024537820425135
-0,00914662766778343
0,00662988190399511
-0,0436487515605613
-0,0468291925968103
-0,00591208753540131
-0,011368046731252
0,030308102671769
-0,00330327129310044
-0,00649383956113224
0,0351116378804462
0,0261147735693821
-0,0150855137217475
-0,0260622813477996
-0,0373653381519928
-0,0263540190287685
-0,00686601424486365
-0,0247524585435598
-0,00379638166589236
-0,0095240870548112
0,00269244307311831
0,00229322982141545
0,00469689670480971
-0,00167184418455107
0,0176947879035621
0,013615270559291
0,023943539144236
-0,0105662186006487
-0,0508725861182606
-0,0267424194543178
-0,043119969004011
-0,0733791792698752
-0,0503746454701301
-0,0197739679675695
-0,00500177554842645
-0,00907309787405294
0,00343404796167099
-0,00391788541522917
0,047677075852793
0,00310104828974344
0,00615583494461292
-0,0119387042360715
-0,0473656219838386
-0,0769852427147898
-0,0497935047267608
-0,0214413296356598
-0,00308460775285967
0,00492790312529581
-0,00651279299953559
0,00547754544127699
-0,0030522583156892
-0,00254373521130057
0,0271801172274057
0,00688658293139974
-0,00111857451947372
-0,03662130056295
-0,0788083962856602
-0,0668226268112935
-0,0839509662856246
-0,0436172688193706
-0,0294394856903922
0,00473015784076726
0,0431843199975108
-0,0192495104859775
-0,030540361611629
-0,0340823766899295
0,000707275663869764
-0,00780770155054919
0,00141486830169628
-0,0279590584979889
-0,0497666824296803
-0,113385042458741
-0,0832940911430138
-0,039088863469728
-0,0137441995314986
-0,000180617303172218
-0,000196260263508901
0,0035308208384681
0,00430617317969766
0,00132538138234187
0,021681016656389
-0,0123629954095116
-0,0226266267248836
-0,039867791583997
-0,067567296451041
-0,0729155947157012
-0,0210963635688809
-0,0520026775325794
-0,0407662186855155
0,00577157583061873
0,0606128411329355
0,0593872413039215
0,0373466651191616
0,0173914676651573
-0,0480574627370115
-0,0198225770711458
-0,0260448720538397
-0,0506677950620362
-0,0785275343036906
-0,134746102366348
-0,13365760584823
-0,0525121499576472
-0,0251489495325143
0,00723727059056793
-0,007876711236128
-0,00553617658556966
-0,0111929027349799
-0,00198717214013532
0,00222969465398148
0,00653306892505697
-0,00903482403176722
-0,00577358404841667
-0,0228730779852098
-0,0355558028226926
-0,00209330883828805
-0,0218647846796173
0,00706447931633696
0,0457372387066662
0,0769685019309587
0,0971201831507331
0,0790108902198517
-0,0061929085632282
-0,0166293110933567
-0,0452196125220531
-0,0271909999493506
-0,0522443449108578
-0,084458855070222
-0,12016518966743
-0,123794892713392
-0,0693081352583368
-0,0225707696691142
-0,00051611984717105
-0,00535649866185279
0,000460705618637108
-8,30654395169948E-05
0,00451575851458403
-0,0139958102394661
0,00957900313465379
0,00567311947737462
-0,0199624792444671
-0,0396013022508349
-0,0528499211827575
-0,0257804723869895
-0,00770225810902268
-0,0292354978123693
-0,00625415092654611
0,012379602055294
0,0142209203788251
0,00506189208075092
-0,000382718051236399
-0,0273414822382104
-0,0176136012278393
-0,0286518500250793
-0,0567000708138185
-0,0593635388831475
-0,0661978839554427
-0,0708376050948452
-0,0560223770052078
-0,0214961943854407
-0,00630511093929414
0,00397514984153552
0,00568077437742311
-0,0120236504766035
-0,00241378840171121
-0,00559085864460871
0,016678726847727
-0,0122227658897914
-0,0507105866781832
-0,0423705745157133
-0,0344135134599138
-0,0277064437564782
-0,0254372535715816
-0,0509383529613905
-0,0661312814347978
-0,0804758038807556
-0,0896824981961558
-0,0313729776633688
-0,0419311747855341
-0,0139727108746609
0,0235064021479774
0,0270916298748262
0,0105491413370163
-0,0178846440032178
-0,0261239531552358
-0,0480494897788609
-0,0365064354278399
-0,0302000106874263
-0,011768610288525
0,00688195844808944
-0,00856896715466115
0,00379723082779872
-0,00916562786411674
0,00263065944865444
0,00409893535150283
-0,027522198325034
-0,0661070027080014
-0,0442459572027529
-0,0247004298247713
-0,0510776882945368
-0,0629964116581593
-0,0389261132641358
-0,0642288001176744
-0,0918980831608006
-0,090088238593276
-0,0364860906454156
-0,0146293380075666
0,0131447963917743
0,0130346802340965
-0,00537782624975145
0,0120498141748263
0,0294328869615406
0,00933706606429347
0,0202016445251621
0,000976746751313217
-0,00719122239691743
0,00977613032201119
0,00518762995400055
0,00358276100471974
-0,00232275891513576
0,000423559207711394
0,00332499757737307
-0,0163156516833434
-0,0140033077473685
-0,0433132928064189
-0,0611368115179055
-0,0457924945795859
-0,022941230929428
-0,0563132590987204
-0,0271194105695477
-0,0267602721721918
-0,0848600798855453
-0,115333096729397
-0,0476212007570139
0,00803874498544799
0,000690049592891872
-9,37962955335049E-05
-0,0107813943444853
0,0142555780753004
0,028697386171736
0,0355928364183125
0,0405792859791304
0,00238234192836412
0,00865379548412866
-0,00483569259211185
-0,00689183219297878
-0,000189780506539952
-0,00148643065731779
0,0119431325570056
0,00351911753124081
0,00905330025346129
0,0227087186714173
0,0166194564833261
0,00187544467364791
-0,011800662798726
-0,0507370887949061
-0,0480392241237874
-0,0485304100058604
-0,0568590156334852
-0,108414946550985
-0,0853810239976069
-0,0301253281109712
-0,0408393928207525
-0,0170412542204002
0,00689806699526362
0,00513522499088596
0,0521830703123555
0,0428465470237463
0,0297242545523918
0,0345818051979133
0,00533340304153521
0,0172706691795331
0,00138282020676844
-0,00921438061043538
-0,00184861781488369
0,0055241660544949
0,00529245920487407
0,0233762191731355
0,0689883469741394
0,0700716097756388
0,0593804341310016
0,0242599254428991
-0,0185283848615845
-0,0284649863022708
-0,0330590626902728
-0,0710977976459615
-0,0716938131851414
-0,0989244736988888
-0,0715191974121871
-0,0429336757027301
-0,0339456190323787
-0,0298009345851102
0,0214116741117898
0,0447306019696679
0,017860599254388
0,0091127062209407
0,0177259557801237
0,020649895912146
0,0313578978477685
-0,00154565787920076
-0,00301268714101177
0,0025920951777099
-0,00022727981820963
0,00913731243083901
0,0108272359855971
0,0454128085777895
0,0863997899888539
0,0951241702157552
0,0524202495258317
0,0222321178722784
0,0287221166875268
0,0122221578554079
0,0397677977376481
-0,076886465819998
-0,0753723272509279
-0,103377219066474
-0,105781264658175
-0,0606917860540773
-0,0285466215463567
0,0339519505896147
0,0673615492053304
0,060196781786506
0,0298543853334684
0,0469331331417026
0,0283237530184759
0,0415426482492112
0,0446727694020535
0,0245163006800185
0,0122955544906554
0,00882557548527865
-0,00593186423975312
0,000176459147006551
0,0249708820400503
0,0396579938319694
0,0691465480027147
0,0664656635389987
0,0899069443978085
0,0857448046084274
0,064349664489996
0,123377917319397
0,0680473559831123
-0,00185470229874654
-0,0302364543748181
-0,0521784891179231
-0,051901033166399
-0,0184748410477963
0,0195361590768174
0,0622175428683295
0,0967047409392747
0,0686293570583742
0,0485944157622299
0,0527466324512472
0,0353686646941834
0,0278897411684496
0,0443705957711204
0,0107463291297689
0,00101186730387932
0,00527610029349361
0,002021058050982
0,00500780187708484
0,0274752245168873
0,0452603491423783
0,0532302075450714
0,0317924262321407
0,0913427424471271
0,114087289715208
0,127500438785735
0,139733277272063
0,113756750304835
0,125264294831127
0,0439654069975073
0,0114620667700054
0,035580252971954
0,0625499714209672
0,072737966619145
0,109108272489881
0,088620680913327
0,043023128807201
0,0702437520175887
0,0685714458106777
0,0396816973786296
0,0432961814813861
0,0389926202523824
-0,00659084461175757
-0,00153053794520075
0,00582370800462356
-0,00163062834261795
-0,00314927744933813
0,0271701753828383
0,051108552537523
0,0167259479354275
0,00106733182031442
0,0505622489264509
0,078958794049729
0,110658063003484
0,120968566042403
0,166373559742636
0,177323334120585
0,128291646446402
0,0508021628813735
0,0542501625438895
0,07632367192122
0,0949062735193263
0,115925781334497
0,0989994121037589
0,0690024806692692
0,0728221453044832
0,0490321429403498
0,0326251651361794
0,00993237764578565
0,0226059323887357
0,000472113036159459
0,000300075633840267
-0,00160916233044544
0,00319104159656065
0,00491793895566743
0,0232498333209621
0,0517104325339494
-0,00364506212708955
-0,00610953756378062
0,0384659885847341
0,0187554857695564
0,0722090615702949
0,0780453989326327
0,0937397447886884
0,118622725475544
0,0744785437994031
0,0918348051513794
0,0424787899900646
0,0688113212087113
0,0672282931391259
0,134790969636342
0,101846878792657
0,0809740834402345
0,0378652229566996
0,00401135020685278
0,0239685976549404
0,0219165000438113
0,00805452440923262
-0,00523774279920749
-0,0039246897974782
0,00682410714626153
-0,00176427990396255
0,00373294267190589
0,00931081839367098
0,0164844701111808
0,00700738214954272
-0,0426256116083086
-0,0454352979392409
-0,0332463613745817
-0,0104079511728022
0,0171098843820434
0,0270322760528015
0,0683583115004373
0,0680859276844406
0,0382914650689723
0,0253851942721932
0,0445495116454453
0,0566250223471607
0,123492101784237
0,103682202225954
0,0365050914622329
0,00926283449275063
0,0181154587895608
0,0400362575889149
0,0173657040087612
0,0110467115800232
-0,00301422525781111
0,00542349291614522
-0,00581100484028583
0,00778043175702149
0,00916903122673056
0,0061661835327305
0,0212333685162626
0,000459063770714759
-0,0493657186021398
-0,0611388380177706
-0,0585994623927852
-0,0203950733320425
-0,00336246795756933
-0,00432931859548877
0,0207343755261983
0,0211335874381849
0,0100159598010324
0,0220793402974523
0,00730402269092887
0,00975174354037981
0,0433277029130556
0,0328492801417062
0,0321162842571451
0,0269629185660906
0,0235822807730427
0,0227859560822516
0,0173893550386254
0,00259951509364788
-0,00647815254970276
-0,00518847342467499
0,00932014023853473
0,00360329269133662
-0,00484666363429189
0,01165647840198
0,00577549271812142
0,0118542024920292
-0,00588013924489765
-0,0295351144932107
-0,052087164182672
-0,0293210746499565
-0,0505887840251282
-0,0303364775333818
-0,042050382244248
-0,0504243500993802
-0,0548685542106647
-0,0683592859099587
-0,0510668014800539
-0,0148268631340293
0,0308329725523221
0,0383448437165707
0,0184868669499896
0,0372615560792808
0,0352124553966492
0,0224419513671938
0,0103190210501597
0,000132953050670484
-0,002067181214394
0,0036274000972637
0,00274322517809608
0,00516417442595781
0,00905368757284906
0,00530351950605169
-0,00596555826690798
-0,00521450758555109
-0,0124713822722199
-0,0299073515512456
-0,0437486381108703
-0,0459926749204298
-0,0654342298842025
-0,0975913211647484
-0,0955507402288101
-0,102197929849686
-0,0792033181425063
-0,0858582324589356
-0,0676679170186214
-0,0247214879962217
-0,0286597106777037
-0,0323982325902807
0,00820149403657963
0,011007330083271
-0,000780217108929885
0,0133134523821158
0,0186183795247833
0,00748841913912023
0,00854917846089213
-0,00806639496146999
0,00653566588486343
0,000365349794908123
0,00398302427689414
-0,00540896977066102
-0,00299753926538757
-0,0139160128113368
-0,0149375056026162
-0,0231176802832342
-0,0203757459454187
-0,0397877624461797
-0,0398842999330055
-0,0433975341735341
-0,0517386299426553
-0,0321629746392833
-0,0321881329770364
-0,0527712376328971
-0,0428303996258469
-0,0520853644460043
-0,0363768584240631
-0,0164523239618221
-0,00771606917136075
0,00160744623272523
-0,00197815757719089
0,00806925248714537
0,00691844037729965
-0,00320139504650108
-0,00842873135816335
-0,00361068248451254
0,00424566728726293
-0,00319405107442013
-0,00912735206965699
0,00708875175687648
-0,00935278221142824
0,00652828202909268
0,00103613244229675
0,00395678818674333
0,00201101120805187
-0,0114954788015404
-0,0128813360715472
-0,00850872591232024
-0,0146335079624776
-0,0102886855396225
-0,0110434740599933
-0,00808061842274019
-0,00803259709637828
-0,0152707891301486
-0,00554179798644988
-0,0130533029562538
0,00196086287257773
0,00216811995912788
0,000461547260043772
-0,00630041448359578
0,00147060795873427
0,00751736031366479
0,0042501767418581
-0,0065684244393224
-0,0095101423931821
0,00705242480014098
-0,000792210516888747
-0,00582309293366181
0,00977890015792907
0,00813559866755564
0,00242332818287869
0,000650168904888841
-0,00235115742631098
0,00570593200755656
0,00836047143441813
0,00167266199868402
0,00789521233077215
0,00295916368481066
-0,00414996637852241
7,70018844902435E-05
-0,00429945132036943
-0,00778829844682063
0,00579096625609798
-0,00637229883124564
-0,00436090065940838
0,00463683026881636
-0,00872480681532313
0,00123694192626042
0,00315245151200912
0,00689663486410707
0,00124734935874462
0,00982957240186146
0,00407031692288365
0,00711247440293081
-0,00436772005370246
-0,00679599827006273
-0,00777061450191336
-0,00219072640509844
0,00661528228624504
-0,00767241307425891
0,00938096269005023
-0,00887707718595726
0,00516822292244445
-0,00531423385036841
0,000975757371984626
0,00710002047084129
-0,00257440319500458
0,00757858454307675
-0,00393456167259
-0,00935773935139074
-0,00481326051746181
-0,00896483145605998
-0,00270630564200986
-0,00832416403029308
0,0072015252230696
-0,00198676260746399
-0,0095917444767392
-0,000375347319233858
0,00711475798725838
-0,00449297912162402
0,00368508998010545
0,0073421819030038
0,00102445555432907
-0,00711401863820572
-0,0030909545232985
0,00257447402526687
0,0070083119226964
0,00183648865343199
0,0024792987745645
0,00676524440652002
0,00106616617406362
0,00186058288825505
0,00929838694315407
-0,00325064674249814
0,00303458346275141
-0,00291302644987977
-0,00285712960156073
0,00296971510855458
0,00708171512668812
0,0029466798161497
-0,000838371913762653
-0,00273329614276498
-0,00398104031329335
0,0025535423411551
0,00170989538156888
0,000212180814804595
0,00253587804387132
0,00239448095317673
0,00991094917986121
0,00761904255376153
-0,00720263025460734
0,00254811061851927
0,000690723331513798
0,00119427462409927
0,000884493839535362
-0,00325251254645867
0,0064901677953419
0,0091524999505041
0,0195489485817404
0,0224154888346
0,00576933646464533
0,0251076007672621
0,0183011492955165
0,0230534071259501
0,0122614211318443
0,0144173595413196
0,00355513527489892
0,00336551584545603
0,0102108202037078
0,0122224680162219
0,0162317739247136
0,00119375888803983
0,00480911947335891
-0,00431124460484423
0,0079630332616917
-0,00210310811740491
0,00154201265030634
0,00851426469092922
0,00118106730679533
0,00680576638965487
-0,00869027923243178
-0,00419651384738019
0,00526954626426455
0,00798760022989596
0,00412667764282029
0,0180218414842505
0,0198618139488907
-0,00833709249936059
-0,0156160335058353
-0,0145138513345614
-0,012038981511192
-0,00865794638047363
-0,0244510453870916
-0,0279968177349888
-0,0116536700391336
0,00493551768658027
0,0111182421786148
0,0187552597059977
0,0071197320888527
0,0231222547027854
0,00545745450009266
-0,00209422655156549
-0,00784392865906901
-0,00185485055290854
0,00788205534121117
0,00480943115788422
0,00695043594729511
-0,00726965714941513
0,00374540451514375
-0,00717885140422555
-0,0051345942936573
-0,00628463144857776
-0,0267459122964713
-0,0286157059334147
-0,0309913752225133
-0,0763440354640674
-0,0788147573644296
-0,0700595921355224
-0,0629820332221984
-0,0654587479809532
-0,0276242524720307
-0,0110642052626262
-0,0310644203670421
-0,000597577344090614
0,0533037522764653
0,0407333646893234
0,0443557395775263
0,0325091036938902
-0,000866746945760492
-0,00603445510480642
-0,000502146693099607
0,00609228373756579
0,00679380389712462
0,00409005797192923
2,21800770126747E-05
-0,00290413530913959
-0,0100629922052085
-0,020962825408749
-0,0081619104103541
-0,0109385486899858
-0,033018449138531
-0,0209247879136974
-0,0470849905674511
-0,0544963484270565
-0,0134640762883349
-0,0628112019842927
-0,0383831299011483
-0,0454969211355445
-0,0646682059167941
-0,039823356600891
-0,0276788677812997
0,0240057240092037
0,0523446510330312
0,0391419981462576
0,0204944302483487
0,0230524009324396
-0,00218939452597251
-0,0136955066780665
0,00136840234424872
0,00460062785530308
-0,00852371660923758
0,00715889416684583
-0,00525686921834819
-0,00898074203242987
-0,00893126299537424
-0,0228458622515037
-0,0193798143888921
-0,0125576360371225
-0,0153085754134426
-0,0226885468074632
-0,0352681486333412
-0,0311453425993949
0,00514724572212043
-0,0442530799334878
-0,031099466159283
-0,00204301375751034
-0,0321499280202663
-0,00732375115491232
-0,0325176133971893
0,00902595087443844
0,00553711922785566
0,0155901034046435
-0,00687138530733747
0,00464931820570108
-0,0149457223542277
-0,013272812800358
0,0020777354771401
-0,00119741863904483
0,00176018875906129
-0,00973972397854023
-0,00327346061110814
0,00153928278748078
-0,0211702384503444
-0,0421017399532894
-0,0330876836373012
-0,0211749769228551
-0,014891190162867
-0,0326667701728935
-0,0381583616844903
-0,0250924416455302
-0,00295597444262392
-0,0156246344722682
-0,0228198501616095
0,0033922359792507
-0,0112113403726136
-0,0068670106669973
-0,023225163637835
-0,0213843069911658
0,00654984262140514
-0,0127068742827336
-0,0175047694484551
0,00176913548253237
-0,0186336316041392
-0,0144627814232515
-0,0112443417100713
-0,00869292031316033
0,00481799684869043
-0,00820323039595638
-0,00983173231544574
-0,0134302027003976
-0,00680607091931458
-0,0195574400610649
-0,00960775851399136
-0,00526548802684125
-0,0150949612605878
-0,00930570671464996
-0,0289649435644232
0,0012308762974346
0,00281473459192341
0,0108361122698825
-0,0148682294479746
-0,0262538727872867
-0,0809515369769055
-0,0675415541886109
-0,0945846692051978
-0,0856323980466183
-0,0522235944021208
-0,0525035582384219
-0,0541371589023678
-0,0562612253107987
-0,0640798730181422
-0,0357480534208178
-0,00692143264836938
-0,00282864725146078
0,00494042426950646
0,00322477552055343
0,00620957292907489
-0,00515523191789593
-0,0119075153444283
-0,00216674438679153
-0,0112245528772818
0,00517744932487353
-0,0103923550606081
-0,011486619994983
-0,0162697646671281
0,0164958931740307
0,0373259749446287
0,00461970758238097
0,0134032651441177
-0,00870254540379328
-0,066640460260203
-0,089827783327245
-0,0975002757964198
-0,102418584440968
-0,0696518265952207
-0,0706800363538822
-0,0670099123026131
-0,0714469682053062
-0,0791598291521134
-0,0647164583738117
-0,0202594426070503
-0,00828283133268319
0,0072033790934922
0,00725306744518116
-0,00831026845395744
-0,0227835981732086
-0,00903378166573161
0,000202423284506606
0,00577600564039306
0,0166042361449361
0,0303391727701472
0,00687723116447409
0,0201107198965914
0,0302866722496642
0,0248429787865258
0,0429432115248173
0,0429875396538275
0,0246183076038017
-0,0171849663197891
-0,0843614705955111
-0,0834035699667282
-0,0954001907822749
-0,0822181172575134
-0,0491376805219965
-0,0177196791259983
-0,0348604509561328
-0,0668682897384632
-0,064027670844609
-0,0125753384193626
-0,00524287223617384
-0,00232264428358176
0,00414687624609323
0,00362778767191824
-0,00889762131491585
0,00486563540616643
0,0282133774325524
0,0205467822086388
0,0609950842567034
0,0595684007116565
0,0681340450522696
0,0668773541498249
0,0415128426942056
0,0434985122349897
0,0173071986376142
0,0226718732844894
0,0303585782852837
0,0193853652465569
-0,043132295636231
-0,084190771577802
-0,0772068769543873
-0,025770871106037
0,0222423896645736
0,0425514574030012
0,0292120677008833
-0,0121464799284112
-0,0245761289742002
0,000506355466935889
0,00540153373957576
0,00879829396157516
-0,00251266899685135
-0,00705116768924967
-0,0119324938332964
0,0266484101203984
0,0382566581898444
0,0162927632181463
0,0479722232169769
0,0513636537302506
0,0754962841834675
0,0284305406922337
0,0278909293604181
-0,0378446555868204
-0,0772437142790068
-0,0305139195357339
0,0468227907528459
0,0637441233531881
0,00587768317222569
-0,0581701659339697
-0,0766161527021931
-0,00942210774258043
0,0634584176935617
0,0952448478369728
0,091861760114218
0,0326067121426675
0,00434175451299515
-0,00785142640724593
-1,72297336620014E-05
-0,00941261124633954
-0,00806367591478272
0,00561267692235648
-0,00481643928551766
0,0110850137006788
0,0367791907292636
0,0259794197337724
0,026302317174767
0,0286650190767319
0,0453324559324781
0,0148523446964295
-0,0493481071126558
-0,0968369537296268
-0,104047759913387
0,0154494183316887
0,113771938163859
0,109023868131724
0,00989127660695913
-0,063408920663708
-0,0442425473026394
-0,00672864947426575
0,0534146349123685
0,0683982898065406
0,0870343339724064
0,0321047612818478
0,00385952230823677
-0,0148196056407082
-0,00792524591967329
0,00109255945627768
0,00810145968211495
0,00719430511478385
0,00686295530697421
-0,0174071366281413
0,0163964384217901
0,0206397906815011
-0,00230286204181381
0,0260573835568794
0,0145543103787127
-0,0119781651271635
-0,0351027061121195
-0,0600033703954241
-0,00504836693109715
0,0705543741989616
0,109462441560246
0,109675420167216
0,0127802554246413
-0,0531464332993766
-0,036809915315937
0,000390073641463251
0,0146482251055556
0,0503597121050206
0,0248686878743329
0,000193114670963581
-0,00205331547685978
-0,0110659878388095
0,00126685761596686
0,00801132402968541
-0,00867878931356213
-0,00986436451669125
-0,00380337539496235
-0,0278499048371571
-0,0332625176972822
0,00835307145842362
-0,0194852856583073
-0,00371201845819984
-0,0296458513703744
-0,0537142264498375
-0,0275530765839716
0,00978789448336284
0,0858440189195217
0,122931571432552
0,0954327525241612
0,0674266970766974
0,0424544474599684
-0,0325214379941209
-0,0573860679236902
-0,043674472324203
-0,00757294899247008
0,0149204964567441
-0,00650198767150831
-0,023696012944181
-0,00947328384418709
-0,0160958968255586
-0,00744510370095882
0,000379821769736146
0,00586980061703745
-0,00207234777359007
-0,0152145209495926
-0,0540607565610357
-0,0580924097204659
-0,0288871889123883
0,00869420180177734
-0,000223543969039459
-0,000469204303714106
0,00169126738225971
0,0641929669635312
0,0744152983021428
0,107139358195903
0,147390543571769
0,106112116649084
0,0651338358598029
-0,0162763920470715
-0,0644729490443976
-0,0821319879023651
-0,0496638206069294
-0,0512236380551327
-0,0526076837632273
-0,0333635749914874
-0,0312094516635374
-0,0100234046084941
-0,0127462156605678
0,00748717925116632
-0,00665773033008805
0,00326130028484927
-0,0121919886562297
-0,0352532051438284
-0,0748703736511291
-0,0926478685754122
-0,0909610054948628
-0,0260330531247005
0,00635919834327772
0,0208189720265572
0,0679216550290185
0,114515875355388
0,133043205478949
0,148916909767883
0,147815750212344
0,0634745510577049
-0,0244266448926172
-0,0676774787723553
-0,0665794597806599
-0,0726805603473139
-0,0379403369467023
-0,0377764482501766
-0,056594249499332
-0,047543635056048
-0,0272553235544351
0,00275525295095542
-0,00757916243398725
0,00404403387102747
-9,48359584226457E-05
0,00588640182102428
-0,00863393325100094
-0,0291024489810676
-0,0911133354477725
-0,11856107134906
-0,128898851882084
-0,0789126539713818
-0,0361524055542681
0,0223800744796181
0,0354700684796189
0,0918356140760352
0,126138102355154
0,11642278357186
0,0660579169903605
-0,0122365567684881
-0,0602409502216779
-0,0752710371583932
-0,0461857196557183
-0,0549646106009312
-0,016195019995356
-0,0501160321261967
-0,0966827794540576
-0,0680132719567286
-0,0300101609681835
-0,00141271324767735
0,00345903011052962
-0,00222069520701227
-0,00537098550709785
-0,00179942289696948
0,00220863879472431
-0,042102056939974
-0,089942526411619
-0,112565262350361
-0,133394725952899
-0,0947986329677179
-0,0631141754873741
-0,00295552163605701
0,0119657405246936
0,0355797947010485
0,034423552712446
0,0150127151826319
0,0143079097900957
-0,0241294929177644
-0,0491846501612782
-0,064099280064682
-0,0754671637366436
-0,0436803200354377
-0,0445190148479782
-0,090499028622073
-0,0810884811950582
-0,0432522780533814
-0,0263709537703324
-0,0180046608571804
-0,00187514791755921
0,00694684918333566
0,00383087227765046
0,0028174865026284
-0,0110756525591388
-0,0404634141664938
-0,0843975364958818
-0,125681644396892
-0,116261733319924
-0,0689147279510673
-0,0438589097641582
0,00387580912213993
0,0425609051302919
0,0319953191871849
0,0477245638910178
-0,0117609179080666
-0,00217746159150811
-0,0233258146704212
-0,0389268458111869
-0,0336633330670255
-0,0275125686281574
-0,0366959048028565
-0,0480859907594484
-0,0747903626723986
-0,0749227533913197
-0,0392901959068413
0,00147431524124951
-0,00425562546080304
0,00814109911109442
-0,00652611438606756
-0,00525695284270261
-0,00928343690639337
-0,0168924277525663
-0,0351228131563367
-0,057372449909226
-0,0706217501494762
-0,067895181047358
-0,0486345829713266
-0,00482775032399525
0,0573561730310994
0,0622541683015217
0,0542550715291842
0,0506539248832537
0,0206669589555843
0,0211001592978151
0,0105290224510483
0,0103906202448416
0,0306984899442835
-0,000497780038664645
-0,0299054721928385
-0,0517536486197605
-0,0393068346668431
-0,0399237087122869
-0,0276503945850178
-0,0110067762948367
-0,0044485682564723
-0,00928755240399428
-0,00381385335983367
0,00198976418684903
-0,00905002934799196
-0,00608385049715821
-0,0258537457561699
-0,0346833233452301
-0,019653652679226
-0,0344286456566834
-0,042541760753259
-0,0239965348400099
-0,0064945714953341
-0,00172850885878223
-0,00653877822788366
0,0346229908542239
0,0150483875657112
0,0259984718246565
0,033784168752948
0,0386840019315218
0,0163058700349523
0,00149665341329587
-0,0253802184766444
-0,0104916175576346
-0,0054294277922515
-0,0209747083983505
-0,0182121381020042
-0,00334030171429037
0,00414905616575648
-0,00657905175064717
0,00548934288846579
0,000988918035751636
0,00897699493867205
-0,00978950033041222
-0,0247668380356636
-0,0335038019805235
-0,0280016335113062
-0,0340346452083559
-0,0468179561140318
-0,0530330948434602
-0,0491798185933643
-0,0649918674377052
-0,0585004051798089
-0,0135929201848682
0,00632278111575101
0,00877568141233108
0,00942208584119184
0,0205985041734607
0,0215018388027693
0,0251845538484614
0,0205998385764018
-0,00240880459750663
0,0019897552593548
-0,00402005092504458
-0,00925110590072926
0,00598297084337246
0,00456613138264391
-0,000763470543587646
0,00583654209777552
0,00251676092507167
-0,0058104018661242
0,00671081965030479
-0,00541395994393894
-0,00826834369580626
-0,0116481931989374
-0,0194089512689511
-0,0494736732730294
-0,0552008790307516
-0,0659173694269761
-0,0381972966108504
-0,0365698257211797
-0,0581749139599128
-0,0648449077600855
-0,0601711264586246
-0,0202790191101206
-0,0087347799337703
-0,0137250159795056
-0,00590148669837911
0,0082929750120323
0,0128842747078133
-0,00228457750695797
0,00511973934865468
0,00482902531795131
0,0041850277328584
0,000819744586104671
-0,00112987561917313
-0,0046875788153557
0,00401759549696818
-0,00859130677701501
-0,00861126304685977
0,00123710434642662
0,0031972625669232
-0,00387508346027544
0,00757299973101854
-0,0112291111086268
-0,0310485086993742
-0,0323460479261013
-0,0317342055389827
-0,0326426126709225
-0,0458032067809183
-0,0548736835605437
-0,0331871629422796
-0,023578155039272
-0,0369229973102751
-0,0225486190656241
-0,0070788732857721
-0,000526729461717143
0,00915234610656067
0,00291741132953066
-0,000786997229339481
-0,00843016882304665
-0,00592054192911686
0,00945111798619587
0,00973737296066216
0,00216688172526978
-0,00201057308912769
-0,00899268562858584
0,00583120922363885
-0,00353332737050181
0,0107725407550492
-0,000331239518889289
0,00739688196580591
0,00162297044055936
0,0243364573878119
0,0275602803477105
0,0261843769714198
0,0068162639374309
0,0115891507353365
0,00521715168780302
0,021880796996264
0,00237430604217014
0,00459147803103805
0,00581704544489568
0,0103287830312042
-0,00647399277494681
0,00640084925311202
-0,00217443888365565
0,00749100072536342
0,0065856071221274
-0,00447726052055073
0,00476281523373741
0,00369219840210499
-0,00432688505124621
-0,00317158724794704
0,00397500476519345
-0,00703912954639603
0,00387836976623087
-0,00451087540588356
-0,00389703027002445
0,00795524922519599
-0,0087611981218763
-0,00558115401163755
0,00172858157819268
0,00537516652966877
-0,00120132114800143
-0,00692075972633101
-0,00501285608216935
0,002668759874907
-0,00619151840711183
-0,00511935544834876
-0,00437106919002167
-0,00616653509040485
-0,00470139558947726
0,00433734668600644
-0,00189315919669607
0,00630623440620702
0,00798490080704362
-0,00445046162905659
0,00854777968421009
0,00691147909355884
-0,00914394161624086
-0,00494203203122226
0,00965236482194269
-0,00906115404286476
-0,00496973896164901
0,0030743675832983
-0,00381174394572701
0,00475383376458373
-0,00468238611457981
0,00540272778617345
-0,00614661705500754
0,00555825663523667
-0,00225894203980404
1,73095835353564E-05
0,00319862843950549
-0,00691913866079126
-0,00730028863434722
0,00632514514789225
-0,00461056914860875
0,00887678935140222
0,00174317258025667
0,00735918448183648
0,00361768774391044
0,00193672770258818
-0,00915900498589454
0,00425963065319677
0,000270946766376005
0,00208259363290043
0,00936091823473616
-0,00949425225122564
-0,00427804837668224
-0,00167116860471255
-0,00306152450528998
-0,000827588232555986
0,00700584968684338
0,00400887552493731
-0,00947453787630585
-0,0047397232524913
-0,00223419718564468
0,00341867795702064
0,0035992155885146
-0,0065360268561972
-0,0101390463852769
-0,00383463283623296
-0,0108071005286709
-0,00558971109098617
0,000890815626700536
0,00265542580147297
0,00866462782440399
-0,00621620308686087
0,000513110915750364
-0,00967958331856564
-0,0101813195929465
0,00967099033280788
-0,00483169348669783
-0,00650312609807734
0,0014402802248673
-0,00228436288064549
-0,00990214905697021
0,00076972233262663
-0,00720962140277102
0,00408417206966349
0,00536648892039452
-0,00669570933692842
-0,00632708858998883
-0,00431979288967222
-0,0116144631418291
-0,00608663721608474
-0,0129439219143959
-0,0130369394362608
-0,0177588477566949
-0,0223808875302781
-0,0222531755028387
-0,0193775200959557
-0,0230675999945824
-0,0150511456956299
0,0010450604263188
-0,00591065934202677
-0,000486972727170894
0,000920442510888743
-0,00908247363393698
0,00698578750549237
0,00233815473566305
0,00499053578590533
-0,000263120788272061
-0,0051918220590762
-0,00183127612426471
-0,0027243565111409
-0,00602544261515145
0,00368794404719792
-0,00454178339536811
0,00507319679233435
-0,00918847590128868
-0,0135973812160644
-0,0286899571142204
-0,0434893958737845
-0,0274961295210382
-0,0164604314041146
-0,0472152581065692
-0,056066086200564
-0,0534708841141003
-0,033910327498465
-0,00518408110413785
-0,00666253580860764
-0,00810522567475641
0,0076673486611083
0,00323818774446628
-0,00108828148707438
0,0024267002551694
-0,0127512129485702
-0,000538977133884301
-0,00642696273911018
0,00616764317088185
-0,0016374148110102
-0,000725662726914849
-0,00429224486735022
-0,00661447344638488
-0,00368071596620394
0,0109032091170296
0,000433673181147594
-0,00837631871990282
-0,0243421625512455
-0,0398456310507969
-0,0262366385214043
-0,00980709980904364
-0,0148395436643286
-0,0101587819577837
-0,010500188091826
0,00370216577161106
-0,0279456311300564
-0,0166469799931351
0,027220981007807
0,0160474526947423
-0,021922748098872
-0,00507351911635292
-0,0108437533861908
0,00174840247195841
0,00242079772776341
-0,0038156162216727
3,42991230871863E-05
0,000511346380343751
0,00779048000359465
0,000103602665524744
-0,00810047807142204
-0,00440435411574315
0,0148360389744988
0,00880237111469198
0,00598096739511149
0,000638982893509854
-0,0364156231318332
-0,0606036213507402
-0,0483892506472751
-0,0494668279470973
-0,0716641135925155
-0,0711515840705953
-0,0577145261850131
-0,049970643862621
-0,0286163959078531
-0,0446861293433269
-0,0580094767175104
-0,0324970054526673
-0,0532921978917067
-0,0380631776162479
-0,00115436208481806
0,00956862566612327
0,0151080128179463
0,00603193457661322
0,000944828672680129
0,0076095681699178
-0,00803438021709881
-0,00177858548085774
0,00314591601525698
0,00654251191625841
0,00905639365567888
0,0309882055287126
0,00677570698736335
-0,0113611103878043
-0,0167892431503965
-0,0188715544446485
-0,00746526196611797
0,00901605967757669
-0,0223680239985275
-0,0117391964208807
-0,0312971730329967
-0,0612221625891612
-0,0170051188612167
0,000754679200387138
0,00427722535144742
-0,0365962312515969
-0,0235075876298974
-0,0227287370142181
0,00228265606111694
0,0055717379774071
0,014237299019312
0,0156998813006509
0,00321468847263958
-0,00473325847398882
0,00318325553959705
-0,000114265450412455
-0,00296243787478127
0,0103643207816568
0,0340762670266215
0,030446571449254
0,00237356956179308
0,0131207188997025
0,00313128835136746
0,0209103041183196
0,0317353628780567
0,0522228025311656
0,0456812612581282
0,0190432471767723
0,0331876008606623
-0,0157140983222877
0,0348723195028509
0,0651200902652087
0,0442389080715158
0,0448325741806355
0,0356375985992922
0,0201567986213298
0,030156501307969
0,0125817309034282
0,0153904373664172
0,00651104664625628
0,00551127596716802
0,00461814159246716
0,00048961003675626
-0,00159555199684494
-0,000491977207080943
0,0210380048176046
0,035287931885865
0,00411307033923896
-0,00706294593881191
0,00247499979678001
0,0398774001108152
0,0480023912044139
0,0393401904304442
0,035806660154558
0,0261258413169291
0,0127358836685126
-0,00656751430642811
0,00252927547905598
0,00318011171800679
0,0605793290129508
0,069348141975024
0,0576866575501064
0,0411711404283964
0,047318784222919
0,0346357770213864
-0,0053841551074355
0,0318241662348005
0,0402594076554881
-4,69006157375712E-05
0,00609784081853306
0,00336604635913887
0,00782581349765024
0,00177181650535011
0,0199473217767815
0,0403174826492617
-0,0186227532169163
-0,0289667383425903
-0,00820381332171916
0,0503516968834893
0,0430948911570696
-0,0170761700407838
-0,0512731750777139
-0,0763620514304989
-0,0884386044985383
-0,0639124769960954
-0,0479770663077337
-0,00411752545896009
0,00605262137701588
0,0123824879547522
0,025015196294703
0,0417728242966164
0,0587878572575426
0,0443475680456526
0,00882397365644049
0,0409545452059801
0,0297015973730102
0,0128467599127172
0,00734447497191817
0,00867873949878484
-0,00789739858614491
0,00400596443379897
0,0218219794865119
0,0071955466393491
-0,0559905111409724
-0,0606984792618988
-0,015550032010702
0,0227903183112671
0,0273747883387751
-0,0286669690912698
-0,0719283358972803
-0,122328681609545
-0,10932440434805
-0,127445992204358
-0,0577986187414806
0,0134980727730839
-0,00446312514149514
-0,0338145345734545
0,0122318221137203
0,0544831219210997
0,0618552815726245
0,0251089616039152
-0,0101471969385196
0,00551202134997849
0,0331945483109498
0,00652816128701159
0,00282840618221828
0,00621751453990436
-0,00220899643225496
0,00549442200414291
0,027174240489188
0,0164642481323966
-0,0502288401903759
-0,0702591078954418
-0,0141824961397588
0,0240644673734437
0,0724917765047242
0,0662294652397902
0,0266501720516304
0,00417157573866344
-0,0251857781197357
-0,0677940203081807
0,0124190957308996
-0,00706766405366133
0,000413420699567732
-0,0376404704990966
-0,0145485270327978
0,0176053632591656
-8,37683897287638E-05
-0,0241873472094527
-0,0517592762236607
-0,029808751597352
0,0170419916339411
0,00737219893710668
0,00347494250971794
-0,00113161781429929
0,00461001802953469
0,00441011906579211
0,00947853950014588
0,00368923276859588
-0,0280864271390918
-0,0104123943361608
0,0302648741667762
0,0841121016755777
0,142270732126782
0,167346411357537
0,111407553400298
0,0701122488072404
0,0188532885033463
0,0798896520574719
0,0665546550511198
0,0191636608577928
-0,0259447345371194
-0,0333116940803573
-0,0652898430981317
-0,0378476618291893
-0,0666918804641389
-0,0559742836420138
-0,0659482857165409
-0,0360170056999388
-0,00867078267741758
-0,00389819489985769
0,00101047854320902
0,00698223961118677
0,0017733790307016
0,00644565076379644
-0,00490933451753207
0,0160553943571083
0,000946404236271811
-0,0127273451407489
0,0120441167944822
0,0796555080355495
0,100742822923643
0,109585454249965
0,085650641045864
0,0735544224208789
0,0384809703132738
0,0889812185102939
0,0687596582018195
0,0453623237068088
0,0256190311590142
0,0237435201638572
-0,0443969775739706
-0,023713843217089
-0,0199308515611093
-0,0595421713185028
-0,0506248176919862
-0,0433520758366851
-0,0212602988790157
-0,0105411748680849
-0,00503731139119975
-0,0083300845723476
-0,00179393763399543
0,0118336012861615
-0,00200988613669611
0,0101148799147122
-0,00721216576666529
-0,0642853967434136
-0,0489900864923209
0,0109201262840884
0,0544284792279193
0,0272177025441136
0,0492273807647104
0,111815983654097
0,0885763834252894
0,135329101573876
0,107405196335144
0,058240026745286
0,0658849081583033
0,0235755797638705
-0,00455738718227931
0,00268390567694507
0,0120843970919891
-0,0114355444636403
-0,0249470427227626
-0,0281498104526589
-0,0209922392780181
-0,0164147831292653
0,00931685793881258
0,000479545824724666
0,00788829956472081
0,00827737281437344
0,000444450473888672
-0,0182918161303796
-0,0447922893342016
-0,0955198000634225
-0,10182692864112
-0,0521933820930514
0,0168304230907786
0,0371723390579454
0,10440267500071
0,133405735475816
0,145521688011074
0,115869529801916
0,0678518039082882
0,0452434010235649
0,0581095163164697
0,0128450648768475
-0,0107521209698451
0,0146213546764576
0,0483241478180197
0,0543358217012344
-0,00138086969672775
-0,0436850510560105
-0,0358042413182071
-0,00673431019702342
0,00815464206026464
-0,00914593412989874
0,0123816833773496
0,00713204539876738
-0,0193666461243717
-0,0362296035927012
-0,0970021289436038
-0,142564507127343
-0,125795393059277
-0,118221147279199
-0,0571305461293741
-0,041668568952762
0,0189656894034991
0,0929669353845996
0,139960493556793
0,0931665304408336
0,00861903468287209
-0,0020752509103134
0,00995328184744502
0,0278007378403495
-0,00948764949706822
0,00839517380973898
0,0242146990283485
0,0152813215917948
-0,017013797422632
-0,049066406761983
-0,0308262116594438
-0,0204593761473978
-0,00410334443591882
-0,00426632548415397
-0,000743499989428526
0,00342848930509068
0,00458894196478398
-0,0355949264400254
-0,10462287932033
-0,174115580341334
-0,198134998575198
-0,220302668767123
-0,209471881106588
-0,221872188804105
-0,155053318990913
-0,0305766909247109
0,0699229688206663
0,0415391350756804
-0,0149051908436126
-0,00431740499221516
0,0142673094955559
-0,0172765885419913
-0,0367288944898071
-0,0481376197683576
-0,0131487419325928
-0,0393176923290086
-0,0486559126185273
-0,079609297335385
-0,0387300060879904
-0,0193153667781197
-0,0103727199222338
-0,00190301537571585
-0,00122794709402912
0,0104772995982555
0,00466863000242802
-0,0217410180109137
-0,0778353362944567
-0,139866473626864
-0,182983281571012
-0,184995949260581
-0,220137510390993
-0,265648794592889
-0,204004860611307
-0,140343358462462
-0,00103242168986843
0,0134223979624918
-0,0213051555925719
-0,0446525426269608
-0,00473795987085956
-0,0135752184551611
-0,0389267191951316
-0,0224227577089316
-0,00954186332501806
-0,0525839068383679
-0,090648016266459
-0,0865079547586461
-0,0249118684167572
-0,0125421499871109
0,00989913700583442
-0,00240789587057643
0,00720907414868817
0,00326493636518638
0,0187022740563852
-0,00522025088602449
-0,0467370092798566
-0,0610907256269618
-0,0828465168580253
-0,102316236159088
-0,133640563240697
-0,142391280558781
-0,152798032852058
-0,0997461190279915
-0,029881546313027
-0,0167025011538365
-0,0232496582148601
-0,0466884634843047
-0,0267658838057861
-0,00240018261047247
-0,00341154285415385
-0,0371526986637033
-0,0245567985413296
-0,0746122932416265
-0,0893769652224634
-0,0628367059940749
-0,0250769174500888
-0,0119165486500406
0,0086686288698721
0,00514286307391844
0,00678120227412029
-0,000553164040192007
0,0273818476952224
0,0167948888164969
-0,0293094722436853
-0,00323035855436375
-0,0342701018950459
-0,0355728085168002
-0,033376400438546
-0,0723557745141849
-0,0773356266076315
-0,0480253170406729
-0,0283390155060268
0,0240181420006691
-0,00801823218997175
-0,0240463071951658
-0,00333361138698361
-0,00225641107674808
-0,0193775070004572
-0,0378004637573669
-0,0583400091859637
-0,0868429278707979
-0,0800365980976872
-0,0408512488697589
-0,0173060391152202
-0,000306536779209249
-0,00720298433505347
0,00227577743337596
-0,00591626956711764
0,0030594884954122
0,0101979574506813
0,0219662412271181
-0,00986639272754316
-0,00991539065412331
0,00979531341627078
0,00261133131327312
-0,0455904451853559
-0,0385988820132823
-0,0524529490295835
-0,00895171936771276
-0,0133553226430561
-0,0158301906029378
-0,00538162066126293
0,00647467922807338
-0,00442181420121951
-0,0378139665924226
-0,0291688993493522
-0,0583926206671004
-0,108670128370504
-0,0944188508450313
-0,0779990110347176
-0,0375639896924774
-0,0144232545098459
0,00377674349464078
-0,000414247920572491
0,00557292731715011
0,00966559033105158
0,000915246159795472
0,0143197972018812
0,0234155270257163
0,00518564835503059
-0,00322547288244732
-0,0120347440412947
-0,000361094456193286
-0,0189485820440384
-0,0209406601043085
-0,014627540193265
-0,0523967828049978
-0,0319742961343466
-0,00244012274939489
0,0365848449311295
0,0237911725423686
0,0103369462828761
-0,0176072393904441
-0,0169240160257166
-0,0917583901647705
-0,119864694985764
-0,0854633805750482
-0,0434822227617669
-0,0342778015893376
-0,0168318445954211
-0,00698187391560057
-3,39734352279004E-05
-0,0042674582890549
0,00597381788118454
0,00450122190231535
0,0124543795489325
0,0261820399509327
0,0541370356286597
0,0603797323641709
0,0472654614805698
-0,00363108787621984
-0,0104389775718695
0,0306957703905702
0,0189527456986614
-0,0215930759151136
-0,0228538579256086
0,0282867214274846
0,0696340735344204
0,0283992760722468
0,0155689421405044
-0,0423650146176514
-0,0761299732320229
-0,0861381967616163
-0,100164319564852
-0,0519969976249501
-0,0347217557155649
-0,00848885196542802
0,000168664567312048
-0,00221681733765219
0,00463974704716343
-0,000236276011092716
-0,000617712331292085
0,00445145698465279
0,0124739589951941
0,0263333968858535
0,0726643919291374
0,0828821836576042
0,0735462011170672
0,0327535610248832
0,0141415962220704
0,0274385384009397
0,0303154382906421
-0,000581963304469982
0,0294726173060219
0,0481330481012023
0,0258250336895488
0,0361886349011784
0,0471426624659997
-0,0199069490375684
-0,0459200398471281
-0,0403378275341381
-0,0238870592579075
-0,0147552840895006
-0,00593351418083828
-0,0234234919788167
-0,00456376850046553
0,00498251832115916
-0,00546308946584495
0,00627954014403724
-0,000790191679629586
0,00698120385965393
-0,00255392088986188
0,00971819279931224
0,0207974365862417
0,0266569483604391
0,0497578818757211
0,073249707285685
0,0717278541773672
0,0828824606984951
0,0955579819528817
0,0934478811016573
0,0966157743495769
0,0779434339369484
0,0627223506350977
0,0561718364790329
0,0560940624496208
0,0547161046708916
0,0218682515282537
0,00371420479376752
0,00318025602726897
-0,00198536958742288
0,00293086867451065
0,00594256502946852
-0,00442753992052309
-0,00698571133651402
0,00178233748850521
0,00758442704453339
0,0033310233584284
-0,00197585664315887
-0,00179850630387234
-0,00720890137064211
0,00321528894757963
0,0108131673976332
0,00118219335345143
0,0126466593379951
0,0153515502908546
0,00834825850168013
0,0114521070033037
0,00683475809285721
0,0213612523758161
0,0145630233748428
0,0198232395553984
0,0171248981511775
0,0119789201699535
0,021549701636301
0,0149356981330905
-0,0059493884731672
0,00336699651426778
0,00296529998103175
-0,00182147587141818
0,00557340546219337
0,00429877238502132
0,00710911565325647
-0,008486867686029
-0,00938468921900945
-0,00754694664736602
-0,00154547274650329
0,00740376109136444
-0,0094343599241479
0,00321697147378636
0,00622786149342949
-0,0104739231829497
0,00358881792501443
-0,00526350233466987
0,00829088060761312
0,00568779725143831
0,00771764172948891
0,00473314217262012
-0,00365409808083834
0,00623958600326276
-0,00468277891807905
0,00182966884172298
0,00465684936293458
-0,00132622405086286
-0,00580943246464255
0,00547985194530551
-0,00234137480632886
0,005864979273096
0,00173563451121358
-0,00153568725638822
0,0017252886070522
-0,00652297072881971
-0,00964861476777523
0,00959653213601398
0,00259237407361733
-0,00187452003912745
0,00372119186153691
0,00642263257709455
-0,00583119513272829
0,000467510060624923
-0,00708898844061838
0,000779925925089011
-0,00322547975612128
0,00498633113456253
-0,00654686367396313
0,000717850179460814
0,00834217049991946
-0,00758811881616425
-0,0062891473976379
0,00876609920466603
0,00739433044446368
-0,00308317308923377
-0,000662501664209413
0,00788422618894103
-0,00580588183170458
-0,00495571679200778
-0,00878338048177929
-0,000505732321415904
0,00789135377755918
-0,00529590226490791
0,00495892318662206
0,0027720094811041
-0,00433187341984914
0,00209741181325978
-0,00853266257851266
0,00289407304227811
-0,00991288171899902
0,00472623237281761
0,00195489556435182
-0,000878000231238211
-0,007916088290547
-0,00914018963842808
-0,00225798265717211
0,00383511631204117
0,00290736601132038
0,00343062422385027
-0,00726755836138246
0,00769377102026861
-0,00559814476837387
0,00302470851846464
0,0076411461882018
-0,00485023977602964
0,00198452916054016
0,00297058708695821
0,0010699822991481
-0,00519153830371403
0,0041395309353897
-0,00753284095671626
0,00540241396771856
-0,00245190913437489
-0,00308999991521791
-0,00588635137475459
0,00849133809851959
0,00948877130444096
0,00635659649557041
0,00146504064481338
-0,00254593131159134
0,00952158258512716
0,0102088111148467
0,0101107491462129
0,00868495755115834
0,00109553794334097
0,0117691033579435
0,0149519915281203
0,0158320391003511
0,0152393042608866
0,0171360312911433
0,0125787399914678
0,00183788194866652
0,0047456862739376
-0,0069265309720917
-0,00619756216947436
-0,00437721952750466
-0,00503385484970085
-0,00286729778762315
-0,000123423836251453
-0,00919965568892642
0,00269859127360331
-0,00896925497538226
0,00647028884867564
0,00958476086526667
0,0109947785714942
0,0134244664630872
-0,000306397772093832
-0,00222330020091207
0,0252812378619864
0,0199024840815687
0,03063285603674
0,037996416864952
0,0253677180410468
0,0313172939293016
0,0266725324055669
0,0162821411197643
0,0269521762223813
0,0188095015861474
0,0299610693984124
0,0269142574167968
0,0271351617940359
0,0199637857597454
0,0172790616776425
0,00703738184113238
0,00850716317846127
0,00636319461469919
-0,00533813707313414
-0,00373465720272374
-0,00621415824214991
0,00891403250072816
0,00364672894136938
0,00475126940108184
0,00426296581983832
0,0120882170446274
0,0186222042137028
0,0300822826162734
0,0531990855443974
0,0665773138576135
0,0630919405570794
0,0622268548738804
0,065015853639828
0,0560787857234848
0,0563491590195669
0,0601417301773053
0,0564937975270105
0,0638014399759169
0,0588950880522744
0,0559510692012362
0,0469348437952508
0,0353906985085154
0,0133905460257126
-0,00367190935726083
0,00389418822105786
0,00574879818176403
-0,00669635265555927
0,00660038975840453
-0,00404259260466443
-8,1269141069828E-05
0,0106528387461665
-0,00286145570092822
0,0192682762307288
0,0368125483510319
0,0419518661953554
0,0523739454700471
0,0682883659617679
0,0854449800193603
0,07834076958977
0,089536585803467
0,0819945255957397
0,0795397501397331
0,0951610099035653
0,094695776764231
0,107098121472708
0,0962841293492827
0,0897949515637583
0,0658421833998437
0,0448390549544985
0,000263602890894255
0,00143247254856066
-0,0062653473693301
0,00398291987742715
-0,00992793449887534
0,00367482954802568
-0,00476031017245739
-0,00279272178794212
0,000993344928243915
0,0094608908849828
0,00874555805539464
0,00927104457707833
0,0302791033366299
0,0306959856328426
0,043473492486666
0,0786434272908008
0,0593290478554498
0,0647258704203385
0,0822148684918265
0,0836974917840036
0,0654460937856314
0,0984384744112987
0,124824989880094
0,114700316771595
0,0985204300278042
0,0565904024830355
0,054409006744561
0,0117825034440089
-0,0144784165884231
-0,0139911744212085
-0,0241022532376557
-0,0105108513718213
0,00365534971288884
0,00933313508678929
-0,00597556145423872
0,00131811258354795
0,0080162958513112
-8,20080884807301E-05
0,0201415249774481
0,0159569431752025
0,0255209161853283
0,0283585352548956
0,0530085314650351
0,0511639671203386
0,0229086238506525
0,0243887428943378
0,014394527766942
0,0254030061460304
0,028752673999951
0,0739628316710041
0,0712131887938396
0,0573556901316575
0,0411687952968295
0,0445476282363554
0,0190476124119807
-0,00713275099630824
-0,0374635893035977
-0,0372872848997566
-0,0468479235320675
-0,0220680853899551
0,00401919815761072
0,00383292341925078
0,00706012669681993
0,00673930243083733
0,00623917542585563
-0,00284504206718581
0,0227250229753955
0,029891077728278
0,0235489124557675
0,0346765067829669
0,0251317840551626
0,00770894320435053
0,0169060451023933
-0,015776047231795
-0,0303275344202521
-0,00574557802210646
-0,00171635803096437
0,0052660886120329
-0,0338733029595434
-0,0119331865176956
-0,0366967266842314
-0,0349760819928932
-0,0619560836421883
-0,0725632584492389
-0,057748868289666
-0,107432555774306
-0,101643618357619
-0,0532732392289662
-0,0144143186197684
-0,00476094256061459
-0,00579726768850747
0,00572368598416007
-0,00629405602130413
0,00804479683973674
0,011989630416578
0,0187040373402172
0,00921731474820152
-0,00352014428014869
-0,00458905328716197
-0,00507716810189753
-0,031175772742194
-0,0745407334263344
-0,0612625359165473
-0,0632044511563569
-0,0421814970481471
-0,0418549995930159
-0,0671014729547373
-0,0641165765363384
-0,103521560019118
-0,0935611902350723
-0,0626236404298857
-0,0678434980688383
-0,0524350035203973
-0,0891981885722748
-0,125716930646586
-0,0741101214627268
-0,0205467373839676
0,00527262391638335
-0,00826566434860094
0,00122179292469994
0,000129927410433214
-0,00169947663754853
0,000158365402111429
-0,000857426022401155
-0,016680678212659
-0,0139722717382498
-0,0229172803449013
-0,0637855009282702
-0,0728916591777522
-0,0912182816891184
-0,0822635142314743
-0,107623600695533
-0,101634923545743
-0,10992919283389
-0,0969762624243064
-0,0848734646709825
-0,104642375559554
-0,090250601282813
-0,0798528837872701
-0,0696848451829937
-0,0742591077063033
-0,102026675804433
-0,109908108580102
-0,0682079355329991
-0,0158411989247699
-0,000759836448467999
0,00754164170352657
-0,00507512216856995
-0,0170244142579969
-0,00676680701958486
-0,00853465976718024
-0,00620095908937539
-0,0451469407081024
-0,0499217116310135
-0,0549474070079193
-0,0588069300095749
-0,0541169834808708
-0,0530974519450951
-0,0328238443505723
-0,0778930672416443
-0,06772073858894
-0,0701666389729027
-0,0436314985556547
-0,0264838279279975
-0,0238842291226477
-0,0416935460979492
-0,0386626006156559
-0,0272716838333995
-0,031981142472587
-0,0657573379450148
-0,0694758858817628
-0,0350274364852951
-0,00889519337939653
0,00825823304368203
0,00224724269333677
-0,00214570677580703
-0,0198279778456496
-0,00856127165822153
-0,020566109990527
-0,0414159740615893
-0,0845819196927016
-0,0581664111431533
-0,0506795402803807
-0,0438273368551518
-0,0595315914870133
-0,0107689048893481
-0,0294572099094195
-0,0603663006028533
-0,0380912668434867
0,0206097379580251
0,0925444436906657
0,0871013624461086
0,0483949856678318
0,028124922860439
0,0133423435942617
0,0332498042032668
0,00364198251039663
0,00349409788887491
-0,0102225669621796
-0,0178014820856919
-0,00901282315595585
0,00862397756934059
0,00370666568272799
-0,0108420670552479
-0,00036935363339415
-0,00311890465764088
-0,0151107070080045
-0,0416114420269921
-0,0567827746304807
-0,0556436986173604
-0,0643828568476503
-0,0550921045403049
-0,066272115290169
-0,0316437668455135
-0,0159070054933633
-0,00534008879782798
0,0447811719573921
0,116101701660105
0,160937942998042
0,142958333431452
0,0992999830011696
0,0795248733021863
0,0799880004961544
0,0389443348499235
0,00478337914307982
-0,0128628169770258
-0,0206432796337256
-0,0185226436461506
-0,00591494669136098
0,003359256958292
-0,00916067383943901
-0,00211096867483781
0,0017358154084989
0,00857585775277752
0,00723871498390393
-0,0334574006652502
-0,045003102175108
-0,0439166910157526
-0,079636431636375
-0,082879654559993
-0,068182802499888
-0,00142158764187398
0,0173123803290967
0,0542211595139499
0,0933351023041596
0,129227824126652
0,133764281357633
0,123688313933337
0,115742607228105
0,110941965137565
0,0576719027610554
0,0208056356876533
-0,0167383298374392
-0,0462358833597703
-0,0469857239282388
-0,0110886736222272
-0,00893207511048205
-0,00690003403102771
-0,00582684869947704
0,000365237586178245
-0,00151098419252583
0,000115785969047999
-0,00147755082229174
-0,038839672035272
-0,0469964012839653
-0,0512716077655038
-0,0465046177580751
-0,0719482326381701
-0,0180021535275492
0,0451874671547218
0,0489770808051683
0,105555769284003
0,124327696587534
0,105642130542291
0,105153825845273
0,104819002943094
0,0712583539619973
0,0521558072560846
0,0280528956368179
0,016577489409245
-0,0116271697791432
-0,0512632822560424
-0,0538044186127726
-0,0111319086852046
-0,00499138233182287
0,00536332091900289
0,00581572984976992
-0,00308237612208661
0,00632583326370807
0,000985785586439666
0,00083895081358724
-0,0293190584486091
-0,0312647492857799
-0,0112236508129949
-0,0244675232307402
-0,00601262012104689
0,0440780502201008
0,0648466936574551
0,0910146923283558
0,0965353581994435
0,108015596249898
0,0869551201664149
0,0618309152950857
0,0362621947463083
0,0264421381623756
0,0296518000593733
0,0322853719603636
0,0109240587916297
-0,0169853172091357
-0,0421544905056625
-0,0391414845517132
0,00787493303409899
0,00692689929838661
-0,00221068841341101
-0,00761995226965284
-0,00958702812820329
0,0106352700513018
0,00080327631225817
-0,00149913748712394
-0,0460410617923958
-0,0470744935906634
0,00365587286132863
0,0136367734970799
0,013139912545096
0,0397544527452088
0,0646866348414853
0,0871729694829455
0,0693074612919273
0,0520847433580669
0,0384427980290528
0,0299169907216486
0,031440656568439
0,0301816720132732
0,0312360873431669
0,0218265281094169
0,0305504734709386
-0,0168979046383722
-0,0356997394121125
-0,0326555894670651
0,00740261250070786
-0,00421759070920227
-0,00097061703270064
-0,00722371776822635
-0,00273607417717851
0,00998206075705147
0,011322220213667
0,00200675546724849
-0,0372673688103321
-0,0480016010003588
-0,013265339721429
0,0197670731434697
0,0212823509965667
0,0268625777947298
0,0328724225539215
0,0526162917824282
0,0489115006449034
0,0327970187897244
0,029816380069897
0,0539147337185764
0,0273259400637112
0,0336203329689838
0,0220874956960757
0,0298434711019428
0,023562372105354
-0,0269367284881045
-0,0303253065263528
-0,0175050288328465
0,0126464876908453
-0,00356666398700409
-0,000737575159575037
0,00348459031185922
0,000757928350748287
-0,00962600802366085
0,00127245863038123
-0,00895364373197687
-0,0231575486680472
-0,0147684179001205
-0,00918525554336457
0,000884730253995543
0,0209994202320006
0,0484660391904464
0,035141020735619
0,0443152515608615
0,0420653327024404
0,0504714149162127
0,0546718020517272
0,0658525459877449
0,0409169374600604
0,0246809543254675
0,0437913918326401
0,0369308563292795
0,02546894730931
-0,0134485544957021
-0,0169513471999513
-0,00638436191443107
-0,00157915531012098
-0,000596291204796526
0,00540571986772158
0,00999016910790939
-0,0022012767069411
-0,00727140953490073
-0,00192193332213629
0,00352960529599722
-0,0407849575528631
-0,0107091322974914
0,0389208446689912
0,0225019452146035
0,0347787387803012
0,0530754806040415
0,0479321290157474
0,0565629184746951
0,0507094169586103
0,107612273214349
0,0981688596280234
0,0747525912927763
0,0301774600831824
0,0392157495014161
0,0284740944761188
0,0302950465211339
0,011004023506967
-0,0158111259627682
-0,014984974922904
0,00355218741611752
3,61097850716635E-05
0,00962656744391866
0,00666292649978872
0,00274215957485287
-0,00183678321344673
0,00818108280865701
0,00128228480895783
-0,010178708748971
-0,00309243220832659
-0,0231120729130706
-0,00937434215753141
0,0325780044278199
0,0780958089165824
0,0825309157656231
0,0812483372835777
0,0908391243280993
0,111255260243128
0,113577336713393
0,0964050220680574
0,0720947991214906
0,0529951704701918
0,0196145462202247
0,020435488556467
0,0112311540920963
-0,0244251016779442
-0,0166474877665625
-0,0179043699544662
0,00554563577949752
-0,00888770218802262
0,00392213260869656
-0,00620671606555466
0,00106623545030614
-0,00463207854454233
-0,00284021337416169
0,00264170222872886
0,000808799776155904
0,0134091853312997
-0,00578745389898411
0,0117563768060875
0,00633060488145314
0,0195204534017773
0,065608265181
0,0679827883766925
0,0633203667238707
0,0639704237298835
0,0408413831215962
0,0152966608455536
0,00482779958268383
-0,0154087631152666
-0,0165578065515811
0,00580200697391461
-0,000216245541497937
-0,0175938808386599
-0,0307081554077358
-0,00585115934134189
-0,00600982459915731
0,00328563992276187
0,0090636056346651
0,00106878053638636
0,0005950217370852
0,00104719388813115
0,00163428534778865
0,00927379806147727
-0,00573549583567968
0,0094635652189224
0,00741279327740957
0,00054185388919688
-0,00997486329913725
-0,010172963274008
-0,0207416901901959
-0,000113368545235272
-0,00347914609164975
0,014690275116324
0,00499217011552882
-0,00987270814776291
-0,0348119483160816
-0,0167849401014574
-0,0134435564503689
-0,0077034211560355
0,000907406673680324
0,00205416255851961
-0,00983486059944954
-0,0149297797778361
-0,00995452014400002
-0,0085403546310368
0,00187089339352198
-0,00338626524125518
-0,00529190382700968
-0,00158202329258529
-0,00689593537315782
-0,00109529487135263
0,00618050961451127
0,00792529249202687
0,00374901924409377
0,00501861033753954
0,00220682431309577
-0,0143423296842585
-0,0267807989930759
-0,0128600157613254
-0,0160766558046481
-0,0186799830919523
0,00105541136241204
-0,0149545016442918
-0,0203910566453224
-0,0409298784201
-0,0259971592618349
-0,0149127295358047
0,00903626404078013
-0,000611211596697915
-0,0111054999175166
-0,0121841754670288
-0,00370448477636475
0,00912302317943502
-0,0099593476964176
0,00792911125250585
-0,00602002371848562
-8,25509569060759E-05
0,00448768331835122
0,00839787880274219
-0,00582956764524857
-0,00123302902947111
0,0188257046913145
0,0191327783681171
0,021602083699442
0,0255468170085663
0,0137781245578724
0,00124761766676362
-0,000155611638224813
0,00328047877372107
0,00657873220330717
-0,0283793211247691
-0,0269436116036
-0,0348939805755427
-0,0225483046583303
-0,0235237500792449
0,00648998932879707
-0,0127726638602213
-0,00714016997062759
-0,0170247543273539
-0,00336949202312757
-0,00467489994494488
0,00166492521961287
0,00535390443883552
-0,00949275485216303
0,00533742449029229
0,00655396802190411
0,00600837611465028
0,00501936517750353
0,00195317375186054
0,00441274511429162
0,00193705000380262
0,0117729446788984
0,00469943917502164
0,00344126727291326
-0,00981309151316022
-0,00330959767018843
-0,00500919871617939
0,0105716347133675
-0,0145319659418461
-0,0196318878350522
0,00124094239041596
-0,00589468457382311
0,00246518514717785
0,000480648300820598
-0,00737323329324443
-0,00396572205704467
0,00928970464637842
-0,00581199476116829
0,00799466901838083
-0,00550138623244194
-0,00859201623992623
0,00431664647269838
0,00195849701387738
-0,00345496095412176
0,00992244902994598
0,00274989716504961
-0,00842514696670133
0,00657473856238333
0,00419619243103459
-0,00849105285846717
-0,00607405205245371
0,00491052725472761
-0,00344982619650497
-0,0018785050266414
0,00469979928938762
-0,000698394645462534
0,00967185563153098
0,0012793236187033
0,00145909264159292
0,00154688734335848
0,00197674201937735
-0,000875383588281081
-0,00268153080742891
-0,00941252026586481
0,00487791716303799
0,00622878559689447
0,00350130524183684
-0,0058593827839286
0,00485620095155025
-0,00253933029833219
0,00757597545048966
0,00178740469356412
0,00574824591900606
-0,00431350740339305
-0,00265515927814653
-0,0010691273450242
-0,00880641307626218
0,00414123492042592
-0,00853513821891283
-0,00107973777273658
0,000497973128453818
-0,00519859683136684
0,00774286566569322
-0,0057778056180738
0,0080415626592515
-0,0083050809327071
-0,00810195704833696
0,000145981521413653
0,00631990183904762
0,00654344077061091
-0,00127184444632001
-0,00388153688697216
0,00149169229506128
-0,00197842331229636
0,003053007141246
0,00278078255838751
-0,00454880241050795
0,00151257950417352
0,001882996089702
-0,00630633656694849
0,00924820032867054
0,00742999166992809
-0,0081368318574792
-0,00575302261410719
-0,0129462862680157
-0,00658687832172762
-0,0119597767315385
-0,012849342099416
-0,0163247216567429
-0,0175056836292791
-0,0103192411618129
-0,00544343587070037
-0,00323861992645816
-0,01185975778518
0,00650066698284481
-0,00637627356932863
-0,00458334398571218
-0,00776349163395903
-0,0084925861249629
0,00202099330411449
0,00372835648114058
-0,00664467627957681
-0,00217928462297622
0,00831276018093934
0,00873251414798783
0,00145751233746182
-0,00970428760149716
-0,0022735481267026
0,00255000073832203
0,00450682106959757
-0,0066082341265235
-0,00388789592363909
-0,0188549814279462
-0,00711917391077278
-0,0123286536313188
-0,0183457441473316
-0,0282448220458797
-0,0311876018610942
-0,0167627530247354
-0,020035866411101
-0,0246907319380428
-0,026034582731427
-0,0114799147796711
-0,00718662365155492
-0,00746996418064129
-0,0118540696390207
-0,00127528536521889
-0,00649222286331742
-0,00425517196974286
-0,00374719633009063
-0,00699244834837417
-0,00916422918399993
-0,00089061585762101
0,00891587220081867
-0,00063707921217991
0,00589029990059078
-0,000661669670036575
-0,00653298112690758
-0,00203580678525266
-0,00374919456897226
-0,0135694976647548
-0,0235964811763561
-0,030775983566819
-0,0376104649013122
-0,046037951801954
-0,0466571119907779
-0,0736139593589588
-0,0467876608752817
-0,0547825244093772
-0,0450144226701311
-0,0293636531428707
-0,00154724559929999
-0,0118645991488822
-0,00236892108813015
0,0010708274316269
0,00185473604409002
-0,00253382962952097
0,00365496467054603
5,94131752519485E-06
0,00533442757056028
0,00673371690173341
0,00259994321158153
0,00917866196428931
-0,00423148324555927
0,00141270838176986
-0,00670371180094659
-0,00897654033764356
-0,0144557156920832
-0,016565795579734
-0,021789289541963
-0,0447643895401188
-0,0483278688035634
-0,0828795259848828
-0,0931190290816952
-0,0813486639920462
-0,106565481806438
-0,106111943507198
-0,0915719001690645
-0,0752990641146093
-0,05271798685445
-0,038651591975595
-0,0277289112288599
-0,00330894738961264
-0,00466071239829295
0,00739253164808052
0,00831523414741321
0,00183293212732389
-0,00181768796957248
-0,00372612798546348
0,00541604555929827
-0,00799417219962653
0,00210087313055624
0,00318588852181326
0,00324145595023587
0,00806277514112339
0,00227755391550373
-0,0107780337615287
-0,0228112625361187
-0,0214674229576936
-0,0403335399726133
-0,0580087550726443
-0,0656000850751079
-0,0725760157103041
-0,059938074491017
-0,0502732597882193
-0,0453519974392563
-0,0326006015734266
-0,043417515605254
-0,0414484750484549
-0,0225102788007024
-0,0168801636509585
0,0174612211280624
0,0368163534030579
0,0244676399614891
0,00332327134147379
0,0049819941951469
0,00942771839747796
0,00704093675922646
-0,00821856446826686
-0,00278589356541794
-0,0104226422291913
-0,00918778234366486
-0,00169161528724418
-0,0170985638029278
-0,0256226102506014
-0,0274361126671769
-0,03644499911067
-0,0631033994169815
-0,0837553156402829
-0,0774778082093803
-0,0411854942500885
-0,0110072315674541
-0,0243911111304426
-0,0370892415900563
-0,022543093011127
-0,033488895919708
-0,0107362186683592
-0,0171052195197568
-0,00291348518050446
0,00707315727769853
0,0236833276879153
0,0153930963860576
0,00672942726674941
-0,00172204566801992
0,00353603488024884
0,00147222384514803
-0,0078471512215178
0,00330575416681179
-0,000363226501509231
-0,0325342304049735
-0,0383531474948449
-0,0367909608812889
-0,0599686279465574
-0,059436870141441
-0,0531342743503005
-0,0749015515424306
-0,0836982038567195
-0,0704858566645586
-0,0154150734119641
0,0236999777549027
0,0216554500827129
-0,0116323334929401
-0,0225206450738598
-0,0330793538480343
-0,00766537893164171
0,00580028841473123
0,00686278929919415
0,0127575648353894
0,00788517806740803
0,00354971956642523
0,0257403111543932
0,00897768960769166
0,0082316542174732
-0,00897040084195452
-0,0114943832279965
-0,00271373954494037
-0,0116166421243872
-0,037905256955751
-0,0590892922326323
-0,0696090671907834
-0,0868380875444691
-0,0757970326988387
-0,0810397680021424
-0,0813222060967131
-0,0634141232986205
-0,0669881282939676
-0,0117910946309082
0,0108927727766043
0,0130288786748238
-0,0445616591478348
-0,049537393077932
-0,0330535145804283
0,0342412101692996
0,0315927821081465
0,0313199108620275
0,0202783589688368
0,0070272375158254
-0,00386170470618346
0,0170509152229363
0,0104092106808512
-0,00162043534456679
-0,00905790222664167
-0,00455850122479976
-0,0102311670687329
-0,0344970211354767
-0,0466316953970702
-0,053938988732821
-0,0797816921848727
-0,074873229541716
-0,058313276174286
-0,0302929150484561
0,00857293481112427
-0,00392418573967746
0,0114077358507019
0,0382338214831233
-0,0109418183381756
0,00315824325766427
-0,0138890505200212
-0,0312119438502947
0,0338716254717853
0,0541239438370751
0,0375714758193024
-0,0139408999560903
-0,00765270255808323
-0,0170148668868981
-0,0159014713306457
-0,0175625791922074
-0,00325034910338435
0,00835920453025268
-0,00739269735237195
-0,0075574222494695
-0,0091699683321987
-0,0354135128380459
-0,0562020136465955
-0,0586746084838637
-0,0483980134958446
-0,0452973763621726
-0,0091765983833287
0,04669304443353
0,030461148245551
0,0321083907232677
0,0312652052373415
-0,0685991702652914
-0,109421601806813
-0,00333881174114244
-0,0173693100869527
-0,0351471589488918
-0,00851721743123806
0,00321100882191831
-0,00381332655793856
-0,00949686502282755
-0,0256740901700554
-0,0399717768318776
-0,0159463665730874
-0,000701706833132297
-0,00217138835215478
0,00496877031107595
-0,00539504936562757
-0,0020772819315326
-0,0295590142626227
-0,0304936820325072
-0,0411639364723369
-0,0376119719340265
-0,0148363843360456
-0,0233746063897456
0,056132519137913
0,0365432628349964
-0,00525144798450265
0,00871341023287201
-0,0229635915010867
-0,152266952713139
-0,136013772965331
0,0168901111466984
0,0232580645220811
-0,0157973141486409
-0,0657847089961932
-0,0379016781610602
-0,00371775366264921
-0,00133680568366796
-0,03365627380432
-0,059292190927999
-0,0558995564047489
-0,016668971792471
0,00601749692186343
-0,0045626099709003
-0,00891074677153796
-0,0059175535384341
-0,0277193109857128
-0,0312887911350887
-0,00773255772089004
-0,0160576048213604
0,0289609611336954
0,0144025744841667
0,0499191006084368
0,0418867720685723
0,0515165202511052
0,047234176022927
0,0453669562387395
0,00883617008503166
0,00472444353120841
0,0501879812410805
0,00207199264486523
-0,0355543390002746
-0,0287947795384688
0,0175606981960561
-0,00556908787191235
-0,0353028720019803
-0,0494422063163616
-0,0884118110681864
-0,0607876336817915
-0,0234022030745336
-0,0110176836073514
0,00234999812952194
-0,000869967585772255
-0,012079643056327
-0,0140407965197527
-0,015276538759075
0,0155763516175658
0,0420129740842716
0,0652013600834266
0,0816718575092725
0,107638251123379
0,0775390671791278
0,0903573240340416
0,108023581966545
0,113826455672921
0,0891849763646181
0,0628962960768256
0,0412196473334839
-0,006914678980883
0,0220411093070209
0,00251333154042933
0,0108931917339993
-0,0185182235916733
-0,0267550104641981
-0,0496211492566542
-0,098659033565704
-0,0549858317412553
-0,0204821515243106
-0,0045966393076251
0,00142962961714981
0,00606028227681846
0,00446269325684421
0,00186688221152433
0,0102780346378841
0,0599318821495209
0,0705385263218516
0,105529822953967
0,113390827959018
0,131069246891464
0,102107624343191
0,0494136409642539
0,0711948370440609
0,0788443998443811
0,0323645211622568
-0,0172744203254193
0,0178262478855974
0,0462032574585972
0,0415784575269316
-0,0228704581635361
-0,0375546206836434
-0,0194277025996465
-0,028094358730443
-0,0516759196025938
-0,0775391410835381
-0,035120009609703
-0,0143500234239446
0,0066328511995965
-0,00441781557863935
0,0063381231287966
-0,00767265410235993
-0,00495368190376898
0,00155309832701105
0,0508575499872882
0,0808335818668816
0,0978446483728821
0,102793863671781
0,104600990919836
0,0751721601116644
0,0313092813669505
0,0330679918797894
0,0429330270297755
-0,0170012279358441
-0,0376702282058347
0,0505027324344484
0,0848644001382139
0,0477821261007051
-0,0149404729325076
-0,0501380927909263
-0,0643152391422323
-0,0373020500346245
-0,0425271337859447
-0,0541084541220497
-0,0348321627879737
-0,0139663294374009
0,010535447745478
0,000787851830605106
0,00536241927036236
-0,00733633405662324
0,00369494737184483
0,00164330651658564
0,0284841832720413
0,0799562654495734
0,0900819492986576
0,106541855006304
0,101558383141175
0,0441562113389487
0,0265220536534806
0,0568274944417511
0,0546343051325646
0,0178107198945157
0,0317713257386648
0,0515231923694297
0,0607874034739552
0,0777370989953835
0,010440474764149
-0,0544252015816036
-0,0346176146533155
-0,0192778046347761
-0,0118177349625188
-0,0408142068324715
-0,0225752591179237
-0,0008615360395608
0,0035540533804153
0,000460581100071578
0,00691179066752633
0,0080483238621514
-0,00573359248103165
-0,00694344739286641
0,0146187001705484
0,0704963209638121
0,0984993036395738
0,108263455670891
0,0865481986476994
0,0593426173933273
0,0743003237379393
0,0761275446224195
0,0975030677756508
0,111433893392971
0,0927010993866845
0,105533593711925
0,0573920161901157
0,0181165279551782
0,0198677758754649
-0,0218945117478689
-0,0158462638636148
-0,00674635485610586
-0,027285691710026
-0,03017944472747
-0,0123395927412913
-0,00109949188559179
0,00426269403466296
0,00228326545761447
-0,00471375514129724
0,00453395723956699
0,00131893028584187
-0,00104298774340371
0,0241013180062849
0,0530755618662875
0,0782563484674415
0,0657015152473599
0,0750390835676146
0,0620584925126266
0,0926425625915032
0,0946427993857169
0,0695332686255568
0,0672130814214264
0,0708571837173968
0,0633199588335277
0,00223841915939024
-0,073309489127989
-0,0352946220633064
0,017102658340328
0,0137784213829629
-0,00304322209112453
-0,0396342705298849
-0,0355419704131315
-0,0170160302526728
-0,0102072784774997
0,00600087102059728
-0,0030519261109203
-0,00432334019781477
-0,00568466723749236
-0,013284278814152
0,000846944443788068
-0,00246915816078591
0,00456372166328186
0,00443180914468259
0,00431381993617436
-0,00476961796631004
-0,0339166309148279
-0,0154859835758134
-0,00442443709943732
-0,0676998241458231
-0,0594534503344142
-0,0438104498060419
-0,0459331553391471
-0,042617271159987
-0,068617563532806
-0,0456157446606401
-0,0185717799804732
-0,00752801330233674
-0,0233784548808333
-0,0333236251552542
-0,0322705760821919
-0,0208862510808662
0,00409516204352257
-0,00150269019034552
-0,00230213808312818
-0,00850916583021598
-0,00714982571759625
0,00176405942106268
-0,00836995374513706
0,000580370284606607
-0,0355887225047371
-0,0656731136524066
-0,119789431988669
-0,131333851322618
-0,127289927537672
-0,157904657807751
-0,141844114579302
-0,157421291387647
-0,135951222934719
-0,148943901017829
-0,102310150864904
-0,0437823915897116
-0,0511107793832382
-0,0549769577277121
-0,0207528142459347
-2,47140182720475E-05
-0,0148789347689027
-0,0204188500379614
-0,031914074607381
-0,00225030228413116
0,00899419060061816
-0,00653209185345263
-0,00581359806399765
-0,00260547102775785
-0,00445482923436876
-0,00568248629235156
-0,0112478718678604
-0,0087599336000224
-0,0578440108715953
-0,107328083296894
-0,15163572362624
-0,164882531333158
-0,167532344383075
-0,162968609802755
-0,17920521822393
-0,150579877596916
-0,153522231574489
-0,16728596761748
-0,145316259328583
-0,0909501760819602
-0,0744944771110766
-0,0515788344359958
-0,00420263702149019
0,00678409080263146
0,0253808551175342
0,00604332454901333
0,000377794857713175
0,00279059904921202
-0,00836559332213384
0,00500313990166053
0,00204140401614305
0,0066769196950707
0,00250219722812433
0,00599664441421422
0,00457239333703399
-0,016718766570618
-0,0550186299136969
-0,0768214472000067
-0,110057997996667
-0,109126951339974
-0,113060065844454
-0,109682287665918
-0,0969252691001925
-0,0871833641791037
-0,109225408312618
-0,11557859302351
-0,124993237960943
-0,112984446381336
-0,064956685459723
-0,0284403503262669
0,00283848358036475
0,026177175801164
0,0371059702909553
0,0350632576310786
0,0217924109442367
0,00345618512428997
0,00360638273196821
-0,00628408170679125
-0,0023809025158266
-0,00657027806926997
-0,00956780689748368
0,00264014755490533
0,00015756124166032
-0,00898710208560593
-0,0372592273003589
-0,0428057701772995
-0,0483867394698716
-0,0569887240204023
-0,0515931876707404
-0,0454656662978085
-0,057608314857877
-0,0579817446857113
-0,0606437274479149
-0,0549584878265132
-0,0767273770720232
-0,0783772847328525
-0,0598560661235971
-0,0247299555153929
0,0276704653300022
0,0537637906601862
0,065451137688876
0,0391667753307176
0,0236213481549954
0,00921392624404252
-0,00296148483577638
-0,00628288626369656
0,00110225353906967
-0,00532863365268737
-0,00705418598700975
-0,0042227385656748
0,00367780924569816
-0,000110875785025059
0,0018310176611251
-0,000861440723920053
0,00350508610687691
-0,0189980305440497
-0,00654261298079458
-0,0113166894026808
-0,0354601731656604
-0,0571310071838483
-0,0265666879285102
-0,0521556692893967
-0,0652240633113428
-0,0319076631810419
-0,0222698428349787
-0,0119178939819575
0,0174662009238268
0,0587517282081766
0,0627726025459462
0,0382578162891885
0,0267393279644036
-0,00672452556384802
0,00745675687899516
0,00959575526804655
0,00368033357601628
0,00644363463690674
0,00779989193091164
0,00468103621999256
-0,00444391358944323
0,00995694809045498
0,0174019888330583
0,00865939487896086
-0,00576168895561464
-0,00342924847600435
-0,0193352165825584
-0,0214092263126333
-0,0228785201631104
-0,0409729886765528
-0,023832177018236
-0,00601114466128563
-0,0405831821488599
-0,0406835671995559
-0,0344907286357697
-0,0252597305723975
0,0164088727264052
0,0363664979967268
0,02653439486257
0,0231302120460667
0,0167187201546248
-0,0108614941198016
0,00903599681077963
-0,00275883607298962
0,00436689308582195
0,0047249825833016
0,000440088496748399
0,00218587399096502
0,000624183468606553
0,00313811131808977
0,0140883461079837
0,0033048418092368
0,00629589126182914
0,00379950171446183
0,017337593350772
0,0155117072629948
0,0137979235003363
0,0208819194378941
0,0124073808855656
0,0125618504189161
0,00169370063313669
-0,00301152200952982
-0,00906673760194435
-0,0113479821054869
0,00647111088857706
0,0177506334459843
0,00460753933220655
0,00837855294709927
0,000220618405740405
0,00633558880263148
-0,000512786613577286
0,000612347717682062
0,00348645263048189
-0,00767930770184812
0,00596740818394693
-0,00428172590876079
0,00791603323906475
0,00104843467584714
0,00591410609977765
-0,00211917513091476
-0,00750784864614482
0,000611166400496412
-0,000618830425871025
-0,0106467265679682
0,00176099097898698
-0,00569516827249442
-0,00419775043327845
-0,0116378314323087
0,00188543075146981
-0,00182828331485461
-0,000222376559726593
-0,0107622616460383
0,00622891381870102
0,0054123940649991
0,00878356540747111
-0,007818929555567
-0,00293993822202898
-0,00445051845836012
-0,0023226503619564
0,00869884960292785
0,00195191416514661
0,00700347200827835
-0,00663320531911832
0,00417552164484538
-0,00928336044740088
-0,000745345861998082
-0,00129170919363001
-0,00722919602749366
-0,000733371586880353
-0,00603366319836754
-0,00671420606631516
0,00493166632714293
0,000864158398874177
0,0058863244735625
-0,00605563863618913
-0,0063005764654783
-0,00329702994622089
-0,00047076777111309
-0,00688014992367483
0,00868240734500923
-0,00387689002504427
-0,00744065799631209
-0,00882964692955355
0,0070324088805506
-0,00899377798614734
-0,0041841737433263
0,00146209287990913
0,00778561479308904
-0,00753841816333049
0,00411790755303479
0,0085239483036678
0,00236655169742487
-0,00662191926344387
0,00725749326443513
0,00608700065203349
-0,0036619984533277
-0,00142241313627149
0,00603807081918971
-0,0073559751125719
-0,00849066215103104
0,00267689883379551
-0,00312821450171315
0,00105432688929906
-0,00168133435792544
-0,00148774427789394
-0,00927458586463328
0,0029681047412238
-0,00667473569451935
0,00185012675906638
0,0062096611788562
0,00515382697091106
0,00767421190358145
-0,00756693304808107
-0,00100505770696563
0,00257573962797212
-0,000607427838541301
0,0058331189378319
-0,00366561419966892
0,00316929963099272
0,00490101812541498
0,00779344398874228
0,000925043502906181
-0,00968769238729706
0,00519247696649508
-0,0043737922077288
0,00135874648797783
0,00218276975814335
0,00446362931085906
0,0109813390125864
0,00891458848599548
0,00640647621035669
0,00264245419143391
-0,000923528307506733
-0,00573668762684779
-0,00170346101462085
0,0109806267163982
0,00271317893920077
0,00345322064795179
-0,00115380455091405
-0,00921585107520213
0,00308335345096697
-0,00178192429498331
-0,00398213221833852
-0,0037059116241084
0,00897105170365938
-0,0091411452550167
-6,30797678898461E-05
0,00438301485180274
-0,00531210836234785
-0,00328430565664766
0,000555399851969929
-0,00753593992101256
-0,00679335683193894
-0,00153382778876757
-0,00385426797365029
-0,00450904351644296
0,00200720272299852
0,0123250812505707
0,000575571982379435
0,0160862513668477
0,0074103429718851
0,0179757395124153
0,000555648576232598
0,00925163349090172
-0,00562874948018002
-0,00335656810117705
0,00190646560878847
-0,00893505036963839
-0,00719543305265357
0,00309618304844187
0,00778070326431131
-0,00704298826884424
0,00780285341562836
0,00256672711696789
-0,00810553348290958
-0,000398618687445416
-0,00509279417544373
0,00397189730883912
0,00651165127910046
-0,00461504328548664
-0,0077674442582503
0,0103399867818633
0,00613389220911469
0,0147657833076094
0,0142548286053314
0,0235550656274501
0,019804986565709
0,0308992646752042
0,0312248391918936
0,0183125747573227
0,0218608737861345
0,0178637552248122
0,00500175752574166
0,0023677405196319
0,00205209324648714
0,0033589680185046
-0,00579377224231833
0,00193730054712238
-0,00462756322048542
0,00452173826558655
7,87462195854625E-05
-0,000782294771998326
0,00149044571048135
0,0014565061322639
-0,00114321512192833
-0,00283999365403004
-0,00498129158102896
0,00278573260169351
-0,000533559630032471
0,0125412584465665
0,0221967581012492
0,0252541660947798
0,0403495499365922
0,0432453514403336
0,0409870605613845
0,0364767823119288
0,0362537778809406
0,0372520772010334
0,0283976362546933
0,0187218964905288
0,0169053846988561
0,00670352973201466
-0,00514002049793053
0,00950816138526415
-0,00927251669907831
-0,00732983680949605
0,00378521134476369
-0,00310430949341238
-0,00924361881755683
-0,00191038788850903
-0,00511000634652254
0,003245395339571
-0,00142673371767178
-0,00824855635627208
0,00660038382270542
0,00647911505965111
0,00266276190567174
0,0218729062860108
0,0160300006524201
0,038323903548415
0,0360023563130078
0,0525507211246182
0,0506636127278247
0,043842240675629
0,0487956246712854
0,0427578700804283
0,0513750173047182
0,0340784344832064
0,0248501736703074
0,00222918320708423
0,0016497170954871
0,00875456253764669
-0,00149769103757558
0,0118166776980805
0,0116978342041196
0,0102520181127206
-0,00319411863181075
0,00304274783569577
0,00113024383596291
-0,00284194752921895
0,00468520339885279
0,00809409013642507
0,00309559846778878
0,0142946640843226
0,0096836924397573
0,0130629965156265
0,0210935826544096
0,0444522713670375
0,0390508725000396
0,0464980964646679
0,0507229734589404
0,0595862662160966
0,0539913061866912
0,0565104451781446
0,063836906453731
0,0530773538097447
0,0407336677098653
0,0319803251762434
0,0183789088285297
0,0204985635866802
0,00299745884443256
-0,00174248872395562
0,00599804349039202
-0,00769762018028715
-0,00529345910990039
0,000539037990526095
-0,00158935344731619
0,00197031440189221
-0,00624027732690926
0,00662264781538073
0,000830384126725627
0,0109381056074814
0,00985288324651836
0,0293982391587654
0,0245188304436061
0,0394353463337927
0,0443982840881599
0,0539800363486212
0,0502019988911345
0,0385176086596785
0,053628882965679
0,0600271954536332
0,0515388227107771
0,0500966548266565
0,0461352442727779
0,0352544009404555
0,0237769768293622
0,0224535116772503
0,0180479724163644
0,0184375311094197
-0,00377764108844997
-0,000508886272358437
-0,00762017603548983
0,00120986649914872
-0,00877218464984867
0,00368931069616304
-0,00534609163306382
-5,11577984236855E-05
0,00713768498599
0,0140338508930025
0,0166139947603724
0,0228321941085092
0,0330263270182902
0,0316820797969072
0,0459008311970594
0,0362400631358285
0,0222651601460241
0,0243284704410736
0,0269185109980441
0,0456939399439375
0,057268737598928
0,0469722753847862
0,0420803179661616
0,0362993065544571
0,0199605317689927
0,0145518484443174
0,0164646533399034
0,00468525444221129
0,00361521266738658
0,00593570439906771
-0,00738789372236826
0,00121205462379657
0,00422112464711164
-0,00570437425439036
0,00404513909919371
0,00776396400359545
0,001124459651416
0,00710610849590838
0,0129607149162291
0,0191823318694081
0,0234609828898414
0,0413868106023675
0,0224772830228095
0,0263223143750174
0,0107195334217521
0,00875908197804651
0,0202699133687048
0,0572112517143889
0,0580061974125336
0,0460855492702057
0,0415817457363819
0,0469588276117942
0,0300488825705483
0,0145637880853363
0,00868236666540546
0,0177599196417429
0,00109099726195883
0,00720800025541768
-0,0020032103852057
0,00358269025047911
-0,0099268966867368
-0,00782329034998703
-0,00867709261243503
0,0091585531286559
0,00616118982059667
-0,00524810670655702
0,0119223365042125
0,0139901602286539
0,028197881978445
0,0260251273235097
0,0273300797574134
0,025375245661932
0,0194248640440098
0,018745533783331
0,0193943358840319
0,0458231875844395
0,065094742213224
0,0490488041653258
0,0461008941230826
0,0317204710508795
0,00622345658113756
0,00846732045000161
0,00392276960148481
-0,00414646282048448
