0,00623085148457012
-0,00932158804467022
-0,00762992580310904
-0,00507058743157917
-0,00329189608492511
-0,00955720804611091
0,00735771269414467
-0,00146601219264139
0,0079102549692198
0,00365545002448161
-0,00530369728584946
0,00855116216398364
0,00237252545793141
-0,00558179649609455
-0,00638610993455958
-0,00520497034240456
0,00231711098566517
-0,0095355548986865
-0,00994778620076728
-0,00633774328806332
0,00329113057502132
0,00360834601968915
0,00386269366082861
-0,00329368481100243
-0,00491152103753366
0,00369066686075678
-0,00886948796867835
0,00259491379027949
0,0028815628275655
-0,00157861809785413
0,00307385969584522
-0,00379043358088957
0,00803603794312781
-0,0055179276253427
0,00494480541125465
0,00844905623346762
0,0109947038490001
-0,00664980984304907
0,00110004847392943
0,00516603474931515
0,00746627632473601
0,00644739618594593
0,00678054110755273
0,0105821773382225
0,00856729385740927
0,00103294536116424
0,000848895615898197
0,00785057601332418
0,00944090557225731
-0,00872021917336239
-0,000979947880361168
0,000579433212410915
-0,0041023510387644
-0,000962038054578956
0,00138370711886496
-0,00737749453511904
-0,00318428170549883
0,00566375900789339
0,00984166662354995
0,00304999043739674
0,00934523847943364
-0,00520461604318821
0,00640632537827446
0,00233490802031362
-0,00552147753510723
0,012945868033003
-0,00106893425141918
0,00864437329761106
0,0141800820557743
0,0107082440763609
0,00720059262455681
0,00997924412045388
0,0105707599953603
0,00448501042773773
0,0050593932391085
0,0119710184203192
0,00930450881834608
0,00560606539653211
0,000813314380480647
0,00541257540549568
-0,00662181983458514
-0,00626350491903476
0,003483477194553
0,00190770270857387
0,00976044765662423
-0,0073784418485027
-0,00968702722088446
-0,000898258531319375
0,00309635020305681
0,00189713586644918
0,00181865386261204
-0,00139966389026123
0,000903564972113126
0,0171566655189549
0,019613194803878
0,0215075442445296
0,0374005211083054
0,0287876759917548
0,0386434008333257
0,0348415307966569
0,0227004142504696
0,00996406296744583
0,00840226401723547
0,00829236000620253
0,00857167313366258
0,00841697659929051
0,00793536185639887
0,00759936244015483
0,00845457565177805
0,00221888014979847
-0,00517923367976509
0,00213504807657332
-0,00447450674812985
-0,00517226404668442
-0,000273172951643191
0,0056393098695556
0,00104970438954696
-0,00574141722952511
0,00302333540207859
0,0156525726421734
0,0209501520939736
0,0202315749865342
0,0330957903213189
0,0442617537825748
0,0506998963446932
0,0399101759939387
0,0473415515664575
0,0515213446500338
0,0442707449061173
0,0242905578225637
0,0116303194992635
0,00636681875881641
0,000508279224862877
-0,00882087630886447
-0,0158448309880125
-0,0171810268484296
0,0036530625273355
-0,00881764125204756
0,0064241283781429
-0,00894978765502929
-0,00673078322630878
-0,00793003420249095
0,000523838000610996
-0,00915257270112167
-0,00344582568583416
0,0087233076845515
0,0120289195929817
0,0175423622985855
0,0143062810115254
0,0330576677486888
0,0420478759200488
0,0457563341654618
0,0557162665885335
0,0423959365000897
0,0616282128348273
0,0640146786741447
0,057295723853722
0,0499074425933691
0,0368435476919074
0,0160636296469031
0,000578686898975885
-0,0161204026416674
-0,023032249654447
-0,00965045411277633
-0,00486996942778051
0,00339550242998157
0,00666645387874516
0,00343191564113044
0,0093686216787289
-0,000975858980828847
0,00959142440886503
0,000815470685873273
-0,0017383245223643
0,000437363267715829
0,0106202818471876
0,0198536819430037
0,0134870471147189
0,0330981692624395
0,0338725487500285
0,0400181769884663
0,0245091784064276
0,0273057218613518
0,0259825532501496
0,0374100685693521
0,0236200048418332
0,0210810100789591
0,0233418645880753
0,0156329901987002
0,00970544053771436
-0,00454022157031866
-0,00502235078487846
-0,0105843944179367
-0,00282448529969114
-0,00279553740541604
0,00148411002877993
0,00877990129190207
0,00839848753344077
0,00427989936523412
-0,000509565290399378
0,00357275478644252
-0,00619713612989963
-0,00143804208574016
0,0183640431348682
0,0238350478285196
0,0324791985654436
0,0251390162187659
0,0257329908963978
0,0226008565486565
0,0124699091039845
0,00321561143668339
0,0149343741692928
0,00997124019920274
0,00515868736074957
0,00284629246034952
-0,000468902862569028
-0,00885196352474158
0,00761864102114113
-0,0013572570454698
0,0040135367440141
0,00402831777364636
0,0253099282789351
0,00350476921814836
-0,00543096083896013
0,00217344534294534
0,00624519130812719
0,00294517293183741
-0,00481088078474837
-0,00483323374561014
0,0097653017026426
0,0101485957176247
0,0178334016988459
0,0144242748596593
0,0188258102475248
0,0359542389250626
0,0344239827283986
0,0333104929916521
0,0240662139865825
0,0162210651695004
0,0319996481598108
0,0298428814822338
0,0157450539684679
-0,00707766874608168
-0,00559254211181892
0,00054845816929619
0,00543841854062214
0,0170923443957382
0,0154874504483434
0,0203156395918118
0,0299564217701017
0,0173566229857968
-0,0015983375104369
0,00257683980373026
-0,00695347998924106
-0,00583130239843124
0,00471307297212542
-0,00928881636860408
-0,00481098833082753
-2,38326274324742E-05
0,000510069748202164
0,0105898251726949
0,0113445484568984
0,00698643553808946
0,0112808263873962
0,00687474577938801
-0,00403946685516438
0,0101597091216273
0,0218057222604241
-0,00270556438802814
-0,0232893295496753
-0,0180067779407979
-0,0108827140723445
-0,00674050963061393
0,000355696612262707
0,0147984271526204
0,0210924395107061
0,0376153432869187
0,0352896531631586
0,0232075607882796
-0,00255732451884655
0,00790873576836256
-0,00594377156434697
0,00853196696521391
0,00386632278339545
0,00111158930385362
0,00321479708591344
-0,00487706494483952
-0,00435010925200128
-0,0063180569777169
-0,008398381764501
-0,00458390572455158
-0,0087219892913179
-0,0240279074013593
-0,0172096037685693
0,00733617135604454
0,020540007762248
-0,0137915947254915
-0,0383953809075025
-0,0299130445403509
-0,0290208430039426
-0,0220395241131705
-0,00361165342724414
0,000557383701234997
0,0129245698989947
0,0398958438665833
0,0348565648260742
0,0215383296473422
-0,00154758255600723
0,000597321149953128
0,00742036948573776
-0,00574258393567929
0,0015557536679885
6,43223472935739E-05
-0,0116548682640547
-0,0171879537959178
-0,0197464178452792
-0,0208404423774856
-0,0256011865775068
-0,0197904025656388
-0,0229040299660474
-0,0330274795646668
-0,00809859988454315
0,020134007644774
0,0141025522363159
-0,0542704227622872
-0,0663510696013079
-0,0614300072205844
-0,0261156776412631
-0,0160767770991407
-0,0113456787634022
-0,00730325989229623
0,0140449467013471
0,0266626127168961
0,0203238582602821
-0,000402278518469693
0,000399906619221797
0,00614749451414686
0,00291584978344419
0,00494405655218335
0,00371845874802245
0,00659756400411328
-0,0205041568486183
-0,0139740152357955
-0,0293128639505446
-0,0227010415178681
-0,043313717627734
-0,0385502041798664
-0,0310117032486375
-0,00826419680336571
0,0250426053161658
0,035737072557243
-0,00572431469618818
-0,0511142468063094
-0,0817583163301551
-0,0649166658585471
-0,0365128541348291
-0,0196601654899048
-0,0184674634945902
0,004816931042245
0,00413102676024045
0,0240373373526521
0,0250685948835232
0,00412548090079811
0,00536680632300056
-0,00227493951437195
0,000619982627892101
0,00890603642478752
0,0101367140428919
-0,00832642189229564
-0,010974448466369
-0,0313982091436518
-0,0343116769199996
-0,0337524673961037
-0,0381525997187541
-0,0069207065892341
0,00556996694579534
0,0232101135015995
0,0383999312513088
0,0422283287274959
-0,0254631268015055
-0,0520291124659357
-0,0688483675449044
-0,057016446686163
-0,0533225572999108
-0,0447083122011108
-0,0317867162965426
-0,000289265820450653
0,0126978227945857
0,0238756931560271
0,0153021638809584
0,00151686284708299
-0,00330036516345376
0,00402145669355236
0,00269279131512197
0,0100984982937297
0,00820744394680983
-0,00231264339951798
-0,00905893304031507
-0,0231482339492631
-0,0390308869717919
-0,0391716331459449
-0,021722792169845
0,0152151467234313
0,0261094411326922
0,0347769744978563
0,0354402913562108
0,0282153058760049
-0,00522578292710876
-0,0443113623724332
-0,0654725651001198
-0,0749055399549776
-0,0487267053479776
-0,0417929311057899
-0,0138900644953871
0,00188130425068453
0,0134255065522088
0,0210064339379741
0,0151680725459158
0,00600504032683225
-0,00251674085466983
0,00720880222005473
0,000592176560256074
0,00116955722339774
0,00572823213180308
-0,0063989518992339
-0,00289176796223606
-0,0108045474166851
-0,036489447850854
-0,0306874077715309
-0,0194615755881948
0,0186289799024633
0,0407647703614086
0,0364298621621374
0,0336067458701334
0,0281214939317633
-0,0082527150970398
-0,0464199588124786
-0,0776867406539503
-0,0680976052785121
-0,0371558459721869
-0,0279022994439954
0,00491168423177416
0,00258789512002668
0,0138436429145556
0,021644082832248
0,0232916380050902
0,0107246582785554
0,00749878430565517
-0,00651856012112486
0,00215563387760652
0,00049488497561855
-0,00763440971617375
-0,00443781849523869
-0,00368507889661328
-0,00133262843375424
-0,00438409402101527
-0,0178206890393118
-0,0270449250061437
0,00023234518800821
0,0185290731331131
0,0169378948001227
0,010435318627999
-0,00904189522223931
-0,0432780210798164
-0,0615664033397665
-0,0735440247399737
-0,0575629737606416
-0,00440154324501544
0,00250653789868357
0,00869672797004333
0,0336741810499243
0,0275316784442129
0,0357930374877284
0,0258382216855654
-0,00205496044917644
0,00965688709598224
-0,00263177675712138
-0,00418679754910376
-0,00151008227582971
0,00308654462859781
-0,000769036024450569
0,0184540970505508
0,0233363932267887
0,0188893726740033
0,000202477846587439
-0,0107905332791038
-0,000972596665990127
-0,000399759856096636
-0,0104794950602968
-0,0335570179370777
-0,0455793181871131
-0,071734296791298
-0,0708929971927073
-0,0307001615354738
0,00507582798103258
0,03393580639974
0,0499549398283705
0,0548987366692678
0,0461317143742822
0,0381756889073354
0,0373885508494588
0,0286096954171456
0,0132155387070314
-0,0064041194656324
0,00281652013831368
-0,00503660750138012
-0,00353383376760558
-0,000199090520584916
0,00590094177276149
0,0212447832015889
0,0297418857593159
0,0412673787489492
0,0395974204681192
0,0258265460341116
0,0184175410573227
0,0261987693276751
0,0201450821182766
-0,000523113106250508
-0,0247201347456806
-0,0386295819446237
-0,00488982761326867
0,0347155028550253
0,0634241469811067
0,0600279433466058
0,0612440293893625
0,0579967127586711
0,0531211772848795
0,0548797321237288
0,039887055928054
0,0228046602589996
0,0056799277219979
-0,000881978175022312
0,00622252443948423
-0,00233422697551632
0,00921750152542568
-0,000859925432821947
0,00185526114271064
0,027821250112176
0,0318710884559682
0,054985523954978
0,0763882438533192
0,0798354702491372
0,0793871034754623
0,0672133268257698
0,0618658052534743
0,0423784367357783
0,0266950898689207
0,0109558988503273
0,0207012107923112
0,0596813418042935
0,0689416139866758
0,0769890304095616
0,0572227758533636
0,0668490935721739
0,0475599570786548
0,0514772431148227
0,0412398908375064
0,0201101378280153
0,00950335018868324
-0,00917890539510365
0,00985087428539544
0,00764798650408536
-0,00953008342397378
0,0108285534948592
0,00374862237741472
0,0333110710839317
0,0427733974871438
0,0552769116937065
0,0746748648422361
0,0870873511488171
0,0805291225646115
0,0714810449369021
0,0746292852143401
0,0563824898737073
0,0437363461094151
0,0441765777273021
0,0363434381372511
0,0441159827683468
0,0518025326460465
0,056327962514046
0,0620764151548125
0,0501485429962003
0,0343076805085643
0,0314154171107517
0,0256941083445011
0,0121003424724696
-0,00371143124492697
0,00689304066613519
-0,00551009016303498
-0,00395449816233359
-0,000355301790452353
0,000910894812774792
-0,00170509101902789
0,00913960370569395
0,0255278081843011
0,038376833439501
0,0673376706583999
0,063752515908619
0,0477869583865435
0,0557861145965797
0,0541184470135374
0,0456852687268337
0,0564423537603291
0,035879603511589
0,0361754113484195
0,0343798157036602
0,0272078553161564
0,0488193077461711
0,0345595719191284
0,0189061586364119
0,0146347858307096
0,0144420057920467
0,00712162732750333
0,00837743390392836
-0,00683654780796876
-0,00465491985648803
0,00177971017252325
0,00106118380786454
-0,00438760616054098
0,00295283692621439
0,0108986960752795
0,0172218823522256
0,00771952364222615
0,0199514788924483
0,0275972307742699
0,0351233776009171
0,0191585684480966
0,034580164058919
0,0313762719423178
0,0391513903577952
0,0502139037237918
0,0298686962051255
0,0158209864902404
0,02518495766902
0,0113870175554152
0,0141168317509663
0,0157631260634055
0,012299137911335
0,00545312012965132
-0,00671250745608221
0,00655602446452992
-0,000318779567955375
-0,00306545532061184
0,00907224051411157
0,00849847311390126
-0,00889686064743291
-0,00627085983579553
-0,0035046911952077
0,0114648560082704
-0,00400041508398803
0,00578370677704584
0,00343773326890037
0,00464957754634749
0,0102786612281785
0,022211321997055
0,0314708395032218
0,0326885043689814
0,0451750445887956
0,0267535539299779
0,031515949504681
0,01939709014245
0,00402206289864676
-0,00162596321323839
-0,0160000157828124
-0,0131296465954992
-0,00496469664378459
-0,0194166416992974
-0,00476524136869347
-0,00151196283496461
0,00391575851379705
-0,00023271572222826
0,00323128201440211
0,00532145363992148
-0,0048506631585074
0,00841161387898569
-0,00333956787226017
-0,000919357130180621
-0,00865890955608725
-0,0086020827639467
-0,0134793339406147
-0,00915045881615869
-0,00328123620215035
0,00687355011428269
0,00473567828826516
0,0320358086517537
0,0282640059154574
0,0193331077806339
0,0285293498611804
0,0232936601301948
-0,000126966213699791
0,00152723623076919
-0,0255385706223023
-0,0111346398087491
-0,00921110212537143
-0,0137460957510931
-0,00873611241323051
0,00603132095171376
-0,00350548027305843
0,0025279023154574
-0,00800152509925383
0,00881661097463994
0,0033595295685155
0,00666432153278232
-0,00507203743057172
0,000426435441107587
0,00499644626843825
-0,0036430696258067
-0,0162823450823
-0,0120198984242979
-0,0172061007257797
-0,0129530045223829
-0,00990127285302164
-0,0038741116841143
0,0063565799752008
-0,00368839220983925
0,0021602477933517
-0,00505436472860909
-0,00911829340689366
-0,0175228646547942
-0,00828901396827593
-0,00885123946462578
-0,0127658429700519
-0,00371139198397853
-0,0088781808882682
0,00356062134155972
-0,000505011151226941
0,00625807077112085
0,00778654380030606
0,00682789049894916
0,00114598269162047
-0,00141807986955069
-0,00713112329930585
-0,000643940413332692
-0,00647500777156572
-0,00593726965362848
0,00491318546309617
0,0037902994626448
-0,00666424133449473
-0,00692045394945225
-0,0197548605459814
-0,00433951588618008
-0,00304736461027039
-0,0229844918531731
-0,0193569786846448
-0,00618969382765075
-0,00507028281273043
-0,00416215025327022
-0,0151444659859103
-0,00306257754326518
-0,00106613217921524
0,00593449393086825
-0,000140184017178478
-0,0075823834816513
0,00508738485012819
-0,00297290214023656
0,000754688694493235
-0,00920718298256732
0,003562239396182
0,000956035661956312
-0,00868436493849585
-0,0093222188294503
0,00534966542671967
-0,00292254627809789
-0,00764666509863546
-0,00733757787418566
-0,00177186106064214
0,00768334684485284
-0,00623854104543179
0,000192536747305819
-0,00306698072590441
0,00614792599934453
0,00742123469806516
0,00265048380806242
-0,00962390735483585
0,0089252851537247
0,00623582712975585
-0,0030037354806443
-0,00413634982328033
-0,0014679453055625
-0,00856354123039534
0,00714225456895398
0,00553433846474361
-0,00392574415259331
-0,00497238117967377
0,00412654938834093
0,00831254032361905
-0,00963618013990865
0,0043233938302488
0,00734307956758099
0,0053014237970586
0,00776334170147932
-0,00460827507758898
0,00978318946425952
0,00192418307621227
-0,00924918388912882
-0,00825969819829785
0,000769085674904793
0,00819161392011876
-0,00644019683327357
-0,00392418681033231
0,00404659828528445
-0,00226099913579458
0,000155901643520175
-0,00602112867684156
0,00423306133329545
0,00751246054540969
0,00604249556364608
-0,00908229278357806
0,00522933024690921
8,40677461047042E-05
-0,00666324002512882
0,00463594346988757
-0,00499640345340427
-0,000857054512415573
-0,0059426514506073
-0,00485655729419392
-0,000719155189916099
-0,00791735700068598
-0,00169378722974738
-0,00555134186472798
-0,00201484152460801
-0,00646741261148372
-0,0033761395167877
0,00481084752323242
-0,000652725603347724
0,00164499667061104
0,00930649092136321
-0,00793197102147999
-0,00936554131926758
0,00786710837910614
-0,00404808334694019
-0,000959183357726616
-0,00759724984899267
-0,00764711881734537
-0,00230103852320919
-0,000510714249699308
-0,00463303513021982
-0,00790461547575175
0,000794557487030773
0,00661408884293124
-0,00772995524002703
0,00944611264366941
0,00909406358333959
-0,00274236047801277
0,00196296180180819
-0,00688714090728721
-0,00962315427763581
0,000485035665655896
-0,00267668657731276
0,00462415512234055
0,000942423482478756
-0,00366505371310289
-0,00295151176843547
0,00553259488993019
0,00399908928669942
-0,00414671326521376
-0,0136846929553299
0,000257253219669341
-0,000352244796891797
-0,0120030263354223
0,0043982324950731
0,00158436074422226
-0,0111885580622022
0,00647376579379601
-0,00631427324329097
0,00406166169431567
0,00207320325585426
-0,00747919862041213
-0,0086235449642984
0,00453806290148667
0,00976500588458265
-0,00281735935817587
0,00127401993452724
0,00166052848473633
-0,00777362290028022
-0,001674053562483
-0,00624142526882713
0,00795873998202546
-0,00950297427810756
-0,00707967508722851
-0,00236815476938359
-0,00489190921744973
-0,000340893393977327
-0,010644999614964
-0,011787180109897
-0,00154644919928957
-0,000865495248894293
-0,0165755646099277
-0,0142277205334413
0,00130498803612395
-0,00511799954802847
-0,00147679392342575
-0,00286110777555762
-0,0016199328571239
0,00878500929388479
-0,00147582060256262
0,00936493894055716
-0,00802051384841116
-0,00664751659004352
0,00784004626478365
0,00110185085888329
0,00812924992866697
-0,000214339503075715
0,00404886606242008
0,00662935382730624
-0,00366744710438466
0,0075517110362299
0,00724858194050358
0,00413166824636547
-0,00554172933193739
-0,0110091355206687
-0,0187359429472314
-0,0125224810209148
-0,021961980868523
-0,0206737724153965
-0,0184468457444113
-0,00292236001374263
-0,00383776924587512
-0,00429944894904559
-0,00663352014750716
0,0030310545081218
-0,0021226806335549
0,00784126414716029
-0,00613452480006164
-0,00409716713535194
-0,000612038825923596
0,00925452331046319
-0,00742914430942021
0,00318407592641554
0,00484909339021175
0,00211046440123746
-0,00360165160634416
0,0106390863941099
-0,000387913039872937
0,00808354319892902
0,00324411801257428
0,00526208225465155
-0,0201757792146931
-0,0164541060801873
-0,0318955153850408
-0,0374773938984406
-0,0418086105081835
-0,038324471881232
-0,0238583716006348
-0,0197404734265667
-0,0185547065308733
-0,0033410460607056
-0,0182287043516164
0,00249293175287005
-0,00269111729566913
-0,00191320270748953
-0,00572003339049716
0,000516558028041746
0,00693220862975913
-0,00698362580696003
-0,00742246909887107
0,0111907657988082
-0,00107841444478941
0,00364178132828429
0,00437926550186762
0,00383622312347629
0,011870778440658
-0,000721205533659099
-0,00710078393514614
-0,0167650020063377
-0,0217752579972815
-0,0252696336437104
-0,0307230294520075
-0,0303995847175879
-0,0257531905938929
-0,0334367742233352
-0,0202166254143689
-0,0275903559681587
-0,016071389257831
-0,018756080642862
-0,0104469647643486
-0,0197524508558398
-0,0144832413641617
-0,0012786813883711
0,00774783890688392
0,000739975723873424
0,0088016568477032
-0,00585480512610725
-0,00688557691295279
-0,0028183325693612
0,00168087499534661
0,012111504975303
0,0209354076671994
0,00226428226831106
0,0100938677092781
0,00622726169469184
-0,000458259656433351
-0,0107323123399747
-0,0272178591606898
-0,0196256204405806
-0,0307065296926606
-0,0202413271296958
-0,029564649625976
-0,0146649251378092
-0,0199184309983154
-0,0228179394016485
-0,010488398870791
-0,0161508909131579
-0,0233413164608428
-0,0237785056018287
-0,0102745456607586
0,00443029209318059
0,00838518321060548
0,000553527997808676
-0,000695780833051285
-0,00940848739539882
0,00791138161349615
0,00759257363974497
0,00813928595960533
0,0164783734908556
0,0086424974010441
0,00937507358335625
-0,00690367277685958
0,000344447112366501
-0,00978966005635609
-0,0225394298356897
-0,0300076968856238
-0,0283091015665738
-0,00529690664800802
-0,0138525337873598
0,00163206169892929
-0,00732790067402263
-0,011946348383053
-0,000267604810868382
-0,0180136805217932
-0,00457155252800982
-0,00543496527354303
-0,0172226260065193
-0,0188851873428923
0,000627880033822585
0,00772728515127344
0,000127613945673547
-0,00801824977994962
-0,00819532581938422
0,00460892030319806
0,000774174599511237
0,0113457995044952
0,0086364338669094
0,0119615498026347
0,00515591756442864
-0,00372639304310601
-0,0307925689242871
-0,0350744133911744
-0,0374522004274475
-0,0319451542627357
-0,00907917630391699
0,00978347068790715
0,0141758122418412
0,0304880815512849
0,021139921601369
0,0120809404678111
-0,00210368850909994
-0,00277873293414754
0,00419421044267621
-0,0114245375413908
-0,0137067677563426
-0,000992889135731285
-0,0105035556290207
-0,00103001429608462
0,00128931996995369
-0,00820541162612293
-0,000284468974137625
0,00171612181279337
0,00784600767477212
0,0141804406998277
0,0149826428114295
0,00324058625507038
-0,0146829986780505
-0,0259668431244997
-0,0335130873467454
-0,0317935998754539
-0,0331098278478365
-0,0265563015015161
-0,00651223688675012
0,0180130274478078
0,0381783076560833
0,0401417006151631
0,024686343685473
0,0102165822954286
0,00284426861881284
-0,00129908197537362
0,00614235145682889
-0,00266584492051189
-0,00708609560747686
0,00835156847948751
0,000202624447893326
-0,00985465680797178
-0,0078529159092216
0,00472377443627513
-0,00254785113584665
0,0013335208086093
0,00480894699553348
0,0161052914102207
-0,00293166343598588
0,000895746115948013
-0,0136278510098181
-0,0242174142243474
-0,0322256268509737
-0,0391437448390824
-0,0361968057331304
-0,0258134204650576
0,00449840115197601
0,0343630933280328
0,033825555769881
0,0121928730095815
0,0213999605967195
0,0127074867832623
-0,00356854244242096
0,0070094430248327
0,00518486995321737
-0,00216454389245687
-0,00932898709736312
0,00292596081447958
-0,00643960813362443
-0,00344096452212265
-0,00212112828264254
-0,00829665224672421
-0,00413352109135381
0,00485449019125858
4,1801854588152E-05
0,0131461044690855
0,000801659409948817
-0,00723070064705676
-0,00425235847632731
-0,0316960064055588
-0,0325273709779249
-0,0295462574183833
-0,0372825489341035
-0,0201440892305594
0,000635677943188758
0,00264784022542545
0,00803441540856455
-0,00267414854969588
0,00516894022113925
-0,0177037251898674
-0,00622478992861633
-0,00120015364511493
0,0027423542776276
-0,00824296187870974
-0,0134788124260752
0,00184137281591905
0,0064573675113679
-0,00208675334354512
-0,00868797825614974
-0,00985007722900135
-0,00178851640044843
0,00784641690760789
0,00877046689804951
0,00962807286401773
-0,00489525890382816
-0,00897272386623592
-0,0182911411913647
-0,011855956476212
-0,0362882147233665
-0,0349747261628563
-0,0308840258679111
-0,0368382098504192
-0,031468267763551
-0,0146258342761138
-0,0141464540748954
-0,0259018916933651
-0,0183161144246652
-0,0131850399615487
-0,00179879894246028
-0,00450282740481689
0,0035798748585151
0,000666565699471199
-0,00197167735435345
-0,0106276113448542
0,00438851421960423
0,00399817445392026
-0,00540704854410478
-0,00938406588486868
0,00321031692656201
0,00280820395156027
-0,00757561151347243
0,0119698364178537
-0,00342565021406592
0,00284680191691681
-0,0114401013153801
-0,0205754003311649
-0,0398053230974488
-0,036765548845225
-0,043051705858955
-0,0398751375128725
-0,02996961822145
-0,0342199674634923
-0,0386790270681223
-0,0314340799209805
-0,0251305258149598
-0,00667892328230345
0,00567681305294661
-0,0016958265939718
0,000827203749583887
0,00327098216113564
-0,00930308959928323
-0,00651195532843685
0,00102689623623352
0,000484440956511871
-0,0090256023368505
0,00149702629854892
-0,00679341875819894
0,00445683872171146
-0,00737494567952688
0,002216006723575
-0,00643811326250666
-0,00772679576830395
-0,0161748712836626
-0,0211894586544536
-0,0310429400208156
-0,0319858335450001
-0,0556048399653349
-0,0538669209075057
-0,0350310579808945
-0,0459806066182145
-0,0415813957217254
-0,0233304151106922
-0,0042237101868887
-0,00107261955248288
0,0134042035374545
0,00865278804651375
0,0078422749263503
-0,00502548084851642
-0,0152913078090269
-0,00582143926958095
-0,0098003421686992
0,00763075285720016
-0,00190383055973179
0,00482464782946667
-0,0038733166049144
0,00452215561835331
0,00010506695876725
0,00790301443126795
0,00986727262112835
-0,00894901808218297
-0,00949195443434571
-0,024069018540669
-0,0322438607769939
-0,0554059392808451
-0,0517431337554095
-0,0458633659632527
-0,0468117871672154
-0,0338739616162503
-0,0258044220348587
-0,0301535776234885
-0,0117688007367645
0,00476027204556832
0,00735407176991216
0,00794791347011113
0,0111184130425574
0,0018094391587749
-0,00545307576730073
-0,00682296314359765
0,00632604839017816
0,00091065314114584
0,0058218712147521
0,00563423582149401
0,00407825784771574
0,00495721109339433
0,00196444047549363
-0,00227966278767357
0,00887263220047709
0,000540631318983525
-0,0113589478487854
-0,0112542169195005
-0,034198330967328
-0,0547357239794947
-0,0589030942849382
-0,0380387872486998
-0,0278558127794701
-0,0212877975938916
-0,0330364872077832
-0,0139771959136102
-0,00608731028178373
-0,0132344079200223
-0,00277703037919566
-0,00352291283885155
0,0043405501080956
0,00721342348082467
-0,0130514670241646
-0,00269030015537241
-0,00225756664105305
0,00659712658873893
0,00683238393853089
0,00315603415930775
-0,00481849652841136
-0,00638146100559876
0,0117865539493037
0,00101754708203479
-0,00433629044079406
-0,00180878769517129
-0,00697737313007041
-0,0117282488624373
-0,0327049416948462
-0,0509197268847201
-0,0420319568887645
-0,0362373480311651
-0,0326123478365618
-0,0181893452831181
-0,0250754861086786
-0,03346464310057
-0,0241578716215039
-0,012059611300635
-0,000549002773253373
-0,0101684377005815
0,000885733149082716
0,000251285160936843
-0,00446525728272361
0,00118729972361768
-0,00833542935758158
-0,00125855521869074
-0,00818486877482901
0,00579475678227362
0,00394180554547088
0,0109883253918824
0,010550099003471
-0,0044690848846144
0,0039875518276239
-0,00641941120151933
-0,0118225935598765
-0,0249271955266178
-0,0374585722786712
-0,0349447992016657
-0,0439068732500598
-0,0488634170916119
-0,0227162509658424
-0,039546248958901
-0,0387767671478912
-0,0292709817556807
-0,0258371123917783
-0,0103373099151518
-0,017069993085068
0,00193670314541577
-0,00580842799753489
0,00472114296942974
-0,0106869681242488
0,00228363255403826
0,00699033858844412
0,00155455063637388
-0,00934069426718451
0,00211885745270125
0,00242406141424314
-0,00496204132279579
-0,000873201408026939
0,0127181148017255
0,0024010600023439
-0,000679948606075131
-0,0230491541403055
-0,0224390938506104
-0,032975029890362
-0,0368839489117303
-0,0392591869789277
-0,0437349382936489
-0,0471153825338207
-0,044116395278909
-0,0303984361201442
-0,0310130444523231
-0,0295504135449765
-0,00688988722278973
-0,015186971488793
-0,00654683011278023
-0,0067401254869772
-0,0151608934613552
-0,0072888652003406
-0,007056750096481
-0,00561462403650727
-0,00697505536443288
-0,00212469990360649
0,00392615855906935
0,00490674237931856
-0,00821952466348627
-0,00365713956209048
-0,000838288469359827
0,00744990189432373
-0,0105575734879657
-0,00554671029716077
-0,0255492369024985
-0,0211701006723515
-0,0269859605062879
-0,0381609307597284
-0,0483527065067441
-0,0309210387817567
-0,0308824002972272
-0,0171801194257024
-0,0176120838803323
-0,00552751422309268
-0,00780889084621797
-0,00360286425754847
-0,0129250923508956
-0,0114346194618659
0,00259697610955771
0,000262440684206332
0,00783358932909248
-0,00424959590835667
9,76981408202791E-06
-0,00726741528682971
0,00073995876866283
0,00599484880981196
0,00967987907724753
0,0036489903618443
0,00267528839977065
0,00692539719383775
0,00591899524684907
0,00618089109730509
-0,00940947440754439
-0,0116190538731074
-0,0153242936269687
-0,0157519215212479
-0,0380914362178941
-0,0323529763870432
-0,0210153466354073
-0,013739730553089
-0,0164310820519962
-0,0114406478951115
-0,0157412492190983
-0,00593732479180275
0,000204840233454157
-0,0143396797020558
0,00251966340713021
-0,00621318910943548
0,00104347769253971
-0,00357440804161882
-0,00834087469490923
-0,00266973989983079
0,00554983083882827
-0,00378277093813884
-0,00638798072353135
0,00780901970081135
-0,00415484366377675
0,0157385191783409
0,00473521731905199
0,00470414759837111
0,0067984026395286
-0,00923981724743652
-0,0168962160209167
-0,0127711336263896
-0,0216069870994071
-0,0128261013979843
-0,0125270522515926
0,000220500923661463
-0,0131047730354889
-0,00143258493110919
0,00105485194391653
-0,0143726329723109
0,00147637874519042
-0,00578246706087392
-0,00263187420700159
9,46949322034868E-05
-0,00748064873046444
0,00692122333484163
-0,00522347950425373
-0,00155074395777227
0,00951615308388889
0,0034502712420422
0,00996612613728189
-0,00862674529502832
0,000313624280412065
-0,00133180691085501
-0,000124914349769059
0,00197451991511282
0,00683995606763655
0,0135088849390151
0,010589302340953
-0,00728623535744323
0,00655545214452935
-0,00954947888877741
0,00505510284485203
-0,00968035312450121
-0,00494796218717389
0,000148294174135523
-0,00615943125193756
-0,00932347858906186
-0,000807114500304286
0,00549210514721449
-0,0106278510701655
0,00642673973494481
0,000837427739657615
-0,00917143908016647
0,000926493405603824
-0,00230373122370976
0,0067584228407398
0,00226055897411916
0,00407289103477878
-0,00505696691785564
0,00449386627499665
0,00890200207272571
0,000683960661983693
-0,00358782796298903
0,00060298859965287
-0,00130542719419824
0,00203495597795558
0,00165208053379601
0,0108238247287865
0,00693492052804416
0,00909846508485197
0,00424843211285151
0,0120046476476006
0,00507319303789069
-0,00863480054913118
0,00284651475569205
0,000286423494154106
-0,00275913825318966
-0,00481742267954371
0,00148615251977224
0,000548415694143427
-0,00916159691838772
0,00680286797065689
-0,00744088902950328
0,00334360003161412
-0,00694432111314699
1,93972094074818E-05
-0,0028698216557527
0,00243368125733644
0,00431526604719621
-0,00385100373790061
0,007412114634837
-0,00486082387073069
0,00364046354808383
0,000980293692978296
-0,00459499229468291
0,00828898159386756
0,00864814448821204
0,0114127077136929
-0,00179088023432474
7,93377753049353E-05
-0,0044018251181517
0,00288819112411803
-0,00678057253270054
-0,00477740369639742
0,00167079904670441
0,00879065271102598
0,0075865575133405
0,00985173660366784
0,00751065957308329
0,00618555467398165
-0,00139528568433378
-0,0030619125501541
-0,00749606979894269
0,0044272188350685
0,00279061117805103
-0,00968361795090732
-0,00487447727605626
-0,00161895189493011
-0,00886098885716917
0,00172262058239691
0,00757655043216973
0,0013054154791431
0,00843276361639534
-0,00705362768404251
0,0053503282717153
-0,00450017928986035
-0,00294014321174847
-0,0047950363272293
0,00907109397638321
0,00869901884089431
0,00709062398715803
0,000914470923035784
-0,00888479237307659
-0,00485634248774552
-0,00258348191447995
-0,000869540055687325
0,00331487142169609
0,00647373507566459
-0,00875376058684372
-0,00573365046444053
0,00235754346119126
-0,00272142573852158
0,0049039129982255
0,00793956660569625
0,00710177205368028
-0,000550048868428007
-0,0090057715489556
0,00740633521108252
0,00608854786310743
-0,00758169718905431
0,000224939468421479
-0,00371505481326159
0,00607913412760279
0,00265308128917199
-0,000864581673097398
0,00211613604431792
0,00360687226690672
-0,00898483496112043
0,00160174825768999
-0,0024137913214107
0,0025973088911722
0,00334000428828411
-0,00839989093057806
0,00943329426433579
0,00933365181988741
0,0076609255083189
-0,00414744893747729
0,00745269369215364
-0,00296988677837415
-0,00633984876626164
-0,00300168783078049
-0,00136546796106854
-0,00290818551949088
0,00656995018282091
0,00872703812442938
-0,000433210894738914
0,0057823206614132
-0,0103741897736105
-0,00547836942770415
-0,00635500966395918
-0,00731581731180499
-0,00142570253802499
-0,00219531413070959
0,00440319774932983
-0,00272215586269073
0,000400550539742579
0,0046675467552973
-0,0016441798815735
0,00588474773867188
0,00518491299550412
0,00549023295364786
0,00229970638281652
-0,00512801318202541
0,00366003073456699
0,00166904064438727
0,00901753917290715
-0,00432153480794352
0,00547028682691492
0,00860177170271748
0,00943305429598507
-0,00641286815393628
-0,00667658679501607
-0,000543255261274844
0,00106203944979978
0,00395819624515916
-0,0111311507583508
0,00497737039227062
0,00330108836458945
-0,00264223442225277
0,00393166611151538
0,00197900392670556
-0,000844103595010223
0,00254482259577249
-0,00461491190448185
-0,00590611641197586
-0,00598937288568076
-0,00458141285844679
-0,00406087133967006
0,00165057689987
-0,0011946044820922
-0,00714373555367571
0,00744022409312437
-0,00846228581781606
0,00174914365250112
-0,0018634364436676
0,00469828750075264
-0,00623643590797306
0,00354159250393738
-0,00459963438015442
-0,0100218732135309
-0,00668988736767414
-0,011675674931394
-0,0114007652878156
-0,00742648035979327
-0,0114021432822218
0,00915004201973093
0,0087518425156198
0,0119189983211602
-0,00253238011539123
0,00307853588565657
0,0103974377883335
0,0146447604879693
0,011929194874669
0,0113924768542527
0,0115282001494909
-0,00585332195683674
0,00808808072655879
0,00914022666585139
-0,000335917894317173
-0,00208416191063009
0,00391083648144772
0,00991046675476733
-0,0061077968410601
-0,000181611012011852
0,0067358028465323
-0,00265252447379518
-0,00452158734503821
0,0131601004405821
-0,000363974361100071
-0,002317436000309
0,0137126066189242
0,00143824935794268
0,006678153380053
0,00192567651129953
0,0050778013261011
0,000632400283741824
-0,00381356639213693
-0,00631433754007778
-0,00859055696232633
-0,000526806692070455
0,00371913855416486
0,00122476549941443
-0,00345638318180086
-0,00271206025904311
0,00834020325635099
-0,00121077322017713
-0,00741562899771815
-0,00550638758411884
0,00252160877879102
-0,00393806421846993
0,00804998043833765
-0,00446441333396206
-0,00508438696359122
0,0118527783043638
0,00692670366219914
0,00739153046671444
0,0182888123122172
0,010427888409656
0,000221637852692091
-0,00533155730640759
-0,0219541336228068
-0,0370580045823907
-0,0494115088028954
-0,0456699008148841
-0,0485270391996412
-0,04750157887156
-0,0491323213307768
-0,0325751997012262
-0,0238382315605053
-0,0198012826862246
-0,0131194787104798
-0,0123895620619377
-0,000979136038470969
-0,0044833169731222
-0,0084381441758704
-0,00571971057289679
0,0046182429524132
0,00856838258847985
0,00231723782993871
-0,00075212258908227
-0,00275889037439608
0,0185688278455658
0,0142845351921199
0,0258379753898383
0,000184893236993527
0,00547498624452481
-0,0143355234773863
-0,0109382871644392
-0,02889064344327
-0,0288159389751545
-0,012033676751254
-0,0287875045862868
-0,0289258015798166
-0,0105435502588715
-0,0138052257153968
-0,0118381204322867
-0,011913524623249
-0,0205839579638592
-0,0129123390034664
-0,0223138348025556
-0,0235902374303165
-0,0188688928304593
-0,0116053299323311
-0,00166058549705115
0,00594038829629656
0,00112999468945074
0,00243236193855863
0,00882179503015041
0,0112808590363913
0,0093410819641139
0,0226146015930188
0,0219196610132731
0,00984951632246668
-0,0190143151550863
-0,0125768671861047
-0,0289768053885777
-0,0167056849846689
-0,00258067711530608
0,0137295568385113
0,0299840702639708
0,016760135751209
0,00995989916608687
0,017963352833659
0,00145866108597638
-0,00763358673874192
-0,00298538912383392
-0,0220534429446028
-0,0362686903520479
-0,0242292235486102
-0,0155740390985302
-0,00996265734340395
-0,00194652557405527
-0,00835080945851708
-0,00970157990478368
-0,00735158196567293
-0,00603113597642097
0,0128151527053998
0,0270890363312591
0,00946841999372378
0,00815889646156467
-0,0168859563765959
-0,0229640454845229
-0,0351559587415216
-0,0323469003641512
-0,0393890350481253
-0,0287389948404687
-0,00592100347905272
0,0185302041735515
0,0385381421090372
0,00948789008039524
0,00724664381813386
-0,00493358065250843
-0,00634148642330517
-0,0117195518385098
-0,0185358677605241
-0,039299663072178
-0,0458528475955695
-0,0273863886237882
-0,0157103616901067
-0,00652376954925022
-0,00583856586933629
-0,00102198733074078
0,00916579703070876
0,00948585070886803
0,0126790992041787
0,00439543836500796
0,012544758077808
0,00609620533103364
-0,0104934697764047
-0,0341636869041464
-0,05028994236173
-0,0483166782710712
-0,0557377627310162
-0,0359494401382494
0,011899033852136
0,0513571613495075
0,0462870450581085
0,0357971336588829
0,0168779378882964
-0,0014860827924705
-0,00117606169104828
0,00134576524601989
-0,0178410129101985
-0,026002678726853
-0,0451443655970469
-0,031196606993832
-0,0166149625714208
-0,0113553841062531
0,00185387287719486
-0,00976444159944491
0,00685649918496838
-0,00392802036926588
0,010553092932919
0,01368123235483
-0,00206421558853877
-0,0106922875791468
-0,0335803176044161
-0,0506995712906501
-0,0584431874883021
-0,0535830809222923
-0,0547130867792911
-0,0316835885424354
0,0133171212166493
0,0497916888854162
0,0780950078298398
0,06945550936953
0,0501919837543612
0,0181712403511363
0,0124554850479088
0,0090232761521644
-0,0146212002419019
-0,0144942654716324
-0,0188882462623623
-0,00586999694581415
0,00206283914946342
0,00685381458292973
-0,00627028637793507
-0,00489886219977617
0,00313840301265564
0,00364844078154509
-0,00366321417475789
0,0126700040896723
-0,00294789432783809
-0,00528240246360251
-0,026328606242535
-0,0499662062818199
-0,0487870446121735
-0,0248129408246963
0,00359953299987778
0,00561818136163804
0,0309911740182312
0,0528272172517589
0,0877977796117849
0,085719271887197
0,0650800274687676
0,0482620472714967
0,0156066511720948
0,0107815388677464
-0,00545089430278832
-0,0177410021586568
-0,0210788982005914
-0,00622147068641012
0,00249070034181436
-0,00754286784812936
0,00949734998635963
0,009850197184775
-0,00347011651627629
0,00461442233944175
0,0127003478684653
0,00659479539513628
0,00150988263703907
0,00539702174126303
-0,0087460287502084
-0,00395964387115998
0,00565702222254766
0,0072742380267494
0,0189241011872535
0,0106613826603045
0,0227585332567261
0,0573758195390051
0,0848024394072332
0,10541055806162
0,0763585751934694
0,0590628010385567
0,0111659922612387
-0,0174792863859949
-0,0120556470428222
-0,0214408257856662
-0,00575921775739127
-0,0112581683505931
0,0014256125146356
-0,00222757179090231
0,00101854350096489
-0,00624034388116561
-0,0062106038304118
-0,00599433642379129
0,0116611509044756
0,00285973589103
0,0197617472212852
0,00925192703461328
0,00624298809515813
0,00571683507917125
0,0143090505645309
0,0108249242788517
0,0126896661639081
0,00976990301848249
0,0111571322700305
0,0422138750276159
0,0724182547511145
0,0851190028114394
0,0798936395201624
0,0511229734165913
0,0208253999818236
0,00586324825256129
0,00218663834703643
-0,0126714815460719
-0,0111271392382429
-0,0024891078214956
-0,00194286691949668
0,00571389193798087
-0,00824818524268574
-0,00886880265034392
0,00505411888036688
0,00133250959175174
0,00796340814844975
0,017536164796701
0,00927983916242901
0,0019442056421686
0,00365826925241143
0,00613844479163177
0,00575083191340905
0,00135493391956545
-0,00791827379508709
-0,0042655695976478
0,00185744670874155
0,0246747372026603
0,0423084381750031
0,0611258973660873
0,0528857725991562
0,0541958972622862
0,0422284207361168
0,0337570299686658
0,0179259481833088
-0,00296192520115621
-0,00399977503117465
-0,00321658018807336
-0,00249513990450101
0,00430213886161122
-0,00280171535317236
0,00414797176988162
0,00168348171948931
-0,00586360737243827
0,006022263050421
-0,00390181683801814
0,000910312696421986
-0,00254198667187456
-0,0100020460138542
-0,0230772177895364
-0,0100861065560898
0,000182053262392677
0,000838443941333597
0,00302635588272157
-0,00787668162111535
0,00225183768493372
0,023586179258647
0,0285878493786027
0,0484649761207873
0,0437547873333936
0,0426670013370813
0,046046159500367
0,026990340729855
0,0174384763498929
-0,00520273236353308
-0,00705506346544572
0,00370505295327925
-0,00647272852069918
0,000411060531067699
-0,00279645226876042
0,00559214649456299
-0,00746626163218501
0,00264621996180473
0,00523106294931191
-0,018147732497812
-0,0296142754274596
-0,0318579041576792
-0,0421988760055969
-0,0373924982124555
-0,0449461726843415
-0,0245201759610143
-0,0295132358491918
-0,0213734511723408
-0,00983290549697476
0,00184810183716465
0,00869912775037265
0,0262034805562322
0,0385913456351021
0,0331976169961711
0,0329039918722688
0,0215848382146344
0,00874690483956682
-0,0216053503984281
-0,00724136569226899
-0,0138443832645183
0,00301882624757795
-0,000953943447456401
0,00404183159304868
-0,000107627351826792
-0,00756850004450029
-0,00229259865170332
-0,00305754497626426
-0,0231927425575776
-0,0353718776520947
-0,0425309304779682
-0,0547577900677877
-0,0832569543407439
-0,0817931472881226
-0,0720776181692282
-0,0740763609944477
-0,0356237882229469
-0,00445304089350496
-0,00254171859102943
0,00164984591523665
0,0203433214932736
0,0215101477473636
0,00539990139080751
-0,000882534543783383
0,0134725094219871
-0,00683519188418165
-0,0263909359237631
-0,0324574563333369
-0,00636570800452743
-0,0120533785932972
-0,00815961759515887
-0,0079797926638744
0,00877241308673176
0,00542827832010375
0,00962008421858084
0,00138341976640217
-0,0162246522373673
-0,0411806029925992
-0,0512058676341024
-0,0626368315383522
-0,0994319623962328
-0,100386976799385
-0,0949966649017022
-0,0940099149340333
-0,0550605869575051
-0,0236301879389373
0,00247745492122759
0,0160611401745795
0,0194128066725978
-0,00124448287454179
0,0055933634632762
-0,00537551005885525
-0,00721782913090438
-0,017928650096118
-0,0274604456702799
-0,0359836371539673
-0,00748752244887032
-0,00582590685326594
0,00728518180115325
0,00974241645074113
0,00691642794426113
-0,00624789535216297
0,0183186510981197
0,00597482212771485
-0,0144446871275253
-0,0409519260593671
-0,0485280508746193
-0,0577163028130949
-0,0808472010229895
-0,0727745241884461
-0,0692811837637843
-0,0732907009110856
-0,0476398089206896
-0,00762458960004671
0,00974460201429185
0,0235106238698916
0,0222086973828221
0,0142145395157559
-0,000817987711238113
-0,0101032391894417
-0,0125660719359906
-0,0398897769193474
-0,0477363142810147
-0,0232587237107334
-0,011045833602851
0,00252988052142366
0,00320120574244837
-0,00629003172567581
0,0042320582594041
-0,00439300505655898
0,0198668067350221
0,0125876520991912
-0,000134700074870928
-0,0191115526497368
-0,0534759082438151
-0,0519634907033276
-0,0351677112580561
-0,0514111233770136
-0,0368921868073302
-0,0409824865318884
-0,00585958914253441
0,0305552267013131
0,0307787018795504
0,0318829836393072
0,0166596698794839
-0,00811174859884261
-0,0203560448916874
-0,0267005720196301
-0,0315707516162076
-0,0460707185137494
-0,033307163701234
-0,0127046697872519
0,000269006218776005
-0,00302658534551469
-0,00628598224364434
-0,000999588314840395
0,00846723727053938
-0,00735124806826528
0,0186651412628479
0,0185760086474079
0,0109908701797733
-0,00918446438285166
-0,0373246146972971
-0,0373497305604134
-0,0382546055601034
-0,0278019829477473
-0,0231950414867007
-0,0198281585804629
-0,00367410619818347
0,025051144007892
0,0212977612626889
0,0122199718017962
0,00438661264143043
-0,0269108221499361
-0,0206222550132992
-0,0249424936023879
-0,0322029982088412
-0,0341752248967557
-0,0347891340724814
-0,0204304976738688
-0,00557510392522883
0,000952046479327401
0,00185506893965377
-0,00476978590592693
-0,000632799488513257
0,0089601611482016
0,00856271514206165
0,0109683853211582
0,0208926771289373
0,0104985681736172
-0,0137915167346122
-0,0130098894699896
-0,0171489127369761
-0,0221910655724671
-0,0303267385632555
-0,0512996451844384
-0,0355136512972088
-0,0295773055408966
-0,0196707734491243
-0,00978915153286016
-0,0220991939384848
-0,039526058310239
-0,0248920984367857
-0,0309632051416488
-0,0250236830298083
-0,0264817232205215
-0,00770845693805811
-0,00457033084719688
-0,00129856892422791
-0,00570956166627777
-0,000271184908168343
-0,0071873032381699
0,00715456372925759
0,00597609466883093
-0,00199958922422049
0,00750652503804344
0,0383954186807005
0,0426375812456371
0,0341305721876955
0,00240777975288807
0,00918505384454203
-0,0118176240158275
-0,0349195495832147
-0,0522610990622052
-0,0530996513232179
-0,0450584867743726
-0,0311947471910616
-0,0345930035551155
-0,0235211836263107
-0,0119735894841652
-0,0226267550043076
-0,0134008619775563
-0,0133205302025203
-0,0143118034938757
-0,00393801057323304
-0,00598726384519504
0,00535925638268578
0,00991249420943442
-0,00206179543028669
-0,00773854702605798
-0,00850214019348013
-0,00952779048528613
0,00617180467390661
0,00810874751634053
0,0159375042564348
0,0300332881563216
0,0373276593404803
0,0468357006363672
0,0297394780631098
0,0314430624055267
0,00214936823374395
0,000791270146772396
-0,0107003307737873
-0,024587477649247
-0,0107977599878933
-0,00700340527007537
-0,00593035042303057
-0,0145116885100177
0,00317061472201777
-0,00552215250094253
0,0020950673397356
-0,00378482045999872
-0,0090934723281262
0,00199004594262038
0,00752834406481855
0,00487140934028714
0,00256144895803251
0,00147513911662397
-0,0059345117751204
0,00767468234951599
-0,00436873891258381
0,0133300016676342
0,00976659270945431
0,0182931666408473
0,0158247657302816
0,042573930766474
0,0448924180628096
0,032951357406127
0,0399490769627872
0,0375398207126531
0,0331276428335035
0,0171963413183085
0,0108571955564823
0,0205686310873863
0,0177520043149395
0,013106968575679
0,00508032116643778
0,00543081369882802
0,00162999551289313
0,00568224603297488
0,00774818950849258
0,00466856123193823
-0,00756212470609246
-0,00558506593754464
0,0022714753971768
0,00557301771620895
0,0090795916873401
-0,00924557698855436
-0,000168510132357038
-0,00217530579908672
0,00131630927000087
0,00191781817116724
0,00378196961715204
0,00363520938547807
0,00597950887882806
0,000635369578717532
0,00418905218387677
0,0162659341471799
0,0210524076211542
0,0217434577131861
0,0188298471489296
0,00170413411427973
0,00602980707023248
0,000491237573039967
0,00412761811780971
-0,001029770549627
-0,00765395618503516
-0,00482765074530857
0,00749815621539928
-0,00287048753636733
-0,000108461700313923
-0,0057977631016624
-0,005958371262978
5,57154836392567E-05
-0,00964777172526707
0,000668123592933698
0,0071397252088132
-0,00427407698200111
-0,00978887088737954
-0,00354074412707207
0,00996474499635705
0,00781642282359225
0,00567196666525246
-0,00447942669269374
-0,00674143459112426
-0,00517091431096926
0,00478815644684143
0,00847382540663513
1,58547325623178E-05
0,00496017848860403
-0,00303335405656799
-0,00158758436896221
-0,00119575986006712
-0,00176976482199918
0,005064126124106
0,0042873850720897
-0,00436291449864911
0,00780061777578696
0,00436520088201631
-0,00435169249510006
0,00431374067175842
0,00436040500847642
-0,00672382139448254
-0,00733557662802543
0,00728029887065305
-0,00458464374513582
-0,00501094684703785
0,00962567910534594
-0,00261332285246501
0,00700372603582392
-0,00545024504673213
0,0091805007863699
0,00711214990220598
0,00353791318052378
0,00955994736394929
-0,00855822116620185
-0,00204129029649036
-0,00595488376727089
-0,00830186387444933
-0,00418226428059035
0,00293775279677368
-0,00566738257914194
0,00586581619263898
-0,00647375274285383
-0,00901600846043602
-0,00785621393372129
0,00577152025688976
0,00597577113470797
0,0050591558288127
-0,00367251537445584
-0,00489735283651266
0,00933910743302624
0,00135587960079121
0,00453681107327362
0,00207709412804612
-0,00454565558700285
0,00432377983490063
0,0027147453030496
-0,0022246327618921
0,00756928035368968
0,00949759616738375
0,00445991109687052
-0,000282484397859966
0,00190652747611461
-0,000659917694861394
-0,00322800792228002
0,000540736173228966
0,00488617575426512
-0,0014958959002812
0,00355640571630238
-0,00391880930663083
-0,0084694241014505
0,00610537813027292
-0,00145253483739334
0,00271055470812626
-1,88767490996392E-05
0,00849458881583744
0,00974993134837129
-0,0083195681675894
0,00513660847481244
-0,000343300184994971
-0,000977930284495305
-0,00543588963063904
-0,00896504430897784
0,00195829067649999
-0,00476082816895764
-0,00221928653691995
-0,00743715717001506
-0,00907921425781336
0,00331867419130076
-0,00391229919455051
0,0036068854266452
0,00396010483512976
-0,00846779543418675
-0,00546065620291647
0,00761677360352106
0,00381489380421509
-0,00651226302378964
0,00393518525055309
0,0039869254244184
0,00148095757140756
-0,00915550273746306
-0,00254587687748273
-0,00848571534198044
-0,00973813641804184
-0,00641771303322991
-0,00676337421721005
-0,00719221747694245
-0,00817871749655443
-0,00793316335549789
-0,00330353451077641
0,00417063585406136
0,000596397398654446
0,00240132929084776
-0,00424033687099998
-0,00335493304923059
-0,00616134332905261
-0,00870675050923107
0,00214176031661096
-0,0147344515475363
0,000555383516307438
-0,00911838909152378
-0,00349246839248759
-0,00277491206565986
-0,00912743797394295
-0,00341458678415301
-0,00749580076852962
0,000326457456348973
-0,00824261706268054
0,00393523112534836
0,00511918946174445
0,00446914793539061
-0,00437407371326074
-0,00234472245552797
-0,00637412735967597
-0,00124384376061436
-0,0084800152382757
-0,00703640801222425
-0,0103565068449486
-0,00404007009429158
-0,0113305429491419
-0,0110005056187433
-0,0201008344562094
-0,0071366314314171
-0,0225562614189646
-0,0196260091969408
-0,0258661635035803
-0,0244085888844405
-0,00992780803241343
-0,00932140692130721
-0,013826452652138
-0,0148340355721302
-0,0127566687885283
-0,00386182157842997
0,00209857648089171
-0,00638230661605225
-0,00215191110944104
0,00279699991208431
0,00472665352914944
-0,000583486133419549
0,00838602946179319
0,00125939832593286
-0,00923454530501484
-0,00202947435534867
-0,00313677459803305
0,00214886003761054
-0,00394481491572305
-0,0126343634091907
-0,0109627854394746
-0,00686708186402021
-0,0238009150099331
-0,0295004030098923
-0,0290564897723505
-0,0231004007769805
-0,0255443110494955
-0,00613106150608525
-0,00817775026310945
0,00253258968887734
0,000754689580577983
0,0080920820915076
-0,000110545219040652
-0,00834563337951344
0,00650278288744012
-0,00411047976072576
-0,00693904979564046
-0,00373777745541728
-0,00182912899322854
0,00512025153668956
0,00267620758925229
-0,00982385545029484
-0,00868278736623111
-0,00162026866634422
-0,00238132663339393
-0,000490647027132841
-0,00553228184252476
-0,00872091284329343
-0,0204156077798464
-0,0188648086332321
-0,0237716040470758
-0,0190562792420856
-0,0291904799861298
-0,0326094288471535
-0,0163388966125458
-0,0116913848653366
-0,0149988572240683
-0,0127278687688828
0,0129862366725089
0,0131873741240092
0,0102642560064084
-0,000677358880196565
0,0135925889493104
0,00930820227923229
-0,0048664724611789
-0,0162758951678826
-0,0129755064528885
0,00409037669361116
0,00489836027182636
0,00492680193394428
-0,00649215695991534
0,00769619703093654
-0,0089342291046437
-0,00081478798309666
-0,00711230861903129
-0,0120961907075385
-0,00630895020950401
-0,0294058727189641
-0,010890029610657
-0,0129279347347323
-0,0290887047344694
-0,0211313548154424
-0,0250771229534882
-0,0206080646143239
-0,0294948788048967
-0,00935153714648653
-0,000345372357388464
0,00419924969666057
0,0050542551830218
0,0138174965850087
0,0131382450207584
-0,0037877143151742
0,00111456625315654
-0,0010490032917992
-0,0102777309571292
-0,00112777128290222
-0,00620173775607324
-0,00203345287596189
-0,00746891215344535
-0,00385612220119246
-0,00302220655711931
-0,00241576661486372
-0,00332806053328586
-0,00934276368158996
-0,00985778368275405
-0,00840274297824071
-0,012036074839709
-0,014200197400423
-0,0157078093378197
-0,0228490507872029
-0,0115071237925758
-0,0214820260597254
-0,019420909834594
-0,0153294717099581
-0,00158012233570057
0,0109263488045264
0,00706408414849592
-0,0011004291128851
0,0081465307038208
0,0152295676317077
0,0122176794484583
0,0010920968562477
-0,00840169366607415
0,00418925534956767
0,00633323909819017
-0,00795925673595886
-0,00217135929804224
-0,00613085405543319
-0,00573731300471691
0,00398431189550969
-0,00932258408905138
-0,00206260629507937
0,00617533509440334
-0,00354978165193526
-0,00859753643895126
-0,00880926184551121
4,56702929175823E-05
-0,0113454066089337
-0,00510501407032137
-0,00777600474422612
-0,00164117483472629
-0,00278537520082101
-0,00236080872467979
-0,00204950274738188
0,0254121757808262
0,0174276571175656
0,0246710379735763
0,0214194779453441
0,0185698649105592
0,0029110280895714
-0,0154144905384503
-0,00951531560034933
0,00603405801553842
-0,000990179362522112
0,00520364956040732
0,00075806028607166
-0,00718867887747587
0,00638629044394275
0,0042364869421498
0,00209360195906205
0,00295117588713501
0,000458587102562627
-0,00588994971393833
-0,000575367267662573
-0,00469855662924207
0,00786823211068981
0,00408257557670785
-0,00420159028037776
-0,0151565721099681
-0,0356727426298382
-0,00949319223783532
0,0021343675370671
0,0265061244312059
0,025277107602357
0,0373280027938189
0,0411212989795446
0,0264786572776965
0,0105868287887583
0,00488699783419366
-0,00589636587665177
-0,00503751716222029
0,00978015963094842
0,00717396604558545
0,00416453329130756
0,0077736970666923
-0,00846499064977581
0,0102118736337017
0,0135991676231644
0,0227632952834472
0,0162281892538289
-0,00186995718405681
0,00957862990961589
0,00310975302779982
0,014609560820451
-0,00864132518189294
-0,0194723759959538
-0,033819476408368
-0,0528878590612619
-0,0300256872357712
-0,0151902688194126
0,00457731720354185
0,0259523954679756
0,0467240345964002
0,0436219291032265
0,0412370005602651
0,0170533269119737
-0,00354868899668837
0,00120944600526347
0,00536393211730166
-0,00667572115497058
-0,00162574204328873
0,00524911233697827
-0,00788173206076005
-0,0012295621288579
0,00594104396477999
0,0217614946976826
0,0241928987893866
0,0123856263898238
0,00703625032287546
0,010255795276851
0,00847290277785311
-0,00561273843319569
-0,00588980927667787
-0,0354554597950235
-0,0487560641324579
-0,0694390682219923
-0,0623354504328414
-0,0226082783459512
-0,00994856981215621
0,0105022546025231
0,0466672697264501
0,0624223728237456
0,0412678751360759
0,0152007889930197
-0,00575432048292229
-0,00960719676477567
-0,00401797490988902
0,00197970539802091
-0,00817648772612238
-0,00283137877622797
0,0061817646379632
-0,00549813466809387
0,0219243058294429
0,0344410770202602
0,025883359354973
0,0139775120352896
0,0118169123322125
-0,00124561502801667
0,0109043907659416
-0,00304206305737387
-0,0290981819596813
-0,0724750795411661
-0,0735899889471098
-0,0822455114893594
-0,0575136428185752
-0,0459619365177631
-0,0139725390674648
0,0164616214802836
0,0304913014883995
0,0491980808095938
0,0409385236988421
0,017887787548273
-0,000312640608076095
0,00337025253757863
-0,0040395895934061
-0,00128261212801576
-0,0044773908580297
0,00456884824513588
-0,0064588799139313
-0,00572432322589286
0,0152006635998002
0,0454282859170573
0,0335437268585731
0,0177940255787523
0,00841561787413723
0,0158862931401645
-0,00613853500413749
-0,0406354343729582
-0,068119543517657
-0,0860923847502215
-0,087545051693078
-0,087188067693621
-0,0714949097479577
-0,0354464066019084
-0,0173923129992023
0,0165046048408905
0,0304573292883433
0,0392782553240531
0,040407955395571
0,0098192920899682
0,0033998695695521
-0,00133035495100345
-0,00583103369595224
0,00201078411025982
0,00861010886837893
-0,00213165858066539
0,00267422192431995
-0,0055291461815579
0,0266415812620806
0,029446005586068
0,034220243087321
0,0212860582655472
0,0302945651317152
0,0151298845826746
-0,0204522668470485
-0,0486035621853506
-0,0835600216666024
-0,0983675649390958
-0,074003132651419
-0,0822951217946351
-0,0538605845846995
-0,0300122292299007
-0,00204910246382872
0,00581721986165765
0,0185781067682586
0,0309852079016017
0,0263133368716866
0,020808059413625
0,00127251003815995
0,000537677258335658
0,00810869181097579
0,00773154223125866
-0,007698428817115
-0,00743370275279851
-0,00203023325199507
0,00640422211245575
0,0340636346320599
0,0504718718786491
0,0422562748627784
0,0428336276438678
0,0375826207809768
0,00128568471046633
-0,0306840969414474
-0,0718666623171662
-0,0928287366723272
-0,0889812574586284
-0,0760343598603292
-0,0651433454042618
-0,0368526131657374
-0,0202750871792962
-0,00180129058979787
0,0152776221056604
0,0204176459008971
0,0271750813879636
0,0175540711267354
0,00229381569686036
0,00875638675781695
-0,00782921819319265
-0,00191251917526334
0,00298210397967236
-0,00807130603111363
0,00703848537710134
-0,00314214286817817
0,00929017225143816
0,0162104529621457
0,0362631656377623
0,0545119412637516
0,0463364437291046
0,0311962641742393
0,00298347174645811
-0,0323110044516142
-0,0503884990397451
-0,0640760674607695
-0,0740112624880849
-0,066558365918485
-0,0472884638997684
-0,0242883934160925
-0,0133983162395858
-0,0055201842644113
0,0028135641424423
0,0231747799969411
0,0268603506800582
0,0202079546351976
0,000148118615424144
-0,00322520075970312
-0,00192853707820733
-0,00146740884386883
0,00160888600672969
0,00622546300040289
-0,0041683537719113
-0,00302018463220337
0,00123221370298297
0,0144200034366972
0,0337109613510713
0,0396324276560058
0,0335979572975028
0,0490732960802217
0,0320150041371839
-0,0147516282528863
-0,0305941400010676
-0,0536845974880785
-0,04764932207409
-0,0485928458288153
-0,0243831304846808
-0,00870318816227976
-0,00793441536332893
0,00679642014991484
-0,000512650438894595
0,00656639720384545
0,0172368295424997
0,00447250823827778
0,00445233638576992
-0,00968927912776586
-0,00252507904006773
0,00374629182270342
-0,00605128785062104
0,00813859759007333
-0,00666129889396708
-0,00760079304913709
-0,00138407911412963
0,0154573035892411
0,0140271036563175
0,0287906658759101
0,034061895145547
0,0311224948934649
0,0263984821317721
-0,00298183220475442
-0,0129309573143303
-0,0351311203603021
-0,048132668167952
-0,030261360109618
-0,0159349574928207
-0,00372950969861094
-0,0102326280147575
0,000223437779197688
-0,00783508250453644
0,00392990946093076
-0,00771238638140827
-0,00651674413102238
0,00590470229494555
-0,000333781725783543
-0,00717143221388288
-0,00648734365092263
0,0081314956667514
0,00493407314856475
0,00688102914016918
-0,0060586277631391
-0,0155147890492358
-0,00590301288460606
0,00631340284021892
0,000751530580659981
0,00885748884350674
0,0119144076851644
0,0153507117567339
0,00389568375024853
-0,00987181099465573
-0,0169746870482724
-0,0288780202771997
-0,0202253315986551
-0,0170211733414257
-0,0149758129334783
-0,0171474849431207
-0,00611749153978105
-0,0123452162839127
-0,0095908528875591
0,000340197769426387
0,00108743633756283
0,00128871993442854
0,00117120471687906
-0,00135996594167899
0,000629934979919379
0,00585038260011329
0,00643316443612746
-0,000485490155939944
-0,0125986030542973
-0,00165710428602924
-0,00518775314643594
0,0136845611545652
-0,00174935408276532
0,00198649183992869
-0,00612161352673186
-0,00116633907839135
0,00854250722904881
-0,0158264110740148
-0,00767162134585014
-0,0242542718399899
-0,0155657779085754
-0,0131037311549949
-0,00773655309678264
-0,000907982056934018
-0,0169153026534736
-0,0150759607403512
-0,00571155895416889
0,00379636734295417
0,00038888276582459
-0,000848467845965839
-0,000704975656307817
0,00718960075322717
0,0032377370327763
0,00876452197911567
-0,00923655041057892
0,005766905913373
-0,00327437168181705
-0,00313198785966547
0,0063432124282122
0,00219678551954712
0,0134816358280126
0,0187842434270151
0,00657980177964489
0,0157938777311596
0,00914584279625239
0,0118681186803214
-0,00344445071969041
-0,0142453188721641
-0,00934557497221001
-0,0178956746935169
-0,0146289983385081
-0,0127353906033864
-0,0171916420471444
-0,0180127386221879
-0,00907414346716951
-0,0057554029273595
-0,00987759103624281
0,00230377336574013
-0,00887825798580518
-0,00490771172459727
-0,00628392580980899
0,00647210197358956
0,00564286567067861
0,00169702868729845
-0,00509265354050414
-0,00639448763908856
-0,00780059079052564
-0,00710826153751056
0,0029348635018045
0,00226420975581746
0,0132338871667209
0,00369175254549313
0,0074564247698459
0,011324037181654
0,00206994493812387
-0,00169248561436854
-0,0198376753896775
-0,0109320176386779
-0,0189360993371223
-0,0172946027765466
-0,00446620813547517
-0,0084621812184508
-0,00278235049599677
0,000327992976944244
-0,0066930099009015
0,00835048798219724
-0,000500900136837414
0,000286790209306121
0,000425247703876927
0,00233940918573151
0,00463458492170767
0,00727977664442037
0,00200550981264166
0,00244726202739878
-0,00790793040444863
0,00624178965150887
-0,012325134826815
0,00129835598024332
-0,00207874625375406
-0,00972573513877639
-0,00248356412240293
-0,0139030373254842
-0,00624061254307388
-0,0184590661705683
-0,0150833443594255
-0,0203805375618552
-0,0183658389809737
-0,00600494413158796
-0,00328117452126278
0,00200052570023205
-0,00557250427060288
-0,00390541546384608
-0,00575362448950617
0,00200381800092512
-0,00478920556185518
0,0022236448416194
-0,00613135057321347
-0,00675761494634562
-0,00178413063836476
-0,0019108210294911
0,0079001678549975
0,0051053550493331
0,00209050126810992
0,0043045328324123
-0,00448541373132577
-0,00167100714255586
-0,0118500763219506
-0,0123196795057497
-0,0170948984205275
-0,0175251059740433
-0,0170376099773059
-0,0203394650853649
-0,0211267931015897
-0,0190055632226659
-0,00619130435305307
-0,00178695403284253
0,00366260649957428
-0,00455851190614963
-0,00943827864404543
0,00756576723722543
0,000961582455705944
0,00272723408123077
0,00454363299815466
0,00234950110351427
-0,00572709673816669
-0,0026029216743088
0,00279924472458625
-0,00963657855039303
-0,00211444785402423
0,00118513446087353
0,00393874575574661
0,00775475517088449
-0,00333442776417483
-0,00795639953297952
-0,007535892988399
0,00455206371233299
-0,00455158708658616
0,00179850109488385
-0,000247652092732058
-1,33374831723276E-06
0,00314016576361257
0,00213989475434551
-0,00462003392964758
-0,00600717524826724
-0,0023631603111358
-0,00772024377841162
-0,00566501236871858
-0,00915951038413393
0,00617358248809629
-0,00239779987345844
0,00267837559154684
0,00460236106747871
-0,00943799414645787
0,000222546723774888
0,00697903048106424
-0,00480557405147961
-0,0096038508599642
-0,00945213808889544
0,00207460172861932
-0,00800947506183253
-0,00762688121808944
-0,00154317756169696
-0,00661323565689139
0,00645517557341377
0,00425881005701442
-0,000479339598933119
0,00576554072667127
0,00698620374131294
0,00644317292951611
0,00665460262206
-0,00211504130852347
-0,00616712347875821
0,00521231934777285
-0,00198123771542887
-0,00877677230126009
0,00537568103047477
-0,00599964135328559
-0,0023566005250237
-0,00732735401826322
-0,00962391992082071
-0,0078960508564003
0,0017505662104816
-0,00588146686362171
-0,00971746325479702
0,00858382427067674
0,00984201306469832
0,0080394524419864
0,00775100584968506
-0,00261772749601757
-0,00859777802536161
0,00820834421469287
-0,00108919183308687
-0,00648299439646443
0,00192314102303423
0,00208689347608797
-0,00174566782378348
0,00207488486805481
0,00208069503869894
0,00247755860559529
0,00985816164866935
-0,00229930698513021
-0,00228994524678679
-0,00579153045815953
0,00926659462939324
0,00951187144942203
-0,00126143698173642
0,00926278652588967
0,00237459321151236
-0,000982627864453302
-0,00856642536752225
-0,00886463942884684
0,0027527496650595
0,00787607576599162
0,00170593910230076
0,0099103131650379
0,000705369491828702
-0,00551714192186161
-0,00663874419907917
0,0081871875014153
0,00480437974263765
0,00212039172171774
0,0088716502990592
0,000446072321908254
0,00541662804394148
0,00866219881497485
0,00916244261373054
-0,00950713328572537
-0,00648303324627733
0,00621301997997446
0,00303282500480531
-0,00647699995226283
0,00200583629963205
0,00517665355968794
-0,00718551566693257
0,00267538706430951
0,00439389439038648
-0,00245790333135887
-0,00514806149301495
-0,00922933470421905
-0,000154573043218155
-0,00941637267815684
-0,00432736310385597
-0,00126199515192446
-0,00397627685664117
-0,00943662228117225
-0,00399577413282034
0,00184297245921974
0,0030507254276543
0,00343587457949082
-0,00715416392288115
-0,00501125347458982
-0,000397657330355557
0,00443791522951969
0,00853424191274888
-0,000973724296395808
0,000173628759011019
0,00862936210613239
-0,000467956400090343
-0,00898013884022332
-0,00935927848566515
-0,00156944210798494
0,00585809329695289
0,00624741267930196
0,00606612902882794
0,00796298695633327
-0,000843009767515123
0,00758690879567848
0,00506088821640195
0,00904275991103479
-0,00448313105894673
-0,00682973338160287
0,00977856424687151
-0,00700873083543233
-0,000645447387050174
0,00589255728736232
-0,000862137285748409
0,00421342270526392
-0,000641471959333708
0,00979910086445503
0,00776629208711106
0,00135863304902931
0,00255970308259209
0,00629381487138176
0,00886575044835594
0,00205948672994653
0,0064567308335061
0,00884824123444469
0,00749182379381036
0,00483507304076475
-0,00658996529924462
0,00688095041034549
0,00877670811217151
-0,00564470665326561
-0,00955912758575712
-0,00846851297505526
-0,0052575686540884
-0,000567644882115093
0,00279530900127398
-0,00145909358623438
0,00223848958660968
-0,000114861596639642
0,00955526350660443
0,00871876601367852
0,00518473369188314
0,0192345302584966
0,00644101292948794
0,00931227904504532
0,00853853762328865
0,00724435844826284
0,00722593832014235
0,0247739816939549
0,0143797318438248
0,00765219261137639
-0,00332887344082865
-0,000480367034062821
0,00717441545784232
-0,00707237946916037
-0,00848193987246336
-0,00273353203336121
-0,00656058142989578
0,00123360877721309
-0,00967810248009772
-0,00966688551924512
0,00561565185747755
-0,00136886547946192
-0,00543352458758185
0,00642717923008106
-0,00518025148304759
0,000970705727974375
0,006741404772234
0,0185019994051143
0,0229005346437297
0,0249326065311782
0,0156042404705695
0,0190097563715001
0,0273183035331049
0,035738358079072
0,0312814268404248
0,0417933204973751
0,0212628007005995
0,0148175006053067
0,0108508214430531
0,00566346177628374
0,00326442252266262
-0,00454297488566271
-0,00422446224072371
-0,00275101926851464
0,00769830594481179
-0,00175317799538493
-0,00817360208284743
-0,00967051171285281
-0,00199738872264967
-0,00409245853309289
-0,00438414005863126
0,0118130697256115
0,000164601207066261
0,00962125746139338
0,0140081977361303
0,0184392209709453
0,0171493951711406
0,0157795772770073
0,0149736293735959
0,0325880775537444
0,0307082578448377
0,0249306508280111
0,023227370270292
0,0400996084304043
0,0279412966849838
0,0126950842769489
0,00561063606278265
0,00501957986068624
0,019876455863724
0,00556811414682352
0,00205080857001408
0,0113441236413313
0,0108916512373727
-0,00293254012809701
-0,00241777219355556
0,00174797405875727
-0,00513792607506217
0,00880465301914626
0,0080442234533182
0,00353234144079673
-0,00620467011280734
-0,00258322248204779
-0,00141986001113472
0,00384453176040794
0,00654671061475518
0,00189352500478944
0,0177771253848398
0,0198760208195792
0,0247045176980435
0,0139876121808092
0,00849615313915715
0,024146801751442
0,0129851761902665
0,0196301451052002
0,0244189226801962
0,0143784889930961
0,00853519214553898
0,0145624731741648
0,0221666985415074
0,014878613238902
0,000580462621464019
0,00811047362645398
-0,00914978153285847
-0,00724509832142185
-0,00707256236064425
-0,00230832231606543
-0,0123345554958896
-0,0138498332927966
-0,00847108929290483
-0,0132193807580441
-0,0038493711573378
0,00312568103026856
0,000873777830169612
0,00101669144450794
0,00700568273490427
-0,00170049797746575
0,00712258411685039
-0,000261255579369639
-0,00343031314430692
0,000176416101961072
0,00614205820956043
0,0109658048743839
0,0154200604042684
0,0247511931995438
0,014480070632605
0,0178581686570443
0,0215904741890145
0,00817131281607246
0,000970314040305088
-0,00962395873949021
0,000338516666263374
0,00813917599654923
-0,00771784409520893
-0,0111393216520017
-0,00997686799398224
-0,0107315049930527
-0,0116848041280931
-0,0141030359785269
-0,00809081816020573
-0,0103660332575687
-0,00622146651648474
0,00800135712634706
-0,00300881947000879
-0,00262824214211429
-0,0107400857371168
-0,0225150704704368
-0,0221364078083713
-0,00170433251352899
0,0155991539228939
0,018676995234541
0,02110346222344
0,0203921086885779
0,0119804237199205
0,0213517384890376
0,0191512619642743
0,00433684093989762
0,00489882826089798
-0,00137311208808378
-0,00961002457076705
0,0069967168191461
0,00662249199954063
0,000534356936112361
-0,00350074464452583
-0,0103077060810025
-0,0041996819586882
-0,00203498412828554
0,000367035271960402
0,00188407608308937
0,00315347312213186
0,0091434509978976
0,0160339536951147
-0,00178486700732114
-0,0266034215956015
-0,0396187962713759
-0,0354019809229022
-0,0155206350878764
0,0052356644230493
0,0105225795713082
0,0210041577600207
0,0149147130035338
0,00284279976867014
0,0199519554783075
0,00671414792853162
0,0100390913472988
0,000404953156758782
-0,00978490758219101
0,00707446336372856
0,00289600810903868
-0,000482717972543735
-0,0125589480420109
-0,00230814906167706
0,00311763331182179
-0,0094704695988907
-0,000658097064516438
0,000424404222907937
0,0144892277138683
0,02292370750772
0,0273410797158067
0,0408557828115496
0,02542844638314
-0,00515042359826673
-0,0266328662215675
-0,0282170474794394
-0,0125354103704646
0,000606656087541895
-0,00593477378702398
0,00146257252094972
0,0110505040447958
0,00226945291913395
0,000329275699058441
0,00333211630929041
-0,00818146554774699
0,000886363572804345
-0,00411109989593837
0,00564884509433087
0,00954558576778285
-0,00503262509644231
0,00440195124297927
0,00301726023093335
0,00118579444217867
0,00946566456878455
0,0153818537491355
0,0250317885546307
0,0301260459318498
0,061849071190759
0,0774150247464157
0,0586956093483233
0,0445803746959307
0,0143240276955853
-0,0158308941255035
-0,0225318965823158
-0,0033525160802614
0,0032432763505822
0,0139271756833066
0,0121817552933968
-0,000412205456174717
0,00430089951754418
0,0114769138040384
0,0121216284916877
-0,00206001364175415
0,00296646425978304
0,00890903436937899
-0,00521414149195303
-0,00421174711733999
0,000220568826426597
0,00181730986868503
-0,00407758225987912
0,01000890670644
0,0121467506999771
0,0112156081871535
0,023819514686557
0,0517193228491343
0,0672764280594118
0,0791972442963106
0,0718582336946851
0,0621807236570064
0,022419956069233
-0,0137546141290805
0,000827159434154153
0,00791987191404412
0,0122023990009092
0,00984289569404411
0,0135839391777321
0,0100285032892265
-0,00234763224989785
0,00975432998054957
-0,00137239236867053
0,000472805825521742
-0,00281780641966242
5,55779623476981E-05
-0,000406473004283225
-0,00120194302330693
0,00690843617466367
-0,000812382053573915
-0,00943966644759885
0,0111425122864656
0,0133958550482626
0,0234142999163197
0,0410746233664091
0,0490123006178067
0,074503599128839
0,0771225690092497
0,0815857632154422
0,0488649540040957
0,0073353351242738
-0,00703599755624249
-0,00139489141445203
0,00683325513549658
0,0120559041135678
0,0135752812794409
-0,00117233838730995
-0,0022078316316287
0,0104846392542521
-0,00492920367544431
0,00465145545085198
0,00806738902901425
-0,0103907632446454
-0,00123432636024932
-0,0075919862708052
0,00567911009343344
-0,00349806689552578
0,00709023733563423
0,00195302428641995
-0,000919548194412001
0,0144932894336771
0,0247718310857188
0,0345949233620183
0,0501999908211698
0,0467596649182835
0,0489901143052259
0,0426261370746818
0,0176220825574651
-0,0124956125723463
-0,0138902805663079
-0,00662810942255389
0,00680584247052142
0,0142179426269109
0,00126371905638235
-0,000204976879508689
-0,000626897208015796
-0,0071215951931818
0,00885262186698431
0,00601009446993113
-0,00214270636694937
-0,00666257933923141
-0,00729773414225426
-0,00114924314118203
0,00469089721078627
0,00719475195523007
-0,00761503449700081
0,00910912347896454
-0,00014574550658794
0,00771211001564396
0,0218741257576964
0,0247984540575947
0,0263558279992401
0,0280685521807724
0,0253235780592494
0,000768304688761747
-0,0107634897170165
-0,0420918099968617
-0,0344819487932164
-0,00267682140174215
0,0164898564434029
0,0220693742746914
0,0246896669901319
0,0159572046240682
-0,00261836460235125
0,00743409968327796
-0,004227315029545
-0,00588482725792393
0,00456549221631319
-0,0088968543975036
0,00241060067619774
0,00301978344704014
0,000150991648145922
-0,007657911058487
-0,00608319779645226
-0,00679231540649918
0,00933645128232226
0,00674132422516567
0,0184871089838862
0,0153723157587192
0,0154799456857257
-0,00294943884017637
-0,0139804235009719
-0,0135760233461442
-0,0418365467911445
-0,054033419358478
-0,0128676950294626
0,0201379153729096
0,0221457266612128
0,0250532585512794
0,0290970997302653
0,0148808149582325
0,00278221466797414
0,00357979581939165
-0,00437755378638116
0,00511639700366406
-0,00685643724648661
-0,00455417498286597
-0,00388716053207897
-0,00928519537560372
0,00359845822101548
0,00853030338937978
-0,00561719464599275
-0,00300512438600546
0,017664953330581
0,0145037783075024
0,0127047920278296
0,0128703745884117
0,0051503912044484
-0,00251008910627137
-0,0192721880464865
-0,0350273396526906
-0,0509908423316415
-0,0423909442184731
-0,00328253896063665
0,027564059005066
0,0445547051057233
0,0338228886414413
0,0299833873748426
0,0332370130137046
0,0221095140021516
0,00636676533425395
-0,00492118421039315
0,00264905575550236
-0,000552464657020991
-0,00455602998754472
0,00144161555718398
-0,00725827970689665
0,00826021487303549
-0,00298235553441246
0,00840584881187274
0,00224699523684717
0,0248907914085242
0,0317032654220298
0,0200186068544717
0,0157772325796113
0,00867805920620526
0,0118889654245642
-0,0194962838062789
-0,0247158017799554
-0,0360426158702991
-0,013722162350516
0,0119860002640323
0,0383597718792212
0,0521772202577781
0,0381347103744912
0,0261964406181264
0,0313848559680451
0,0260109293586091
0,0167292292033042
-0,00273545731703767
-0,00589743915565735
-0,00906392761646994
-0,003076074432153
-0,00554274416892601
-0,00337683490169087
0,00598459483127272
2,26922014347887E-05
0,00533429453191278
0,0084187317733457
0,0194156511073045
0,0174425849008046
0,0334310770780838
0,0259274655028544
0,0322254515396419
0,00718306612734331
0,00474881369239164
0,000124115061827308
-0,00502240745056901
0,00795158826134075
0,022517231799005
0,0416656329179759
0,0514456606225887
0,0491913044584028
0,0408503152417225
0,0204836926648475
0,00551229458616128
0,0101356830884111
0,00962571936649649
-0,00253530060512362
-0,0047263061853666
0,0062730192694082
-0,00548866755423845
-0,0087802977244587
-0,00808223437683848
0,00212838058012064
-0,00267427726668841
0,00871022200342598
0,0122043155463114
0,0241205170473495
0,0218559967868917
0,0307263827251534
0,0204423675394917
0,0188013296244643
0,0184343430404737
0,0265725284383722
0,0291724843327197
0,0340549580515577
0,0297099275000034
0,0327923459419736
0,0337782010306758
0,0281517184283413
0,0231264103220183
0,0152962095725416
0,0108481380659722
0,00518715234719901
-0,00481255968394034
-0,00699091435749936
-0,00235991400280223
0,0066033665436915
-0,00547307393417213
-0,0073080457824823
0,00133750856423253
-0,0053912604790199
-0,00253331164890406
0,0108078773931281
0,0102484658351487
0,00866210856336832
0,00678057053393118
0,0125980529287776
0,0279191541296701
0,031005373598663
0,0191986994516418
0,0338242869558474
0,0260631981370481
0,0256734262356546
0,0181260738050282
0,0194254947071075
0,0112558051829909
0,0256044873425269
0,0137853838446922
-0,000632740230127496
-0,00496445342985976
-0,00299616784174746
0,00529748549240591
0,0061004715156935
-0,00412941415454153
0,00364489437369577
-0,00303700488377504
-0,000238740616589198
-0,00372810917614405
-0,00920922176936159
-0,00424376795121945
0,00563964092748984
-0,000600034557788531
-0,00843268205266782
-0,00545113607756
0,00212573428873793
0,0105787717139509
0,0290847999491656
0,0236071907712484
0,0310703474199923
0,0380246015513594
0,0189603793164351
0,0212905097591769
0,0171414343089102
0,00628536316189584
0,0178365312234932
0,00596734536946015
-0,00087155242795007
-0,00152246017866551
0,0075734150956162
-0,00910640433101204
-0,00188969490886359
-0,00392209072489633
-0,00780121060199731
-0,00951007424830928
-0,00474363590345887
-0,00169278016858398
-0,00154775856527662
0,00117641283454469
-0,00831126990854395
-0,0109740641136076
-0,00247865692094019
0,00473851882893576
0,00721087209251898
0,00874592016375338
0,00764977604220106
0,00799932314172245
0,0265842837492864
0,0115908790757176
0,00440577295451674
0,00117601495972108
0,00268777198397376
0,00989972074130537
-0,00411689302615047
-0,00153776793755841
0,00849130280616504
0,00327682650601058
-0,00852455110886493
-0,000604975261883871
-0,00361351234861371
-0,00564160853704248
-0,00885300314289407
-0,00744513384878875
-0,000662365961197002
-0,00993812547062436
0,0059976893197444
-0,00202803774921769
-0,00350554818302983
-0,0104964645169613
0,00298373578190424
-0,00252564219307237
-0,00242455672667302
-0,0121860960767573
-0,0143404082040139
-0,00957204564597974
-0,00979339935948088
-0,00763421785525055
0,000707397431962413
-0,0140111463019925
-0,0119958070250233
0,00629930465744378
-0,000620062431284375
-0,00892386320828573
-0,00330786674464715
0,00458268885266505
0,00397346173693037
0,00210016834113259
-0,00650849190203717
0,00666486480610617
-0,00688666161259088
0,00249537497409404
-0,00269493994894202
0,00945459436599845
-0,0055355240570081
0,00811563467326003
-0,0085571162253927
0,000187863492189577
-0,000550354607312589
0,00586919949196654
0,0038529527503965
0,00386854221390273
-0,00220144952216539
6,27451094858419E-05
-0,00760772342676204
-0,0102520668813513
-0,0119490906079978
-0,015800818251589
0,000936573377591808
0,0039848834365074
-0,00960335689296879
0,00275733966852344
0,00864835780317358
0,0101357954923091
-0,00289828285529772
-0,00266554127066767
0,00374731065845578
-0,00917064139321673
0,00682803457455153
0,00511272022273052
-0,00358342975079242
-0,0058083760346325
-0,00539723594458645
0,0011168402764559
0,00946053590064472
-0,00476337396977492
-0,00224177564338346
0,00747720999614892
-0,00891345203932596
-0,0080133145647066
-0,00721314452847427
0,00200396682118504
0,00356885880685134
0,00577360761609494
-0,00764359255135624
-0,00768740059779427
-0,00463197437505889
0,00364275640449664
0,00186653288377577
0,00906844508008763
-0,00134935404368285
0,00271581672884829
0,00552028227217827
-0,00422562162091058
0,00440857577808601
0,0006721418400631
0,00494118056955802
-0,00240571013298152
0,00233297017045923
0,00725604867434876
-0,00562695827131484
-0,00925426852854633
0,00400232534576316
0,00551149716391764
0,00163347488810936
0,0031707047918675
0,00354414988008521
-0,00850309505057665
0,00644849237820529
-0,00758049722648249
0,00856535799760481
-0,00195093720692794
0,0094347057634609
0,00365611810118883
0,00426461037912621
-0,00019441327554845
0,00820127008399054
-0,00960255517605811
0,00578170934495596
-0,00652319269092902
-0,00943471197012566
0,00895912811111618
-0,00182334148875593
0,00744094621270939
-0,00352749898728332
0,00362302470655321
-0,00154717051030471
0,00877507276776017
0,00670826449836989
-0,00120584939196978
0,000326680081425177
-0,00975507278372429
-0,00437275728145371
-0,00514286298274486
0,00888702442851055
-0,00672211810426349
0,00938946169998036
0,0101151904397174
-0,00252394748434252
0,00198499675057129
0,000659135895599973
-0,00417897959994789
0,00904988331887796
0,00076906368815451
-0,00874340138518551
-0,00891505430985625
0,0036427320132198
-0,0077285378864146
0,00168302468164897
-0,00535233959759497
0,00247087175607256
0,00454373574561613
0,00181258052206253
-0,00114383713861175
0,00669076064447442
-0,00458608638243102
0,00257084979770197
0,00656544108687223
-0,000939230904797741
0,00803878897198632
-0,00474993611403431
0,00649415915076857
-0,00251153306674833
0,00119081009427746
0,00784470472755197
0,0155247206928892
0,00191860719600077
0,0150768496432435
0,0154773536142171
0,011252331287762
0,0109505245763825
0,0177645245168984
0,0122476593435695
0,0010116629919829
0,00735480684881868
0,00804161852754868
-0,00805574314291339
0,00849066228362699
0,00670250005789935
-0,00425551026608863
-0,00973829191165897
-0,00362995008641386
-0,002788008140767
0,00210527544473543
0,00632775186202184
0,00585306182797122
-0,00146355670927474
0,00660389016307338
-0,00142383255178109
0,00524364938856371
0,00400025771547511
-0,00295540972230668
0,00656890835819338
0,00385686219685348
0,000685820784510456
0,0117503972419879
-0,00305035097292947
0,0102019321221364
0,0203419983473407
0,00649731548676578
0,0242645274806595
0,0255689801331196
0,0114037440110595
0,0211394699520695
0,00986479118265814
0,00636698586805868
0,011334440167936
-0,00306875766280775
0,00548784355751496
-0,00872829309605448
-0,00520390408821586
0,00462389969181561
-0,0100102231640676
-0,00683608660624431
0,00711486580502363
0,00716822621216528
-0,00388825701254106
0,00148751168095405
-0,000310984043465272
0,00488895203984706
-0,00132033083452137
-0,00597235765181297
-0,00115102090259657
-0,00600583119919388
-0,00171116618394397
0,0122465049218934
0,0208931873861427
0,0223125248775191
0,0330969426963195
0,0338633193072488
0,0302287897964032
0,0191495213553495
0,0213536192687709
0,0103009827972253
-0,00159008519341406
-0,00798300149029355
0,00981944874591866
-0,00275440961730322
0,00883940653821426
-0,00669850110853952
0,00608521206234077
-0,00907240672699596
-0,0112585003638111
-0,0090044424297169
-0,00736272919835608
0,00198045509306604
-0,00969155688804924
-0,00157030330151508
0,00540216354017036
0,00609887847558339
0,0141222956369652
0,0151732364124535
0,036859338015729
0,0243024909651898
0,0373041061521208
0,0360459343206529
0,0321525364586349
0,0252065759931838
0,0361071637985204
0,01717005914072
0,00978363081505915
0,0123788183391015
-0,000536789087623534
0,00646015225640934
-0,00416709662154568
0,00487341541687631
0,00482653554288043
-0,00394025606489054
0,0054032068870035
0,00350079732996923
0,00218044891149294
-0,0197318872572305
-0,00413445273883814
-0,00156203113898177
-0,00858189500827131
-0,000591675718736398
-0,00657433418841081
-0,0158020520428342
-0,00838737992605312
-0,0322029455619765
-0,0389651092369425
-0,049171652029801
-0,0384448434414713
-0,0403102349195683
-0,0308400309348641
-0,0109065687291282
0,00321013919565583
0,0198791043604417
0,00939144667305311
0,0182471234878238
0,00414924033061377
0,00469643312151761
-0,00190044069321272
0,00491210936202168
-0,00998511122178996
-0,00629158816991047
0,00356139474488578
-0,0103682024253845
0,00060744860201387
-0,0098628677404941
-0,0158771715393505
0,00845173016862393
0,00318913010930684
-0,000881075420114698
-0,0146010339138349
-0,0246708271605191
-0,0357531397576794
-0,0559176809961363
-0,0922570292723122
-0,101830158411586
-0,0977093252267753
-0,0853174195888138
-0,0676480541521847
-0,0409958454094678
-0,0202439890178045
0,00525884920160345
0,0145251059917603
0,0171169147719181
0,00120682992466817
0,00708529990056414
-0,00618099691789793
0,00674238882666492
-0,00502350878416661
-0,00982083426180592
-0,00710115696611714
-0,0127156217210125
-0,0086340705369871
-0,000917891492351863
-0,00605733493650399
0,0096766041526726
0,00417972996968123
-0,0119064297882061
-0,0212965693631147
-0,0189011847797678
-0,0258408440769596
-0,0370237657699835
-0,0614424278553391
-0,0769446323502085
-0,0724736228877031
-0,0628517668804751
-0,0503919161405113
-0,0297411468977112
-0,0214063199959378
-0,00643296456574299
-0,00324534496531919
-0,002920980180046
-0,00123523195711067
0,00409386602321943
0,0080397185095402
-0,0098790217779176
-0,000917552335595368
0,00720388166223989
0,00564485739726294
-0,0135366487741486
-0,00857716181755968
-0,011493625174794
-0,00136659108426368
0,00617268393025837
0,00500666491398312
4,78450064668822E-06
0,0106889787519999
0,0165480044236112
-0,00112523900089781
-0,0162176785310423
-0,0283554325079554
-0,0417412219580932
-0,0326379836268516
-0,0359207593678827
-0,0356918462935026
-0,0355556055996268
-0,0306599214881228
-0,0127387079695015
-0,00268290358166589
-0,00707439303498621
-0,0094042988764412
-0,00976089625023197
-0,010704570408453
-0,00175696336226805
0,00153959416354443
-0,00958154759398908
0,00288039170759049
0,00103801819913138
-0,015534773633865
-0,00596327213011369
-0,00417638952601556
0,0112604693965474
0,0019460376202166
0,000302863426604881
0,0151557287636656
0,000465563760510549
0,00314114728588751
-0,00528883572347702
-0,00820496471177545
-0,0142967188834166
-0,0250283328742018
-0,0195106549209777
-0,0280933949554962
-0,0349301751836732
-0,0350625417987666
-0,0237702989635842
-0,000789251395328666
-0,0103168617534437
-0,00412608452054221
0,000392941108903295
0,0016054712629305
0,00770219024607614
-0,00718358687958006
0,00209842503688967
0,00549966006659885
-0,00933637733431302
-0,0120730875045485
-0,0128158754074028
0,00109092097095865
-0,00329946219577835
0,00362676830295605
-0,00981927169246506
-0,00476372732581358
-0,0105396589641986
0,00823489156019515
0,00130719806266449
-0,0204782772610108
-0,0230604618239993
-0,0166015270839825
-0,0431836430537746
-0,0519709821624421
-0,0447382473234099
-0,0216461724884035
0,00201883895369006
0,00952845743835934
0,00286148804534879
0,00167025831558775
-0,00215189902133966
-0,00884078087621461
-0,00157958194321756
-0,00554124019481606
0,00130717991901841
-0,00409233131075299
-0,00567712469145522
-0,00194651263351213
-0,0107634904251077
-0,00869233701939634
-0,00943922351288247
-0,0190757006892386
-0,0233510266654522
-0,0242434462910009
-0,0115137108940845
-0,00474002012217615
-0,0073195854995187
-0,0215670879372926
-0,0176373011321667
-0,0290039852872309
-0,0502199165375948
-0,044843097614504
-0,0343018909248058
-0,0217667734970584
0,00744348437710948
0,0134415667391712
0,00785634071368695
0,00943640538950615
-0,00217434317488522
0,00860787192447741
-0,00702917650183608
0,00459564315624703
-0,000777025299551061
0,00433244457031895
0,0022254220999453
-0,0187301925955997
-0,0121067613618855
-0,01910275401663
-0,0249512294754515
-0,0159157176709467
-0,027114279334922
-0,0352212504779138
-0,00440537768290122
0,0164854076858811
-0,00157681730599766
-0,0133013665759572
-0,00642611577730926
-0,0205756683241003
-0,042383890998071
-0,0524507036019864
-0,0227116507990906
0,00243106431240274
0,0127283188949844
0,0135811436090717
0,0205478521155038
0,0196669450433873
0,000488927876612622
-0,00482907146851743
0,00493630518927146
-0,00873020831452224
-0,00774674841746563
0,00573618039347031
-0,00337272430071833
-0,00863346642327327
-0,00836023081072397
-0,000535454201762051
-0,00429352695548703
-0,00412940748760376
-0,0178129714355723
0,0058074467826344
0,0207047438143727
0,0244668311566857
0,0230703832375201
0,0180811460689259
0,019970859544384
-0,0151426105371214
-0,042530017972861
-0,0359757366370427
-0,0195613755970383
-0,0074775579496741
0,00737792262067245
0,0268282808019694
0,0151293390512231
0,00639481566692728
-0,00438962383395181
-0,00589588797217946
-0,00657292049921393
-0,00377042560328812
-0,00431146921829044
0,00725080343261748
0,000815141620349509
-0,0116682348127974
-0,0036202224635661
-0,00761711549887374
0,00436661242180537
0,00906631775906836
0,0115534225715687
0,025427850129393
0,0271185617055324
0,0282486054237535
0,0352560517920911
0,0485113945401266
0,0242163407438477
-0,0062156664028588
-0,0381189273401385
-0,0290815822702247
-0,0338462373293185
-0,000637743443322265
0,00123865803122936
0,00810900333344943
0,0157089445665434
0,0149578173995019
0,00243812289435255
-0,00248280021160607
0,00356244195040179
-0,00406118702381039
0,00132329502141956
-0,00811985859529257
-0,00645626326770606
-0,0090510815984824
0,00507051864322055
0,00832814319294729
0,0110185737279808
0,013011712255081
0,0242919754086225
0,0369391246428362
0,0422589297181782
0,0515892342414269
0,0698532054861546
0,0637038811869048
0,0369103981008572
-0,0112493917616476
-0,0400001391609634
-0,0329551122767228
-0,0267115026555428
-0,0143985863146847
0,000339129228912054
0,00855726353863984
0,0149624100410731
0,0055285081684213
-0,00243500546436003
-0,00602105792319029
0,00816737860455183
0,00804356894364747
-0,00398114951135176
0,00574622266915381
0,000129583781980186
-0,0134576728609342
-0,00156721953955374
0,00610078236816509
0,0089257686829196
0,0252730173725857
0,0416867751336658
0,0471587400558077
0,0642069614459698
0,0685186938279276
0,0744353354331495
0,0711427340190349
0,0203149964992679
-0,0168438174979798
-0,0271847081376268
-0,0250624943521807
-0,0214645379745535
-0,00626142912013323
0,00435339022898585
-0,00587721044462535
0,00567363459354136
0,00363580958333121
0,00170884558858172
0,00305729572930494
0,00226948255643314
0,00536143083583532
-0,00167590638887159
0,00758739841516713
-0,0153638790839052
-0,00780151204289533
-0,00116781806559649
0,00741557897339355
0,0107060563596564
0,0277005982530307
0,0440944031535873
0,0528801572920853
0,0687926637340931
0,0844630024149244
0,0629653111951325
0,0641916966916854
0,0289779608602015
-0,00325230391906748
-0,00988596648775396
-0,0187437316165394
-0,0179650170527674
-0,000274855070781633
-0,00348576384389735
0,00394364928815661
0,0202978075432558
0,00586755507146467
-0,00166983968090026
0,00262867697256227
0,00856873621110882
-0,00904275366080826
-0,000671564930562304
0,000151308772312793
-0,00524088429688403
-0,00768584469281745
-0,00524166485487796
-0,00328461125232542
0,00452997629161599
0,0310128484750992
0,0517731142453831
0,051298292717617
0,0728195276616404
0,0718360662923715
0,0684213924602934
0,0508134614487864
0,0311292143675989
0,00740450934269869
0,000773623984641599
-0,00886853836255802
-0,015240159034457
0,00181697124922786
-0,000270822871325427
0,0020381182213465
0,0154630308241792
0,00594392430599276
0,00206108037339712
0,00507779527096561
-0,00806634184450031
0,0063930182607812
-0,0057583606485686
-0,00969852234833992
-0,0125466908358381
-0,00481911372648683
-0,00913379100461608
0,00711014446519428
0,0202640194129014
0,0314715499446656
0,0328258039011882
0,0556005705184349
0,0723388901355208
0,0672195612333947
0,057087970707138
0,0316710153811321
0,0279243964576848
0,0185096475205679
0,0121253064892961
0,0118198615848137
-0,0124459669432046
0,00268868730120626
-0,00356354028430506
0,0131006815580512
0,0153111118379342
0,0162052596475845
-0,000925336807061386
0,00951780877604177
-0,000156484417272721
-0,00285165433913092
-0,00728308074154786
-0,000372557750925948
-0,0108560127235302
-0,0019593097477828
-0,0162336213049269
-0,0113463291370522
0,00373059717197765
0,0198717102452926
0,0270153873916012
0,0331406223674167
0,0497065672479361
0,0507786943896631
0,0461111815283719
0,0344050759629971
0,035311224783464
0,0261006518162687
0,0146788169932182
0,0115965268519049
-0,00727542428064231
0,0010979530359219
0,0136748092183132
0,0224419751129375
0,0132587432623694
0,0086081076309967
0,00362823990832828
-0,00653799417478532
0,00536452151645764
0,00527967142309881
0,00390067157530928
-0,000229603201297905
-0,0022489097394983
-0,00357967049099319
-0,00845093064535356
-0,00575031336539962
0,00276785450953418
0,00575289878065253
-0,00377601717181035
0,0132621814968606
0,010059066547549
0,0201385989949889
0,0158108123841233
0,0128207608241233
0,0218573456336562
0,0149510144775195
0,0064450694317384
0,00773736708601405
-0,00264856691850055
0,00567796602187328
0,00916175120682893
0,00611143652025994
0,00404389548679733
0,00946928992954077
0,00924181936239877
-0,00973681888329361
0,00310055524483486
-0,00594192629491069
-0,00753250648152665
0,00367627067735019
-0,00546735224977759
-0,0156122712057254
-0,0123482025945626
-0,0116132976271226
-0,0295004925111588
-0,0295945912942899
-0,0182836598884414
-0,015609962197225
-0,0217762230061407
-0,0160125151715832
-0,00314132748126423
0,00574315192839444
0,00543363349023194
0,00790485290033252
0,0113800168189685
-0,00710087978014404
0,00332948848868195
-0,00943771597020638
-0,00938785740320452
-0,0109003826755047
-0,00399177599021507
-0,00508302261215014
0,0102058071456407
-0,00425636717340376
-0,0064664893487778
-0,00616939272553166
-0,0086451124300459
0,00462662615592828
0,00408630932709564
-0,00521551172860941
-0,00269301480559479
-0,0175495544015683
-0,0255113081602933
-0,0329475617461638
-0,0363709511076178
-0,0400720759457054
-0,0373819644722188
-0,0385080470093136
-0,0240567903098609
-0,01340557801845
-0,00710180508203614
-0,016107522667716
-0,0270797219877034
-0,00746762808291403
-0,00871314391621152
-0,00973048254796588
-0,0186795846391596
-0,015108683718707
0,00423069178637113
0,00309996720287019
-0,00541295723410383
0,00170594753014333
-0,00869871555766962
-0,00822966918266829
-0,00321270113494839
-0,00805523894700534
-0,00925667810344798
-0,00890705256756968
-0,00746334741000245
-0,00462567576734996
-0,0274496481127703
-0,0371099345668511
-0,0396309949235179
-0,0296075991259076
-0,044107213493376
-0,0489345788380039
-0,0444363964277774
-0,0288602606291574
-0,0218096366101624
-0,0306582524393926
-0,0205383639766805
-0,0214595880375227
-0,0209400617654806
-0,0134186860039855
-0,00940002457981747
-0,0124067267430977
-0,00809052189487078
-0,0100028156093254
0,000613618656447505
0,00118960448137614
-0,00760716871247029
-0,00999779646284776
0,0074369654047475
-0,00754819316675337
-0,00418453184016206
-0,0037314141205614
-0,000201293192072639
0,000348054303607703
-0,00641766416231611
-0,00701100299568945
-0,0117518492758357
-0,0183325671157292
-0,0117549736822781
-0,0111420131820108
-0,0172048573447271
-0,0184525404569456
-0,0221792898193452
-0,0164136923210557
-0,00633616316161017
-0,0062484241529527
-0,00895966625898597
-0,00680986397540617
-0,00647881208170992
-0,0034088242576783
0,00368652970926157
-0,00212087954718455
-0,00920693283532822
7,3839840513578E-05
0,00202180449479344
-0,00514032639336787
0,00813229490915886
-0,00942594313035996
0,00257405699816256
0,00832561922608278
0,0054962621102589
-0,00705422818249665
-0,00563227822672122
-0,0090850856781405
-0,000442803213323983
0,00750641640510924
-0,00016804830833026
-0,000991774117199364
-0,00646989801622785
-0,0074182699274956
-0,0102977573221026
0,00501020743570671
-0,00584950853418316
0,00713759103019796
-0,00774806980729495
-0,00927733813588057
-0,00961720024041717
0,00805044658122707
-0,00362858500818444
0,00708027950352071
-0,00781136077726789
0,00416397136364317
0,00383683684926333
-8,05083522948009E-05
-0,00139419029997391
0,00794950135888043
-0,003742238224364
-0,00860819936665157
-0,00817609579217438
-0,0062221789528719
0,00256853407834123
-0,00171535024964965
0,000660276762517297
0,0026818244963334
0,00732585740151157
-0,00457860249052843
-0,00598377663382001
-0,00992018897143049
0,00558568760971461
0,00581616302757345
-0,00685913139807951
0,00906089276962955
-0,00634256148540534
-0,00832112166952394
-0,0033001497542952
0,00794548704193229
-0,00704036984454858
-0,00712681921065171
-0,00268055317582588
0,00103265022441403
-0,00563525469770434
0,00987281252624132
0,00415528475966085
0,00549377749464185
0,00614229870780478
-0,00864066637471165
-0,000782165221403541
0,00486059997389243
0,00281253630852971
0,00210594932018111
0,00203035695989009
-0,00101746334381759
-0,00190534705862263
-0,00901143154991488
0,00206200948031749
0,00262162629714862
-0,00471834343109557
0,00235771232699872
-0,00935175870949492
0,0073597123850149
0,0069990535500455
-0,00957159794786746
-0,00731630834619877
0,000620366277694723
0,0039458526034081
-0,00687225354689744
0,000506532849048513
0,00215795851878727
-0,00678035859799961
0,000660322658093798
0,00498987120342901
-0,00661517258474682
0,004072605298563
0,000793298948618539
0,0094154150685423
0,00271874044150227
0,00425034155918393
0,00533074720751216
0,0067551713053705
0,00644727123825595
0,00697937827343505
0,00029313711223815
-0,00127521047573602
-0,00507897642086488
-0,00496867260035997
0,00522552770828964
0,00183009489625717
-0,00667198463986781
-0,000140817191663682
0,00418254746820728
0,0026685778128583
0,000653098596324362
-0,0077204037815045
-3,61152773322759E-06
0,00405850542443342
-0,00605462002384226
0,00719884075093961
-0,00644732432274489
-0,00844563340695837
0,00301508802928379
0,000851896973680806
0,00705726303503454
0,00163114099646679
-0,00778319000561148
0,00755522484531307
-0,000499964701085247
0,00614410388891446
0,00924525492023192
-0,00578642592484292
0,0127307242544993
0,0127011456446615
0,00435017799208402
0,00986260418498497
-0,00196965150655432
-0,00667858094114272
-0,00090576842354367
0,00368821500563178
0,00919164610557538
-0,00347878422036186
0,0094297103886891
0,00197698157445391
-0,00229718837245283
-0,00759771920689148
-0,000947231988522614
0,00795506894493246
-0,00570613541440393
-0,00889408818153931
-0,00591423482033487
0,00673652019156211
0,00541983891266368
0,00542289253779742
0,000718634101103994
0,00421843605036608
-0,00550485155172574
-0,00357293474386453
0,0106591692940033
0,00878826844616609
-0,0036354933948827
-0,00207490969436698
0,00652180668676408
0,00966688238146524
0,00299881354475392
-0,0102194935741763
-0,00147558106938003
0,00416237194441164
-0,00922098170812691
0,00305211073731446
0,00628448042793824
-0,00200102731045691
-0,00426454670990978
0,000658145977083212
0,00803963412355023
0,0067921931525693
-0,00813533988694443
-0,00902085628314915
-0,0067900171555647
0,00466423032608382
-0,00747448001562284
-0,00620436785855223
0,00201109732862436
-0,00310320792344303
-0,000223229425075624
-0,0114696725457391
-0,00729824952632918
-0,0120887238569232
-0,0103850466151292
-0,00266486625253888
-0,007684059488471
-0,00120692894245679
-0,019828295331101
-0,0114917342361772
-0,012943261660432
-0,00634073896692601
-0,00623648516237522
-0,0155921773104191
0,00349137840827754
-0,00749295794321557
-0,000368781654660839
0,00219161820378142
0,00512706508299449
-0,000679415016008875
-0,00654186468410393
0,0052377641612643
0,000477555989001235
-0,00549586742731591
0,00690136040091632
0,00245875144064295
-0,000148805051648978
-0,00983514431485352
-0,012590862212327
-0,0126715956539938
-0,00512756300693196
-0,0236090466652014
-0,0157616025319384
-0,0252348476054251
-0,0265274092143791
-0,0221706032949421
-0,0198347858430623
-0,0272858703668164
-0,0229891026402523
-0,0206013045573639
-0,0204588964762261
-0,00203379038642905
-0,0111366798001935
-0,00112612869337259
-0,0122274693420494
-0,00720593319870689
-0,00557115210939382
-0,00849276267191199
-0,0071415961330912
0,00703038424788693
-0,00726568912642614
-0,00115852666668648
-0,00226263021705616
-0,00895882059457721
-0,00934440840537659
0,000192159907950761
-0,00886609532446905
-0,0216995683418107
-0,0217178102838241
-0,0191750181969715
-0,0341034533093911
-0,0327275507191559
-0,0255027577575728
-0,0256964243155196
-0,0283945819434955
-0,0362060094939315
-0,0208479957787311
-0,0314815932274829
-0,0181600177447993
-0,0199280155011969
-0,00984485145148278
-0,0137925780870537
-0,0114139473257961
-0,00409010224275502
-0,00430032668147436
-0,00474399571460407
-0,00160822149762882
0,00448234353102868
-0,00866821244137629
0,00117385601117572
-0,00312678079235716
-0,00316450199992692
0,00519198572747375
-0,0122496739869853
-0,0205384437241462
-0,0225686351964658
-0,0212044475587072
-0,0274794487105124
-0,0371376963485263
-0,0274394953425827
-0,0346040182730854
-0,0239401846497058
-0,0412949849918876
-0,0304341763541934
-0,0425793861155434
-0,0260541402366119
-0,032588189599731
-0,0175901575338666
-0,0202217663751609
-0,00214115081481877
-0,0107624496285662
-0,0128212120837504
-0,000757864949627139
0,00819324604312269
-0,00354258838174961
0,00770996007689006
-0,00644232285167808
0,00898019856254728
0,00518269264644226
0,00566938581747045
-0,00716380347062364
-0,00255423467540596
-0,00526986316744625
-0,0175850691906778
-0,031279021806878
-0,0247171669643761
-0,02849810309355
-0,0215923513840687
-0,0151839780100708
-0,0244138113029906
-0,0258368554869572
-0,0375111487692905
-0,045490757150227
-0,0221001267036219
-0,0319876177432678
