-0,0088195747876631
-0,00359936462417215
-0,00998129592276239
0,00794461150557949
-0,00229197112484461
0,00848120775003042
0,00529603327405454
-0,00153725476541429
-0,0068898707800032
-0,00812339027324849
-0,00269160671750624
-0,00968928032540217
0,00294230397452089
-0,00905114914104818
-0,00882694536375514
0,00416197442271632
0,00715125492641295
-0,00395078384967092
-0,00103388928390755
0,00752149959910731
-0,000244737533035101
-0,00825343714945644
0,00681700269543426
0,00850935227168228
-0,00579143437360946
0,00208697145436284
-0,00794201458708477
0,00431288081887778
-0,00931549311583652
0,00182796477890944
-0,00751652787323879
-0,00704062837969541
0,00885096792932756
-0,00330275942594537
-0,00360850076504169
0,000486838171326029
-0,00822082939271436
-0,00862170598818134
-0,00734704685520394
0,00126013738845873
-0,00743022321828037
0,0043155508291567
-0,0071834723423183
0,00533434770043135
0,00874669294124898
-0,00357722613542483
0,00348162171470642
0,0100924025542562
0,0023274981123168
0,0060171471571693
-0,0095764321007381
0,00252907521400198
0,00263317459851186
0,00240745250713427
-0,00784390567701492
0,00943386236179334
-0,000416367319606415
-0,00849064819444467
0,00373703678116038
0,00558859791319046
0,00641444630281879
-0,00900432181226528
-0,00204454728211714
0,00184429219310741
0,0105147940883509
-0,00368155574478368
-0,00591569942986871
7,11521600449117E-05
0,009391328063061
0,00689004228946169
0,0101551419473744
0,0150277424820346
0,00404911748396495
0,0174258756126358
0,014511267336557
0,0143622355094579
0,0156777322311459
-0,00501227016529827
-0,00877813287182269
0,00849890862127608
0,00900069234835547
-0,0078275050395395
-0,00788165868161323
-0,00525850099290651
0,00143389669779404
-4,42626001519435E-05
0,000329246642361632
-0,0034724353606149
-0,00525520259205854
-0,00267081243943619
-0,0081191716074904
-0,00773745978016627
-2,39659160137888E-06
0,00340561674815682
0,0138107664011055
0,0001698830235294
0,00185809775224481
0,00661124780649403
0,0100588969884538
0,0111048906177571
0,00495444209423154
0,0125342703398833
0,0185484236688916
0,0159680775672353
0,0130133106125074
0,0069256033635689
0,00567371895869651
0,00834941336886087
0,00915650516315026
-0,00339662889378648
-0,00987371868068791
-0,00227197127056866
-0,00877072560543694
0,00554073434642275
0,0067845425432093
0,00417136137315998
0,00888728337381361
-0,00629998882855232
0,0115827742743827
0,0027407639107177
0,0106591908937381
0,0161074824368554
0,00279302705853442
0,00657123468079304
0,00796087055511809
0,00564992164053282
0,000812626621003399
0,00732855852867078
0,00291583965712236
0,0169026916631194
0,0122746696748664
0,0156084788313847
0,0141920911161039
0,00740905161009389
0,00793411128929046
0,00145994325044196
0,00371399886523683
-0,0109386255279131
-0,00895336328205854
-0,00303361510987424
-0,00895190533201765
0,00540817456106104
-0,00119864578208601
0,00743843915208772
-0,00368058420559508
0,00301562135271993
0,010742907697274
0,00591567166201639
0,00770197512381058
0,0039745149902255
-2,22545442535204E-05
-0,00173046944066822
0,00676190034582505
-0,00667799017555402
0,0111402340161627
0,000148935469795186
0,00262603016280696
0,021054339062235
0,00706931483872529
0,0027191229481323
0,00290262289465767
-0,00746225861276108
-0,0111963818172724
-0,0191323842749038
-0,00359937930422101
-0,0033279052513836
-0,00991675077391607
0,00485716722830428
-0,00810160141349845
-0,00504913534706715
0,0072270892097501
0,00623976229388555
-0,0112325912400339
0,000203147285250793
-0,00351274874456969
0,0112690872702332
0,00227168958331615
0,000878763619486944
-0,00768446200372701
-0,00263977072046093
-0,0112234154859792
-0,0140040578912301
-0,016911078030194
-0,00712585867452754
0,000890660620551197
-0,0140363778831734
-0,00935195332539813
-0,0255621222719205
-0,0289170259082653
-0,0361808881984732
-0,0368086027813987
-0,0202598978532716
-0,0281592760474471
-0,0150350827320572
-0,00300509927059885
-0,00126654619609248
-0,00662286342305248
-0,0061323329707463
-0,00993846161924701
0,000451157722965388
-0,00315842104148605
-0,0113854741280105
-0,00353500773642973
-0,00324265564106889
-0,000955309207589367
-0,00346151078860965
-0,0204911087095176
-0,0244977835992445
-0,0314020215805673
-0,0311085183215144
-0,0199566760307278
-0,00977999185218725
-0,00344927704492941
-0,0241972568134844
-0,0222660034941333
-0,0203055351771518
-0,0336576276277786
-0,0320432334729156
-0,0312749349384114
-0,0362283352362944
-0,028027403288473
-0,0306299843100251
-0,00594352579982654
0,00752655757917643
0,00840519861646692
0,00797415333700803
-0,00235925599517791
-0,00479133248810805
-0,0129632125518815
0,00597759031154582
0,00646498824795964
-0,00373437734871144
-0,00098668388606402
0,00317082329145653
-0,020329195740219
-0,0369073333670758
-0,0447493775820916
-0,0326776584514793
-0,0210825299083725
-0,0458592339273117
-0,0538692100437484
-0,03822328493028
-0,045720361058666
-0,0276334541415796
-0,0386847779195379
-0,032815253721939
-0,0437823399590359
-0,0427296969052012
-0,0403321806233399
-0,0271224167789342
-0,0125690930788796
0,00350316009726176
-0,000850166410900117
-0,00237034541642054
0,00595905267235505
-0,006838094566746
-0,000636246152496219
-0,00319223715456437
-0,00426644017813329
0,00112158531840842
0,0137951594206917
0,00561959946104286
-0,00400891152330513
-0,0213591583995971
-0,038135168653515
-0,0647773732065133
-0,0689680846934621
-0,0800802827885537
-0,0641700157508261
-0,0497548199447469
-0,0404957902296268
-0,0323500928212937
-0,0265562953081585
-0,0261685415811919
-0,0338012025718374
-0,0368671197263705
-0,038524953721415
-0,0368090442282666
0,000516478216964924
0,00278731777189725
0,00640656135816205
0,00471184115098493
0,00503675218614146
-0,00828514878024615
-0,0030447752194212
-0,015319020268373
0,00332417312131458
0,00850571672509423
0,000861392099981322
0,00218329827046812
-0,00704483009885569
-0,0289451394325353
-0,0430337761085447
-0,0756529763101137
-0,0868800122957147
-0,0645875571185301
-0,0393906552261958
-0,0184708226555182
-0,0032486767646456
0,00116661669267441
-0,0153205094952433
-0,00498640799801995
-0,0160376377949584
-0,0311736149533356
-0,019719610942089
-0,0272403518927162
-0,0115573189489518
0,00922618509005151
-0,00974807060495377
-0,0101100835130785
-0,00387542029009731
-0,0055394135958669
-0,00283717840424231
-0,000536314670528909
-0,00833756283125149
-0,0115979814876513
0,00125669398802379
-0,015288417714542
-0,0386695268446771
-0,0583076520911646
-0,0651795425394616
-0,0693786986457219
-0,0373753867858798
0,0166250860640738
0,0526074309881806
0,0542173839627497
0,027769988023882
0,0392487892327024
0,0458679266707648
0,032020909959329
0,0168805976103804
-0,000508421725352395
-0,0125757756375798
0,00209812079003532
-0,00593855698792902
-0,00518606689646162
0,0015127477008118
0,00355073183079443
-0,0018331389091637
-0,000144980059026832
0,00393109416800072
-0,00465139458514234
-0,00861692651148557
-0,0184106426143688
-0,0276263678154854
-0,0350968754092745
-0,0462186284787578
-0,0696067479639829
-0,0475180117927365
-0,00359289131902565
0,0398231337716986
0,0943918305967614
0,0874160291860456
0,0778954583400208
0,0582892874762451
0,0560142346322895
0,0574110982950812
0,0398372291370377
0,00924666287691529
0,00739393930333327
0,00051364261886095
-0,00234068416273919
0,0093043841191259
-0,00402084735954113
-0,00494830960678014
0,00623049188931009
-0,00322142567980394
0,00576236512086378
-0,00338259092248213
-0,0162131292404988
-0,0150731273472506
-0,0108001177623651
-0,0210171624272645
-0,0444961501249666
-0,0572720299031975
-0,0181973516913824
0,0131825372943872
0,0693091009809402
0,101753301362013
0,130046152532735
0,0998453450087181
0,0734641258683207
0,0540749628272815
0,0538755447654471
0,0538591680108912
0,019934538378989
0,00516130429539417
-0,00800555453735282
-0,00934677658956662
-0,00693082305162253
0,00626789992934044
-0,00674507602471802
-0,00482880697323037
0,00286190522320213
-0,00683817939005828
0,000721416139719277
0,0046891936168568
-0,00788334326620972
-0,0125778158430473
-0,0103444732632442
-0,0147594178954368
-0,0367228227581553
-0,0121589841083175
0,0365988691831026
0,0672730176433496
0,105715413222589
0,114733435728455
0,127962480697248
0,116064943160381
0,0911378420897841
0,0481143964578101
0,0248795928453006
0,0233869113840055
0,0100865980582546
0,00632731605281916
-0,0163101245381398
0,000797856993712401
0,000455967660662387
0,00457210903841048
-0,00538081485997374
-0,006365893681396
-0,0100535467386359
0,00243851115138225
-0,00398056050500273
-0,00316436340019649
-0,00869769541008665
0,0109052471986287
0,00619267019753356
0,0139024531548931
0,0293836287129661
0,0380739188272071
0,102351633326132
0,12216700351181
0,129950738798594
0,126410227515355
0,131156847001971
0,120987637396466
0,0783475963167418
0,0182392323562997
-0,0208592846851084
-0,0153013002188358
-0,00413001899219489
-0,0213338661535404
-0,0150797999750701
-0,0105208457853125
-0,00545663101237426
-0,00262279120509201
-0,00027854183491464
0,00425420490346196
0,00915084592653029
0,00124882895230595
-0,00675098416844419
0,00201271831936548
0,00047550939319576
0,00199552597285585
0,0393874536245151
0,0673086883636148
0,0960236773894956
0,128475348972292
0,154221420557291
0,164262769113725
0,145288848997588
0,128674059631042
0,115511667172598
0,100896956127195
0,0563982011812135
-0,00357723944251083
-0,0472936117467345
-0,0372284908262638
-0,0151944565170843
-0,015849494971207
-0,00689562578617962
-0,012124650562809
0,000728179191957664
-0,00297212790023368
-0,00457863434705993
-0,00985088285983116
-0,00471293583047954
0,00718165955020508
-0,0110461507703333
-0,000585363177246145
-0,0248117771829593
-0,011374639881846
0,0298222627193745
0,0838295220200278
0,135725907952249
0,142605144135024
0,178144322321811
0,168906024287594
0,152558993470632
0,119274132145205
0,0758766555312564
0,0459187425105932
0,00331919632124005
-0,0287265794770144
-0,0403846514319976
-0,0361460552294001
-0,0276953446749337
-0,0175287676005727
-0,00279166187662089
0,000517737556203382
0,0123284861356916
0,00762916048406748
0,00472404759840501
-0,003816411061915
-0,0096552431699433
-0,0095686540027448
-0,00936111022128364
-0,013741989794973
-0,0137578456106688
-0,0261993402628186
0,00201907363516117
0,0603630411310729
0,0951918999232486
0,125362425835282
0,138539968487831
0,140081899577328
0,0994296351984895
0,0696450777774366
0,0247634224745587
0,0131242163330948
-0,00772988652095079
-0,0300002881003804
-0,0371169396373258
-0,0209161494213264
-0,0178804463822786
-0,0159427457291864
0,00875194914028099
0,0159497888587784
0,00468431100607352
0,0103368106264774
0,00369013370723077
0,00477027657961364
-0,000344533910878786
0,00165786390667007
0,00151231041351113
-0,0228739028282136
-0,0266878432463418
-0,0357822952350039
-0,0310323882441309
0,0098181870086279
0,0295042173572288
0,0361144761753996
0,0450436179782549
0,0495476173489628
0,0270213310410944
0,0181548550560545
0,0137845913874966
0,00474142526316341
-0,00294416196713902
-0,025797865376887
-0,00626438160206911
-0,000914644853039704
-0,00774660724083749
0,0100530684818091
0,0134783186786029
0,0115461458696089
0,00910720339515862
-0,00180281951806847
0,0044245587399269
0,00769287663404498
0,00318740069118225
-0,00312889862551311
-0,0165055863016476
-0,0060157869026856
-0,0184584993995207
-0,0411579441577705
-0,0394489281959718
-0,01863599556875
-0,0207230890012235
-0,0282084373088647
-0,0260712253274712
-0,0117882811191339
-0,00681469368729041
0,000906276221687621
0,0109837986908927
-0,00207431313274393
-0,00681848776771752
-0,0226267215393089
0,00316298940403761
-0,00992747541613022
0,000689308435874381
0,0155723146013822
0,022833393034192
0,00920295058238035
-0,00454763740641864
0,00831345555440171
-0,00585295087199179
0,0041070450007757
-0,00535238545195843
-0,00462951387506447
-0,00497167047568984
-0,0165253139346743
-0,0223486295081921
-0,0271479251097548
-0,0287704212381608
-0,0277608708489858
-0,0351408166894054
-0,0326034185339827
-0,0369272554249365
-0,0211689833858742
-0,00104064981434006
0,00533975008526874
-0,0018730647871942
-0,0196271027836396
-0,0180256306818993
-0,02182608800918
-0,00357100235118659
-0,00145729176285918
0,00026755654105258
0,0224066073959842
0,0166165235537113
0,0110923625522536
0,000462832863010192
0,00203712696388147
0,000430415292558869
0,00831857247412875
-0,000202027265856872
0,000331812810066743
0,00325328970275144
-0,0142988285233509
-0,0145758836051182
-0,0128110656838029
-0,00563826172095246
-0,0157746732871944
-0,0237221117453334
-0,0359148268440798
-0,0279592438178808
-0,0269431435211099
-0,0349143744131873
-0,0382439306791577
-0,04885727350468
-0,0480709891005322
-0,0270523731714144
-0,0127640244195296
0,00117227862529928
0,00870373987331183
0,0219964360235444
0,0088901958088961
0,0107740543154852
0,0113069194521944
0,000927721342881572
0,00887497350951504
0,00314364811775922
-0,00478406406696144
0,00241551763956226
0,00705327215896573
0,00385862331188858
-0,00492437257045858
-0,0065675267104614
-0,0224826951961367
-0,0104012379531193
-0,0139398206858192
-0,0267719649245109
-0,0474152871641704
-0,0350695305202477
-0,0283564680206992
-0,0429329056180487
-0,0492808706103491
-0,0401752869543348
-0,0319190003583221
-0,0230861638716621
-0,0177145426455852
-0,0028944544003673
0,0164381396553876
0,0176326999302506
0,00223985541211658
0,00694257600132633
0,00304901658030643
0,00745298378078052
0,00888468308204996
0,0084013289857662
-0,00928817437928551
0,00657586540867382
0,00791015032230069
-0,00104686924786274
-0,0102178140793649
-0,00487895537135077
-0,016415933834519
-0,0128503477656854
-0,0338639556955977
-0,0319956383596701
-0,0215044292836333
-0,0285539274455708
-0,0352294546346634
-0,0323158708092263
-0,0311166022063103
-0,0143556432277811
-0,00143510089024878
0,00221828631836048
0,00763006660833523
0,0116895309252103
0,0180550525526052
0,013592312609628
0,0121295306536997
-0,00688516963219914
-0,0038229241571624
0,00789080150545709
0,00796859449064829
-0,00116519346421826
-0,00184750345155946
-0,00546490438071308
-0,00600419079714345
0,00334918309505314
0,00334754697914981
-0,00893595011424794
0,00228886736627373
-0,00201039904775431
-0,0119506074687265
-0,0171158885987052
-0,0125691950256551
-0,0274699301043886
-0,0230962385985859
-0,0296223364018724
-0,0154437010751816
-0,0137004658136932
-0,00217069744212305
0,000614136354304665
-0,0091851853341734
0,00199269111059196
0,00681029804963644
0,000820971135793936
0,00489308631237214
0,00335548549958245
-0,00837441253979549
-0,00209809878537802
-0,00879507935057469
-0,0061712183878623
0,00691687284825224
0,00557225322144677
-0,00616890131317494
-0,00323034010298237
0,00657949749510511
-0,00927121207446638
0,000612656422402096
0,00304363546356809
-0,0138690348914508
-0,00847067719080515
1,71931283427418E-05
-0,000422742678319879
-0,00970360243712115
-0,0111861117499504
-0,0166136845589931
-0,0130977949811425
-0,0137653909871093
-0,00549658177784923
-0,0119492102769844
0,00450359136673955
-0,00239795298811178
0,00058962764573459
-0,00440362869542917
0,00248494033002548
0,00751646496344352
-0,00074796470994739
0,00928320714239181
-0,00938568881684248
-0,000550924861128873
0,000171781587494434
0,00142833698141777
-0,00258758289394322
-0,00659501656999566
0,00470909971152446
-0,00733988344694471
0,0093661324897376
-0,00265613180374429
-0,00360848591387996
-0,00241503968685785
-0,00142842748991285
-0,000549565571232491
0,00339433334644696
-0,00319654308383134
-0,000475594959454906
0,00757244930017569
-0,00829704888968979
-0,010547635540956
-0,00808008957731903
-0,00351046500253768
-0,000747986251385911
-0,000215751633253386
0,00278836282355881
-0,00230980454585971
-0,00320242317076885
0,00874431271047532
-0,0026632157958407
-0,000249034375999605
0,00146357001339252
-0,00075004371383695
-0,00265070411034427
-0,00826026729227056
0,00116511588504776
-0,00357539740091907
0,000492638084335551
0,0035701697010408
-0,00306479300049357
0,00299168993392572
0,00315132407152621
-0,00558048263466161
-0,00819631649488878
0,00809764887590361
0,00687593494066917
-0,0092245054613913
0,000480764392055928
-0,00660144338226013
-0,000840428467299988
-0,00983439560040571
0,00426643255831042
0,00271943155337099
0,00374327711469646
-0,00154324688554893
0,00689827811759817
0,0045530849856106
-0,00958864272552945
-0,00956433082910456
0,00866363444303332
0,0097222216519165
0,00661388152121281
0,00600477901395592
0,0054095939704
-7,2467353631154E-05
0,00649675267630421
0,00778710734576499
-0,00877072272803961
-0,00208597192384123
0,00985363382022937
-0,000478562559590735
0,00892540942567069
0,00879003448376743
0,00374534873629779
0,000595509485875623
-0,00251431101514398
0,00793093351732436
-0,00572849169411791
0,00094568537854504
0,00286246759801327
0,00199220319673051
0,00721106589129132
-0,00660097978850872
-0,000415258822224689
-0,002828820195435
0,00548453306568998
0,00874413846002153
0,00550667917146658
0,00889306915883131
-0,00515860417385004
0,00661391187520734
-0,0039872632524856
6,07391424788262E-05
0,00481168152565786
-0,00341291392417255
0,00551700018158797
0,00646032676370874
-0,00167996279534614
0,00118345018840203
-0,00874267960145256
0,0106844776134895
0,0119646273214991
-0,0065896066064527
-0,00719152297093511
0,00929374209076696
-0,00912664230770489
0,00592511980238215
-0,0101859527439214
-0,00712750137905222
-0,00928852519571647
0,00885185257574386
0,000266078687097102
-0,000534165906968604
-0,00242473556307365
-0,00332557355674243
-0,00748720941016786
0,0032269610242016
-0,00357685311631923
-0,00176122517586528
0,00439675383090752
0,00759876383662806
-0,0082465575630368
-0,00965594119913155
-0,0114358451298571
-0,0132914497775315
-0,0151890767440356
-0,0106207751781519
-0,0130212278009937
-0,00765819383610789
0,0045349858502434
-0,00218744548400425
-0,00649473547365408
-0,0041661506214573
-0,00469357545732381
0,00216855519131253
0,0024212235231291
0,00546983179258314
0,0100890575934756
1,68402416238541E-05
-0,00405329715273934
0,00920856064887334
0,00873759702720567
0,00255284745830709
0,00809060746870482
-0,00406334168118564
-0,00370822932614778
0,00636523877203947
-0,00834971044339172
-0,00369562750327128
-0,00997947372437511
-0,0165722767211272
-0,0140972461884939
-0,0224355555539584
-0,000916336162576002
-0,00535283896570847
0,0127451703025081
0,014083766084743
0,012750601071793
-0,0170420708447592
-0,00585412853890645
-0,00397739830841167
0,0159154851763651
0,0300382988157021
0,0267173467286276
0,0203973480428066
0,00942402919996411
0,00913564777413431
-0,0106041667055183
0,00350056893632583
0,00407986065181351
-0,00220564967589716
0,00337044298340121
0,00652600767419281
-0,00753776127746495
0,00507762946743274
0,00649789489286881
-0,00704122097583778
-0,01966676667944
-0,019079657101611
-0,0280423487397092
-0,0345884854584548
-0,019622759855795
0,00194169357495004
-0,00726739841555603
-0,000409002184194996
-0,00244803363382529
-0,0316038616074876
-0,0296577827681419
-0,0166477492160921
0,0204653732285337
0,0383589022458436
0,0463661965169005
0,0408757209928378
0,0189080112622186
0,00597399938373881
-0,00803949933766223
-0,00659493986928334
-0,00600330396160627
-0,00220285170348494
0,00592578086799806
-0,00196104766166889
0,00621560797525907
-0,00260821511334475
-0,00264016495172563
-0,00837569959732249
-0,0272692341977806
-0,0385972335211848
-0,0471345505881215
-0,0623749402686695
-0,0421715863227387
-0,0283768663495438
-0,0219564024224271
-0,0411478706424648
-0,0595651813535255
-0,0601604987553823
-0,0546768673817416
-0,0127187675083189
0,00755031671309219
0,0335841666614573
0,0297190179819964
0,00872577342896944
-0,00279627551316418
-0,00389850670339675
-0,00197731152511038
0,00703682664746988
0,00231037312044753
0,00384833270436245
-0,00728569256000471
-0,00151772642896675
-0,00151673118005808
0,00104003070062499
-0,0164849069333953
-0,0190430441330499
-0,0477345526214746
-0,0590756584760216
-0,0716517492622778
-0,0697948256713096
-0,0740788752154608
-0,0576352639509367
-0,055904782894706
-0,0600874433625968
-0,0671747577636618
-0,0662374026335269
-0,0625354247156427
-0,0313260793081332
-0,0129982165893031
0,00743108879438456
0,0083715769003742
-0,0104018256190717
-0,0170733805217831
-0,0223476795270365
-0,0101667834640038
-0,00467372423951155
0,00710317949673427
0,00412995832574856
-0,00458745263380124
-0,00853262028673862
0,00179572913237049
0,000944881205056443
-0,0209667948832861
-0,0226535641799296
-0,0421452022813415
-0,0614017950270981
-0,0753897466007037
-0,0881020477547165
-0,0849012824908326
-0,0511584519681473
-0,0517163030670857
-0,0357268847330052
-0,0306230041967821
-0,0477399257774935
-0,0287129018481253
-0,0322991928862787
-0,0236258841552963
-0,0345305514460743
-0,0310649450620706
-0,0351140174374756
-0,0283089741226583
-0,0305991811597291
-0,00842738724717157
0,00765544042196747
0,00762434423640443
0,00821604931047504
-0,00888401854931143
-0,00877574751346982
-0,00674631935946527
0,00409439656251014
-0,0048789472623624
-0,0264677681418024
-0,041908977044962
-0,0535542832896059
-0,0714757283729822
-0,0796299956913804
-0,0558150821829176
-0,0457122468388331
-0,00922292713459787
0,000314842782022079
0,0264942990045382
-0,0036940153828843
-0,0319110881806334
-0,0395760773658533
-0,0470825104844342
-0,0628130521459667
-0,056723724418701
-0,0374069745227047
-0,0344997308449012
-0,0306106789493435
-0,00966122025262973
0,000764062145229861
-0,00790060789211157
0,00522283587307475
-0,00221107066533913
-0,00284539965800092
-0,0107788315516059
-0,00903782584190365
-0,00154547384706381
-0,0147097169617832
-0,0281661149293685
-0,03830469865232
-0,0584972122939484
-0,0708721434712867
-0,0508448743331952
-0,0213693583052698
0,0209917578109542
0,0747225651287778
0,0785025703980191
0,0278034879724112
-0,026735952196761
-0,0440312965638031
-0,0522752308567895
-0,0566644237688443
-0,0479306328311657
-0,0432577505699908
-0,0168719685152651
-0,0110961397214608
-0,00712551819595341
0,00545681620388075
0,00244641466166239
-0,0078929398567569
0,00165684765007016
-0,00660861288532046
-0,00248121647622726
-0,00528264704024568
-0,00877637701944555
-0,0137459746179798
-0,0307630405522929
-0,02671101754062
-0,0546967366778878
-0,0626012527032824
-0,0687570569178599
-0,0294628268311046
0,0522546115737559
0,12679505643978
0,11672803566243
0,0229038964371787
-0,0355988847362656
-0,0386277814563317
-0,0537057652477476
-0,0426757060464696
-0,0281620968814427
-0,0146705735697807
-0,0102557737829962
-0,0122949092390816
-0,0093542966411516
-0,000954660606505711
-0,00510503091932372
-0,00555487955707264
0,00262588319065525
0,00238324267068301
0,00851338476445225
-0,00864822522958091
-0,0109712747610763
-0,0129083377361115
-0,0116545198036754
-0,0444646053436283
-0,0516570306735469
-0,0800667409419479
-0,0787733599915525
-0,0174200387835708
0,0756124453034203
0,151237467098687
0,106645012121806
-0,00121323568506886
-0,059444245524179
-0,0603492647702836
-0,0657074915992594
-0,0472129489632893
-0,0154920504539761
-0,0185193075715213
0,00066512524331031
-0,00447732223174653
-0,00247534903400191
0,00742754425867229
-0,00314181666786226
0,00433964397924199
0,00323013222247234
-0,00234197443152432
-0,00423257671822749
0,00513278257619364
-0,0102782649207321
-0,00493148904906137
-0,0304086410261728
-0,0389365400632604
-0,0582766597473267
-0,0883323914605321
-0,0596733058289756
-0,00514702573687676
0,0936583499159886
0,134184065615395
0,0771207089781406
-0,0402119480267695
-0,0707285955726327
-0,0752473869634166
-0,049843704507876
-0,0292302976764603
-0,0183712799436486
-0,00852018251662546
0,00150034259324929
-0,000229322496991088
0,000474794573027204
-0,00631612235889865
-0,00395905340575343
-0,00351385478295281
0,00508199655935598
0,000890799202737323
0,00478272545961252
-0,00679568329794174
0,00423587075717806
-0,0178589312686804
-0,0279107199828484
-0,0471896399079972
-0,0698089960515348
-0,0736427781034103
-0,0603814954546528
0,0132648789014946
0,0831270955623484
0,118199510849252
0,0366918748916864
-0,0407780743761611
-0,0935869010165869
-0,0668299191610607
-0,041358116403168
-0,0207774822055223
-0,0167690409293787
-0,00482085892544116
0,00181927790861409
-0,00948844135795375
0,000309245171272417
0,00779248839228369
-0,00469643868631767
0,00927810752126217
0,000199304949777101
0,00424755576933888
-0,00430418919764926
-0,0115497094895337
-0,00702038817221077
-0,00679023411605404
-0,0188018341674842
-0,0462595619069645
-0,055031891507965
-0,0513688031502258
-0,027730923844963
0,00667444949126711
0,081929842908247
0,100855586643818
0,0289450380646295
-0,060081837132613
-0,10868769371722
-0,0707719270747701
-0,0531237274354788
-0,0290193334279682
-0,0165387193900872
-0,0225395085482987
-0,0153798338557321
0,00280186714113263
-0,000707820249383298
-0,000614550043175077
0,00602815614799678
0,00870296235239609
0,00358403976656449
0,00256527224136445
0,00396210511345139
-0,0101120964140972
-0,018566553942058
-0,0175811771484095
-0,0211556076329148
-0,0385258595226806
-0,0418259854470617
-0,0351923980352207
-0,0196687827392059
0,00480993302122068
0,0942650549456631
0,0989380208604916
-0,00846669269143627
-0,0727419479998352
-0,0994666725824633
-0,076028117576961
-0,0600424711497204
-0,0431731015252348
-0,0113674018108071
-0,023596349143122
-0,000730203803368799
0,00155464799915802
-0,00265579568358435
0,00220481122752907
-0,00368615921927166
6,30813604514495E-05
0,00315005071663147
0,00155833222480123
0,000332650992955093
-0,0121419436919288
-0,0188949521702604
-0,0159754613526487
-0,0305781122788678
-0,0227394442550854
-0,0291833539265461
-0,00687830277403304
-0,00363321373131764
0,0295485618470836
0,0931137833548387
0,064601343850332
-0,0206580588774438
-0,0844970656159862
-0,0881545046502669
-0,0816541315684917
-0,0480170990446692
-0,0272043929041473
-0,0186050991632537
-0,0184365316011398
-0,0164029969613176
0,00172692687241592
-0,00721241570024753
0,00478958690584784
0,00910006575771444
0,00344810655618982
0,0051932056508318
0,00798997725455494
0,00128914035638889
-0,00665452111310224
-0,0222678925541906
-0,037567244928327
-0,0300213830144519
-0,0137451028598243
0,000261859751223338
0,00748090399680213
0,0178588870703952
0,0391561123103252
0,0579893293450294
0,0326589617750355
-0,0257422257985285
-0,0714540737715676
-0,076789790025488
-0,0609361965420281
-0,0554586739953847
-0,0336617574949589
-0,0265068007116951
-0,0172820031065283
-0,0205782106167665
-0,012965889927108
0,00586028361145562
-0,000544007308942404
0,00618276017338552
-0,0035057581042273
-0,00241343452312723
0,00109319369524942
0,00284302626002917
-0,00869569367334198
-0,0104736874218574
-0,0286213252849134
-0,0391867353507507
-0,0199104228570497
0,00945382265664346
0,0225553270191685
0,0141250578204053
0,0177197194687567
0,0191322205100215
0,00333509140654989
-0,023192080132061
-0,0435907729411322
-0,0616003747601092
-0,0547978327334158
-0,0445674011307448
-0,0405167582354275
-0,0253323728941465
-0,0143816763633249
-0,0125000560270463
-0,0108066150586061
-0,00285537266114228
-0,00320398224712243
-0,00698272014538433
-0,00866414289859316
0,00401510448948706
-0,00503151008047146
-0,00280523722461844
-0,00130399095464001
-0,0141018543211503
-0,0180154941954329
-0,0213628081797371
-0,00122072611718067
-0,00321365580419786
0,00787382987207921
-0,0113353913812065
-0,0228470112302031
-0,0295572376183955
-0,0188664082005661
-0,0175053162404773
-0,0199895006856237
-0,022525256930533
-0,038823735282216
-0,0510892315517247
-0,0295909700344905
-0,0380520721904452
-0,0169699892343852
-0,0201176025422797
-0,011354325111603
0,00665481448601594
0,000186229117265503
0,00282886976320253
-4,99998478604584E-05
0,00890410757505455
-0,00554911249657701
0,00530586798303709
0,000324709820366439
0,0075108591397272
-0,00239109142432022
0,000189928615689121
-0,00621203456353311
-0,015631974271404
-0,0217704511762677
-0,0501027907520895
-0,0676490225548061
-0,0590918557557084
-0,0260251406935585
-0,0180250744182649
-0,00597790946078979
-0,0116667040583969
-0,0370062241875121
-0,0421665961474174
-0,0363957843694487
-0,0290299006209368
-0,0235680849288094
-0,00869292079123211
0,000755019269710053
-0,00573435028569389
-0,00386286123964744
-0,0089072690907041
-0,00975443045734951
-0,00839025237319227
-0,00899691492907235
0,00392238727718273
0,0104471898539729
0,0265578666911895
0,0317624891404929
0,0262352058901364
-0,00470580897597623
-0,00771614656509828
-0,0419919258185727
-0,0690499928178948
-0,095729156391352
-0,089736390895555
-0,0398853548864317
-0,0100569645468275
0,0201863077940545
0,0185521278123764
-0,0156471196561912
-0,0189174329197852
-0,0250262440498277
-0,0143133329835055
-0,00337127687870905
0,00200765344613641
0,00446456932857795
-0,0016513027745231
-0,000928349550331248
-0,00290503830967544
0,00778867338681066
0,00504148089096019
-0,00820422820913901
-0,00452296822972348
0,00164445675967177
0,0106621598876301
0,0274953521622427
0,0148328494176227
0,00077717927548046
-0,0124284452178891
-0,0511370891934564
-0,073259173161902
-0,0774859584217968
-0,0672826187895147
-0,0347597124852152
-0,000395883045813241
0,0321465612750353
0,0194438047128617
0,00883442241283026
-0,0155739944678877
-0,00568228099660002
-0,00179632490631476
0,00312042220196538
0,00683252909134793
-0,00685654371968425
0,00562089394756083
0,00637550322999948
-0,000997002558315639
-0,00424606052890702
-0,0055131770090727
0,00845226452163654
-0,000699655772235351
-0,000966281366416252
0,00797193776741757
-0,00102737233989208
-0,00599015791078056
-0,00898601599657996
-0,0337046586685254
-0,0495104015759119
-0,0670879191760269
-0,0589620628244736
-0,0630648821133416
-0,0348457578655925
-0,0171601447695724
-0,0119494679188789
0,00170142084867845
-0,0112400111742473
-0,00442284245026156
-0,00240208759218729
-0,00608355367456872
0,00614654980233619
-0,00265209926758249
-1,89109792758377E-06
-0,00431281480497462
0,00280993944454819
-0,00919564659669793
0,00689554181736687
-0,00772820486581335
-0,00739437333234115
0,00213205309281072
-0,00484917743356276
0,00940880229615131
0,00618062183940142
-0,0159559444257557
-0,00680078841144635
-0,0145031748967874
-0,0202068120495389
-0,0217729865911126
-0,0257351097126319
-0,028565017601425
-0,0238597675059826
-0,0173895830301645
-0,0223360229342545
-0,00216757433262562
-0,00350700642365647
-0,00320771857142057
0,0068182156927651
0,00757948542820596
-0,00342638518279404
-0,00388777307829586
0,00241206127764555
-0,00388308141964726
0,00746525820480828
0,00951672741189447
-0,0029335210625704
0,000932112657899088
-0,00988165747368785
-0,0071659878182515
0,00808987592319832
-0,00952923911731381
-0,00010612869053295
0,00240063104514394
-0,0120478817399928
-0,00076601256134348
0,0014650084055788
-0,00547735796064982
-0,0124747229534231
-0,00144063181227991
-0,0118839198525083
-0,0147710626580496
-0,0104529745656602
-0,00594980359806584
0,0043034883529669
0,00837055715439442
0,00232898853528539
-0,00876329816091367
-0,00547088184800678
0,00312829148479706
0,00375183903322734
-0,00764465914522334
-0,00770678087030853
0,00871721242494751
0,00566496984831289
0,0067821430493063
0,00993910432790364
0,00878713996093121
-0,00750183536336748
0,00935144004879394
0,00409619085850857
-0,00755900478926569
0,00159944418490665
0,00172858830766857
0,00769117363992196
0,00223928342180474
-0,00940962015550825
0,00851112073342499
0,00415613658769114
-0,00112358032430787
0,00940631651612392
-0,0101509654158391
-0,00484237262284464
-0,00885164386040778
0,0015999616231889
-0,00456988003894386
-0,00767172353147545
-0,0045833827001439
-0,000126798977203108
0,00781127308393422
-0,00352129246737868
-0,00452419802291514
-0,00368838362101856
-0,00304732020620598
-0,000919849039483745
0,00598954394272973
0,00876102750131908
0,0021923974213155
0,00848813477833203
-0,00563981497457242
0,00366639347452037
0,00821484840391895
-0,000909452219917183
-0,00439082535653879
-0,00688044135816273
-0,00604718315444533
-0,000556684607024991
0,00155200159831293
-0,00111108220699759
-0,00625041888852158
0,00866782228400364
0,0039919323259927
-0,00309666205807434
0,00533208006775569
0,00334220300118541
0,00355096869801682
0,00692391942111958
-0,00894133540752406
-0,00292657420641117
0,000228427569488264
0,00440867327824639
0,00450877687638103
-0,00108606106186568
-0,00530294225332464
0,00290160223863061
-0,00134724450624987
0,00617416228083752
-0,00530231655234819
-0,00761000706913965
-0,00840553921886131
0,00321776491867073
-0,00183923779404625
-0,0100721212643652
-0,00026151988106223
0,00592782108108299
-0,00773011617135566
0,000546622911204059
0,00916950272491796
0,00767623241666886
-0,00272874332815823
0,00567485658759739
0,00066603397030805
0,00645790878149578
-0,00389294431856677
0,00914345079993059
0,00248677520662862
0,00857246403515919
0,00097953631122575
0,00361047679260861
0,00552918226249944
0,00906381710669683
0,00769712742788962
-0,00490938308634828
-0,00175238777361348
-0,000196689339912454
0,00844560259684393
-0,00243297841881512
-0,00824163968899649
-0,00100391731599384
-0,000308957152812577
-0,00796864206268936
-0,0119023700680407
-0,00715138316106158
-0,00864532150083704
-0,00786229301924981
-0,00988717390632956
-0,0052332995392505
-0,000659080154414359
0,00519017450354831
-0,000988828571245278
-0,00874364430201896
0,00669421126940675
-0,00726069590894171
0,00939399229539434
0,00425955220789628
-0,00641178024765653
0,00796736721786082
-0,00720968097318415
-0,00443899906099304
-0,00960268873251702
7,66279434227141E-05
-0,00495515545717995
0,000372151239774743
-0,00540859264810969
-0,012791602835203
-0,00393765793902813
-0,0208267113271889
-0,0165438592287935
-0,0306465719086353
-0,0148100795984294
-0,0181831670327262
-0,0230141352753488
-0,032913636420808
-0,0427097952769226
-0,0239328615540316
-0,0260897583914742
-0,0240516666589113
-0,00771846747705379
0,00422245328188742
-0,00154288939776756
0,00843015519239197
-0,00790862539775721
0,00117074672680061
-0,00812311488116305
0,00308853851309444
-0,00803300788152878
0,00477493536343113
-0,00429111138431253
0,00393957268793362
-0,00549283521992054
-0,0129244689542139
-0,0139308539090781
-0,0107221619924177
-0,0291126734553898
-0,0464650408173764
-0,0531778444101827
-0,0435244108960612
-0,0525134694588411
-0,0457979335178801
-0,0361928849940294
-0,052553178271024
-0,0570066438616041
-0,029600606190691
-0,0220171068907383
0,0125214578373172
0,0211191078058506
0,0132839953483367
0,0155020545071378
0,0116830228835048
-0,00692494621529755
-0,00858241329541168
-0,00176384977297536
-0,00331427010396229
0,0062882192043067
-0,00863221210492618
-0,00177218215654023
0,00333469902284597
-0,00621650880076113
-0,0110678742635167
-0,0385698267700485
-0,0594601102423437
-0,0661823826176974
-0,0807001720964743
-0,0824792949093319
-0,0795486519630521
-0,0845764653936085
-0,0907561442782839
-0,100333198234216
-0,114619917655976
-0,101175241355735
-0,0640943138029766
-0,0436357597515638
-0,00691077425470545
0,00285390353419416
-0,00180574835777864
0,00645178689118309
-0,00539875961134161
-0,00244670900327025
-0,0073018178814623
0,00737785706919851
0,00198682238906008
0,00535658381643967
-0,00409825460916126
0,00181455125986261
-0,00686740923977357
-0,00743432518488048
-0,0161449330665607
-0,0554789816767324
-0,0638075590300257
-0,0733573772014271
-0,0788824014749459
-0,0582148764928967
-0,0270479144723294
0,000649546164190905
0,0354592361103226
0,0248630877969243
-0,000646349513760172
-0,018469193772212
-0,00882548581566464
0,00122627107208578
0,00502630713154344
-0,00061398888727509
-0,033034987450738
-0,0242956572999413
-0,0110363243252232
-0,00937786360963858
-0,00672852623406555
-0,00524852412783888
0,00323050694199072
-0,00652897721713217
-0,00778220246805102
-0,001651350085115
-0,0032822378868997
-0,00389729163873885
-0,0293580471587144
-0,0456159276555513
-0,0448383421899061
-0,04926627728049
-0,0275531877112547
0,00506068137977855
0,0598313241756401
0,0951686869596295
0,134201341230331
0,139234524769513
0,112932466831302
0,0783350066300023
0,0525499151597156
0,0336751954502124
0,0259486205986059
0,00213041101738608
-0,0199675744336974
-0,0199039716317049
-0,0132546690144966
-0,000903655863017003
1,23409760411164E-05
0,0069675590035169
0,00508219516385251
-0,00645282392875351
-0,00277965767089646
-4,85818244975264E-05
0,00768119563627564
-0,000798126924435637
-0,0173045927970039
-0,022885243734516
-0,0123428520985723
-0,0165705011061792
0,016602054708886
0,0374280276036239
0,0832779396254481
0,11428412125489
0,144001286177986
0,130445647846988
0,0951475994411182
0,0573268557514955
0,0472880225787374
0,0196788560973124
0,0103149002541701
0,00165265385152123
-0,0104470938253438
-0,00724988919211578
0,000191126629612226
0,0130325671845553
0,00697046619835499
0,00843207799059958
-0,0016186983920765
0,00920260754013658
-0,00126275422071468
0,0179303818004078
0,00997866644420783
0,00726773989504551
0,00452241513677088
0,00483780412531311
0,00778439396123746
0,0200982071850435
0,0358000683865734
0,0523984361332899
0,0891083194164213
0,119325437683174
0,125560965918686
0,098807340824791
0,0608832541361498
0,0218170569650475
0,020808042855392
0,00381528065164281
0,0164206763657093
0,00934203934427251
-0,000947861679758592
0,00420775913266857
0,000939902728958181
0,0052405102074623
-0,001151293128064
0,0079953153266273
-0,000710065014316041
0,00436604812591539
0,0100239810569794
0,0115557822926911
0,00766552170999405
0,0227725973019801
0,0373579336479499
0,0377345681157623
0,044457600759836
0,0399875867024812
0,029808649947427
0,0412497565822276
0,0780379285528886
0,109579944007614
0,139881480634973
0,100931857471517
0,0524499135668404
0,0283146552121479
0,0252388385905433
0,0368173438976695
0,0285643302254193
0,0251761360389451
0,024894837859505
0,00268487843314316
0,00956931040493006
0,0112152753841873
0,0122526561412891
-0,000891523126473254
-0,00180917098397528
0,00238604393099428
0,0108885671392396
0,000420235387989403
0,0201651271117024
0,0392824557027639
0,0511599282782241
0,043376660364118
0,0396783210895201
0,0167106567879056
0,00845765035093294
0,00260558126347787
0,0418846474845755
0,107566205759967
0,151004767056599
0,118556777172016
0,0379344590455404
0,0330554269234007
0,0609025887209303
0,0580953369119489
0,0546471178517492
0,0387515441958948
0,0162617502778041
-0,000863494811375735
-0,00629254330491104
0,0060465304244407
0,000709497986622251
-0,00904437090509127
0,00759793436953344
0,00277081645000032
-0,00610961978261137
0,0077887337186795
0,0292326607896293
0,0388914045133356
0,0300003589224911
0,0230845739977318
0,00787964057929545
-0,0163029019544686
-0,0503703030144435
-0,089832273124882
-0,045544729645083
0,0613313517666487
0,152813440703774
0,0816473829403668
0,00653345280224395
0,0366555416236259
0,0755182924851841
0,0697239549948772
0,0660730131584404
0,039767546626559
0,00178832705941863
-0,0165577238164678
-0,0144730150852704
-0,000986032084859807
-0,00546958653320788
-0,00440734283178639
0,000712987464667386
0,00305205372257603
0,0118622916812183
0,0137569288713519
0,0164930886791162
0,0330334603287433
0,0101200901896721
-0,000296576077894188
-0,0317407028203053
-0,0661623424929374
-0,12722192835665
-0,174589868611493
-0,105795574852338
0,0269522409314505
0,107225832686792
0,0561171945064051
0,00816921320655918
0,00791277341616273
0,031091147549617
0,0562436507650746
0,0256932302529626
0,00165150385975432
-0,0110859997070722
-0,0203338722039543
-0,015118144197457
0,00270979847840989
-0,00799849637674188
0,00800604598297745
-0,00258890499706994
0,00800297599377883
-0,0072420128292607
-0,00131006809488239
0,00933224889882554
-0,00421526712004338
-0,010884207928601
-0,0389991030557043
-0,0617428874312533
-0,0879437010076523
-0,154779870567285
-0,190276722471385
-0,0996384606224658
0,0107966655442392
0,0658034497681086
0,0244329527762336
-0,0232023552136995
-0,016776908884309
0,00459144955309075
0,0169673728633284
-0,00217814229278132
-0,0205723544525054
-0,0324768770894502
-0,0431213292942062
-0,0233494793835339
-0,00900697133723157
-0,0085220090832993
-0,00721318009865275
0,0046847139981105
-0,00913661742485614
-0,00748286324911073
0,000821921352949272
0,0104985076566596
-0,014016478707843
-0,0332562225124035
-0,0579926694929694
-0,0734585030549591
-0,0899777454503736
-0,106755513996189
-0,118807922070087
-0,0572797567780568
-0,0019964938509979
0,0200587705387464
-0,0149654697128746
-0,055557906241589
-0,0188902113938833
-0,0104238411305177
-0,0176413351615054
-0,00988417865892414
-0,0246405236355062
-0,0389152543466768
-0,0458348165656891
-0,0231881099656138
-0,01102601584288
-0,000297691697481322
0,00975825574116164
-0,00275206965317595
0,00961798720989979
0,0074974829709875
-0,00637132658759762
0,00578809423168805
-0,0282327575284323
-0,0457150935313998
-0,0595636716778578
-0,0451996001383024
-0,0529853982779033
-0,0403217418999929
-0,0394812526797991
-0,0121758178271522
-0,00247925280448578
-0,0307469874132929
-0,0487501720433599
-0,0454543742248863
-0,0234466057764571
-0,0132063046415291
-0,0270101020288974
-0,0326010191183744
-0,0383963807049701
-0,0411459634889059
-0,0424606675426507
-0,017630706898317
-0,0209831027691143
-0,00491160659573313
-0,0101090928479652
-0,000423209960769494
-0,00991592416934061
-0,00689546546149789
0,00195254146412582
-0,0224181678009161
-0,0426964163645255
-0,0558713210137875
-0,0656988856392005
-0,0344469789412428
-0,00979202270726226
-0,00557505960080154
0,00505287918297535
-0,00157858576115975
0,00403146077628364
-0,0139784748381154
-0,0368076473546901
-0,0394737227253732
-0,0224072928486802
-0,0197431162490946
-0,0331350318710946
-0,045122025536207
-0,0556983598784505
-0,0572095254285301
-0,0590011286368181
-0,0269375171258562
-0,0155035215893372
-0,00603748223143411
-0,000320389075997896
-0,00834727414649438
-0,00370591680141803
-0,0050433035968017
0,00552416479978904
-0,0272002186380128
-0,0470564985940754
-0,0670993108875188
-0,0606137519909633
-0,0414900928505359
-0,00125218538665814
-0,0142214069345849
-0,0248886961226751
-0,0279221523616245
-0,0238415175248766
-0,01161273804607
-0,013225786757506
-0,0168150275025681
-0,0138663887056386
-0,0175180571925586
-0,0456695129223453
-0,0668006473799918
-0,0797660174570804
-0,0733026803930766
-0,0539500957061182
-0,0354292412337829
-0,0199044118421053
-0,00359671635019961
0,00523802797837185
-0,00187168371385868
-0,00722249764911312
0,00689507661287399
-0,00191610427863014
-0,032541664881843
-0,0573907538615034
-0,0553797498054242
-0,0558657086978054
-0,0338470932151869
-0,0371636827804811
-0,0489944318014406
-0,0707609400074622
-0,0581880589888371
-0,0424973697423721
-0,0146944075315535
-0,030857263730521
-0,0215196555932316
-0,0366047994668503
-0,0377953451973842
-0,046802458606715
-0,0692359149713249
-0,076682867252941
-0,0823831155698093
-0,0605508130425041
-0,0275720263935948
-0,0141723535714914
-0,0013489383789026
0,00756311263208967
0,0065976946785104
-0,00293733945576998
-0,00507648872779325
-0,0125372357792867
-0,0269873840969697
-0,033867410752458
-0,0480739085313323
-0,0397943886016526
-0,0316050066694623
-0,0362483180297771
-0,071249273837654
-0,0918431227940278
-0,0911676511046222
-0,0461063164320263
-0,0431651178151462
-0,0418983385175579
-0,0376574275759592
-0,0535341158776226
-0,0748497965291585
-0,0579958535242493
-0,0704994063987669
-0,0820151194879966
-0,0554243696447534
-0,0453927281915993
-0,0231066637255385
-0,000400624907829041
-0,00586090568872433
0,000810740845264018
-0,00864060581512745
0,00107408341219126
0,00694956166620473
0,00155955177536293
-0,0122708644240298
-0,0318316975263822
-0,0183284748267257
-0,0195367849597281
-0,0217696198234449
-0,023863797623782
-0,0502033739083072
-0,0854741724834854
-0,0767804789756326
-0,0727036955816939
-0,0591718036653317
-0,0536271368030976
-0,0577857302504435
-0,0661047548620645
-0,0731480542899609
-0,0714308867267474
-0,0637560145832665
-0,060705664015066
-0,048708423252997
-0,0291297565793815
-0,0201264832309919
-0,00353096210094721
-0,00971881753189955
-0,000328127819481629
-0,00111786215651533
0,00447870969997053
0,000844420885490239
-0,00254242218498894
-0,0075925994215787
0,00322727451487035
-0,00557694789728034
0,00635682644169091
0,00566360892426959
-0,00728979269882861
-0,0125515385251714
-0,0280207900566469
-0,0455990814471189
-0,0295764999157013
-0,0190606265568877
-0,0301912451264096
-0,018160105310028
-0,018561930889275
-0,0499128736466117
-0,0481953402037091
-0,046196727877014
-0,0336025508072588
-0,0228418048605726
-0,0144887405119038
-0,0115902547073523
0,000270023340478044
0,00656830683374367
0,00407814253866365
-0,00457243405961079
-0,00555044920907842
0,00345056788498621
-0,00613062736119577
-0,00877040468973526
-0,000144103323939963
0,0253704311869853
0,0237666331737534
0,0398247153695439
0,0307866680605502
0,0212571754038257
0,0187408115988024
0,00463249905534861
0,0048845861420673
0,0111099580620775
0,0085737506234893
0,00828686628772828
0,0181859378194333
-0,00824110943800748
-0,00113465329899447
-0,000922061806296699
0,00201341520454375
0,0045623267335269
-0,00732710302674105
-0,00876746312949385
-0,00232082371925212
-0,00715920895809796
-0,00937298336037108
-0,00418114554797353
-0,00784632259879556
-0,001995920940351
-0,00954340116007291
-0,00693808681717979
0,00855064177611192
0,0177307180686494
0,0277653399514423
0,0386669230478483
0,0398274960030166
0,0509162459351416
0,0375475645955703
0,0361192336131682
0,0308838011211936
0,0233368217449104
0,0112800477179063
0,0260871454887398
0,0439400801791543
0,0375923547464254
0,0387920745808513
0,024061963523863
0,0167201637589064
-0,000252992014079465
0,00442018674590313
-0,00421891383333322
-0,00994713364646865
0,00979390206418734
-0,000152286463488027
-0,00194193078761079
-0,000631551766130865
-0,00582962250234298
0,0030931961407495
0,00908146196653111
0,0126408562539567
0,00675247039899737
0,0345126783916652
0,0404969545959178
0,0592321089432023
0,0728740421662142
0,0836262983186852
0,0782767152029519
0,0729067466104518
0,0599085786166244
0,0449098718397769
0,069752560622685
0,0789733373316966
0,0659554788389494
0,0452546986654743
0,0233832714317362
0,0204500812141979
0,0126478988753041
0,00115724561393441
0,0080847340905176
-0,00578404770810699
-0,000396189255733524
0,00490752150067479
-0,00926812509972049
0,00714186069422488
0,00454972987740754
0,00972206040057057
-0,000864814366170448
0,00896477429268503
0,0154466542079204
0,000250758403721392
0,00893191702134525
0,016762790947673
0,0262073698888266
0,0304282195822412
0,028920267008402
0,0423883055656525
0,0489365587684432
0,043135237330278
0,0403272881934755
0,0368475413083487
0,0292134011617308
0,00742989253132775
0,00203212366683255
-0,00450132704058563
0,00602467855161807
-0,00331185036102788
-0,0013604902075945
0,00260087180462351
-0,00343184689685323
0,00527969737317399
0,00431752114292119
0,00559973903726774
0,00584178280823016
0,00334579957339251
-0,00474979221739666
-0,00429031936596022
0,00507279625900407
-0,0015300206337014
0,00609677176979853
0,00535024709590908
-0,00374581573351487
-0,00290791416495793
0,00148144739490843
-8,83542190126127E-05
0,0122456753926091
0,00645104398450947
0,0038548645160133
-0,00221457251793327
-0,00604988833013125
-0,0017281927413379
0,00457227259354983
0,00593822992229291
0,000140982819273578
0,00901427695121998
-0,00188166725071225
-0,00164490410669004
0,00136684227332792
0,0096193950807766
-0,00708908922834745
-0,00193780945238555
0,00110038385312091
0,00580511051966115
-0,000234515783486197
-0,00537407897197366
-0,00330494824485152
-0,0020882954132223
-0,00202260100842575
0,00561799145099613
-0,00725198055489547
-0,00944785027739026
-0,00834867995524651
0,000641190337140245
-0,00549319442986732
-0,00472706427936173
0,00363191045524176
0,000294990358080244
0,00188967188442576
0,00718259840141172
-0,00568539923787369
-0,00853816104053434
0,00608346547749055
-0,00594473643039574
0,00142800204056688
0,00993292522613561
-0,00887269776262003
0,00887537608802103
-0,00356567049099397
0,00701975664916437
-0,00477253317589524
0,00688303161267332
0,00428632381703953
0,00530300781103968
-0,00512922544317143
-0,00313066911819657
-0,00757653612141998
-0,00189381001971068
0,00537954893201044
-0,00627457928384998
0,00825131741676643
-0,00230363689642436
-0,00571195900854644
0,00474190286162733
-0,00691178822490626
-0,00920371086616645
-0,00565249746694345
-0,00713263653978327
0,000327760339371363
-0,00649009171649631
-0,00494550017944213
0,00778421235920636
0,0064654240088842
0,0041842438719162
0,00530479431865029
-0,00855092818781311
0,0019787250701239
-0,00295487971648335
-0,00562357163991158
-0,000166052892462631
-0,006558180673015
-0,00219888256913932
-0,00882447815383349
-0,000220653460417125
-0,00191063099024327
-0,00767432790813135
-0,009031894146121
-0,00920648570932166
-0,00989422402037606
0,00073852463566489
-0,0148408043550835
-0,0129094870674512
-0,00511612015672487
-0,0139526620422697
-0,00595448665657519
-0,00837568535741764
-0,00308660019790094
-0,0150904013935482
-0,0110645427231077
-0,00047115043297539
0,00485800936811363
0,00796736620692438
-0,00207266557592557
-0,0074586735560832
0,00182964094534034
-0,00259587556710275
-0,00958131311130889
-0,00992734152130118
0,00988111575659477
-0,00654393927253654
0,00444034895107749
0,00447848955070352
-0,00772929769557169
-0,00386825661556948
-0,00824107971763573
0,00519517299945415
0,00432136011340281
0,00814808031526057
-0,00743316561855777
-0,00208195648730544
-0,0123327918448185
-0,0194430592961223
-0,0258794645564562
-0,0311646157981866
-0,03429195993311
-0,026584820332951
-0,0162361759612314
-0,00665932973822384
0,00341688397735721
0,00988690620614206
-0,00535100028835144
0,000681341993939757
-0,00521702287495929
0,00355457754687405
0,00484147213522264
-0,00418125276300949
0,00979662938543346
0,00883223938646037
0,0104469241516589
-0,00539441358915928
0,000510449480992393
0,00787321526891287
0,0151722953031088
0,0244407587186935
0,029870778483304
0,0339009430359417
0,0274758924029983
0,0236344947785179
0,00392590140812058
-0,0149300814112031
-0,0210101069695993
-0,0333486810093886
-0,016125702243129
-0,0205174005498634
-0,00764460376704734
-0,00265437152277327
-0,0113123742202437
0,00525683905425683
-0,00879613320998724
0,00140752899684344
-0,00627320410510209
0,000938790315267999
-0,00654407307081471
-0,0095593272978449
0,00888279792282034
-0,00445565373413952
0,00296049715336206
0,00552333372520175
0,00952639406120261
0,0200174325696518
0,0257066019203555
0,0448328666861726
0,0583828556954574
0,0512515032879686
0,0496921029770123
0,0334243219614193
0,0194721965367026
0,00475594024300561
-0,00733924118572582
-0,00736467095408479
-0,0141483942365592
0,00297336163778718
-0,0163861288455084
-0,011847267385165
-0,00108000858798612
-0,00509802818664581
0,00504625735172102
0,00847057033907192
0,00707206248169395
0,0082964336136532
-0,00436951838102614
-0,00369936106352058
0,00928594439201899
-0,000455739397775444
0,0127262551156615
0,00902956105102811
0,00539961031721954
0,0202745654893824
0,0307206867093635
0,0621038627273639
0,0745894058532231
0,083953724190838
0,0861184381772253
0,064849568080582
0,0584171151475
0,0496724467192747
0,0370488149246117
0,0373328759174376
0,0343952555308483
0,0133665441929588
-0,00872413897534558
-0,00988852559484246
-0,000313879951622102
0,00380973302967179
0,00460643715901478
-0,00169154591787768
-0,0029577418136873
0,00248213987822102
-0,00133617652859278
0,00861522545114011
0,00458499137580056
0,00875307649441398
0,0141171073107874
0,0151092404114547
0,0220592032341654
0,0305960819194726
0,0513895090511498
0,0643551950800712
0,0762888248618933
0,0996474073899891
0,0897161821161044
0,0893607131826277
0,089149695794686
0,0782568170922969
0,0654059753794053
0,0720201293003091
0,0694655788659728
0,0435983510217766
0,0252425227100786
0,0141110131683866
0,019445612071317
0,0207374821746183
-0,00362922026934447
-0,00078354239419669
0,00382436327637712
-0,00946056421286567
-0,00702219807314058
0,00534997144915024
0,0133620827511596
0,0135839867108235
0,0136024001862289
0,0183569875685691
0,0358236657233767
0,0375999414115361
0,0524146843859586
0,0541372984812516
0,0790242293541533
0,0671093995802278
0,0926082819277024
0,0852833362132664
0,0869451507018316
0,072578506806704
0,0872259121853075
0,0862560052567008
0,055746675151389
0,0588614437071901
0,0400374603168269
0,0251118448785038
0,0219261664246501
0,00951098242626027
0,00494972757223366
0,00388533843199735
0,00518821412785697
0,00610656640205045
-0,00611394406716894
0,00636673244932836
0,00930358162294619
0,00799367968528219
0,0255759032269102
0,0150767384482037
0,0163048526927598
0,0439339985784531
0,0396034243842704
0,0368624678284784
0,0195847816418437
0,02625299837274
0,0395002613831863
0,0568023763256904
0,0623966375627037
0,0715628943396601
0,0636412949254956
0,0612101014197039
0,0563589970790883
0,0491614593983351
0,0353427028670659
0,0311172483867678
0,024997411955408
0,0143941167926449
0,0032331556670595
0,005529811296615
-0,00310661101033542
0,0022313921593573
-0,00132220308857355
0,0097739852130127
0,00130243472456551
0,0145171302905867
0,0152906994726225
-0,00431738751941373
0,000672539994007052
0,0165558013566896
0,010879885747549
-0,00709893797199773
-0,0340209247478089
-0,0251949279952953
0,0135305362101028
0,0451278527250682
0,0412960204388168
0,0228328864336891
0,033011244451446
0,030468700815196
0,037496022583406
0,0347623765985664
0,0201689561197711
0,0111249765040869
0,0130036149649997
0,0176304313600614
0,0138386100986709
-0,00451582407491816
0,00277917538523442
0,000513072420644504
-0,00123246264010584
0,000652020393395602
0,0160983947386231
-0,00263095228600123
-0,0123290105236384
-0,0112156360006486
-0,0149411749907511
-0,013768448102475
-0,0317386484521792
-0,0407819646853018
-0,0724996115897515
-0,0359175658512102
0,0178019765891768
0,0381348142032759
0,000331118065405975
-0,00196288564200914
0,0175799175032999
0,0162817339405316
0,0225838329196293
0,0143496890127695
-0,0086576134483241
-0,016926672363264
0,00581927384574435
0,0179235906642112
-0,00198404789910982
0,00807157839034989
-0,00223785654286721
-0,00950623616912353
0,000872270292466867
0,00375746610465069
0,0110264359355339
-0,00846157962529599
-0,0305490225103721
-0,0362761956731057
-0,0425305975941809
-0,0477573333568869
-0,0517773606081646
-0,0646612732244015
-0,0780767525994167
-0,0127520528048051
0,0359217821940049
0,0261253583639023
-0,0165820291902651
-0,00402696581047199
0,00531720415109966
0,0200690277924818
0,0159243779900279
-0,00737041665491403
-0,0439034252411374
-0,0452206856428281
-0,00454065060673659
0,00881221577796852
0,0109320080239533
-0,00912149807767577
-0,00201025147231119
-0,00487388447676842
0,00676188244302272
-0,00710999142336305
0,0108982436023437
-0,0294265955827968
-0,0576200240255532
-0,0587278243093522
-0,0617604803100441
-0,0519031878849632
-0,0691488970010201
-0,0884694435347972
-0,0456801484575612
0,0202826325901682
0,041388695964884
-0,00459971319743282
-0,0194976474687083
-0,015031561803372
0,0107670273385043
0,0135472439079452
-0,00383742141770613
-0,0420401797649541
-0,0603920618339535
-0,0522130874771379
-0,0273020792458371
0,0100316287561802
0,00204292508029107
0,0044913008967227
0,00897277213171991
-0,00122577460506524
0,00201363598306806
-0,00802065450449468
0,000861814940377636
-0,0333194151969787
-0,06541840492032
-0,078041785475978
-0,0664930409704176
-0,068851586243674
-0,0709849868669098
-0,0852202310607995
-0,0219151985538083
0,0489898523576983
0,0470083372054676
0,011986878328178
-0,0143691076887761
-0,00734982478472903
-0,00807977935930537
-0,0316440978370905
-0,0408232997970572
-0,0661218657898964
-0,0661047661009756
-0,0581314501748773
-0,0196692326709521
-0,00716198918261166
0,00290355535307954
-0,00892382460195894
0,00747170332904281
-0,00795950693670488
0,000225174317096858
-0,00734927649086939
0,00863462697756409
-0,0249076647206016
-0,0514136114284457
-0,0576268911744484
-0,066731887886304
-0,0578159945844882
-0,0640707860468441
-0,0581068060504295
-0,00225607563539544
0,0389494454210779
0,0299695169299128
-0,00851848281224964
-0,0112879902388298
-0,00933783624027598
-0,0192658021726607
-0,044090871687721
-0,0418276328155323
-0,054338213341484
-0,0462615477088838
-0,0347999845548677
-0,0165109273678656
0,00325095491303307
-0,00239445176191772
0,00917802321133013
-0,00933472823162996
-0,00463869331626927
-0,00660139241764341
0,006371052866663
0,0212488482834489
-0,0138944047530901
-0,0388893621031118
-0,0557427953957389
-0,0656900073754626
-0,0498815947568105
-0,0636413273044971
-0,0345794630002344
0,0236980245894602
0,0333030550619247
0,0028975164440585
-0,0178724312987413
0,00976616425424385
-0,0135165628984722
-0,0178160153209403
-0,0352132973346911
-0,0430643192191521
-0,0369161432536347
-0,019013252796037
-0,0202065663769301
-0,00204675237954998
0,00780319518182314
-0,00147859201042822
-0,00130702881001078
-0,00333352516094852
0,00707321309542734
0,00103566268218901
0,00753327760544413
0,0193889462767423
0,0172002236678934
0,00235902991733475
-0,0221208387595074
-0,0411665111838362
-0,0539384593991714
-0,05783768985431
-0,0291125996717184
0,0101118223014289
0,00924537748667419
-0,0100219334379835
0,00332978780298767
0,00438742105602302
-0,00572851650718157
-0,0379633473202791
-0,0288685516546186
-0,009830878781601
-0,00385105896850011
0,00465502121403596
0,00473709133138509
0,00999205776713727
0,0147254011466578
0,00517113649455788
0,0058216185423714
0,00209742956189149
0,00958698916081866
0,00931640963352588
0,012418371644703
0,0203709341189852
0,0430071863735087
0,0413927680310003
-0,00132522952590558
-0,0209994212981651
-0,0414733453607816
-0,0409428419572641
-0,0332465878634067
-0,00126550080895941
0,0189627039969583
0,00636498123923489
0,000434926729209684
-0,0141636678658902
-0,033721122504776
-0,0231005767686248
-0,0195372748176452
-0,0055156150319504
0,0181400255475948
0,025972108089023
0,0300367281486654
0,0161410817978403
0,00163069695891052
0,00429629074883608
0,00294594679684205
-0,00707847541506048
-0,00922163225675117
0,00950502448892663
0,0143372386421313
0,0209790143047596
0,0373053318344545
0,054724893940355
0,0593722384221878
0,0319091190067839
0,0153197235305685
-0,0177375924558558
-0,0254357618111819
-0,0189022828280303
0,0127923768990824
-0,0145536044743975
-0,0372019553858717
-0,0566109068603489
-0,0445834686600094
-0,034096279525422
-0,00913002638909458
0,0141282885328767
0,0198744368247038
0,0444911473417855
0,0274865190921885
0,027317278969775
0,00923806232482847
0,00516605740595
0,00299378118987809
-0,00655500541280723
-0,00935566227155616
-0,00597444848719956
0,0193000241586108
0,022107719114896
0,0434977071200832
0,0586388705231266
0,0831791146889698
0,0702597493793628
0,0530506696377143
0,000245297257971492
-0,0178477387608665
-0,0405769414979893
-0,0373928704199551
-0,064934340562211
-0,0660538278028398
-0,0724930828262358
-0,0406278957105172
-0,014359284167168
0,0105425095017821
0,0386707180749198
0,0398068838546176
0,0440259364900796
0,0295986088026102
0,0185208653310992
0,00414352725135391
-0,00533494511209748
0,00955076736931037
-0,00684304899230277
0,00319942108628591
0,00437191034848886
0,0073428433866926
0,0151658920794951
0,0363997558212007
0,0601811951199406
0,078054615274767
0,088765125599052
0,0730273090289573
0,0321438499535368
-0,00524610851645526
-0,0344816882471894
-0,0489879966263202
-0,0653402500410025
-0,059576232397094
-0,0384262325275236
-0,0191404232246509
0,0139328290032691
0,0384612899606863
0,0324742023417115
0,0321509962587697
0,0362950159277302
0,0080905508891122
0,0106813869841398
0,00156294741934257
0,0082444984138009
0,00406328425879042
-0,00237246719669507
0,000789176127959327
-0,00561762204531258
0,00913391370039336
0,00193230949087269
0,0078003349372919
0,0278367286813737
0,0496999339124895
0,0573877554086962
0,0726037083202363
0,0537131811073426
0,0374662925639974
0,0245351478035129
0,008182435073096
0,0144714073628618
0,00330177416076347
0,00826793629621984
0,0309557238131952
0,0205248151248216
0,0359265369118602
0,0213586567173924
0,0158543275832014
0,00804968975742723
0,00531018655881583
0,00525419771105669
-0,00285697734018555
0,00689205322782847
0,00860800030335578
0,00512702840153455
0,00103779254995184
0,00707005549889447
0,0101011652565187
0,00949130840417535
0,0133876494360942
0,00254626334322143
0,0165164341614335
0,0383542855796716
0,0547101508394111
0,0627483111938391
0,072525408274042
0,0692881997516712
0,0688590280598394
0,0461230282026538
0,045198045446045
0,0449847297203406
0,0210815617243459
0,021623898186994
0,0117701661533586
0,00626173612669953
0,00579324052215413
0,0158675841276569
0,0107777610518831
-0,00381776509033643
-0,009862939467215
-0,00078929225830525
-0,00755617270132349
-0,00208154902424735
0,0068102577127564
-0,00634748786813484
0,00715908380795799
-0,00607685533368667
-0,0027365729722126
0,00615852320416484
0,0105080538879257
0,0253759212550137
0,0272537397863874
0,0417410898511417
0,039504069181225
0,0539130501137171
0,0522822676078522
0,0457474161858411
0,0226026692542821
0,0132557416848281
0,0134027447340519
0,0080174785578435
0,00707254777215625
-0,00216780063917553
0,00428587296307624
0,0022644031243198
-0,00114434526603968
-0,000689699221304873
-0,0042951125254466
0,0012431905860186
-0,00254838999013807
0,00200265764817719
0,00963014231977525
0,00428774294819147
0,00659924392160051
-0,00172425811475207
0,0101561229975412
0,0100476402081994
0,0120922266830077
0,0144524927367578
0,0260143555614158
0,0304584633414447
0,0294823410449077
0,0317667234938792
0,0389408963811703
0,0397051748043478
0,0268208835584032
0,0328050692980549
0,0400566384643965
0,0184454532128535
0,0245930891727534
0,0128831216461962
0,00982385521652424
0,00822103671899804
0,0102676320311506
0,00434546846929641
0,00992635800475028
-0,00796474994670928
-0,00992364499714395
-0,00119274032823403
0,00674995722097809
-0,0012942344561658
0,0078623076825697
0,00526967148374166
-0,00291319989864616
-0,00856447452916512
0,010163111057946
0,0107178054214681
0,0162393911843069
0,0138678325203224
0,0151474234952194
0,0219163374259232
0,0104070200143059
0,0245294292474531
0,0123630621276506
0,0179988444117845
0,00738092497878283
0,0103134195376978
0,00618064066201596
0,00499582255632464
0,0111632139095812
0,00655283631963397
0,00175430967461311
-0,00549731800781405
0,00599492479958164
0,00736410045873565
0,00975119223806597
-0,00538855275855798
0,00520749918893329
-0,0071305918028255
-0,0014524558332993
0,00719966142675551
0,00709872530292352
-0,00279273725560705
0,00669155540047259
-0,000604852913565108
0,0075008629670494
0,000614434040967988
0,00577328849697939
0,00387203625798671
0,011804663143559
0,00611169653159251
0,00498484032311748
-0,0046414982646454
0,00224656424559627
-0,00851286449292725
-0,0007458597317846
0,008844540344772
0,000526699416905589
-0,00144495461603075
0,00239424547802341
0,00219942997777808
0,00438074260688421
-0,000105162463199889
-8,70378269287927E-05
-0,00895481917027143
0,00710808901912909
0,00341174460640724
0,00924003397079186
-0,000897724903606682
-0,0097078514935951
0,00312147230520913
-0,00942729242119346
0,00487962791457755
-0,00559005423243626
0,0033325543875492
0,0078479463038258
0,00449080792898899
0,00728633627083076
0,0057354279270479
0,00384654466187348
0,00159780619274723
0,00260016257530086
0,00496961998519004
0,000253858505866424
-0,00443419627586109
-0,00775083801604381
-0,00223360055695921
0,00363528576383148
0,00566543428025462
-0,00109016801747036
-0,00884664943388042
0,00425646351382903
-0,00303682988185288
0,000534029607909745
0,00634811418892262
-0,00718128887805216
-0,00280686243328196
0,00723420501038304
0,00527682460187342
0,00167759636686531
-0,0063968268625377
0,000731660793683052
-0,00385375407681037
0,0023334915552971
-0,00356476870714366
0,00271264927620991
0,00854637194213646
0,00925782510464193
0,00742706456878459
-0,00742505865960367
0,00413485271169014
-0,00856690940038322
0,00471946745042897
0,00446066073209419
-0,00924377566182406
0,00959780857492093
0,00941112262169417
0,00964097903093369
-0,0056528415510677
0,00879601884577238
-0,000658310423911693
0,00977645884257576
-0,00642510307959185
-0,00982581153511112
0,00913975028596522
0,00887566515724324
0,00372471026266553
-0,00541536702572647
-0,00121241985561442
0,00194885624840764
0,00242663194427354
0,00926830136649024
-0,00577123312582127
-0,00322248564594598
0,00356634426198064
-0,00534340495524379
0,00145743893266987
-0,00189030082391367
-0,000741451772823857
0,00852539053292155
-0,00227080648134922
0,000517391213213291
0,00706741305900812
0,00349492397872452
0,00507730236622899
0,00984137606538105
0,00963478486967962
0,00256529725741842
-0,000203542788607786
0,0067488467864454
-0,00659553474266505
-0,00244015189547801
0,00293865633254519
0,00665297076961553
-0,00701897428750759
-0,0054658879667322
-0,00182986902517384
-0,000594707407773743
0,00824391467433262
0,00160282956651838
0,011119464508182
0,0040340400982107
0,000561670985534714
-0,00176117333740613
0,0068487408470319
0,0173385397803636
0,025583272994105
0,0176911900064812
0,00704404124253547
0,0186018583606639
0,00840747984383066
0,00937068346171092
0,00711960461255347
0,00160288756303952
0,00512334468220784
-0,00900337855285191
-0,00636517839337009
0,000386206895171628
-0,00476053978982077
0,00922552592733267
0,00899645237664572
-0,00877919411833276
0,00475310968465686
0,00158501124579926
-0,000928368865142638
-0,000843493073304114
0,00225240271637874
0,00100968942325364
-0,00754870219453665
-0,0108147849839537
-0,00431774399572416
-0,0132717896307004
0,0101748825172574
0,0240738514284516
0,0211893696747868
0,0131016434591539
0,0200084838209785
0,011576403078505
0,00120840990531357
0,0159389091308118
-0,00588727592862048
-8,80656016797161E-05
-0,00144026612873066
9,71391463817879E-05
-0,00627275197593158
-0,00343526695549268
0,0013435791793407
-0,00912981512075482
-0,0103894746691196
-0,0110861762801179
-0,0117753006090064
0,00627377238370868
-0,00369900564612467
0,0177225688713411
0,014863297917668
0,0226675781048954
0,021885145434428
-0,00702920984340368
0,00854414231170772
-0,00415867473339527
0,011780257436771
0,0284968564959049
0,0222842620735071
0,0316738510959472
0,0228778542423894
0,0285184486063871
0,0255195368786985
0,0152396234067362
0,0216476787112039
0,00187907881909396
-0,00453289207093545
0,0046019769939988
-0,000979776350306242
-0,00297409315738841
0,00854432306866055
-0,00231797182449876
-0,00316674288556016
-0,0150809336618962
-0,014562498339763
-0,0188199288578349
-0,00451253366518387
-0,00792193201423332
-0,00766539802957168
0,0112947850384267
0,00251037576031129
0,0146980301436136
0,0017777220703249
0,0220815823843268
0,0067863512582944
0,0147602265883321
0,00785055315313915
0,0215394594715089
0,0159324413313217
0,0277500862861036
0,0341095962471011
0,0400608662564956
0,043199149380391
0,017080639961366
-0,00104411309592425
0,00207522953842036
0,0090270054378695
0,000561049696909052
-0,00751258857102277
-0,000473080053805245
-0,00769993617899676
-0,0297649869941551
-0,0332197195269718
-0,0266854553236984
-0,0227738724236011
-0,0210208795931182
-0,0288286142609808
-0,0115691572919081
-0,00769649833579591
0,0136035676503352
0,0214257679723969
0,0147871854870891
0,000117042942060274
-0,0158694161630937
-0,0159311483487176
-0,0174872474700345
-0,001587534699647
0,0196268524544216
0,0381951047193209
0,0424687921939124
0,0523805848482178
0,0198268509654213
0,000332693582306518
0,00680637232662025
-0,00890131531376673
0,0017399684886853
-0,00241759587165014
-0,0200871385256974
-0,0341856492984896
-0,0275770573139386
-0,0496200169107568
-0,0559487543183825
-0,0314701128534091
-0,0338588235334811
-0,0402676176536906
-0,0360275320668154
-0,0187386459769679
-0,0153796857593704
-0,0462070640379277
-0,0621225036877933
-0,0645035616213262
-0,0604842665364182
-0,0526573434382529
-0,0285285295386898
-0,0139785558789469
0,0120174100144783
0,028459700024026
0,0395010340890691
0,054096654282039
0,0292349574339007
0,0133514161688272
-0,00261721340671957
0,00676798672216858
-0,00980765000996442
0,00478253585691057
-0,0162450032858686
-0,0383396002934299
-0,0360173354386589
-0,0348505065453454
-0,041184009581894
-0,0203466624516962
-0,0184530765245147
-0,00463373875680598
0,00235522051507401
-0,0022035673592688
-0,0431327742893787
-0,11124389977586
-0,150648064513228
-0,136246527619878
-0,0935665775028905
-0,0610671155851316
-0,0524077874452833
-0,0389358475324813
-0,0292059738776205
-0,00260334196675606
0,00669930248048057
0,0132355984036758
0,0162396897707037
-0,00687513002126036
-0,00518753919214307
0,00593547673421194
-0,0106001848387762
-0,0139276294507147
-0,0234567433821306
-0,016517705142353
-0,0225220366594796
-0,0203591023212386
0,0082906531746848
0,0138991485975785
0,0195930698088257
0,013685299742014
0,0369041975676253
0,0145203817811521
-0,0516567312975622
-0,144702472285199
-0,168018763659799
-0,122613365962858
-0,0981451784626805
-0,0716951091738939
-0,0532521757841247
-0,0674041330972253
-0,0497841692866964
-0,040155504833132
-0,0180310773699164
0,00383589659660419
0,00590773121371448
0,005866870426144
0,00130279277860506
-0,00112024305464822
0,00680353357781718
-0,00925462848156241
-0,018595091600516
-0,0133401038363571
-0,00540251085862826
0,00855436051421906
0,0253964075954538
0,0270423529297827
0,0313144010805373
0,0503238365585564
0,0462626920393141
0,0381217696274787
-0,0120447952194616
-0,0723292787955542
-0,0906992158043754
-0,0636401239190128
-0,0363947974075884
-0,0414561581335332
-0,0325288054661433
-0,0509550027060347
-0,0496063856703419
-0,046397881407613
-0,0213760433224724
-0,0155533058918958
-0,00904025099823958
0,00863766595567667
-0,00875284850142737
0,00686856853767874
0,00221948803807703
-0,00946766693966206
-0,0161008804632714
0,0061817458514883
0,0122830444760434
0,0277730938330105
0,0362748879118533
0,0270299392341433
0,0455883995643865
0,0664275011014688
0,0919733658021848
0,0951011939574957
0,0718870724467767
0,0169410272163076
-0,00122435362357142
-0,00242891047824664
0,00135051861086882
0,00829631657200548
0,0133457141316712
-0,0185793915195719
-0,0245650243703227
-0,0286486633560841
-0,018779624849482
-0,0193905212827113
-0,010774216997292
-0,00375623216527756
-0,00700866661936349
0,00636511975431697
0,00263928626290363
-0,0108391366510531
-0,0041900897628829
0,00564136548036128
0,0135549539630353
0,0341101865909334
0,038738612514853
0,03239948597845
0,0555672966716124
0,0775631960438762
0,136327679097451
0,136932948272996
0,124427998435706
0,084670064572767
0,0601344137636681
0,034336137938732
0,0247679059933384
0,0236537261418145
0,0170684601789795
-0,0163903105270356
-0,0225517824498743
-0,041751943193486
-0,0280295231684807
-0,0135533328825082
-0,0101019627672486
0,00878933878694808
-0,00190957251579707
0,00560117506750181
-0,00277705149917208
-0,0108496161224999
0,00825550531512949
0,00407561464897543
0,0107606500112342
0,0372303318825419
0,0380791987187095
0,0380962668993435
0,0579429145194321
0,0923421501891468
0,12717872619723
0,14412933296234
0,145843424893337
0,0799581963615741
0,0545162561292216
0,0487296419025434
0,0374522517542072
0,0057939138693614
-0,0131689233420657
-0,0330445096237908
-0,0630579405942356
-0,0507463003535572
-0,0274334490589643
-0,00837887135313263
0,00114584007697081
-0,00823491843309089
-0,00781103727840131
-0,00247351537201247
-0,00206231354703457
0,00635434361924591
-0,00272614782185491
-0,00175641085264661
-0,00396266979715788
0,0208573256468398
0,032240273912173
0,0376848558150557
0,0352154842164256
0,0728844735722474
0,113714798926833
0,132795163645834
0,119786861754504
0,0512524332417345
0,0473419896050907
0,0601719125472577
0,0451537323094495
-0,0195456156572539
-0,0642750532823421
-0,0755620728890266
-0,0693899919167671
-0,0553949735795429
-0,0392591169949244
-0,016833140940148
-0,0116734635077306
-0,000851714896239522
0,00305686344947887
-0,00911147721970934
-0,00752859625586301
-0,0088795411437719
0,00102226802926588
-0,0109102110271554
-0,00946308981058488
-0,0154429510756021
-0,00318313096616345
0,0135987691292619
0,0375449292669675
0,0806321866867039
0,0964725302770028
0,105470923197107
0,0561091545518642
0,0290333858975982
0,0291886115504019
0,0656375883508491
0,0383465357441807
-0,0268844625168241
-0,0545838088266699
-0,0638353894903751
-0,0637255144699607
-0,047424566654139
-0,0157447700700772
-0,0136334235588302
0,00681536332388734
-0,000770573583556342
0,00344335706727644
0,00957642163130288
0,00351868899798943
0,0070035596044658
-0,00888912783771564
-0,00693081979979657
-0,0125156845626349
-0,0135139382820836
-0,00925965915863622
0,000534935873121603
0,0240712362624904
0,0678713184105152
0,103143440042795
0,0805886577176078
0,025453276744121
-0,0029110854096352
0,0355690462012392
0,0533209276058797
0,0175869670364371
-0,0025716459511105
-0,0378348821607468
-0,0301555033028954
-0,0413263359823795
-0,0374880803378147
-0,0105065550963323
-0,000381647680552297
0,000282098882545974
0,00390096540693383
-0,00293679134720152
0,00304115727000453
-0,0070638633429913
-0,00556344686798215
-0,00959073012858965
-0,0202538109040346
-0,0171459683018786
-0,0195207467802282
-0,012560181626395
0,00253961220590614
0,025942270361193
0,0385644826520764
0,0442511968541165
0,0138131156639215
-0,0351513700670943
-0,0153054287421872
0,0191217845155048
0,0272296998406456
0,0209096062708775
0,000218192943060427
-0,0138722945767723
-0,0139948320843494
-0,0177332900447662
-0,022681329489217
0,00864834191579004
-0,00452286468759441
-0,00623997805638391
0,00576773392953495
0,0023970062052506
-0,00210637385404179
-0,00380266520778824
-0,00151283676437619
-0,0161089337469699
-0,0180133281377197
-0,0100876742413081
-0,00798033757918088
0,0126500462948284
0,00641525435458012
-0,00581837310833464
0,0045750449313578
-0,0136618251259948
-0,023452165493205
-0,0429557942422376
-0,0237415774261471
-8,17737067894046E-05
0,0342171019907627
0,025005934680644
0,00929937709769343
0,021772496890245
0,0113519955287234
0,000871913745904108
0,00186456240167433
0,00492061566027649
0,00736723838232797
0,00576354749378488
-0,0053836563564454
-0,00743762741707549
-0,00784888870913949
-0,00210465655258655
-0,00754774916793089
0,00200330981943615
-0,00901199674435572
-0,00931580690218387
-0,0058872885316396
0,0124780431427552
0,0068964538647335
-0,0133821080445223
-0,0317643319883784
-0,0142663533064443
-0,0276655779091005
-0,00547433227879919
-0,0222157975020071
0,00961570794788514
0,0126721212353105
0,0212566939417085
0,0173270944098988
0,0405653667800986
0,0209099254112288
0,0294025583905817
0,0289256502040595
0,0142017258844596
-0,000764251434285822
0,0108427477193635
-0,00555806398536936
0,00949012607646883
-0,00882023519358457
-0,00306958891461333
0,000409898673571528
-0,00391096376379929
-0,0158996292077071
-0,00764534137275111
7,15943764752054E-05
0,0049245864219774
-0,00426091623388879
-0,00747757894280996
-0,0234180041566381
-0,0262869297792403
-0,00950233324691277
-0,0115437062591496
-0,0121264235185185
-0,0214916380732623
-0,012995713051779
0,000762237407321707
0,0278729579811117
0,038618067255011
0,0363120055354398
0,0289270674455827
0,0236251474078807
0,0153173467663935
0,000293298707270974
-0,00505438592507764
0,00973313188582626
-0,00641863853628868
0,000208383621185922
0,00351828292355263
0,00579031574439124
0,00179937962089252
-0,00890710879169162
-0,0276926364591706
-0,0301938085534142
-0,0107534250907072
-0,013816007134528
-0,0291059006171362
-0,0270964838892242
-0,0221419261823525
-0,0110026063776221
-0,00871071073557116
-0,0296556996921929
-0,0383744052554711
-0,0282673679914998
0,000707617047738907
0,0351577929325722
0,0531577431989117
0,0351406459551106
0,0294115024821932
0,00901881745748489
0,0165692287827105
-0,00395015519983392
0,00603763517478019
0,00371684318703119
0,00559785895545169
0,00670011969129561
0,00764752866590746
-0,005838120978696
-0,0109025542501724
6,92451899528808E-05
-0,0165937617721485
-0,0246088670853891
-0,0387912087095363
-0,036559843984986
-0,0250031859501593
-0,0270416498395203
-0,0284662816155179
-0,00679779524769376
-0,0117540087542079
-0,0263461658491105
-0,0224635162003089
-0,00550751180751691
0,0133937740021109
0,025331827632182
0,042490102547936
0,0392310223565875
0,033129396103945
0,0148610262481866
-0,00291122368635836
-0,00186409078643373
0,00985304480758353
-0,00865549998087173
-0,00552843010776137
0,00215972458578633
0,00699463039496664
0,000129625793635688
0,000775130842750688
-0,00971656190115843
-0,018288253799252
-0,0329626476239415
-0,0190300629130063
-0,0257634894684385
-0,0162642668490046
-0,0188764260028342
-0,0133804202886222
-0,00685743067758785
-0,023838501649241
-0,0236032699683647
-0,0208348833116789
0,00903810841885274
0,022885126385722
0,0216473239030378
0,0313849858775304
0,0316487298382347
0,0139836636610518
0,00781674263780241
0,00742178037625979
0,000726227695240198
-0,00572136634209165
-0,00300086697961816
-0,00887372697651094
-0,00259821608317933
-0,00624449204478622
0,00324738994057927
0,00786394843714917
-0,000959471862497858
-0,00474551304440266
-0,00323999382393771
-0,0197867222464152
-0,0207230181845728
-0,0231883640211712
-0,00655448400371385
-0,0222247586007108
-0,0215369339248709
-0,01990935965577
-0,0237297283536801
-0,0262961079529842
-0,00338197474912308
0,0172279103405437
0,0155699277216758
0,0111333810354707
0,0137617439900293
0,00700966390055342
0,00213797286494806
0,00424260536234526
0,00950998807386358
0,00711324484915351
0,00419196201386533
-0,00146393798825514
-0,00104345672346812
0,00708965308828729
-0,00817288323220466
-0,00737500736587111
-0,00894386745692328
-0,00943144930677507
0,000207690401843613
-0,0106204714693028
0,00288083883531018
-0,00581658208894291
0,00311878034992063
-0,0103739729327862
-0,00716295890415299
-0,0144885087277674
-0,00370809543957483
-0,00717360320817526
-0,0146348476854298
-0,00262390546271439
0,000535809492790517
0,00985111878254489
0,0115093878389217
0,00251186552161581
-0,00274814005414002
0,00437871419462954
0,00490291756350933
-0,00379084771153866
0,00804033283984304
-0,00710525221987872
0,00627498972987523
-0,00893509936469379
0,00876048400940396
0,00493066074090575
0,00761205053894209
-0,0015242774057123
0,00613617539205045
-7,06007016332274E-06
0,0077946255574798
0,000827807966843511
-0,00124720851522098
0,00332882239335223
-0,00688769411286149
-0,00624448138690635
-0,0118384334560956
0,00693132959056395
0,00622359210260209
-0,0118321927450964
-0,00202564781392701
0,00519156068479431
-0,00311570481373954
0,0051817149039488
0,00147345567574648
0,000573545490145475
-0,00169099016659474
-0,00952858189098937
0,00592920196053069
-0,00886041381343287
0,000563638001011516
-0,00207025725956553
-0,00229490577815795
0,00472760092221555
-0,00706423214500036
-0,00134704892120652
-0,00331132639819352
0,00671203275058047
-0,00213664533204243
-0,00787044800718801
0,000491606290681103
-0,00780084696495945
0,00119362057463702
-0,00175123929074423
0,0040016282613789
-0,00148118432869018
0,00850049598072679
0,0041998109846375
-0,00124094637634277
-0,00544627913993144
-0,00462723955261858
-0,00340842230869849
0,00444453647101509
0,00352963395115437
0,00614083125076295
-0,00774207822873354
0,0066948120839404
-0,00854079845293462
-0,000455994508441535
-0,00183842940807269
-0,00337834909249952
0,00714708183759222
0,00259274302394907
0,00509938920411171
0,0109222072317354
0,00343700075382734
-0,00328178096069656
0,00715206180170054
0,00434919550013181
0,00951149958259961
-0,00384294732067081
-0,00116690480968566
0,00388899249328654
0,00932770104693481
0,00402146677666614
-0,000457072015285898
-0,00475620900579052
0,0085884614634924
-0,00883817037875724
-0,00669301495400634
0,0024782752223422
0,00429591485849659
0,0017123644853534
0,00137548110046213
0,00576682573918571
-0,00602793969028999
0,00348520626941938
0,00417546027068768
0,0085876537363879
-0,00929672225291533
0,00202270627627649
-0,00470850205224219
-0,00143823729064602
0,0149493758175492
0,0121751794639003
0,0105320310739184
0,0126467049206797
0,0217159097957243
0,0185282497877198
0,0155593611222112
0,0150975219402559
0,010976681230614
0,0093307131368302
0,0148092884622629
0,00109249785169673
0,0147235334684825
0,00776098754111694
0,00896622186186174
-0,00639957519080554
-0,00126308505494954
0,00770984277989214
0,00850470888532959
-0,00938322266535052
-0,0034592516596705
0,00606315315517744
0,00251245205873272
-0,00456160444798862
-0,00869933768862623
0,00933528015803934
0,00602812809025096
0,00990777202389413
0,0088626841987451
0,0213993494259255
0,0191399783442013
0,0196098308182351
0,0390537311141029
0,0500559099563439
0,0528198597780569
0,0406534819587148
0,0525008203496415
0,0476039361934561
0,029235407314123
0,0215851511881434
0,0225709924704403
0,0186943735034106
0,0033220254107914
0,00264205179557476
0,00982215830143755
-0,00116046620647537
0,00625380818154753
-0,000511361564417824
0,00636395536193808
0,00153347058758767
0,000327481549233263
-0,00687510834961494
0,00332785356042582
-0,00618773551621126
-0,0100879302739503
-0,00405373695290373
0,00138964110429989
0,011075667727116
0,0192367755458805
0,038432889582641
0,0459805056690046
0,0604228115230917
0,081878243169964
0,0784244897166323
0,0793196584913428
0,0674706597967266
0,0524220905594282
0,0299956716235807
0,0156775639207314
0,0167320674520467
-0,0054635883699985
-0,00546364146081598
-0,00729018072789656
-0,00491794073001334
-0,00782486583785978
-0,00248256478644515
-0,00326016976114017
-0,00906883182892056
-0,00384375765633013
0,00303264042487968
-0,00736965809007872
-0,0057308846881804
-0,0140462893134562
0,00486138144751332
-0,0019413095248419
0,00476230203694339
0,0144933055298505
0,0274496997798023
0,0523825104782637
0,0743419997387389
0,105551812810115
0,106026735021751
0,107792849221999
0,10481552365081
0,0942184896769273
0,0579511994956088
0,0280128291374664
0,00433915556183021
-0,0123782466078567
-0,0131591334785124
-0,0294331454336539
-0,00894123790975472
-0,00787967806724754
-0,00950184739633075
-0,00362208569766724
-0,00965522794968226
0,00429251376966445
-0,00510662082813956
-0,0098378751287515
-0,00232848542319427
-0,00376169276633794
-0,0173466411220108
-0,0123403955636987
0,0022274320473861
-0,00105460228190055
-0,00202889517492603
0,0115548167647205
0,0354278423404446
0,0411371166431924
0,0267654780359467
0,042225394072927
0,0310271129310912
0,0123071729083602
0,0142198140070443
0,0103254867333409
-0,000900024062804312
-0,0231890706455522
-0,0136813281199221
-0,0259732849690242
-0,0197743436112263
-0,0167536459206663
-0,00996885668739251
-0,00941204348681188
0,0049439121520183
0,0017755670944991
-0,00219207852982152
0,00442213791101763
-4,63121682007782E-05
-0,0122502349842046
-0,0137348727461973
-0,0052230576776169
-0,0160738482273554
-0,0162827818733992
-0,0203814049243364
-0,0076663147246308
-0,00892760300455733
-0,024723630189123
-0,0202471249971625
-0,0175394687461741
-0,0338628569580512
-0,0411163548272896
-0,0341112665901538
-0,0371558689059967
-0,0288447507685232
-0,0245196842792764
-0,0300879991206741
-0,0229873598106765
-0,0142674921564504
-0,0161059220700436
-0,00204077273466245
-0,00992895414080723
0,00762298511243287
0,00427979673027089
-0,00123282270114369
-0,00631630926176667
-0,0090071127949759
-0,0224933491818697
-0,0133133027997049
-0,0161854253413614
-0,00935168606491852
-0,0075097521978827
-0,0120629148309304
-0,0124321992010857
-0,00514959077998252
-0,00854041486768284
-0,000842109196440541
-0,00460502766262872
-0,00510088215641595
-0,0349158255686603
-0,0302143927641494
-0,0413399168403414
-0,0439872958862896
-0,0260023657025436
-0,0136726580804956
-0,0165623641518036
-0,0085816803312958
0,000834481085092281
-0,00573701258078765
-0,00876297657443813
-0,00371801320045413
0,00594328981941168
-0,00692350567078353
-0,00127487131138004
-0,0192555040715476
-0,0143744338996437
-0,00356035663293333
-0,00018346849389762
0,0150293778637019
0,0156707612921437
0,0197860560722116
0,0123125357455291
-0,0095234476259132
0,00926513863279488
0,0258992740491724
0,000923526817199631
-0,0281316994447027
-0,0346562136897896
-0,0331784523351952
-0,0402186818730935
-0,0430746142802196
-0,013434309975354
-0,00142793246293306
0,0122699780508368
-0,00404999607943945
-0,00948848201592354
0,00473712477983836
0,0091291163732593
0,00521068850080368
-0,00464618886998292
0,00620458275190252
0,000173232398672926
-0,00496667550004794
-0,0166213825261051
-0,00540471245666367
-0,00402831130196895
0,00176640624801787
0,0147842233727022
0,00282312237105073
-0,0060529444396559
0,00264306677039199
0,0256247125927746
0,0260886035110101
-0,0130615403280914
-0,0563128774826987
-0,0588392559046512
-0,0394865154993367
-0,0239184158626453
-0,0234137968263457
0,00105606526079568
0,0101155285775583
0,0225413669965205
0,00775489348956251
0,00890436444252176
0,008449092997141
-0,00370384239737342
-0,00752399318365334
0,00286811021813968
-0,000630088054583028
0,00187426936146328
-0,0148110132817998
-0,0130886745285011
-0,0155259083637113
-0,00902525746569579
0,00354302036811472
-0,0107171704108403
-0,00741105644465046
-0,0262246766994297
-0,00771488191292205
0,0185228237447862
0,0213003822393654
-0,0308010794939762
-0,0845014706638836
-0,0724567871359934
-0,0289832928986171
-0,00913878902589337
0,0116257614173906
0,0213712768814476
0,0316403786858775
0,0298480294970837
0,0284885897023315
-0,0068827944675427
0,00509909097633915
-0,00911961301759893
-0,00741479545956743
0,00228185046907549
3,53011206746453E-05
0,00332476773042432
-0,0226010254340157
-0,0270003625994697
-0,0357241501388541
-0,0395498661430468
-0,0326048574836165
-0,0490762856166395
-0,0499943961517051
-0,0353972584031134
-0,0138347597117642
0,0249987243794942
0,00355279776450708
-0,0582905951217294
-0,0892912153564944
-0,0600552251781059
-0,0296912598280838
0,0051803186242724
0,0305910838783436
0,0391881040625358
0,0498427017038651
0,0510977642180132
0,0212912510926787
0,00926693452183849
0,00295169671620269
0,00254335147766608
-0,00560332891965217
-0,00032046654697805
-0,00928064352632181
-0,00372071822911769
-0,0316737007103592
-0,0332080265961773
-0,0496538113805271
-0,0680444152441129
-0,0700337185888469
-0,0728379955927575
-0,0577775779590937
-0,0375768219050331
0,00106345560103831
0,0125095362002151
-0,012677187711212
-0,0591370628287652
-0,0726149428004352
-0,0575217081076343
-0,0177349171384962
-0,00429154166410382
0,00573207898594885
0,0201743501940607
0,0438130639395026
0,0425028671264084
0,0367910081952374
0,00811507344697293
0,000209740923023021
0,00127460555233024
0,00231917560718202
0,00204274533500875
0,0022101302658452
-0,00310890583451363
-0,0151657034517468
-0,0349904129187857
-0,0601054947015954
-0,0651917210114403
-0,0739770738205383
-0,0588721653588533
-0,0237671574425848
-0,0154290089075308
-0,0214260656775061
-0,000881336924688923
-0,0051196858347688
-0,0403883125080667
-0,076944931164169
-0,0789018223373696
-0,0688094920821588
-0,0327917242616002
-0,00926753978643633
0,015248997816969
0,027407822466987
0,0401499666238081
0,0309823948228793
0,00629823983356857
0,000724761303606487
0,00781789236046124
0,00432493926029947
0,00528302375716573
0,00154535930913271
-0,00530650196778103
-0,0178267442348054
-0,031334063678768
-0,0343337392194256
-0,032974012899292
-0,0440530881070879
-0,021311704335082
-0,0142183815046593
-0,0210829419817527
-0,0154590233205635
0,00321438201892234
0,0195535579707637
-0,0413608281379322
-0,102511806682253
-0,111745288099207
-0,0956511801520566
-0,0659248038178882
-0,026486532093032
-0,00352521753898471
0,0142673273477455
0,0289013913508633
0,0284813731606053
0,0112435903413108
0,00274742198035819
0,00441147035294333
-0,00411992022219322
-0,00867427381375397
0,00455492783864783
-0,00331300824207457
-0,00338114511764896
0,0021117694905554
0,00534620996340664
-0,0158936752610369
-0,0154168282693295
-0,00345812517130986
0,00921052428479905
-0,00393431840139457
-0,0113037482503834
0,00693068357901071
0,00157200986370058
-0,0629119270755763
-0,0941203607295014
-0,0906679814930457
-0,069612351631485
-0,0281359843593478
-0,00452545612720068
0,015748993992466
0,0354813122156281
0,0394342319785383
0,0273965573965678
0,011766381894022
-0,00529104186174282
-0,00615371962312825
0,00364350786136627
-0,000312083156958849
0,00804970087686262
0,00586501386582483
0,014682048039659
0,042210111127084
0,0416280993564806
0,0287718438643112
0,0271467297813358
0,0610059342746999
0,0807537182980301
0,051330714080979
0,0300761251508114
0,0133554539186258
-0,0084999064257553
-0,0422795013501024
-0,0510376149512353
-0,0268234224115649
-0,0111861945256628
0,00252481265648847
0,0242777228725748
0,0380482665147489
0,0509154804297394
0,0483101312581938
0,0264204026019718
0,0186264751423827
0,00862410474194862
-0,000766554934796797
0,000454612839134795
-0,00141382845157523
0,00653827549291846
0,00637508550977049
0,0178892383401796
0,0552323308385206
0,0753480295393858
0,0757367789589092
0,101066132572299
0,126353540137212
0,150605569008028
0,139260764228819
0,118681935925844
0,0634801046114803
0,0257423921622543
0,0216100080508797
0,010610693559066
0,0241522931699204
0,0351319834243843
0,0248595507852027
0,0389039834905845
0,0544365356798399
0,0651701889859354
0,0536838913708719
0,0445950805249865
0,0196830497907701
0,000857513149444292
0,00969824706700367
-0,00945896201156626
-0,00255165629323747
-0,00104078852675273
-0,000546253080856233
0,00933770644858483
0,0458051875831076
0,0887891637228933
0,115527345108459
0,158725966334316
0,174393138211851
0,200363711523189
0,195172440732243
0,171789239361916
0,115380287643472
0,068662848832953
0,0584097564295961
0,0623393223908846
0,0588640946742215
0,0383052453324573
0,0243164025681353
0,0290306796786077
0,044747791306833
0,0516551655576451
0,0535086955752602
0,0203810054080807
0,00715820317748845
0,000481559400999914
0,0032836267935755
0,000507072503914624
-0,00301236742257635
0,00442505630124683
-0,0101418128762877
-0,000518131609040119
0,0403443236506201
0,0618238683291727
0,0971718400701636
0,136814304542487
0,157956840852194
0,161762231694104
0,162570814645142
0,141467945162363
0,113672998220724
0,0936259815017709
0,0859346101528543
0,0604395944732642
0,0500142174505066
0,0357547420426675
0,0177051930075516
0,0198023092947956
0,0381113516305629
0,0320602317337389
0,0265961133417605
0,0209238589474921
0,00104526496514162
0,00360985482127936
-0,00298430643616699
0,00733012265597905
0,00263977906283777
-0,00304222209994888
-0,00275353484029317
0,00288165346358707
0,0101147314063979
0,0371959359139355
0,0737186430925575
0,076921554442552
0,0868353330518422
0,10042592192363
0,0941488031380699
0,0909462045819342
0,0754367266180186
0,0614691121681856
0,0538102444230344
0,0377592910533027
0,0311376300495508
0,0196811611171193
0,00993691341504249
0,010842986891963
0,019054383103834
0,0260342657388657
0,0233397823180965
0,0032730690332541
-2,54894833958186E-05
-0,00737672460696104
0,00293368781292938
-0,00595728867745256
0,0044021924800837
0,00325494512046828
0,0013083939062864
-0,0165161515786756
0,00364343076296633
0,00565874844602409
0,0171396557363878
0,0257156035057394
0,0297483282422953
0,037589020586781
0,0393982267406926
0,0424586336990831
0,0324496637034174
0,0319039567237062
0,0284379799905374
0,00841593794417663
-0,00297275370708127
-0,00804628868585051
-0,0171776795820909
-0,00569366245150579
0,00437886044790625
0,0128831231922865
0,00108936501925769
0,0124526958255367
-0,00748903412544844
-0,000364745695786498
-0,00569128580591748
-0,00830383893954746
0,00727677940264194
7,50154548105886E-05
-0,00499876724819122
-0,019102385991166
-0,01761589415657
-0,0268791337801919
-0,0298772779304444
-0,0210227280563018
-0,0197430162979102
-0,029157686345415
-0,0158408580239455
0,00173857461715605
0,0204296876268305
0,0145017452983043
0,00759206127837578
0,00253155710998207
-0,0119374996035269
-0,0179285303606006
-0,0221338653368428
-0,0277904734305653
-0,00726969466451102
-0,0027936607376704
-0,00891899387930295
0,0110712085409094
0,00723615512665476
0,00909292615684985
-0,000842612381485575
0,00903289339460102
0,00165795379861163
0,0070572248183472
-0,011870047434956
-0,0143001523254631
-0,0116062991005895
-0,0469076696844193
-0,0540890327126506
-0,0665035959343464
-0,0606445686829624
-0,0553004191378227
-0,0431130262340484
-0,0143908294394118
-0,00726695898799899
0,000735656827757432
-0,0178288579113367
-0,0123485786632783
-0,0337458257637869
-0,031965434246534
-0,0193419188218082
-0,0119712442043069
-0,016600388080246
-0,00662865354538764
-0,0119275475834573
-0,00684475460544865
0,00675461322912693
-0,00850809237615197
-0,00322481399086528
-0,00319350002016569
-5,79649349944505E-05
-0,00116044318691152
-0,00626787887545912
-0,00428140371823998
-0,00234578907659262
-0,0190058303539257
-0,0422878499525654
-0,0594785151803985
-0,0628770477646984
-0,0480992929766119
-0,0582660013377346
-0,0428637914330394
-0,0547507156064298
-0,0507243325352354
-0,024369830914794
-0,0346388840412184
-0,0216317919673698
-0,01277742863415
-0,0217321564759651
-0,00462054023031849
-0,00779482895841538
-0,0109797539295979
0,00209111081055001
0,00280294114605195
-0,0050469645172014
0,0017796003460435
0,00215298617824585
-0,00966485108233283
0,00637481849471797
0,00900177155574866
-0,00122927313328457
0,00594910829282907
0,00226812592838119
-0,00892081006213642
-0,000424272389195495
-0,0192093570632911
-0,0194973000737643
-0,0116806418235697
-0,0114115363461829
-0,0220571982454838
-0,0153128625656483
-0,00970108639920197
-0,01092334665947
-0,0130728773461283
0,000119123671927971
0,000120668047983925
-0,0012038326502373
-0,00753522821364953
-0,000397073203675333
0,00359675112448644
-0,00327497841668563
0,00644939213780281
0,00550136608979824
0,000543395341627017
0,00794187255107885
-0,0026162724628189
0,00526939400251461
0,00138793205441345
-0,00507335287289384
-0,0022151847844074
-0,00851301023916387
-0,00473551406949113
-0,00482072733248541
-0,00573110558322489
-0,00236976058213554
-0,00452371182290928
-0,00924840712659292
0,00571137689473726
-0,00901906392444744
0,00446799429073126
0,00781868383435125
0,00843583624055286
-0,00780886400094507
-0,00864226701982886
-0,00713742335011581
-0,00121232177992825
-0,00163714625512133
-0,00557770800538955
0,00337302091160647
-0,00244044378979152
0,00763534615637518
-0,00402939133068053
-0,00157425417172455
-0,00826458982111168
0,00211700467957044
0,0024277970252688
-0,00805058304129661
-0,00485494863933648
-0,00113313526433573
0,00046939795393003
-0,00260237689716852
0,00521544165686492
-0,000266422727269318
-0,00222312661457021
-0,00801295088511563
-0,00239852190934587
0,00437323248010508
-0,000531880621708675
-0,00972437284732898
0,00323184844722592
0,00580709495386439
0,00706218305838396
-0,00666202670739127
0,00516301840318507
0,00515291286406709
-0,00310357245295475
0,00296481746852622
0,00329421846815116
-0,00269204266960362
-0,00106948065155627
0,0089590495261173
0,000273090717509895
0,00785305439394575
0,00736709091689768
0,00017026483554871
0,00558687243659995
0,00692912936564476
-0,00651196326859132
0,00218156298355576
0,00528973905474995
-0,00628279609298168
0,00532152488298955
-0,00326868517207627
0,000713667745730724
-0,00169542336140912
-0,00579929021059266
0,0003498053906743
0,00446822634238617
-0,0107146896258607
0,00517529994232833
0,00423355992675858
0,00863441494066455
-0,00548141918321634
-0,00985110339124009
0,0017023353351296
-0,00942683690200878
-0,00736736462328926
0,00326272742509038
-0,00341750268517877
-0,00477942286747481
0,00946297955674258
-0,00134573137390587
0,00782611725479421
0,0098985492431665
0,00148999703921457
0,00679569285604461
0,00606491700953092
4,84925537617917E-05
0,00453665294024372
-0,0083758758399129
-0,00544886602572107
-0,00638838031191661
-0,000719456027124412
-0,0128907399804052
-0,00772882280498299
0,00153293812207422
-0,00888394743952011
-0,00524232222782958
-0,00921428297719538
-0,00238060094465508
0,00467956574134164
0,00632666444058085
0,0027136266480311
0,00153473165515512
0,00434105025586763
-0,00997408965601311
-0,00444660960438038
0,00755002518070397
-0,00438537033944641
-0,000393307828274499
0,00292166987180502
-0,00632490907926991
0,00689959939239618
-0,00367317777782129
0,00330151244938933
-0,000345662532330674
-0,00103242648476932
-0,0158644057705904
-0,02733653649727
-0,01784542653867
-0,0220732939213791
-0,00974485168673856
-0,00812284898904986
-0,0166053520359318
-0,0265775935908088
-0,0257189143745227
-0,0226191626985349
-0,0182882128203437
-0,00277523502987615
0,00123666080663123
0,00114852943729967
0,00136198135461584
-0,00259988818631223
0,00568764819597652
-0,00142108835811777
-0,0077948435199423
0,00559625913860228
-0,00383690170801365
-0,00443297594768315
0,00132233599269916
4,28493828342905E-05
0,00636332186892171
-0,011456226185616
-0,017454540532611
-0,0206265882356695
-0,0312975365018126
-0,02482421856953
-0,0267371122553177
-0,0262619682220585
-0,0232895728226817
-0,0383323556222855
-0,0473081206880019
-0,0369846126275419
-0,0239557391893601
-0,0133647924028311
0,0143350685143702
0,0213063186441327
0,0172938494858808
-0,000407563313619278
0,000548343176885927
0,00732084866025085
-0,00494137341398052
-0,00385853739880688
0,00341053828290223
0,00809000708073843
-0,00870166048462419
0,00653335482489646
-0,00866405968713649
0,00552068745630664
-0,00598229534218675
-0,0296309771558297
-0,0328314425764257
-0,0577406015684201
-0,0572377722329427
-0,0626580083732466
-0,0598324471203078
-0,0585159335927074
-0,0695940591495176
-0,0955423189906459
-0,106764511073128
-0,112987992671081
-0,0804798906182015
-0,0496572746597287
-0,0192701229710891
-0,0124719465498005
-0,0126989760079835
-0,020176714213473
-0,00409538893417709
-0,00311186693845729
-0,00172713418496393
-0,0069807781200787
0,00637266996147701
0,00930347830056633
0,00488146306444624
0,00445165684928149
-0,00372737892148205
-0,000519531790613121
-0,0106867608152015
-0,0288902956293982
-0,0390863310412071
-0,0545610727129209
-0,0512814135829726
-0,031924918531516
-0,0123347599647686
0,00528083331220204
0,0144816106747787
0,0176010621161413
-0,0149913650715223
-0,0291190632276203
-0,0351175533964695
-0,0536683137929305
-0,0494336352802785
-0,0434920862961294
-0,0612737797751258
-0,0573589173853652
-0,0363241188289509
-0,0136968854324005
-0,00615513214981619
-0,0080964514433924
-0,00241007558372702
0,00973784637094712
-0,00718252750421246
0,00267377800116913
0,00269775573503364
0,00185373971844807
-0,0157015286768488
-0,0162170478948959
-0,0299865757847745
-0,0288228075001441
-0,0199403289377206
0,00950202626825048
0,0519541993677356
0,0639415322428386
0,109145897753358
0,11591391121538
0,103052295789642
0,0441562288719426
0,0166632995446606
-0,022356330925394
-0,0460032726383435
-0,0621175544400356
-0,0871400710657417
-0,0794947769432625
-0,046206127420679
-0,0322670927276767
-0,00162383131699935
0,00711983045555883
0,000279009954738298
0,00429262350185183
0,000363750417248627
0,011074311966594
0,00750761309211074
0,00874436685039113
-0,00560753087722511
-0,00536537101862788
-0,0159104950163294
-0,0308686188199924
-0,0173847270363874
0,00487099877173644
0,0438365664920961
0,0880580098186718
0,116252790505365
0,10999137636761
0,0888355981027615
0,0386419246580772
0,00806567248938193
-0,0322871360212655
-0,0490728921780603
-0,0760215673363298
-0,0853263830471226
-0,0806084733878045
-0,0541233167616066
-0,0351880020504336
-0,0164990801516782
0,00474934891354484
0,00887886073811813
-0,0080201641451193
0,00872707901816029
0,00885360574160363
0,0231856479355132
0,012609267713715
0,00462367108268912
0,00518941010919432
-0,0126693508505492
-0,0206338314224363
-0,00332801325947186
0,0178087342995135
0,058095194653413
0,0890411937110326
0,127223504951842
0,127459869765915
0,0885021041691287
0,0378591412322548
0,00973028966717055
-0,0232574670203464
-0,0405833327999354
-0,0455200322672261
-0,0690777622953567
-0,0685396849549232
-0,0465255418814609
-0,0274885541929216
-0,00811951616323882
-0,00194643337341241
0,000863659210388061
-0,00597882684357052
0,0132267699851501
0,00432763309761739
0,0193855763380913
0,0231678014647561
0,0284310230900727
0,0100244203969244
-0,00118581356971059
-0,0030984008469097
-0,00295953594375266
0,00907263633060731
0,034852149215889
0,0764859549122637
0,13092873207841
0,148185280736849
0,0993811369839334
0,0379917606961222
0,0327339403426301
0,0263270632573638
0,00462051471080507
-0,00406085470825157
-0,0279123841621469
-0,0294481354360052
