-0,00875296363548979
0,0098293064068208
-2,74473941081418E-05
-0,00620147374281728
-0,00761134434380165
0,000933291740218778
-0,00534781670912533
0,00344063355281979
0,00352497134987496
-0,00671728154491507
0,00192639823627025
-0,00147439672214649
-0,00747640726973315
0,0062251856032435
0,000965666761101861
-0,00441508143709593
-0,00444313882591349
-0,00703732898320878
0,00300369918951937
-0,00372248092373949
-0,0038364322361706
-0,00839840442798957
-0,00280800522901491
-0,00475162567326409
-0,00533099054141482
-0,00502316955245248
0,00274379319173461
0,00502599078930262
-0,00973035987454018
-0,00552425524942775
-0,002279268629979
-0,00552632724657949
-0,00257942870426038
-0,00496858614413703
0,00850900392264484
0,00684966245058066
-0,00444089591319354
0,00713598695805766
0,00750831318421889
0,0037852688892763
-0,000212614545334922
-0,00475696486386792
-0,00227542505829131
-0,00324509169141682
0,00586060650484231
0,0048384723659676
-0,0050381614071185
-0,00231084491039127
0,00493093150726058
-0,00092074371719216
0,00807820214514654
-0,00682318351115179
0,00620708685191678
0,0012022124655555
-0,00442249022164498
0,00964544079249978
0,00263731163583571
-0,00527582172084405
0,00913105028010489
0,00741212829869842
0,00821414086142848
-0,000362437746787225
0,00335738951449829
-0,000342278694551125
0,00700413256019157
0,000184495949985898
-0,00530915438215864
0,0100205334768341
0,0100229396724026
0,00663106883025161
-0,00709158444349781
0,00146117512662998
-0,000748285739077135
0,0152643862318105
0,0149816545689639
-0,000177954494248366
0,0101774046611777
-0,00556474435890136
0,000809056942663569
0,000569480584502806
-0,00968027303633821
-0,00481723975358877
-0,00961408354324013
0,00139722015308087
-0,00356831840871289
-0,00545178911436898
-0,00173362568173512
0,00623027233078596
0,00955301548584504
0,00880294430825681
-0,00553172807480739
-0,00933280746884498
0,00790735143371016
0,00908646904983224
0,00326522588407698
0,00322103500897333
-0,00973999736383391
-0,0035123294624029
-0,00519917620895517
-0,00183364688205519
0,0106245969376155
0,0141622904160711
0,0233672318140911
0,0162094813499973
0,0190892273240869
0,0139766782385344
0,0161168748343356
0,0111949313166538
0,00652797031818356
-0,00546907348054086
-0,00416263509408209
0,00254716151978223
0,00629511549896333
-0,000578207398849697
0,00712780687995728
0,00276742936001608
-0,00108688632684676
-0,00950871839779812
-0,0111745474874595
-0,00574825240300427
-0,00293045485036904
-0,0233805575122448
-0,0194931463496497
-0,0322020850654349
-0,0521583262820458
-0,0466245628578021
-0,0483707008653922
-0,0384856713015482
-0,018554252673587
0,0133274701385112
0,0155820527109596
0,0262209946133805
0,0197097492791362
0,0292961488484673
0,022371811481837
0,0151392533592565
0,0111009434525961
0,01072628172744
-0,00722421646312168
0,00727188836236598
-0,00276626661083021
0,00178723389831708
-0,00809711570660902
0,00456829942144479
0,00085709122292588
-0,00472041547865582
-0,0173071862234883
-0,0193500332521267
-0,0298808382797097
-0,0360031561491416
-0,0353591301489307
-0,0517476653638631
-0,0580416490522701
-0,0827471774780241
-0,0693174702827409
-0,0603115035136904
-0,0420098598339608
-0,0164840739255931
-0,00041807883895314
0,0074020527153433
0,0205074934566778
0,0188598315911965
0,0240972714075655
0,0287990780593382
0,0160151956043001
0,00312101166820104
-0,00586476132881967
0,00727321124148991
0,00357595084867252
-0,00588582523730565
0,00713946530442347
-0,00273855052236349
0,00247664901247167
-0,0174128155693966
-0,027100780633246
-0,027833180607744
-0,0370335503988213
-0,0373455348306048
-0,0363151670541904
-0,0303848357453489
-0,0410747192494188
-0,055920611900829
-0,0433363784635193
-0,0304580740880911
-0,0174032761692056
0,0016370960190708
-0,00114934997588869
-0,0127956398444098
-0,0117409488698608
-0,00207910301685348
0,0102513792078961
0,0168328300096971
0,0131107813199562
0,00803731247020254
0,00972032941148196
0,00612513182015842
0,00994909557706458
-0,00527232843696405
-0,0103950156546863
-0,0113784213842725
-0,0149894866062525
-0,0237800055685523
-0,023651426265184
-0,0190106144336238
-0,0307702966103456
-0,0294840211736308
-0,0160196111374092
-0,0162231881096334
-0,0166359274931423
-0,0282837716099852
-0,00698123663163796
0,00755828145606722
0,00978984992513546
0,00305825541783924
-0,0158080828272957
-0,0277092595436537
-0,0363110546132353
-0,0221168494496177
-0,00319233538826455
0,0174565545541121
0,0126065390651407
0,0096075956576393
-0,00160952602310561
-0,00332571759792078
-0,0097288195584054
0,0021783242866151
0,00887841879547462
-0,0108650901483607
-0,0204685352516228
-0,026306683972106
-0,030137763656221
-0,0144767745138237
-0,017689184551376
-0,0107358108093719
0,000282705369242974
0,00215167358233113
-0,00668535620212334
-0,0155506401137736
-0,00836989707705602
-0,0198688772554639
-0,0145905935602846
-0,0259476226837913
-0,0401083636132099
-0,0560828301893375
-0,0576713350881456
-0,0308881213158369
-0,0118292773274143
0,00805682490368661
-0,00399827545360165
-0,00343889412481609
-0,00263429122137324
0,000255075184578714
0,00445090058113798
-0,00567555291285835
0,000280173704765064
-0,00412872056790824
-0,00569216140043283
-0,019653343143966
-0,00574993422953251
0,00331716726732757
0,0106850121339521
0,02294570238063
0,030088556223818
0,0435014380842971
0,0397397169987117
-0,00016235325489359
-0,0408286599729795
-0,0579458739651522
-0,0554670720276038
-0,0493666927857409
-0,0514606813441992
-0,0607330880883297
-0,0500571610471249
-0,0502511312242878
-0,0339969972865716
-0,0187452820075792
-0,00903654275242396
-0,010522228224711
-0,00630115871209602
-0,00744366032596288
0,00245436962410247
-0,0081267411730442
-0,0072915212771532
-0,0133719975760232
0,0017528628502961
0,00336271754932288
0,00346219139685574
0,0421820680814701
0,0574561221627718
0,0729556248507398
0,0741093553455858
0,0755856103134457
0,0602271267514175
0,00122063506288005
-0,0628893670159216
-0,0809790239781559
-0,059752988108501
-0,0469963753103433
-0,0399896094029134
-0,0406462965297469
-0,0390391760663912
-0,0308413073910477
-0,021023361425501
-0,00756031358035567
0,000188721455670069
-0,00933668251699948
0,00688432366388439
-0,000597666381753482
0,007222254630488
-0,00216889283272718
-0,00432804562632008
0,00393058858202049
-0,00900741137782042
0,0183462927388764
0,0273053738094802
0,0731461147110229
0,0719705921649012
0,0756129438745723
0,0921651946164912
0,104797333053037
0,0591289547611162
-0,00958269141286442
-0,072083394294127
-0,0779941489660153
-0,0214347653533053
-0,0170547514274295
-0,0139227511062512
-0,0281833810924625
-0,0337536138738435
-0,0195403285386022
0,00113100785996706
-0,00983209264795439
-0,00398698380517505
-0,00159662311064031
-0,00259196988977221
0,00420578115859733
-0,0044870020525778
-0,00288181421443648
-0,00841688079252248
0,00255038436288653
0,0129493714788705
0,029822794382046
0,0502425317604742
0,076751888832258
0,0894786053303133
0,085640895596486
0,0995407341848121
0,0966165230492737
0,0533198326723895
-0,0178109966608046
-0,0568512610412096
-0,0460200937861465
0,0148327516666335
0,0227353861812639
0,00993310627678669
-0,00259850941739868
-0,00327761263098973
0,0110903500917867
0,00639118749096513
0,0179092677532753
0,00442380904257607
-0,00163931904245373
-0,00275690161786724
0,0017699909215161
-0,00122444473723036
-0,005635068487059
-0,0055632834024668
-0,00051502726689463
0,00579031637928387
0,0314179389787936
0,0720646440691629
0,0897224789261857
0,072138783944856
0,081731106187872
0,0963953140510122
0,0812636172115336
0,0332397591106096
-0,0320032837652017
-0,0478739004365328
-0,014348158925203
0,031404174456263
0,0365981156125311
0,0214595732725407
0,024350476038763
0,0102026079512323
0,0301755122812191
0,0275372294842584
0,0329695432128597
0,00432782797864707
0,0079872088657517
-0,00595112822150625
0,000662711873505923
-0,00441776894695921
-0,0012587367865581
-0,00821655867898489
-0,00204018894925092
0,00353244782146551
0,031943096432149
0,0678304159048873
0,0706484190452133
0,0634613427273388
0,0603541981397789
0,0631733952037839
0,0677781947050356
0,0135095541009396
-0,0561602670294412
-0,0483902170464964
-0,00647495623016755
0,0418631716842459
0,0553283488824446
0,0228923865304837
0,0147893973867705
0,0160491403734753
0,0116658295895714
0,0242329064226665
0,0204964958863235
0,00945525091374736
0,000887759301348998
-0,0061286949013421
-0,000507672160347581
0,00434018297727713
-0,00426177636604372
-0,0053904091032504
-0,00358052572651903
-0,00838786668798544
0,0108758347356079
0,0396891619049862
0,0540478283698562
0,0550014301659208
0,0493092311657476
0,046187285078964
0,0401783282004162
-0,0151741029169118
-0,0806270379097348
-0,0674773571354197
-0,0064969648363248
0,0471944630793811
0,0377601678884973
0,0178184819204648
0,00559693271462305
0,00262737473184458
0,016169434011924
0,0119815989270929
0,0103549749293093
0,00989346495732343
-0,0109874672752162
-0,0064254083199989
-0,00539222727807428
-0,00829330163677979
0,00464286525032514
0,00805656455822735
-0,00148340875535096
-0,0160684473350911
-0,00662235010567934
0,0150914506197456
0,0209137174378641
0,0318559947295614
0,0465460904985048
0,0502173955251313
0,0193731448415088
-0,0229075032457935
-0,0704032043294044
-0,0616944222514698
0,0100758255698046
0,0317329328344568
0,0267101059578943
0,0169803903820798
-0,00169859839111966
0,00017636005691462
-0,00401110983073718
-0,00388450999935616
-0,00749156373740522
-0,00694617735504331
-0,0131412501333658
-0,00414369062588606
0,00908746599149493
0,00905718465291764
0,00906671475295191
0,00176988416533104
-0,00156661933049529
-0,0141307378678904
-0,027894465763296
-0,0114685155510207
-0,00492406181364478
0,0228276732153532
0,0283692946488422
0,0313509690158557
0,0066612612766745
-0,0275929611632924
-0,0495381179161286
-0,0301311317547146
-0,00525970660873799
0,00902671560260902
0,0202302445486988
0,00593078902206121
0,00199721821863699
-0,00330584316324112
-0,0169834692481559
-0,0160709539480309
-0,0200371990051721
-0,0133456673675546
-0,015959038038775
0,00374332090539912
0,00104050710945287
-0,00370706470417649
0,00472859285898523
-0,00444999371407442
-0,00414804559134457
-0,0229184615138612
-0,0334195775320823
-0,0381373979696938
-0,0244089986068765
-0,0135652849212079
-0,00945315872525384
0,00248696374185745
-0,00885641318146495
-0,0214349972622218
-0,0476394143951882
-0,0216135145368598
-0,00287909444880136
0,0194054765208863
0,0094372565487054
0,0108967533470942
0,00670301466674813
-0,00176428141635554
-0,0241298819364832
-0,0189167645848411
-0,0250451361745837
-0,00922440034820489
-0,00339082008107107
-0,00648272886347625
0,00154908041664975
-0,00297386863753972
-0,0011216606676799
-0,00339879439032475
-0,0113397980443744
-0,0342785293597027
-0,0334088260799775
-0,0380734028868577
-0,033608677618253
-0,0448487635765284
-0,0318837520811266
-0,0225224457764247
-0,00659206715724224
-0,0135657395747598
-0,00939664985007648
0,0165251315713612
0,0145093240755517
0,0175872007937617
0,0248097325035672
0,0186807273653679
0,0035042829284683
-0,0221184843425988
-0,0254333736274277
-0,0346031253249426
-0,0337186684864672
-0,0148566429821394
0,00101578315557138
0,00130534751281237
0,00909657336280416
0,00649780433461899
0,00893659328866455
-0,0100813176031544
-0,0230946918432616
-0,0345716285289192
-0,0431267424688072
-0,042041512789392
-0,0498573051907333
-0,0532167629464185
-0,0388836652484112
-0,0294665882170041
0,0114961722249753
0,0245486061073195
0,0357446363766608
0,0443404750489323
0,0273373461219104
0,0160581822536476
0,0270957414870651
0,00907511539949785
-0,00509548661132287
-0,0183661071051134
-0,0230904598473291
-0,0347605376012178
-0,00822606579300914
-0,00294292901150662
-0,00311783341094893
5,16872776808797E-05
0,00706574011404117
-0,0063289123283568
-0,0018765064383171
-0,00716836286637902
-0,0109743518471649
-0,0291290076288339
-0,0359686135000086
-0,0600153762952415
-0,0597016798204556
-0,0538494541289346
-0,0466128259108447
-0,0239879794535927
0,0175036163722008
0,0384626236526715
0,0370479147770869
0,0374193653536031
0,0187379602308788
0,0128546757019427
-0,00517456987096771
-0,00634830687390828
-0,0068474864933729
-0,0102410766486638
-0,00487353828701013
-0,00291888741317379
-0,00913175249664036
-0,00962660240251161
-0,011121523249909
-0,000836322538876054
-0,00632119703139313
0,00881371029143787
-0,00805478076627982
-0,00679101844195649
0,00133543171712639
-0,025166362518987
-0,0394967974256396
-0,0438079691184434
-0,0587949565832388
-0,0461789939687609
-0,040333082435334
-0,0308114052153149
-0,0137145321259228
-0,00495149749901199
0,00309540709285381
-0,00709046790685394
-0,0147517190104565
-0,0166262674040752
-0,0052420257720658
-0,0128175308644352
-0,00383201287742794
0,00971895553590286
0,000912048334422004
-0,00742787556255074
0,0024665585489399
-0,00953021240257278
0,00540950043078383
-0,0055222116350355
-0,0052068662486845
-0,000977364653245249
0,00487225490383443
-0,00604365683072295
-0,0075532634469237
-0,0131446311908406
-0,00809236727700298
-0,030564349398454
-0,036108321087257
-0,0426458678628946
-0,0364042122175546
-0,0274076212294359
-0,0346050935606225
-0,0363398908217822
-0,0387444444674887
-0,0313860731031035
-0,0442833234701929
-0,0242727116419094
-0,00178746439371585
0,0050192479608332
0,00289718201085708
0,00704285192632953
0,00401852996997012
0,0109758790096782
-0,00160103004267347
0,00632561546114518
-0,00927077812832372
-0,00567739802295376
-0,000545802167870944
0,00739441892942154
-0,000695631369340994
0,00575384462117869
-0,00576767940086495
0,00460657508770611
-0,007758391864453
-0,00316257804132167
-0,00223931715239894
-0,0134074125467759
-0,0154286417306348
-0,0134698843819856
-0,0179399657089555
-0,0205836094334846
-0,0210376547678956
-0,016696053497661
-0,019423166813868
-0,00924384853655297
0,0157370821551277
0,0254949110845741
0,0185308756489456
0,0176902910756255
0,00184862224236063
-0,000562989723149468
-0,00216423758867643
-0,00429712344641626
-0,00646777748280799
-0,00836703599382206
-0,00488846291549898
0,0087699147960031
0,00767340842526099
-0,0012937280234968
-0,00577742412368871
0,00463440177185921
0,00833345142437853
0,00296525539688848
0,00580634063376556
0,00707736650357271
0,00549043626492626
0,00626144499994535
-0,00282175585640742
0,00827818423709482
-0,00710146497614777
0,00614658467385605
-0,00224267717584823
0,00683290225897703
0,00494691880316879
0,0181396357114261
0,018507260037429
0,0101262374001058
0,00662097227025063
-0,00586753207382377
0,00961057890649124
-0,00754890757384265
0,00492986852435148
0,00832334561148885
0,00638522691856382
-0,00444102296346846
0,000686007892101074
0,0093568935335413
0,00324040230544911
-0,00421058509704463
0,000219439058433182
0,0100451842335395
0,00112747235117598
0,00867737146801946
-0,00369362637598167
0,00609717286741679
0,00279451647684751
0,0117737640652795
-0,00327166114495005
0,00861368826852725
0,0103359504811471
0,00130024802584432
0,00833741865977843
0,0070848577843755
0,00406939846135686
-0,00198490326978264
0,00855426803354394
0,00479343754997956
-0,00956291704093187
-0,00209507324494369
-0,00419893027351132
0,00500970322406371
-0,00148912644548767
0,00639715834352987
0,000313828312938023
-0,00807494469828668
0,00953533740692555
0,00903524781223156
0,00484246798021582
-0,00342853359227228
-0,00897827203017435
-0,00141254843087204
0,00588049974983605
0,00727217587105336
-0,00440178066468325
-0,00810630176676296
-0,00362324773406347
0,000509268819443748
-0,00124492585487397
0,00430370487664343
-0,00187381423754686
0,00979719645284977
-0,00157574686322299
0,00638968561744563
-0,00617420159304455
-0,00067830098023957
-0,00371313051481422
-0,00927488343756408
-0,00195123685149068
0,00160860389080299
-0,00145580073420694
0,00624281445343178
0,00902325574263151
-0,00469563763341663
0,00953023848101974
0,00455813755959186
0,000326999896358234
0,00324089458828834
-0,00422298230893118
0,00996283416634557
0,00112049134966009
-0,00161416305769894
-0,00889356346749401
0,00511729700786712
0,00309079863597073
-0,00103921131599627
0,00323925255566647
0,00870559448316022
-0,00134129331975304
-0,0015094067675571
0,00818210697648213
-0,00362499004864366
-0,0045056622915462
-0,004313140071143
0,00942934167544793
-0,00415983526695512
-0,00341132773710942
0,00236438324319403
0,00270961801181995
-0,00896152830634337
0,00563747955283033
0,00881022084448963
0,000986694186454031
-0,00676676431045677
0,00802634955746236
-0,00517930078256753
-0,000339894013544224
0,000674812950302211
0,00794207396858739
0,00127764259252061
0,00178413468589282
0,00354023190500187
-0,00493931850595134
-0,000809781843712414
-0,00623795225636187
-0,00962227715757469
0,00906422529202763
0,00343558157239407
-0,00682700937862394
0,00480908047632588
0,00606280509500404
-0,00240693142846088
0,0020725459312571
0,00955816991606642
0,00342649691432086
-0,00783081068556328
0,00074847674497798
0,0033363958137745
-0,00412497930886456
0,00369066635034246
-0,00203370902138224
0,00796976739258489
-0,00945933586167051
-0,00515269393658007
-0,00538517263226836
0,00287599564298311
0,0083799570332598
0,00941497113569586
0,00931368827956588
0,00111453821328339
0,0125364850459048
-0,00340772081107835
-0,00465291950290002
0,0122012774646326
0,0108998525546391
-0,00188127204118461
-0,0057449650822237
0,00827164129696625
-0,00690648873387707
0,00975138965834301
-0,00287324550897393
0,00332139702589426
-0,000706927997254918
0,00797185319381387
-0,00499809125205413
-0,00194450171289244
-0,00325618903769934
0,00143079127465642
-0,000176492670490855
0,00587625072953774
0,00415843103799666
0,00667461574758786
-0,00446970129981851
-0,00447121798098119
-0,00397028079687195
0,00813319065838267
0,00876232676040555
-0,00326931343898734
0,00200832106858488
0,0096211372334756
0,00195553011616015
0,000541059273812655
0,0158746487509133
0,0141580786472265
0,013325237274878
0,00901076342186286
0,000258475715613167
0,00658022578482291
-0,00654770385552651
-0,00115306464438736
-0,00929707199899558
0,00424037811481088
0,0011758223973102
-0,00346349430897436
-0,00329590032864457
0,0046958316553538
-0,00134868651564587
-0,00748394835620365
0,0101629534881176
0,0073009979491344
-0,00230275201486496
8,76908095891439E-05
0,00560080213950408
0,00317630515511883
0,0200972228412926
0,0126567158867952
0,0283208742570219
0,0278135160047661
0,025651064799189
0,017067173534731
0,0255144738916493
0,0118349635304337
0,0177305689142246
0,0129291857930798
0,0148058981366436
0,000476705163288615
0,00942627058810882
0,00542906640840766
-0,00712569532561336
0,00170494944363427
-0,00862056699490814
0,00229517836696244
-0,0011741774394988
-0,0087799062847572
0,00505495070577756
0,00967025548722732
-0,0042378151978473
0,0108455870518213
0,0132859819720629
0,00914564189675209
0,0125473285022269
0,0246168316593205
0,0208035642725664
0,0353731402491412
0,0336738430665777
0,0453907701127575
0,0419157849013906
0,0487162618578324
0,0347620866037314
0,0421042506917142
0,0399097820290964
0,0289465531252304
0,0319498456335484
0,0256481438191262
0,0178343815820759
0,0150133206180119
-0,00534316444343195
-0,00921874546104242
-7,07567136915435E-05
-0,0093014232811059
0,00763516017521445
0,00401772989660856
0,00926998330445248
-0,00263822604379222
0,00410511738339984
0,00339851657270504
0,0115407363643871
0,00414887717720471
0,00724155007390023
0,015828762826102
0,0209461361271163
0,0240413617949814
0,0198014554590369
0,000645929809356471
0,00824794807740897
-0,00919719052862398
-0,00228280583940156
0,00897551745334006
0,0185685711580572
0,0365598079977408
0,0299782079881583
0,018269753939954
0,0260667115392836
0,0150091139775253
0,0132154752173941
0,00362413162858095
0,00267239883790651
-0,000396180592442508
-0,00544207538867705
0,00546787585885066
0,00511593987310359
-0,00890877489224556
-0,00828383165152293
-0,00136944729186736
-0,00718014514010229
-0,00850971831977576
-0,0117346311152215
-0,0143400593940009
-0,0154977433062254
-0,0213204363717486
-0,0173576167546899
-0,0417963051817734
-0,0469350767188971
-0,0498711257960001
-0,0304469975111829
-0,0109826644590585
-0,00156064382127196
0,012978238540992
0,0112785775899422
0,0302215554980834
0,0335565913542862
0,0298214888259624
0,015383670391925
0,00286886989292131
-0,00222847812147088
0,00558272702679874
-0,00991922047894911
-0,00196132585320141
-0,0028756619901895
-0,0147849955583069
-0,0206613294180506
-0,017487051631805
-0,0267368757635799
-0,0209330115110758
-0,0134904099961974
-0,023804894471792
-0,0286564783794586
-0,0425778529888414
-0,0382303282666634
-0,0612563471978875
-0,0671409107622271
-0,0669983907923784
-0,0505999697181051
-0,0292955730617327
-0,0248471000521064
-0,00639701115828901
0,0128553104684853
0,0134328263870489
0,0237187851325742
0,0100097646518684
0,0015933985065715
0,0112133962670966
-0,00086869862628584
-0,000271444078418317
0,0071950494626764
0,00580848518616575
-0,00724353026512112
-0,00237788719971712
-0,0155609127838636
-0,0126482845758312
-0,0178889321646907
-0,0246810125986852
-0,0230697031166609
-0,015372004787216
-0,0219623112924015
-0,0350121260428259
-0,0588518372431528
-0,0609519445265838
-0,0776852132222704
-0,0800005306357281
-0,0627401442348034
-0,044591262482036
-0,0227221718022674
-0,0171351855399346
-0,0143219612789081
-0,000368861129016547
0,00559172806206184
0,0016283281777078
0,00536721101012518
-0,00797406544492371
-0,00740280434554282
0,00260952908681996
0,00344084114967082
-0,00154936850596511
-0,0150924529933277
-0,0183341653828325
-0,00604460546153954
-0,0128913624272448
-0,00886353920872045
0,00582654537893404
-0,00444325835494062
0,00207429942588011
-0,0107528298818517
-0,0365804120650451
-0,0371421306965315
-0,0551032284942229
-0,0633456446027314
-0,0511145420518011
-0,06451411955838
-0,0512725985000071
-0,0501910777313962
-0,0315325948142305
-0,0165358586833697
-0,0109291792482971
-0,000438839611337682
0,00393374903646322
-0,00738584007821872
0,00658484194745932
-0,00356800640791533
-0,0019017666209581
-0,00107930724228346
-0,0049502259616355
-0,00770761966498297
-0,0103455588068113
-0,00867859590067245
-0,00484676460528596
-0,00995650943460936
0,00460929873043776
0,00938981437352945
0,00906720149940054
0,0057229875523208
-0,00143966380334655
-0,0143910998159347
-0,0131685289442009
-0,0164443777103806
-0,0308985133339371
-0,0334138839616215
-0,0340594004548233
-0,0344231997827745
-0,034592545513014
-0,0385129504284864
-0,0221423878129377
-0,0204183300491857
-0,0104126181764289
0,00837886585647069
-0,00128387732131425
0,00424781928491978
0,00943472433294698
0,00455876696898653
-0,00297748111100981
-0,0129452010593481
-0,0148604052332815
-0,0150916950031365
-0,015662548469139
-0,00481919032474547
0,0128952529044176
0,0134243737843412
0,0214604975900968
0,0309542549700091
0,0497691956263118
0,0401795683866176
0,0519037428523734
0,020371059673559
-0,00235395741679543
-0,0120743768348256
-0,0231756349150541
-0,030028158067304
-0,0305553429290537
-0,0167310492862256
-0,026013980917443
-0,00377343813786528
-0,0109473880636831
-0,00939292518029374
0,00390338837549253
-0,00304974893884005
-0,00964307562198577
-0,0029545865871516
-0,00385677892836856
-0,00158581498997784
-0,0115425278527299
-0,016632506216428
-0,0105312669475894
0,00409338182825665
0,019833829216056
0,0221954965900062
0,039888748582724
0,0560818514400351
0,0705008172869244
0,0866874814578755
0,0724296217487473
0,0398665384732642
0,0105283704324427
-0,00168192304799356
-0,00757689585415419
-0,025402328057135
-0,0323006455437356
-0,0132444695059501
-0,0201181424485037
-0,0161837552917474
-0,00934009293327223
-0,00982510645022363
-0,00384434099687952
-0,00699113529083736
-0,000241077321679605
-6,5771785622243E-05
0,00906347740742752
-0,00913127009183631
-0,00191154938950456
-0,0020122605417193
-0,00688861494470845
-0,00077383058987418
0,0186112434298853
0,0256009711781703
0,0347990978260338
0,0761715627924505
0,10237688968483
0,107971910545317
0,092345024870607
0,0421136677432297
0,0152161058270194
-0,0021570790509497
-0,0241147593909637
-0,0347937517998167
-0,0257633477182855
-0,0143315668140344
-0,0185730236510362
-0,0110751130764042
-0,0106488829153439
-0,00475477803233121
-0,00475018986354086
-0,006726373244794
0,00885205503980279
-0,00898597494107825
-0,0043962658634164
-0,00623701461348981
0,00364105278170619
-0,0149277327559525
-0,0123610394249541
-0,00267333448648753
0,0043941849835128
0,0102830807639511
0,0304032916744707
0,0548521241668591
0,0958284399242993
0,112706581585154
0,0826114529870133
0,0502837547959121
0,0194897226760898
0,0041174119609957
-0,0285347471525257
-0,0323789756063466
-0,0401996184232162
-0,0300196101245315
-0,0255950406274113
-0,00131800940619324
0,000664654564247525
-0,00958024629554879
-0,000365597945054214
0,000939261187347407
-0,00986920236906193
-0,00212448173580116
0,00747731224608037
-0,00374048342177551
-0,00123178169742341
-0,0134932222953397
-0,0105469022203317
-0,00142221950683394
-0,00556478033664633
0,0107295858451674
0,0275702270106444
0,0555309713246636
0,0706143861995443
0,0795426391730765
0,0716791910818157
0,0427267135423311
0,0209877054014563
-0,0181840329641333
-0,0269975947740773
-0,0243835920287772
-0,0246418785545028
-0,0113587926082886
-0,0172539382547787
-0,0103760992568087
0,00437245291479514
0,000133185081114285
0,00952507254092344
0,00511659897341859
0,00897119183045402
-0,00312156869418891
-0,000796371875735831
0,00699020082507222
0,00294724334712097
-0,00385394710491488
-0,0108216808911715
0,000613426251739844
-0,0076785743484346
-0,00463707234255291
0,0213609400376998
0,0435426897409795
0,0544761124597614
0,0539987955624091
0,0317625461002573
0,0188137133228525
0,001918364194514
-0,00171444504691472
-0,0138901832002632
-0,00524442056255012
-0,00973309447886877
-0,00698092924645113
-0,00863326225178512
0,00358793152720335
-0,000687752713783541
0,00255247618030781
-0,00809353614029043
-0,00454638400201427
-0,00648299180293943
0,00246761506492143
0,000557619235258045
-0,00605865135187655
-0,00361102298524353
0,00320755251796434
0,00594669658160569
-0,0100815213501051
-0,00112115498064918
-0,00193736361850951
0,0280781981038764
0,0313864429990603
0,0395994033104798
0,0256811276557125
0,00382843673280429
0,00667188719171727
0,00699771149513314
-0,00399393719086007
0,00319324736166381
0,00990027239710197
0,00541708512627747
0,0114069139359222
-0,00041149162710912
0,014810746247622
0,0103329308744851
-0,0074224763821118
-0,00129736868408107
0,00290092351193572
-0,00848372063382648
0,00542376930084542
-0,00134088611258394
-0,00595239744996553
0,0038194829532811
-0,00278137173779539
0,0152467342886181
0,0198953654023253
0,0205693213017816
0,0164531279299206
0,00984740552512449
0,0203347074971019
0,0162174029782302
-0,00139515555701351
0,010169315266494
0,0169646709680473
0,0212046137470615
0,0108926513358394
0,010653487645822
0,0171471365354407
0,00722892253995214
0,0225619515523724
0,00781590021808197
0,00323435036076999
0,0146928809436322
-0,00247807230542754
0,00817683511999302
-0,00239339426777604
-0,00241723296810744
0,00267553090309898
-0,00208301444995209
-0,00335270568681899
-0,000943272457147469
0,000225721692147503
0,0248025044814385
0,0276528655762614
0,0304502685962981
0,0278190120740644
0,0218122628612641
0,0131947778034351
-0,00675859924633818
-0,00357254890992699
0,00247621621263958
0,0193259886307748
0,0103724378958354
0,0125456462174605
0,0369639118951118
0,0164291220136127
0,0269204683528177
0,0132230171492826
0,0243311023508101
0,0091316159068742
0,0122617962722246
0,00955257852024324
0,00214741186822148
-0,00744313421860038
-0,000101613380602753
-0,00367270860327317
-0,0060405488026735
-0,00287315251863892
-0,00171204138315514
0,0040604044941252
0,0135314649869687
0,0150202365083246
0,0151036672943085
0,0218738610696603
0,00312359651349216
0,00218157300739366
-0,00369172451781463
-0,00225206872256202
-0,00184611120647033
0,0025275808062488
0,0160391523687843
0,0250613981072743
0,0275498161400426
0,0309145590187257
0,0183436711288489
0,0126422515451979
0,0213718602271028
0,0159860732808881
-0,00136881701975079
0,00632075933594667
0,000299239841217605
-0,00980732464001474
0,00298638621312536
0,00910461121800622
-0,00299076518238251
-0,00218395784454348
0,00415510940587621
0,00906999495971813
-0,00176913564345773
0,00537981565486853
0,00801376861877453
0,000727720578828796
-0,00646523733050022
-0,00381929311357709
0,00447712314162732
-0,00350474262865609
0,00798944961213643
0,00508444084212047
0,0229700125516778
0,021929616960015
0,0334618697732978
0,0270960469782908
0,0107079697117959
0,0192269237760246
0,0161832015949644
0,00184840053356439
0,000319798711808684
0,00802254067563246
0,00370973164936344
-0,00756415580307554
-0,00305532463502852
-0,00485979390091253
0,00929757657268833
-0,000783650155632859
0,00745931562680972
-0,00319670351156733
-0,00598774721238573
-0,0172464724736904
-0,0102145185447498
-0,00307260414449492
-0,00337861617334486
-0,00719552329881113
-0,00863486102563692
0,0106281409766061
0,00646779717574904
0,0230635101216363
0,0134451937523925
0,0283042005671582
0,0274417636713478
0,00894089356412189
0,0125838506824467
0,00881133836563308
-0,00278753735209671
0,00998397706191149
-0,00993315428386971
0,00728282580821895
0,00640157826167698
0,00523125170507992
0,00934249538897653
0,00792836291619035
0,00720980395854749
0,00380713688706027
-0,00966729982184188
-0,0160267508657526
-0,0237366680112378
-0,0239988999734864
-0,0209003325949624
-0,0122588696103576
-0,0150832305236879
-0,0145682168705854
0,00019703862868164
-0,000724253200749317
0,00507154571332166
0,00559785087139567
0,00220327117422581
0,000164765648578937
0,00844042930901019
0,0023341828393942
-0,000336104225807418
-0,00769091982791215
-0,00216323047387846
0,00271163802200208
-0,00976010351879787
0,00154001426266632
0,00101876019270765
0,00378700745934015
-0,00972379605272962
-0,00994674877261126
-0,00119180466455904
-0,00905152806032169
0,00186026541157754
-0,000710491266072497
-0,0175459514970595
-0,0167304018542554
-0,0322010946588939
-0,0296182516706272
-0,0281162269203093
-0,0167442475181428
-0,0199456776575465
-0,0327105590929525
-0,0295175823423974
-0,0302306828526536
-0,0237939035639928
-0,0114537781773661
-0,0125913074984322
0,00317979448805662
0,00453500750050953
-0,000948805231118114
0,00126200321432533
0,00322872675703178
-0,00588692197447212
-0,00150028985980878
-0,00291555642993351
0,00725940303749377
-4,01206780411938E-06
-0,00540318115400299
0,0040615831474129
0,0021199493785591
0,00043175770843251
-0,00435308259135155
-0,00569940164863075
-0,00254363588772908
-0,00649845052519315
-0,00600940609770394
-0,0073368191874298
-0,0196476227563799
-0,0117950837969876
-0,0205115526241006
-0,0146235108385687
-0,0227578541220536
-0,0201527548928218
-0,00373336657191809
-0,00286478793416091
-0,00647340138283341
0,00614152371238765
-0,00423862308119117
-0,00148137223016442
-0,00162164223671765
-0,0049724638699538
0,00262251650185384
0,00680578173920782
-0,00040654319823093
-0,00182818803555714
0,00546958007638789
0,00699177730688442
-0,00439088608808391
-0,00176016781091195
-0,00364653954557517
-0,00802571438775895
0,00749456365784657
0,000965830796545792
0,00247375252573773
-0,00388025403246243
-0,00259250941990927
0,0040076974173469
0,00114125907635076
-0,00125558039362097
-0,000550232140488418
-0,0119633748579245
-0,00629875954680137
-0,00243255453086647
0,00224134309780734
0,00891259398950193
0,000153263773473649
0,00154210215408535
-0,000553791670773475
0,00592837355841341
-0,00871233146577716
-0,00927598996054194
-0,00601872436516859
0,00578784842779294
-0,00427171017707871
-0,00290255078715391
0,00825865430676316
7,32708117334498E-05
0,00739095665392976
-0,00609403367903737
0,00483983732519664
0,00505885599882289
-0,00394358302184547
0,00238442767988165
-0,00705309193444117
-0,00805224498111443
0,00385644558201836
0,000169824373142494
-0,0015033926857848
-0,00240775769222889
-0,00583357773527204
0,000433947383628201
-0,00693452807000584
0,004406467012319
0,00709577591023211
-0,00192417258952007
0,00933670910975743
-0,00640826204624412
-0,00611183995199941
0,000614316971327326
0,00797405439334645
-0,0061997747217304
-0,00248262773849193
-0,000319259646497322
-0,00303485125910251
-0,00431376924690382
0,00813570159140038
-0,00782364062156126
-0,00400272422291905
-0,00389681224166684
-0,0011571940415206
0,00833891490090046
0,00798476900330168
-0,00020667966506055
0,00684153544334678
0,00672622658055659
0,00452306228004858
0,0041271159635499
-0,00368610961950781
0,000888266325506206
-0,00495039106175092
-0,0100582849493705
-0,00689328551353937
-0,00806670653540272
0,00178598491598248
0,000853721150594632
0,00765853810946389
-0,000425191377487588
0,00869207251756083
0,00765246241244137
-0,00223925989691134
0,00466642557114186
-0,00381821192415212
-0,00323795205178343
-0,00406966349683891
0,00103219039480447
-0,00239975541747304
0,00601696510025388
-0,005669652072157
0,00619919661942473
-0,00605726148048104
0,00242886370310005
-0,00494161846863867
-0,00670093493426543
0,00957836885546213
-0,00342687515771301
0,00169637210556371
0,000665216027696829
0,00387056182517545
-0,0124509141300164
0,00173003288267721
-0,00527974873928052
0,00707720029980411
0,00297680162570212
-0,00440500424932463
0,00791109576724055
-0,00937398159847315
-0,00436479047609716
0,00791878905981722
0,0061125958957741
-0,00197582447091868
-0,00149717977745401
-0,00629470191174065
-0,00142715228025158
0,00959644931420026
0,00571540927640783
0,00587983909859484
0,00780658829486372
0,00554323457664649
0,0126685913336809
0,0178117748766017
0,0233113284876662
0,00900435917017581
0,00467348473532643
-0,00343807972845424
-0,00229469964993865
-0,00385581132612102
-0,0185355248212222
-0,0148263026581687
-0,00922568063325382
0,00567790019897339
-0,00694467626378701
0,00188036913018637
0,00817868230578773
-0,0062223160621814
-0,00825757099234386
0,00716461913349945
0,00328404840544834
-0,00858656664349717
-0,00152577192510016
0,00259455090079515
-0,0025440262226919
0,0184677810382101
0,0168906086624116
0,0248544171000274
0,0401917316118139
0,042071192650086
0,0566913055626085
0,0474725133133213
0,0401392084820652
0,0351767008669187
0,0067412660298128
0,000684438807248182
-0,00580973427655766
-0,0126243238174935
-0,0113148420949465
-0,0122775242304706
-0,0205142165433781
-0,0188188880248578
-0,00479078681099981
-0,00916144614011213
0,00986135567326092
-0,00766701893600485
0,00198598347231093
0,0077188521612989
-0,00605912830421226
0,00714617920113497
-0,00236917793914871
0,00209725900976295
0,0198918504561638
0,0266464853073152
0,0347373591376034
0,0271882546444948
0,0327025579508648
0,0376196731811902
0,0344195342604584
0,050133446301941
0,0456696021855073
0,0378674239522807
0,00736666119002428
-0,0215473150650421
-0,0224712048005168
-0,0325294062706412
-0,0338897172350852
-0,0452985669636315
-0,0418312661895556
-0,0357091391981238
-0,0297821351551061
-0,00864378868312532
-0,00306404302894646
-0,00644635247034048
-0,00151303211763177
-0,00248861235771214
-0,000635418218681198
-0,00230062864670675
0,00696327571005295
0,0222065516812802
0,0150434196479278
0,0206001337954459
0,0143056576908821
0,0189610140924522
-0,00218595714423266
0,0129467713799987
0,0259393838909589
0,046656397880541
0,0711479137261574
0,0707737887960621
0,0566253293396411
0,0249286380454746
-0,0158572922432945
-0,0283307713590832
-0,035491111994214
-0,0605758977131159
-0,069430441232537
-0,0669344519845485
-0,0438209280145583
-0,0197902862628346
-0,00913292731130439
0,00952987416611464
-0,00940759037534774
-0,000323397118437246
0,00727662776455896
0,0118725923954327
0,0192961453277995
0,0211318930444659
0,0191925215370359
0,0135509725054964
-0,00581593061039875
-0,00790970670163985
-0,0122668543969674
0,0063591485997424
0,0444102959192154
0,072379366932511
0,107170641285942
0,112425844852755
0,0733097214074698
0,0381888156289502
0,00983814278319579
-0,00575703654298208
-0,013829671473757
-0,0482489949318542
-0,0738530341970366
-0,0759559069444585
-0,0535116274397349
-0,0180329724797832
-0,0091343458768434
0,00915605346192149
0,00364470395991654
-0,00751576263237548
-0,00554094089240303
0,00295548512886245
0,0233650960067379
0,0181318579934229
0,0200039917610424
0,00940392847853014
-0,0181543919119852
-0,0210633096538828
-0,000763424181148923
0,0100141866035763
0,0455911313704541
0,0650506776826336
0,100436506171285
0,0921901780155187
0,0654484660577964
0,0364561340985136
0,00863970830572311
0,00951337851431354
-0,00221272340662925
-0,0327704412043311
-0,0511787873861665
-0,0593230892526746
-0,0441147409014681
-0,0206759542369046
-0,0106777225738207
0,00477843119474537
-0,000429534909553965
0,00338577348688284
0,00671917212573838
0,002385038402041
0,0144151853192187
0,0160994749312054
0,0171328930768984
-0,00274745832306055
-0,0338476919055273
-0,0242777012221078
-0,0261971188354227
-0,0330600897549596
-0,00561082667837684
0,0319655472949759
0,0643614207534308
0,0761119600550703
0,0446701160580401
0,0219157189186221
0,0141267852097615
0,0181899078707501
0,0173676391287172
0,00183003992354232
-0,0238517624174475
-0,0478128309253813
-0,0385238427389787
-0,013870526171663
-0,00721112415324904
0,00290212253361492
0,00736097003201734
-0,0011453607732883
0,00454362242319949
0,000223899715146885
0,00442449146356659
0,0130951645051194
-0,00962593056475223
-0,0320348792110755
-0,0509543126310704
-0,0600158473276117
-0,0665069880764587
-0,0772635604232311
-0,0745171887857666
-0,0179097963750983
0,0516237969900911
0,0628816109543703
0,0348544479754571
0,0349146966106533
0,043832855308764
0,0556713792659416
0,0431349894604013
0,0238915281271891
-0,00821775204547283
-0,00857762118870777
-0,00792356009953881
-0,00806090127808995
0,00885745622172148
0,00400891431023222
-0,00844614702912313
-0,000631602197893619
0,0098103182564047
0,0115393858546531
0,00140649764466803
-0,00807405149574336
-0,0340064810044056
-0,0419373172624169
-0,0690263897920564
-0,0721879187191043
-0,0937552689811715
-0,100641573170182
-0,0962205422742392
-0,0355448868988071
0,0507155977969847
0,0638976197790574
0,039735535586868
0,041576037299593
0,0722448707952717
0,0784069503520396
0,080580358311516
0,0440249120776905
-0,00343833185165118
-0,0110945719430605
-0,000308008171948216
-0,00215519925039994
-0,00651933206470048
-0,00071393221576543
-0,00336641862166961
0,00349367223047199
-0,00277759603056736
0,00914448608396499
0,0109134115167545
-0,0105028611343463
-0,0469810556303922
-0,0757073127712337
-0,0694098426627496
-0,0714692900670608
-0,10742893758352
-0,1409449609237
-0,101878236912099
-0,0239041265302234
0,0702868239969833
0,0770534444815121
0,0483814438394866
0,0611727009094381
0,0726244652723751
0,0846436821877531
0,0541522093070209
0,0295776398946936
-0,0117443829707213
-0,0167410232735322
0,00182953925863418
0,00880447788794437
0,00724319227804553
-0,00569799133389791
-0,00233298298728275
-0,00123713023119252
-0,00724387390228504
0,008632246929791
-0,00858331753456557
-0,0220848910030749
-0,0556939124321246
-0,071678702915872
-0,0782932935420111
-0,0815073756205996
-0,12122456418953
-0,132799105495107
-0,0656254015984121
0,0177987570464289
0,0776641618813345
0,0535347347600579
0,0542257143792164
0,0451315573311745
0,0611484623629991
0,0632211773389188
0,0271386770235854
-0,0137289708972447
-0,029435849939274
-0,0253968167388174
-0,0211515954088997
0,00736774969472101
-0,000271060822527651
-0,00181892377254806
-0,00785454376924541
0,0021598560530505
0,00661773718161352
0,0102079009671163
0,00350729280439668
-0,0356852524989586
-0,0554511599095689
-0,0754120250692324
-0,0668863228739931
-0,0746036963854229
-0,108214099396635
-0,0937272580980976
-0,0292182270149947
0,0545576048426274
0,0811231543681576
0,0561388544597631
0,036500947052849
0,028008007182275
0,0365815210255522
0,0196381407140285
-0,0115509725407294
-0,0254425214107956
-0,036626170728932
-0,0358177725081454
-0,0213649109758519
0,00971761340514524
0,0083124387072054
-0,00576570664320912
0,00501004587617306
-0,00611854027753912
0,00260577555670604
-0,00427375296272009
-0,00761963941799664
-0,0304268260011246
-0,0471679983869051
-0,0537436651583489
-0,0500739863183705
-0,0560082705896447
-0,0562033392175437
-0,0281514801620927
0,0164840191959428
0,0567666226112256
0,0598489442947246
0,0334079183162521
0,0124010291456602
0,020560710223433
0,00713805303258818
-0,0117127503544404
-0,025329196530536
-0,0355803425373443
-0,0409346301102862
-0,0236234017137724
-0,0192434654167661
0,00690761992999579
-0,00681202653254839
0,00142891054223478
0,00748121598800121
-0,00624167866978125
0,0024492824067943
0,0106457411125876
0,0013509465666116
-0,0147838018530165
-0,0353296085752717
-0,0431409932142916
-0,0224669808500927
-0,0112622789557776
0,00312846106640074
0,0135979463848714
0,0398951080718194
0,0466835431146238
0,015221541754012
-0,000533631141427657
0,0131936053185792
0,0191035367399427
0,00224467149498255
-0,0142118287184273
-0,0172307391107241
-0,0273080389638313
-0,0257522440854433
-0,011960110045373
-0,00607864305806686
0,00316474701546185
0,0106349865874972
0,00223713784586793
0,00849816645425659
0,00266984293524307
0,00980966901670675
0,00609556894782564
0,00390338892122244
0,00301353852194837
-0,0241811622081846
-0,0312948213974648
-0,0119024250831837
-0,00141688435503272
0,0138584775980822
0,0318866796579028
0,039945151071771
0,0410667310354614
0,0186197390471784
-0,00247455799544154
0,00136930016077103
-0,00459788526885582
0,00159293012579669
-0,00286216090501992
-0,0202907426411209
-0,000687105159579549
-0,0142266734854309
-0,00752775406701794
0,00838865271797632
0,00217100392614974
0,00625879544822024
0,00465122434153907
0,00810075263220042
0,00576952430715575
-0,00353370956291134
0,0204505638046138
0,0195774241559598
0,00986105222738328
-0,026147464543437
-0,0305270913846174
-0,00416249814356248
0,00410575555945359
0,0193857736613286
0,0406487465574195
0,0446239678141147
0,0314702072333977
0,0102200848289861
-0,00653547467889234
-0,000229666621192641
0,00453627286438745
0,00480354838917645
-0,00339522404235394
-0,00143533426502647
0,00994538852161282
0,00186940617985182
0,00829131533341282
0,00833455442400877
-0,00180760449356028
0,00146235343172838
-0,00831963852102124
0,00248052329395033
0,00390328901867161
0,00356940018359812
0,0217744913716191
0,0172391193217847
0,0171151707194083
-0,0170605960766488
-0,00892373478724165
-0,0168474798282003
-0,00121328321708693
0,0113123646338569
0,000256318354481676
-0,00361943548925211
-0,00531050049394425
-0,0119080442585718
-0,0214150859588948
-0,000265444914600265
-0,00814204872722601
0,00678445834865673
0,00206489010829917
0,00218062944254919
0,0104597007733793
0,0176054952111434
0,0079708839083756
0,0111950004461166
0,00523491560962517
-0,00123044617907189
-0,00665046317394154
0,00312576886877686
0,0071978783431667
0,00112917114932968
0,0148545240196991
0,0238057762910967
0,0130616564455819
0,00208121290640861
-0,0114119434447754
-0,00193965818522907
-0,0156029117187158
-0,0242567536737747
-0,0456151095537987
-0,0434167627068963
-0,0288620369809237
-0,0246800990585507
-0,0226111820360433
-0,00784196868666178
-0,0171384953644064
0,00024319849825577
0,011223073640573
0,00526454221977214
0,0231265108484291
0,0146888279961379
0,00566511601946693
0,000735012491012044
-0,00129780114726419
0,00981867747408379
-0,00599874717739542
-0,00683511094922202
5,50134133389325E-05
-0,00131802250143468
0,0160897776980543
0,0222150641337571
0,0210547562094347
0,0131971593401947
0,00107305466019974
0,0033573943342713
-0,0170850809333724
-0,031266962065988
-0,0451794129885104
-0,0508164065345749
-0,0340997143774173
-0,0262689577902254
-0,0197130670122888
-0,0111247011818802
-0,0112542635272413
-0,00431441603354179
-0,00168368908884147
0,0157996775623424
0,000698732254072461
0,00236117056993735
0,000847348462749541
0,00648492184986726
0,00589012974657391
-0,00819504317880675
0,00466908471214813
-0,00206133757094206
-0,00227786655280271
0,000495217552075971
-0,00247552082270524
0,00920575946856769
0,0207905208733387
0,0175879655984222
0,0186040184477628
0,0180522088613371
0,00395552322588166
-0,00244128214490184
-0,0211068539137698
-0,0198721062706464
-0,0314212567353862
-0,0198330157287932
-0,023586438263664
-0,031051985622372
-0,0201400229151841
-0,0162588471645147
-0,00655957158395117
-5,09713938000878E-05
0,00760090269412511
-0,00213655793951276
-0,00347854974185139
0,000480356688129582
0,00576548861578042
-0,0053994518718143
0,00957381388722556
-0,00344073231957887
-0,00529044133391718
-0,00464341133181619
0,0082522248730119
0,000136844187659228
0,0136979173404775
0,0278853815621417
0,021875158780367
0,02233461982133
0,00115531907123121
-0,00766502027118925
-0,00186498039474279
-0,0112254256125984
-0,00436971984264169
-0,0183896097545439
-0,0312349000579554
-0,0268972121608727
-0,0187663248302317
-0,0132827987560858
-0,00132106344607569
0,000410945737493626
0,000555442540650057
0,0086656705998977
0,00898261464594897
-0,00619539310886687
0,000246514938477917
-0,00685993670868382
0,00113976516348299
-0,00520999638140667
-0,00212334123073301
0,00332107142604845
-0,00118795939810361
-0,00583368566929165
-0,00321409706154538
0,00131756014092983
0,020309057746649
0,0170747210184076
0,0218780782047097
0,00603985514630097
0,00380488790096368
0,000640000441927639
0,00864291313228379
0,00031109774963544
-0,0114149836495656
0,000792675645263359
0,00728383057936922
-0,00558740494235634
0,00538186626380631
-0,00151337546699939
0,011379311636524
0,00614385580566618
0,00692418469835211
-0,00482493254342915
-0,000979735078331735
-0,00452357178983816
0,00664647135727409
-0,00137178311653984
-0,0018682470786703
0,00326749597273989
0,00231820441153289
-0,00345536765189134
-0,0012980301106319
0,000643640599333261
0,00742583095022773
0,0127615022664665
0,022445132022471
0,0279234027576893
0,0272175259665466
0,0399120807717202
0,035971403895549
0,032871035649411
0,024241537478325
0,0261514369771498
0,0245133507168229
0,0239226967283537
0,0222289986140003
0,0138233856032747
0,00648595509756176
-0,00308755888470011
-0,00114079503153509
-0,00146418744615814
0,00125544367660688
-0,00248335191862416
-0,00230972082927344
0,0037954629276858
0,00748109679551846
-0,00620142716737531
0,00279426092854204
0,00542705862001976
-0,00515463361252345
-0,0021803665293433
0,0130562185357525
-0,00165983968986607
0,00874258306443918
0,0179956144782929
0,0218150199007924
0,0176650105326342
0,0154444254867311
0,0261381179837066
0,0238940268057859
0,023945031529806
0,0155445753520332
0,0136914980427583
0,00262312969220584
0,013883267711539
-0,00544956132738449
-0,0032529247072451
0,00862574406684617
0,00957264631913865
0,000892397252173689
-0,00531206127037856
0,00855824086747982
-0,00679538948312187
-0,00485025028458342
-0,00588385175721899
0,00508880799407549
0,00878911602676797
0,00750027423764067
0,00402031195322406
-1,13253675996084E-05
-0,000378847415176709
-0,00760738867170575
0,00466760203876255
0,00562190525399546
0,00367799190865893
0,00937829147435712
0,00156198319192643
0,0115139118775322
-0,000357891863001963
0,000716723961266977
-0,00871146947293693
-0,00758881491361929
0,00143639161895106
-0,00388831621771768
-0,00137170040275838
0,00572038812090966
0,00830810893248213
-0,00753899261240801
-0,00158704000133418
0,00151541618235196
0,00144361330729146
-0,00470503433360953
0,00324065264930979
-0,0057079233302306
0,00935840631805286
-0,00258722426955925
0,00667201152847708
0,00728902228981677
-0,00427746666328864
-0,00709405068172796
-0,00880840665605311
0,00688580226939442
0,00632492139627843
-0,000736930773757617
-0,000240436710168468
0,00773269446978733
0,00870098393349954
0,00800962385628821
0,00245082392937076
-0,0086684640583901
0,00291766965431984
-0,00383963010918332
0,000395183344555638
0,000132803334916385
0,000670280061042998
-0,0070306708649875
-0,00261927441350151
0,00723470446524895
0,00674345379543652
-0,00155747560391085
0,00678069906159337
0,00632413314484252
-0,000938152369024068
-0,00759601707214609
0,00819896260584862
-0,00608364648251032
-0,00121049659048384
-0,000273666974128923
0,00566865078590232
-0,00468054723617676
-0,00859976188720835
0,00219689048323861
0,00412855090496944
-0,0049089204561974
-0,00166818241879088
-0,00654090919700378
-0,00452183387622709
-0,00800717126324178
0,00627471552655206
0,000701619436059798
0,00698064978602882
-0,00969955613899439
1,01834582212305E-05
-0,00291857594294407
0,00859774652803212
-0,00471675658352522
0,00489978232183484
-0,00689215068560659
0,0036221632301199
0,0063898383587659
-0,00996101349161854
0,00944004802002432
-0,00942585525536112
0,00738849836930355
-0,00361526500231199
-0,00467869319495921
-0,0014491960899848
0,00484793871654018
0,00219481488071544
-0,00275986235714597
0,000592838639747599
0,000689901105116309
-0,00551769448534245
-0,000352846405580214
-0,00768807418210309
-0,00721781371169621
0,00321500208070556
-0,00412734803998636
-0,00775706340939439
-0,00255452104651153
0,00760467884011284
-0,00453973669072425
-0,00897555974264422
-0,00393014438167687
0,00146988448289683
0,00648221398539944
-0,00368787240801926
-0,00801661507127119
-0,00618980134240516
0,00290936097582555
-0,000891151969414885
-0,00402481914798859
0,00684084197661613
0,0107588027024374
-0,00238202538214193
-0,00483003302018975
0,00509622085330733
0,0106134937050196
0,0134016431376402
-0,00197949537393465
0,0114899464766607
0,00847173386643093
0,00768849388696375
0,00586663537641189
-0,00490307270598388
-0,000331219986652189
0,00851714561470378
-0,00695269927126179
-0,00285841150889601
0,00775825785830891
0,0032837605135955
-0,000292926519314259
-0,00879793306756668
-0,00371400773013433
0,00880859662279908
0,00456932065372823
0,00837905193889482
0,00453995194757504
-0,00390797040039169
0,000520788468286029
0,0105612785059288
-0,00041901173947332
0,004878019336376
0,0127024049192054
0,00960560949596686
-0,00407884471930741
0,00756217135872865
0,00106131879425113
0,00337836273146835
0,0186622551680499
0,0051460175290686
0,00475055402997061
-0,00806994978652594
0,00367261540173783
-0,0013764268398728
-0,00506614286168318
0,00464924430112779
0,000853613609360289
-0,00557706817176582
-0,00644940022792994
0,00863470299105845
-0,00643466521819805
0,00494584454201598
-0,00405010787922312
0,00937908597454932
0,00927822009904354
-0,00488365693849292
0,00180622361238642
-0,00501280963689617
0,00815253657518984
0,00264306741606658
0,0156869107832044
0,00877501647003347
0,00801781822434488
0,00794849421289223
0,0187959323150097
0,0150118312692785
0,0238171925954381
0,01445032066053
0,00890527372376709
-0,000736539280524326
-0,00218967822443728
-0,0132183811578084
-0,00186774451063423
-0,000969406735881836
0,00909859555626028
-0,00625797230442932
-0,00734662168903691
0,00446082615035625
0,00272541272120007
0,0100090210582776
-0,00250820954343737
-0,000419265297759888
-0,00778619528231304
0,00228533612115282
0,0088337590203055
0,00857595054164851
0,00641444798144786
0,0246049546409671
0,0253539774103952
0,0280316122702356
0,0149731432313638
0,0210978914210785
0,0374792120943566
0,0416616312681389
0,0331194517025483
0,0120500584727656
0,0127312773691704
0,00292370232472194
-0,00852860623017017
-0,00323025983792065
-0,00435549625708133
0,010801594722311
-0,00179391862215342
-0,000968638567558599
-0,00590945790283619
-0,00707904999582567
-0,00385290880867664
0,00759953398052082
-0,00882288609438199
0,00489127360045439
-0,0082426547544094
0,00756856759626268
0,00360593470123383
0,0123342813972165
0,0242685398886919
0,0227371386127646
0,0295565928860769
0,0399920870652198
0,0322350668409074
0,0449485387039055
0,0473070767965865
0,0431117777146533
0,0370272141936845
0,0309119706420814
0,0137192499911241
0,00958492072763709
0,00736079018353538
0,0131971930747156
0,0151051790432507
0,0107302956878033
-0,000284282717986402
-0,000600428805514317
0,00231615675788349
-0,00200227306166011
0,00807935919890605
0,000529398258485207
-0,00657038437524417
0,00255443571582166
-0,0027404128168024
0,0050901981695878
0,00243852830559944
0,0121658986558814
0,0321631901330482
0,0266316191354238
0,0474426076473494
0,0363389236601367
0,037283334720576
0,0172143625974824
0,0327186304768106
0,0190936321210941
0,0259294157705163
0,0279070024918297
0,0131083216856487
0,0125515842726533
0,0158064333406315
0,0141396931396553
0,00429927760269399
0,00520112980947819
0,0107693381800397
0,00281088073073258
0,00377972998397967
0,00214920863086031
-0,00858301728966441
-0,00265156449173005
-0,00187655766940392
0,00196884521300124
-0,00674583831068463
0,0126526983282304
0,0115411214197859
0,0142614176005396
0,0233288809569473
0,0460133492041315
0,0475286906341022
0,0474062347454782
0,0270070569010571
0,00575192574455042
0,00455686721308294
0,00653155800308169
0,00441871390394265
0,012684460347572
0,0310229198775934
0,0237844908632294
0,0275403550682198
0,018463510720179
0,0205841835307128
0,00468880418974591
-0,00295729037409189
-0,000974993905417477
-0,00945027825508433
0,000409842746108964
-0,000694667942287314
0,00704280455648183
0,00588096843065583
0,00377795683957643
0,00860559688975877
0,00677834622566074
0,00697698525730877
0,0230927088850059
0,0386889783874604
0,0401209287390535
0,0456716629933473
0,0440887930338103
0,00967673317064096
-0,0143354918680679
-0,0349237710458514
-0,0196970173857834
0,00624947085992646
0,0166568589838062
0,0249392054404604
0,0322330671858557
0,020517801062276
0,0110843502698063
0,00231908008449796
0,00582189100987474
0,00631527900578395
-0,00441984221616258
0,00723752403565194
0,000557153682717767
-0,00150008468519228
-0,010109015496772
-0,00269761445384306
0,00316489958953057
0,00984053752845708
-0,00144916242589779
0,0214195426852313
0,0234264243185024
0,0483633792292694
0,0572832244494333
0,0627478276358783
0,0275974176979726
-0,00420146235084417
-0,0396096595189973
-0,0489053007673828
-0,000777499623428932
0,0236028918377488
0,0147144792895504
0,0362016904278428
0,0140283127375567
0,0155541330186586
0,0204134973363942
-0,0017505218204861
0,0102221378194174
0,00919152893535372
-0,00598984815772195
0,00986419268593696
-0,00780739119624422
0,00241444890008926
-0,00718613403378272
0,00793268771537154
0,00175873399266353
0,00713586294081977
0,0135154629680252
0,0104095962400328
0,0339832668163172
0,0495165228868515
0,0543680321923332
0,0604859593202395
0,0300565565669225
0,000670216002817426
-0,0375391691693497
-0,0405640109569346
0,00591817919342859
0,022908566169099
0,0289141828033938
0,0282501988946994
0,0141667276972203
0,0122511221966575
0,00875570341277687
0,012347652822092
0,0077605345730424
-0,00456193374013444
0,00610364607857128
-0,00811109046623013
-0,00019056934856138
0,00823045308842385
-0,00105044776130563
0,00408796888944071
0,0046391484848181
-0,00403305078861627
0,0154297949396841
0,0263480615180401
0,039740193307333
0,0546180638985419
0,0511384323380609
0,0481957379222372
0,0331617197203536
-0,0131246530757775
-0,0348004088520584
-0,0210516377377929
0,0208060699288504
0,0317224978978794
0,037255708801215
0,017196703025305
0,0207287689571057
0,0227590168389107
0,0143959329430646
0,0102333564387189
0,0044386181059119
0,00299785017572997
0,00658477674541151
0,00598910510604332
-0,00444011906080116
-0,00197788091341198
-0,00705767364944796
-0,00335924490273468
0,0094139513864335
0,00780406886314975
0,0150583926272695
0,0294248326363264
0,0329355068945273
0,0528839174292945
0,0449866778675508
0,0441632057790882
0,0246511066624615
-0,0131652503250821
-0,0225194604969897
0,0039653497114509
0,0469928483730161
0,0369899333316691
0,0415112696824743
0,0285000525900678
0,0252487357919105
0,0100056321563609
0,00899729333511656
0,00919343348394736
0,0054285379628615
0,00356415944037384
-0,000419609261274607
0,00236842142071147
-0,00383997459621688
0,0068940255954704
-0,00729956609530691
-0,0085220975124123
-0,00376627550299589
0,0136617578193171
0,0115819367309163
0,0215512022287579
0,0399831186691176
0,0534208158313882
0,0451335029653815
0,0505450221055927
0,0291494131793704
-0,00122407128725156
-0,00913577264986879
0,013879955851055
0,0362891399796599
0,0451785879169159
0,0391182683287346
0,0208968906245678
0,0181748666589129
0,00391676412113694
0,0125090194869605
0,00716584242076236
0,00671551163347031
-0,00962035224178501
0,00792518236290534
0,00985717917556984
-0,00939839550736723
0,00154261525041981
0,00445912894077172
-0,00517461361462369
-0,00642396167417861
0,0149819754689299
0,0109937538919742
0,0211978051392249
0,0336139005227685
0,0462240253788144
0,045878008485283
0,0275598337898847
0,0201721462899503
-0,00212867200605549
-0,00635893876653138
0,029768053255012
0,0481896487724321
0,0336278112974265
0,0226622432626296
0,0165736044847947
0,0175892091011463
0,0176418976721527
0,00738949750485126
-0,00134441289336083
0,00802680522274696
-0,00931693672499094
-0,0096811814769615
-0,00474089690083495
-0,0053485562444425
0,00274327498913705
-0,00255336604141979
-0,00583593897342562
0,0100011100887886
0,0042112362093379
0,00919257921630069
0,011926768311767
0,0186366978082343
0,0183954655759183
0,0303667531607557
0,0250994491457227
-0,00169140578261239
-0,0210457734997963
-4,6393455752761E-05
0,0143972037913207
0,0414135809387336
0,0427567284303397
0,0372022351375993
0,0266866741769769
0,0107652951040754
0,0125615519833963
0,0124725761610327
0,0083469961869174
0,0113519414548809
0,00383799392772073
-0,00212099283777362
-0,00583136938389246
-0,00748968696143181
0,00163823985333467
-0,000630141010672754
-0,0087931650588747
0,00855957181285652
-0,000230569069077464
0,00931849522334108
0,0084732925405086
0,0205631699858813
0,0211112899481404
0,0122465229257385
0,00537967128287157
-0,00146089448514541
-0,00645322145893763
0,00782222962535504
0,0278647029042154
0,0348082355563704
0,0367802986648796
0,0442709785590299
0,0224797453985564
0,0247496940799819
0,0067807553038656
0,00953769934980736
-0,000495898612523036
-0,00116686428977694
-0,00268337010804606
-0,00991121638143148
0,00233461980004551
0,00729914104784437
0,00383183548735729
-0,00473041851724924
-0,00531697653654664
0,00966254579600092
-0,000829929912077584
0,00564883062006514
0,0203737529039363
0,0174297238679909
0,017244151155791
0,0203331975408847
0,00140900022763772
0,0164020012181935
0,0161359589128672
0,0190723780529408
0,03771877523452
0,0329257579204348
0,0371536401472678
0,0256959933122309
0,0258925091133446
0,0225573589175898
0,0030018593373808
0,00629093852174525
0,00878517603740467
0,0060138314261857
0,00997826768027253
-0,004976258394567
0,00584898564320294
0,00926359258557837
-0,00534668426610649
0,00532009153746469
0,000199051922578571
-0,00790544509401509
0,00682696806874511
0,0031380332727796
0,0211848088626563
0,0107137679819185
0,00476269122515236
0,013266322346477
0,0187268206500292
0,0273103065142126
0,0210853064386486
0,021149503331201
0,0345780271146336
0,0320252120262348
0,0419814612546175
0,0294710562226328
0,0133537193154691
0,0206640598594036
0,015414572232523
-0,00214731507561703
0,0135709384895225
-0,00413509812781953
-0,00305629539060272
0,00473852479140529
0,00441846751131913
-0,00569150467980274
0,000929246949915298
0,00193978698307768
-0,0104070935467758
0,00621410667349767
-0,00568205781698969
0,00530903246957081
0,00168160417903929
0,0139929361609018
0,00731082859915375
0,0263569960773938
0,0231490626978458
0,0418135583271935
0,042237964775531
0,0325583004601991
0,020343433560988
0,0351350457683063
0,0292614749065428
0,015169390018645
0,0233501884890449
0,00463873136579629
0,0169856498260903
0,00272690977793006
0,00859043580440772
-0,000794965619826313
-0,00769701245922572
0,00929179641810637
-0,00656763635949815
-0,00700368989203459
0,00558104877140922
-0,00247248890006342
0,00623801733270677
0,00706245673306849
-0,00572621008139363
-0,00164274354504721
0,00272491651548634
-0,00235132579603623
0,00187348906145171
0,0171631995807562
0,0255407484581006
0,0370714852443887
0,0421554034042445
0,0304117087949118
0,0287699676620081
0,0229996931152102
0,0106999972802239
0,0138416822877173
0,00637760314902191
0,005702425796681
-0,00458482829648074
-0,00645888142464271
0,000429164877222672
-0,0066972659343388
0,00801038216812701
0,00164733045992581
-0,00499704421319207
-0,00708135165138233
0,0062287885026209
0,00260715540720997
0,00577312275513269
-0,00522290667001475
-0,00426828149917155
-0,0135087294072194
-0,0151744286693662
0,00378437021374749
-0,00666139152162474
0,00838574712992499
0,0188814242590319
0,0388487465293663
0,0305858890871476
0,0230401095616144
0,0134557631692677
0,00112620879099711
0,0157451347035673
0,00783532349100103
0,00646886647029263
0,00177461846963213
0,000879765518572742
0,00794108852228075
-0,00893366778569303
0,00157200818787735
0,00397270473809256
0,00560184078146874
-0,00724116240499595
0,00488630026340778
0,00860318974526748
0,00398828854254355
-0,00907596425402513
0,0070100698709996
-0,00298511055696205
0,00155316589231806
0,00170397466314772
0,00547463393716191
0,00983086727607336
0,0199381172835718
0,0232170392800092
0,0183702750338357
0,0187607201831298
0,00636885207425424
0,018828363742687
0,00119810004363692
0,00402943687114553
0,0030968890420696
0,0107303252936771
0,000565247728066418
-0,000808447784390118
-0,00525980134763876
-0,00636990974512831
-0,00245809982099248
-0,00876850744817401
0,00750429852890722
0,00481697376576111
0,00973065356711422
0,00234500687212917
-0,00544355793963431
0,00249824506905788
0,00514896368048124
-0,00813042015153533
-0,00191899438063517
-0,00877755151890548
-0,000455693378286581
-0,00226090057648287
0,00164177145511764
0,00508305956395066
0,0134409483783548
0,0160726087089268
0,0151022554355724
0,00654560070900965
-0,00349951839560613
0,00886028020616558
-0,00445581616792173
0,0102297399878843
-0,0018877398326214
0,00917024025553238
0,00752983424246336
-0,00605234080117835
-0,00410467866223384
0,00834924087873031
0,00434321052341461
-0,00330857375325103
0,00426677047008033
0,000503319050419759
0,00341496179505017
0,00638860407486102
0,00179452441728568
0,0099111767053781
0,00384759628152679
-0,00791089099684529
0,00019661737002671
-0,00363770216521029
-0,00866106388920829
-0,00285460617392603
-0,00712407201415606
-0,00755474704337057
0,00169173788409095
0,0101624622148251
-0,00700069901580377
-0,00889673108299561
-0,00772765963090524
0,000641849969125842
0,000235439214379427
0,00393629735385875
-0,00785193449219982
0,00266342793372154
0,0084324750005104
0,00901463250641464
-0,00237682509812379
-0,00912407159764509
0,00484187216257764
-0,00940699777538283
-0,00342491424336327
0,00701580805565036
-0,00233014142498395
-0,00875052825459964
-0,00386381396045798
0,00723511979341478
0,000460861125050313
-0,000906907776061379
0,00617186075534058
0,00599037056186242
-0,00522932096566733
0,00652538989890423
-0,0091256570770046
0,00591946771244552
0,00481550079432925
0,00725733214584614
0,0074489317689773
-0,00330374132409479
-0,00102536416010141
0,00858184868815207
-0,00799723588154687
-0,00422636344274148
0,00690263029043685
-0,00561025136877329
0,00685726567025169
-0,00955874083543138
-0,00164403481951171
-0,00923527117782984
0,00795500934960088
0,00272597585466037
0,00220223681638122
0,00277216566389993
-0,00304707997154774
-0,000960626439638727
0,00882483066936249
-0,00695540321849073
0,0078847004370227
0,00980156143186687
0,00436624427563881
0,00267244455485928
-0,00154804966121908
0,00284498015003565
-0,00603469441460198
-0,00456960966557712
-0,00484252800924821
0,00326823932736564
0,0029469791208147
-0,00381682481328809
0,00780095720561266
-0,00884344784489062
-0,0084323893945815
-0,00906647835814696
0,00192343128469001
0,00624819539312655
0,0085720167209264
-0,00920031802691534
-0,0098868222347865
-0,00672015683572747
-0,00560801595810285
-0,00430448459559461
-0,0011312802919667
-0,000326655168357374
0,00112313319328013
-0,00656509287112307
-0,00619854278343517
0,00198188553014467
-0,000474952089460398
0,00180677124712709
0,00704717690892457
0,00170654304414944
0,00960839411620657
0,00772264464889642
0,00231611602598444
0,00627042858600438
0,000133852875903318
-0,000845427078999794
-0,0081972941964629
0,00146901913007952
0,00923227664047493
-0,00641097365711395
-0,00250571995624607
-0,00782721000622362
-0,00703622838344249
0,0067984571944915
0,00115827756869387
0,00126919287937082
-0,00915265625561654
0,000704974881968308
0,000453355277523024
0,00798364644088389
-0,00707772933505563
0,00468121829031358
0,00549159776863593
-0,000686369624364928
-0,00538232217995129
0,00940119280342665
-0,00790403166077113
-0,00933545556505785
-0,00817941304532908
0,00303114440715916
-0,00707723585841238
-0,00983332508564728
-0,00154702539003838
-0,0044445103991402
-0,00856031663392486
-0,00620866800062113
-0,00136834826755769
0,00567522263285113
-0,00390481618880519
-0,000604458847364623
0,0089895837749306
-0,00135906219080047
-0,00595257419001909
-0,00919738685978046
0,00815904041919915
-0,00330767000235152
-0,00312669344301594
0,00488617662841557
0,0032366570233434
0,00459647974471895
0,00360661800025464
0,0111403527035606
-0,00772737533511003
0,00886014085694469
-0,00458851802415772
-0,0098664357861464
-0,0127886302074921
-0,0131243197817159
-0,00442542590419244
-0,00431402213286506
-0,00671350977276802
-0,0113736687398151
-0,00202709771044025
-0,00481813747923058
0,00955077544131576
-0,0036750770993571
0,00308726852625717
0,00696749339670292
0,00503304147861574
-0,00276608693973684
-0,00734659753924188
-0,00482696293276498
-0,005808028506153
-0,00965037736101863
0,00836687479093013
0,00377508443743295
0,000860567880977608
0,00632441227537114
0,00160986052682857
0,00957067964384704
0,00732083808203602
0,00438429497288673
0,00729834374857796
0,00631064165265038
-0,00282520116527025
-0,00474521023693636
0,00501110553149551
-0,00537631583228885
0,00398995581624492
0,00248238733102278
-0,0131430772855863
-0,00858163536337774
-0,00942596250263475
0,00383454150109253
-0,00814197825216318
0,00768774565871668
0,0087814509676683
0,00794291056596809
-0,00913900295671357
0,00155233496950987
0,00210510808350962
-0,00333991848089033
0,00565520664237557
-0,00789676831541717
-0,00217138113059452
-0,00384769121012229
0,00610329937942459
-0,000684594572133593
0,00845016492320306
0,0291873549359224
0,0347943285928456
0,0279599208497624
0,0303854045761829
0,0286275481938126
0,0229570886930461
-0,00408849690055318
0,00209352527535515
-0,013592394896936
-0,0131365068857585
-0,00283676288097698
-0,00992469695241409
-0,00956847860600157
0,00917608798426518
0,00799316421167169
-0,0044502343956615
0,00769581093144402
-0,00800951408076162
-0,00131317612261112
0,00519546066054333
-0,0151197950154188
-0,00130562458805566
-0,00113963305959119
-4,45790830307879E-05
0,00683434334318982
-0,00593592622373451
-0,00458376772316604
0,00308994287882441
-0,00304641416334728
0,0123331108909183
0,0130681711048377
0,00938684452762321
0,0205038539222122
0,009549141867303
0,000439973595378212
-0,00819030678950094
-0,000440800188305638
-0,00560051640680383
-0,0128180249585295
-0,00669666035283841
-0,0151806863082873
-0,00748460682168533
0,00769985110098571
0,00378452576592354
-0,00441487492329674
-0,00488783089681888
-0,00168539543264932
-0,00575064301390688
-0,0164527665987845
0,00398085868319409
0,000879192295863303
-0,00529885028149322
-0,00256826708939436
-0,0070562849872418
0,00678149111146908
0,000231925259667766
-0,0230066487263672
-0,0200239912600356
-0,0164864376775053
-0,0083022736209973
0,00677369720800332
0,0136415122761376
0,00929960464671704
-0,00777905286849923
-0,0037519620793884
-0,0102772710868718
-0,0140972114226983
-0,0116016567152331
-0,00375654427360012
0,00249584113760982
0,00127455461846955
-0,00408476886427098
0,00431092364022143
0,00436373371313301
0,00481976253278087
0,00136465845450721
0,00315627979718325
0,00893669274641049
0,00350899960682776
0,0115218763776612
0,0160750493495466
0,0133334843204742
0,00104817680304956
-0,0104524189847533
-0,0170623258314757
-0,0258638137294232
-0,031383466884871
-0,00356327185090779
0,00700892727520706
0,0116803442303693
0,00937741857655694
-0,00222902212230862
0,0103108975917276
0,00434302662315947
-0,00186380839889875
-0,0179609809961851
-0,00835731814058588
0,00350549985714774
-0,00453159345994536
-0,00905919334282239
0,00784961518896192
0,00654020575955657
0,000385319609261544
-0,00705985614281745
-0,00216758205089478
-0,000146737349606011
0,00958600300844428
0,0146376204235953
0,016312885351876
0,0165853876239441
0,00978444971796691
-0,00175447598371691
-0,0193433530103697
-0,0424288481217603
-0,0230380270926295
-0,014798034730741
0,0080203709091356
0,0207343643095299
0,0304402440252784
0,0223861380106605
0,0204193579294063
0,00445501575080362
-0,0123821694558464
-0,0113482121596833
-0,00744069566940317
-0,000868274209202348
-0,00156739652161989
0,00862432997783496
0,00652782775664995
-0,00294405916627356
-0,0103755186097611
-0,0105762206419823
0,0041347459508754
0,00276615627863744
0,0177236835572173
0,0254496050641791
0,0364778796787708
0,0194860750389367
0,0235908531770445
-0,00954211556717664
-0,0359463814454199
-0,0372533459422814
-0,0299761517424945
-0,0127116324987633
0,00401564935441852
0,0371884794026033
0,0384350010658829
0,0371954219908755
0,0342843489252379
0,0217760603052246
-0,000485621255099494
-0,00731513147140108
-0,0143293735943361
-0,0019869437037022
-0,00780224628287585
-0,000978723002179368
0,00470143394361722
0,00817235635396135
0,000115431890886938
0,0052198249428475
0,00877970192394511
0,00506130120270303
0,0134312697918853
0,0242384217088384
0,0113822598881855
0,00515619736994343
-0,00349320968347134
-0,0135119470733365
-0,0439760008291368
-0,048032864388034
-0,0340767594932381
-0,0147928486153665
0,00901835160330798
0,0298324808800113
0,0456024604842139
0,0383099327419262
0,043331879572689
0,0282550155084357
0,0128724790292077
0,00799926696262225
0,00547421264225483
0,00191030621322426
-0,00833053759073422
-0,00655190543576172
-0,0068805076564797
0,00326024412733051
0,00862363170806397
-0,00759174634534172
-0,00616968362879435
-0,0022680525902515
-0,00447738855353278
-0,00304297734355458
0,0015745853226137
-0,00298768827217603
-0,0354016092440949
-0,0359436924175099
-0,0425331641749745
-0,0246556683615371
-0,0231206994412936
-0,0194144721299601
-0,00129114784968438
0,0232014489692569
0,0401497847357995
0,0469823722042246
0,0339169363779659
0,0320469795945034
0,0186901919683921
0,00195369699801405
0,00629622928986741
-0,0101598135360186
0,00457470037331853
-0,0083366447276575
-0,00316314160380136
0,00582754785164141
0,00909967706103488
-0,00601530688945145
-0,00259105550068586
6,2923756123063E-05
0,00502504826901077
-0,00646338172208538
-0,0229712984041938
-0,0322771415329756
-0,0328292221981666
-0,0267110915460769
-0,0350155401307355
-0,0264256457931117
-0,00514669065938089
-0,00784044356490093
-0,00686089552440433
-0,00364804755204876
0,0275037369221852
0,0288092638497326
0,0130838938908372
0,0148687563387639
0,00511600318822655
-0,00576292354382142
-0,00759200525107437
-0,00240171322699423
0,0055793286330443
-0,00679543469869501
0,0055948572314224
0,00154647642073887
-0,00284012649262167
-0,00536228520491032
0,00346062528453169
0,0159715398847077
0,0142889485460165
0,00568206448809398
-0,00346952285984339
-0,0153014865398548
-0,0301180264662456
-0,0142085822337767
-0,00848847946500853
-0,00649339155819561
-0,00803182193537796
-0,00763222790968932
-0,0141897440358738
-0,00625100137785718
-0,00204949141803255
-0,00887293020910676
-0,00572785282678036
0,000835633415879106
0,0117812439711028
0,00647806269614787
-0,00787363243190788
0,00920153981876768
0,0076665501020425
0,00646684467043519
-0,00121097364859619
0,00788955584722935
-0,00707610890638102
-0,00746330141250009
0,0102751385824737
0,0145842209668709
0,0253171310306041
0,0253608122100504
0,0267164356555248
0,00923969996285647
0,00375339155789738
0,00577855473890123
0,0202872720729348
0,0112127171505466
0,0176198156564245
0,0131680668820854
0,00632393738768564
-0,0203454365043383
-0,0203076865493305
-0,0310142500614305
-0,0144818428717853
-0,00984408470287072
0,0124038289593521
0,0026888045151434
0,00706732786785813
0,00289258999838026
0,00873070098179855
-0,00051120294377183
0,00461793866116264
0,00223588962349453
-0,00813539667159056
0,00355062169601226
-8,00094261550471E-05
0,0273781027863611
0,0297665863084298
0,0450089452171763
0,0678170352200469
0,052853124953995
0,0651867378301729
0,059646380158606
0,0467633527556422
0,0331317535255947
0,0205045010137171
0,0190473215624608
-0,00701063718958904
-0,0184606502492789
-0,0251243648003649
-0,0351715786234894
-0,0161722108087756
-0,0133585909357551
0,00864964448869951
0,0108942126771284
0,00193470735856895
0,00742478419025973
-0,00320388394637132
-0,0051552637737036
0,00853840286258557
0,0020166817552142
-0,00719142739606594
-0,0101689690685556
0,00523770424949536
0,00517825958807574
0,0399639601081192
0,0598608204292892
0,0863585990055536
0,101426615099837
0,103115721459261
0,0858995846768695
0,0704789615199229
0,0406551269423312
0,0305322220988152
0,0156035052466047
-0,0136480324407363
-0,0151464435487489
-0,0281087580168856
-0,0137860723416978
-0,00783088684584413
-0,00707904090219638
0,00156326748454995
0,0036805804927706
0,0144996066669352
0,00759601804091442
0,00574887023295601
0,000717937100782126
0,00830262520991563
-0,00378676330199664
-0,0115307614154392
-0,0118441046048387
-0,00156790783326483
0,0109443303973483
0,0164089990693337
0,0446824450577509
0,085750040912184
0,0996090256551373
0,0814762181194428
0,0753445220804857
0,0584978487972414
0,0355906179246616
0,00246354529099757
-0,00849024578277435
-0,0180006410061219
-0,0309195326429991
-0,0259181573382849
-0,0224590909392544
-0,0140057641413186
0,0109857557084897
0,0140335155848534
0,0157047450292284
0,00266050884081814
-0,000867314392786061
-0,00434605589573961
0,00152275625498176
-0,00187059245532003
-0,00946518457200755
-0,0161993287086612
-0,00772567763290507
-0,0152169263853281
-0,014965928049174
0,00325141777376257
0,0347587726070207
0,0461141617113875
0,0576884791703163
0,0397569180177321
0,0440729216943203
0,0142354830245417
0,00435250478257841
-0,021786938641413
-0,0240971550794705
-0,0226555420538613
-0,00877962311812752
-0,0186174769806092
0,00434821452867857
0,0119737641055912
0,0184884703270123
0,0207903425326059
0,0209624521350303
0,00774421080610787
0,00434643758574463
-0,00477434319578814
-0,00844476266691683
0,00800210455134441
0,00121307534910494
-0,00116348439002108
-0,0208118963301153
-0,0097121326728159
-0,0109339337285873
-0,000238119606906847
0,00437571763548156
0,0151585365339802
0,0148660058736681
0,00282037181522085
0,00189057631436268
-0,0114458193398128
-0,0244854173089514
-0,0329098919267966
-0,0192615403152084
-0,0112109129291898
-0,0128798174075171
0,00637241797425432
0,00357461387193178
0,0160313941121014
0,0108960533705752
0,00967091556064584
0,00879335523485028
-0,000223167305950899
-0,00326892912086892
0,00175546194489333
0,00401152767184689
1,13419463844648E-05
-0,00626005903608125
-0,0156151540165162
-0,0108302727290275
-0,00391846579217581
-0,015667252830793
0,00396182370446907
0,000268883766851435
0,00579311699186741
0,0114523023595688
-0,00472727374576707
0,000462381894744734
-0,0218318360494241
-0,0191184744545677
-0,0160126104777839
-0,0242865453492589
-0,00240078707028448
0,00262212343914099
0,00668572172766708
0,0127181552182146
0,0174215984083955
0,023321644441254
0,0234246219314522
0,00474389955681596
0,01198139249706
0,00726463914683934
-0,000928306616191057
0,00655644799114032
0,00161876311648595
5,0506244234986E-05
0,00139514251389786
-0,013582769777665
-0,00384677965860098
-0,00118182238602484
-0,0135180107423682
-0,00197220883403162
-0,00294120089292984
0,00827942106774191
0,0151033963935897
0,0102672714947597
0,00703833613497494
-0,000551192128815418
-0,00965386251250668
0,00818137811387547
-0,00720728580039459
0,0133099251327284
0,00348418546673125
0,0219829585088306
0,0107851605480876
0,00142611219043137
0,0106584964325274
0,0107727636520292
-0,00886691999053802
-0,00792933652336641
-0,00686116837908328
0,00409056818768874
-0,00425803366781121
0,00457611437343386
-0,00028810295045192
-0,0172205737006491
-0,00868683708254815
-0,0243591050820419
-0,0228609210653683
-0,016019782297468
-0,0138971124116196
0,00730856513130626
0,0197563840169518
0,0153549409304345
0,0223344734814345
0,0118856800499024
0,0138428117086909
-0,00185837720044026
0,00848972753644937
0,0117523090419879
0,014890445840921
-0,000778834452167077
0,0112270198172826
-0,00471932755573886
-0,000195667775004189
-0,00453036462405187
0,00363028540430077
-0,000247199849199605
-0,000433758446217401
0,00100518052978683
0,00729957565539497
0,00879190863566118
-0,00363341134987954
0,002602611284205
-0,00361674641827417
-0,0178908430173121
-0,0265908852330101
-0,0174883010112752
-0,029674630311893
-0,0154946695804559
-0,00947765466550652
-0,00773736524840477
-0,00860817264578378
0,00707063027425617
0,00843205064747448
-0,005522609287518
0,00528245777689595
0,00945831573229925
-0,000534382318450863
-0,00756524696102984
-0,0024281831973839
0,00306632597059866
-0,00707295154519424
-0,00702359383419787
-0,00657086465021587
-0,00894945834965381
-0,00996541375292717
-0,00432427828867188
-0,00212888935214322
-0,00202631583309001
-0,00170575976160865
-0,00506221564392971
0,000781921194369394
-0,00227542581677265
-0,010444248870335
-0,01692497886237
-0,0135544230642584
-0,0237262496313972
-0,0177547846466179
-0,0229510450729446
-0,0234249067405366
-0,0208912807614371
-0,0179755816479911
-0,0151326078569115
-0,0107549612791488
-0,00307091067533967
0,00363476926712685
0,00455480910660049
-0,0079167866861473
-0,00625523003341375
-0,00202185257867917
0,00517439432140317
-0,00730974819276493
-0,0014010165851634
-0,00591513966951293
-0,00538018901617275
0,00613230916491351
-0,00522728229650635
0,00378032580528312
0,00457186712930172
-0,00325412991288453
0,00678753979658035
-0,00610102088094845
0,00137390164172512
-0,00698387137110211
-0,00461314674186339
0,00368017892811007
0,00203463647421857
-0,000633865844110447
0,000874570559725193
0,000363283160771793
0,00173238189446062
-0,00409893831719592
-0,00958064363383359
0,00677948741347846
-0,00519178565737862
0,00097984789599729
-0,00960385528829576
0,00811019745751975
0,00277648373447003
-0,00513895092188727
-0,0059143943972487
-0,007553563209974
-0,00672522492554282
0,00960404958557526
0,00310084688155951
-0,00663402126013954
-0,0055729987554222
-0,00220536905753678
-0,00813494428978321
-0,00245097344677085
-0,00498960039959093
-0,00183581095646672
0,00523778141707982
0,00819732388131716
-0,00406219949834119
0,00680379827670365
-0,00115414675812374
0,00802406804418465
0,0077977741218728
0,00500050724163122
-0,00796375958336312
-0,00573343943624162
0,000101472714954714
0,00177687862920679
0,00416629983874037
-0,0025560023795155
-0,0091645114213063
0,000862666587747012
0,00858135808193188
0,00311858954518968
0,00552910870664246
-0,00333669968570429
-0,0089886924340337
-0,000213591731252891
-0,00718573802951059
0,00466882697989644
-0,00886762491374632
0,00248496619634562
0,000878956946953646
-0,00671754059228932
0,000863140686817067
-0,0037851484090952
-0,000268410563833227
-0,0044835278009422
-0,00229037220552202
-0,00404951726948086
0,00255001684303862
-0,0064894832468077
0,00161964999121597
-0,00150616554147851
-0,0075883060123717
-0,00763069757150053
-0,00991355516943781
0,00759224505982932
-0,00731428592340755
0,00974497123609529
0,00232907081596976
0,00146487650064047
-0,00460391690703291
-0,00434878225175141
-0,00746950983883325
0,00356517083643245
-0,000782268879178779
-0,00123937848864719
0,0020615068052414
0,00840453565572793
-0,00273092142862258
-0,00434590043565148
0,00557951007854679
0,00150970657148928
0,00591841737944662
0,00665437408558242
-0,0028377337233923
0,00440058027320938
-0,00582083662220121
0,00598595596887195
0,00467606763575309
-0,00533787425427565
-0,00584229552779644
-0,00171229460867056
0,00489427124117157
0,00732245784953427
0,00924301659653104
8,75236234103901E-05
0,000706895557561376
0,00315980627814299
-0,00342314451626648
-0,00658093749386302
-0,00289914656251582
-0,00692966027805843
-0,00765422280409548
-0,000331585524951828
-0,00290082502742258
-0,00473454624217088
-0,00905909602940563
0,00766742300889741
0,00744215511208122
-0,00866183354205455
0,0037579120622493
-0,000370551323899592
0,00876425339054342
-0,00309614398893602
-0,00140759406550975
-0,00817749754318411
0,00469532155422678
-0,00207105969521161
0,00639602510153471
-0,00380404768935663
0,00370874093050455
-0,00312466129596822
-0,00484310711982284
-0,0022818646747698
-0,00262728702864949
0,00713893713296342
0,000751605457976277
-0,00479448166433465
0,00431835111097744
0,00913195210428202
0,0080585436537857
0,00889640199578328
0,00184772853399158
-0,00616519498930135
0,00885081624123233
0,00325359185224897
0,000357554755990086
-0,00201432364680308
0,0010955329530897
-0,00713941909064684
0,00549523638279953
-0,00129613343092363
0,013213975369434
0,0109496604080667
0,00929868117413628
0,0119613712458237
0,00431235361613039
0,000564819408510983
0,000407345537301791
0,00961816666602988
0,00769844824938804
-0,00508648334572569
0,00818092627899967
-0,00876907619590362
0,00015056550044127
-0,00962323077216833
0,00792298013526852
0,00462661142332926
-0,00760147722468007
0,00024290626964084
0,00494253126883589
0,00677066433508294
-0,00460039163178182
0,0116936755354046
-0,00345766635338037
0,00442388699560446
0,000583420226360261
-0,00520038140877895
-0,0111442091196544
-0,00053864928261062
0,00106754773445723
0,000451135307616453
0,00924355731472909
0,00059108846700723
-0,00510962964090276
-0,0101651984875308
-0,00569055597165479
0,00103246988651737
0,00762344532539975
0,00310803333626513
-0,00235543301027444
-0,0071698823641331
0,00586031595052234
0,00525127754325572
-0,00834992574576053
0,00315105966443449
-0,00897798939292662
0,00184028134041728
0,00648199257183783
0,0130777959187006
0,0135942513682319
0,0172551996804032
0,00609085196006562
0,0138136806081442
-0,00845002519675457
-0,00365497962649454
-0,01754384233071
-0,0145353936952188
0,00389150839127819
0,0113290859937962
0,00600092931471133
-0,00337658892590922
-0,00183311368794602
-0,00635618202116984
-0,00620748863389879
0,00263660193798315
0,00148088505005467
-0,00262863656788946
0,000251154673574131
-0,00607093192683667
0,00261434389865694
-0,00355581347729365
0,00816646958988395
-2,33686566556937E-05
-0,00651150555873466
0,00506534857007741
0,0162999953003989
0,00861957807869707
0,0234714513914514
0,0231250420393144
0,028422323199069
0,0144453266329462
-0,00107177904210272
0,00321991525841881
-0,00204844940568361
0,023659951502776
0,0158359506110588
0,0283718472683053
0,00497268156936575
0,00188874360061086
-0,0130492207038724
-0,00515229393979121
-0,00485607955717767
0,0178275061456464
0,0132115016718679
0,00735337689218348
-0,00573442410192511
-0,00789246535630542
-0,00275492280506254
0,000631344548836087
-0,00534402792988046
0,00615915095133234
-0,00729905585652564
0,00523885357572118
0,00577592113524771
0,0138863390619333
0,0297336192722366
0,0351757139411349
0,0415922181258505
0,0345043136986048
0,0264475402288665
0,0196767915794404
0,016500476919644
0,0231597605743813
0,0313274788925875
0,0344275749633058
0,0248911909112685
0,00979252772204262
0,0104807531843869
0,0110488014238457
0,0113796657494098
0,0162241440956239
0,00241841550768961
0,013338593409811
-0,00710261097613065
-0,00397311414472109
-0,00432773635408003
0,0080435464044208
0,0046197134550391
4,45072153998467E-05
0,000342952123618269
0,0133633917971953
0,000388861677789225
0,0115024640188647
0,0189258106935346
0,0388958494323027
0,030579710192691
0,0305597529118041
0,0116681989030577
0,0128953227153198
0,00596571329392341
0,023000611912363
0,0425166474051949
0,0297010073752908
0,0299693553132178
0,0180796613010057
0,0144858039346925
0,0320909173551112
0,0289855987909483
0,015199569786534
0,0252361655476715
0,0123895336247967
0,000182254139669618
0,00576490777487671
-0,00797335984699627
0,00269367367821769
0,00568535573644326
-0,00574629349483133
-0,000422457190725217
0,014019771525066
0,000435070210944102
0,021662525241564
0,0302482603986894
0,0236760177908979
0,0269754805189274
0,0184332766896551
0,0225135853134041
0,0153464958127743
0,00558098780063705
-0,000967629890973718
0,010804064706523
0,0184279632705636
0,0220841961691741
0,0403434203735623
0,0323292922821234
0,0178109783902541
0,0257951625524831
0,0194493445893794
0,00589267330675218
0,0117258880657903
-0,00530653101439101
-0,00412411469449209
-0,009171501990087
-0,000465953314651468
-0,000351399784496083
0,00441853490556335
-0,000519517102802212
-0,0023528900874371
0,00014438090374069
0,014922211696566
0,0122170391821677
0,0188013168131798
0,0247851531232683
0,0302218866759847
0,023376043154938
-0,00564981187193979
-0,0225801881926762
-0,0200616418421797
-0,00489754376048402
0,0250059951329715
0,0252844870850376
0,0194449084574305
0,0211247067592981
0,0236911185562873
0,00657365062993837
0,0195126383673243
0,00642601611823094
0,00128489891081097
-0,00522808363143295
-0,00833014153389449
-0,00972749899812775
-0,0053381988921398
-0,00901859053329824
0,00240067513055037
0,00538375856680456
0,00833119356349254
0,0152964387520185
0,0155021352254771
0,0325760124524701
0,0381551276221025
0,049488423810882
0,0549543111235221
0,0403618531625374
-0,0109684504558493
-0,0526744491668
-0,0508844232650287
0,00460874176501934
0,0263590356707344
0,0179050701898903
0,0185178527379702
0,0189150579787123
0,00380725413065135
0,00955211689237897
0,0065874083801134
-0,00237272102491771
-0,00853422093845166
-0,00817026844809201
-0,00193735295211116
-0,00111978705577082
0,00140691400381813
-0,00628031525629624
0,00907077595734019
-0,0103322628747573
-0,00509512736315069
0,0138138863557349
0,0305852161378349
0,0265368455613789
0,0517377388708963
0,0691057642334029
0,0778222651335202
0,0368212711832397
-0,00643203000526888
-0,0589119347912623
-0,0490514070773496
-0,00757535192476876
0,0291811083443893
0,0184502281092318
0,00962445795402999
0,0154938198621282
0,0211529285817751
0,0211619059930521
0,00914658418023753
0,0119631464367929
0,00392170867017672
-0,000556922319969804
0,00932507734992464
0,00542206639065437
0,001223653119976
-0,00365586996221021
0,00346410943249423
0,00485736707108188
0,00574846793520034
0,008095536199379
0,0272844431011388
0,0452805760934541
0,0690667895947751
0,0858191865508498
0,0848102854996738
0,0415280593942785
-0,0322700131560783
-0,0725779319175837
-0,0403852789546251
0,0125788058463231
0,0406060973222881
0,0299050051508485
0,02952444017743
0,0177902659928965
0,00857865304033849
0,0137824411353637
0,00691718116176799
0,00815055475248539
-0,00977436486255862
0,00654448745374274
-7,65319401916293E-05
0,00150992951030797
0,00238154828760065
0,0093398976337679
-0,00464661856840169
0,00311519907647241
0,0117732051134795
0,0129047863807951
0,0344420880685904
0,0447942533183191
0,0759377873605231
0,0919827235345828
0,0747070345488221
0,0339000611045329
-0,0407206623327344
-0,0495962842438295
-0,0271482513730274
0,0278550673139083
0,0577118718722003
0,0482735919302471
0,035656989286774
0,0375702945027456
0,0249963969863762
0,0083750940213431
0,00475100373500654
0,00295643129300648
0,00573171859280005
0,00114551679037334
0,00385402346504534
-0,0081106967178671
0,00940129890389589
0,00890888848622326
0,00377283432955373
0,00417410006700979
0,011484859980755
0,0259011828141036
0,0393505259745702
0,0481739697832709
0,0514857614144743
0,049301919122611
0,044864689232628
-0,0103775843797212
-0,0472088442104571
-0,0629252757333032
-0,00706833118472987
0,0491267291296251
0,066274812124811
0,0645996047719634
0,0389902223737637
0,0288541187661483
0,0161190237352392
0,0247153973403158
0,00121335290517592
0,00386615055488115
-0,00110694150176056
0,00125224743558846
0,00828758918277881
-0,000218878687091741
0,00493835042288439
0,00664812892371941
0,00575027269680999
-0,00678232381841196
0,00893370622085548
0,0168108984447682
0,0210845221958
0,0378032542684812
0,0237167011608858
0,00716249202971561
-0,00978743253184112
-0,0285037671183199
-0,0658864751906332
-0,0454928798963229
-0,00452449786170525
0,047496323999854
0,0662032365723706
0,0563751607544929
0,045956898141321
0,0350562309832308
0,021702963916213
0,0110016947350335
0,0139801454512051
0,0108227549642153
-0,00133334771653121
-0,000741200551959945
0,0094027243048023
-0,00969435944207681
0,00698981381374179
-0,00702517535558952
-0,00715120641588877
0,0118836282892717
0,0180376926584459
0,0164443422646118
0,0295859461994951
0,0132660438128755
-0,00482197703865015
-0,0153624989581608
-0,0334059285362543
-0,0552970736025436
-0,048378788894124
-0,0308242139258909
0,00968494717692381
0,0430004147375295
0,059859517806081
0,055627662268232
0,0355336157214164
0,0272806852034714
0,0241375740452367
0,00988126596648406
0,012425643359909
-0,00734714290689078
-0,00775640230034854
-0,00367846498025585
0,00965602532313612
-0,00330959108963477
0,00871480496137905
0,00667623166903313
0,00176668292405152
0,0116144807185003
0,0108881010645511
0,017017924933086
0,00952935086981129
-0,00398992169279017
-0,0103872829068057
-0,0410916938793136
-0,0395754764724432
-0,03840276091743
-0,0305132528953266
-0,012776555751099
0,010433715238149
0,0464044884868931
0,0567229120951506
0,0445457460470681
0,0404996712189658
0,0279510505031538
0,0216900493610396
0,00540019380209472
-0,00111797828633396
0,00737211459646979
-0,00503962108525505
-0,000430257727570012
-0,0063987209003842
-0,00373898577943861
-0,00632391611311005
0,0100894955847102
0,00702519566792349
0,00372172814848401
0,0113333838513394
0,0253682659420576
0,0180801190614528
0,000288604121159358
-0,0229609954947809
-0,022415846275106
-0,0178613732437073
-0,00638804761480133
0,00543343377971709
0,0081541631743753
0,0239125226899477
0,0331381142037003
0,0528431816572183
0,0414883724138976
0,0334124533859291
0,0108165048247915
0,00584810168700157
-0,00287112174705116
-0,00244483275445927
0,00585779401429778
0,000576846197569135
-0,00573123284557122
-0,000921154797234611
4,27018711542243E-05
-0,00165031520953767
0,00302650235279238
0,00422258096189873
0,012220506905211
0,00143200616083384
0,0196427780638845
0,0216622675208512
0,0124428672883385
-0,00448436915318338
-0,00930009992623075
0,00526756788993887
0,0191931121919017
0,0264558796846997
0,0344468812963659
0,0285354390916846
0,021185073716451
0,0345761940631577
0,0226114496976869
0,00968107031451892
0,0121238671135047
0,014813895059714
-0,00675478901221211
-0,0105818628841787
0,00346126172941163
0,00328842103454401
-0,00962989628754829
-0,00950325938729879
0,00970855454368205
0,0010080314761481
0,00916529899334564
0,00990517084917769
-0,00385919319539305
-0,00322077064404459
-0,00581065342797444
-0,00431915283273938
0,00578669515322277
-0,00398493055057667
0,0170061055646808
0,0298448306618823
0,0361608244393753
0,0446915778350995
0,0329668236847541
0,0267329583187544
0,0198181202388141
0,0123390924790671
0,0195348120496046
0,0210380487354162
0,00809462640471114
0,00690787033544566
-0,0031015686201621
-0,00716634968800915
-0,00376003123175679
-0,00607588289739505
0,00948768034132219
0,00107977834071252
-0,00406291596045057
0,00150910975195861
0,00857445620979183
-0,00384155465497115
-0,00739554753314172
0,00147545180448121
0,005759090869669
-0,0042113473357421
0,00154216276640245
0,00280053916804396
0,0100240431200607
0,0418381283093311
0,036144593243207
0,0428219034384702
0,0276994615268582
-0,00261937494525322
0,00595322165395041
0,0027026702386649
-0,00723271852844732
-0,0033062214570374
0,0028687909110525
-0,00192168245557998
-0,00362477814331072
-0,00382707328061805
0,00844040839632714
-0,00936331351274031
-0,00021392191971694
-0,00463356894343082
-0,00631229629568397
0,00453329995951303
0,00161036346536058
0,010138009455898
-0,00507854857669224
-0,00286219047959211
0,000922137578306434
-0,0106391756215081
-0,00601380315409378
0,00793273878203415
0,0174614474622824
0,0243614366505008
0,0274901556606245
0,014414962079675
0,00621617959721109
-0,00280684232463077
-0,0136318036819218
0,000235585152242683
0,00780670476737096
0,0101568536255326
0,00987425504398355
-0,00207797843499533
-0,00451444966281425
0,00177395976529922
-0,00587530271054086
0,0085349669199888
-0,00812703508436587
0,00926451935398603
-0,00494443205881139
0,00147338245598291
-0,00371122210683751
-0,00924321451182676
-0,0050246867633855
0,00487381935222694
-0,00287820433749998
0,0131682281700819
0,0143117674221055
0,00736171323462209
0,0261987992251192
0,0300800643491336
0,0337982226579084
0,0283792646687185
0,0244567215125487
0,00899007810962499
0,00202992513074269
0,00643618106297707
0,00358320789461661
-0,000397788766257835
-0,0068561340505035
0,00697696222402792
0,00946629167909172
-0,00861714359257555
-0,00613701614238131
0,00263716320308752
-0,00236738659853495
0,00707031586071026
-0,000570100159649783
0,00993884167631103
0,00506811768279631
-0,00458229289530568
-0,00250343290076566
0,00738289364992036
0,00888257065252894
0,00600812274039455
0,000246914803744413
0,00829768839566626
0,00635907230272011
0,0197430833907235
0,0199940855409732
0,0117800431243588
0,0182709007503793
0,00495534064461018
-0,000944237473842283
-0,00504846256645056
0,00977610939900011
-0,00699638250464972
-0,00163755885405292
0,00493373803947878
-0,00597721384658963
0,000800373927535471
-0,00276556052624991
0,00395067204442309
0,00714011878062173
-0,00148084759315515
0,00208714851741081
-0,00514834633802452
0,00627920077940412
0,00115052190771716
-0,00351841492000579
-0,00169076794864728
-0,00225338842246529
0,00413902318757957
-0,00252213867623796
0,000126516504720717
-0,00095355545826636
-0,00588109762214773
0,0112885393997168
0,000149826769810593
-0,000332140613278669
0,0112338842914238
0,00125179149542525
0,00617747318299979
0,00220794203745092
0,00427362783788679
0,00980871545025016
0,00323767594590344
0,00766222009481377
-0,00883911852549854
0,00361334685356115
-0,00487792094267923
-0,0012730989005757
0,00435101744455798
0,00585377289720521
-0,00577501425322844
0,0080564883062879
0,00315675827355904
0,00916374180856929
-0,00209586384312537
0,00887293584994241
0,007925529028444
0,00151487532524996
0,00172843999522697
-0,000800740534290154
-0,00203594080324593
-0,00910810486583055
-0,00626567411017321
-0,00976938218079692
0,00554623623318273
0,00617261188812115
0,00757614098687816
-0,00615519914353309
-0,00897268235026934
-0,00219649404346189
-0,00565747403394956
-0,00974422190095281
0,00128499302396569
-0,00813989933493543
-0,00698794497036745
-0,00125163572433015
0,00884523944875469
-0,00282921082937588
0,0051203468232976
0,00753053396825238
-0,00876647423895377
0,0093413502906176
0,0028399465944804
0,00735842864837424
-0,00811638716520573
0,000302896634816609
0,00365314094054193
-0,00750424079480778
0,000860950737661192
-0,00154188911112425
-0,000633441761505464
-0,00173172064390288
0,00888778925173592
-0,00311448974214238
-0,00573875903884822
0,0033904875877269
0,00621736227358568
0,00320618278030594
-0,00770093295616141
-0,00486897047370159
0,00615338008671691
-0,00866004733306358
-0,00228560893437155
-0,00345475647293718
0,00148169534815554
-0,00606489472839278
-0,0032321916675345
0,00129665760849447
0,00614919335402045
0,00914565288054898
-0,00999165111021887
0,000695467199402078
0,00625783536404666
0,00380038951242617
-0,00262418190270274
-0,00199439455055257
-0,00276446321144264
-0,00449781073020174
0,00768239679840156
-0,00508182766481995
-0,00757469307481509
0,00546820320618282
0,00284185698473826
0,00223441884376288
0,00814810415239759
0,00586954931377595
-0,00877177477983946
-0,00564825739842253
0,00758110641350523
-0,000378432558094353
0,00253100200208416
-0,00436094333155125
-0,00512827787321446
-1,06827030008118E-05
-0,00862284611846453
0,00989232578584122
0,00162572228592129
-0,00373235604511237
-0,00413739662442204
0,00776148436516284
-0,00708271501634277
-0,00890047326313327
-0,00617000666794586
-0,00198550192436705
-0,00525757954647321
0,00418189350627727
-0,00338666960537917
-0,0108402033665351
0,00323346599561655
-0,000218816211992624
-0,0111563122284823
-0,00773202852315519
-0,00240745264059231
0,0023118669769647
-0,0104129608431435
-0,0105117214110515
-0,00215868288170206
0,00518024493945026
-0,0017793828036905
0,00534434198185072
-0,0074683840840442
-0,00763536138349928
0,00369779790458167
-0,0034729405173445
-0,00340101579309197
0,00430234002963103
-0,00419458785746578
-0,00403409529262937
0,00210526529749327
-0,00353920424238607
0,00477676487558068
-0,0118227662191816
-0,0135660323960436
-0,014174938822791
-0,0153967706227406
-0,0229476495413591
-0,0180958304879553
-0,0297558329360398
-0,0319594628438164
-0,0174554314830106
-0,0311511279368437
-0,0113254270078858
-0,0156207002286968
-0,0137739186817697
-0,00852377766403274
-0,00869908476156162
0,000549930556125261
-0,0024378866653264
-0,00276702874003306
-0,00981158681205082
0,00147349129470432
0,00646680789913391
0,00819712333177988
0,000451426822631202
0,00503598274010232
-0,0088500001230248
-0,00202677204715321
0,00896056490715847
-0,00588178356744247
0,00312339161206006
0,00606635141626141
0,00300407863015881
0,0114483892044971
0,00940522331127215
0,010153280167783
-0,0169785335151694
-0,0241121103164228
-0,0257100324630619
-0,0242116112147645
-0,0292819172891942
-0,0140147484341498
-0,0152156205269746
-0,00696349291411412
-0,00528515041202763
0,000557926095248669
-0,00403514233945143
0,00698269662541831
0,0018529138210476
-0,00762368238420397
-0,00588765267881528
-0,00616726088723978
0,00777384005224667
0,00781016787087297
-0,000388354726610176
0,00137181487437242
-0,0173731281623336
-0,0172593003445008
-0,0100141774796046
-0,00217601489815725
0,00319036968062173
0,0222475051657685
0,0203692920955078
0,0172114469581187
-0,00718529315457688
-0,0234536547110643
-0,0220845918826138
-0,0387879694833252
-0,0266783848049801
-0,0350630508596482
-0,0369886793439734
-0,0200377783686
-0,0058057478834686
-0,000755214915598969
-0,00591258897601669
-0,00244850973896332
-0,00573969808208742
-0,00465398398179599
-0,00012512053919746
0,00946999769668084
-0,00159641103129396
-0,00890335128336589
0,00126410488996664
-0,00208956481020212
-0,0199238424303542
-0,0113898415721257
-0,000226256445859538
0,00873842568993135
0,0410946453819869
0,0574334423453945
0,0763576978513913
0,0580151219902056
0,0623823568538183
0,0307341307228836
0,016734179438502
-0,00641866889421488
-0,0263337965975141
-0,0300988998888983
-0,048727404714322
-0,042194975554006
-0,0170650452124973
-0,015571276453152
-0,00884470160460956
-0,00123045465658419
-0,00792855390929744
0,00131138335837799
-0,00160315790277519
-0,00307688740680732
0,00500286348695835
-0,00575092378042751
0,00203162084583077
0,00284852471520278
0,0048104642062171
0,00613046378993338
0,0237390606737278
0,0436946982824115
0,0695297969252598
0,0911972842084814
0,113920995220712
0,122678739141495
0,0972812068643086
0,0678819214957217
0,0407456014429895
0,0329377705171544
-0,00236620503041531
-0,00553528962787264
-0,0261609370725856
-0,0347027187270356
-0,0135976176602246
-0,00675891267047156
-0,00826598009341971
0,00303743680258689
-0,00579957297550402
-0,00137268340040274
-0,00186172641483105
0,000822867554394695
-0,00395134064263671
0,00533519213190855
0,0166335675875592
0,011665979226007
0,0104481120708642
0,0260444823482605
0,0445633384972964
0,0583921928846471
0,0683092476814902
0,0856963823477051
0,0974482960848209
0,0942964835052562
0,079517195272305
0,0622401564584613
0,0512216789014223
0,0335603197539899
0,0186189492546515
-0,00729047645274108
-0,0108680375432901
-0,00884149370412439
-0,0102914371911154
-0,0164227053391466
-0,00676196152134426
-0,00778872782488108
0,00843742821595057
-0,00740459654332937
0,00108813930400196
-0,00391612445690779
-0,000341536919169996
0,0221826188732312
0,0196402436606113
0,0142078416358331
0,0171417293949868
0,0324415582837189
0,0481285573761376
0,0436197575995945
0,0541386995071711
0,0420503993331331
0,0573376437876924
0,0414041765338707
0,0260047649438267
0,0296771999496864
0,0358044245387749
0,0217069462593358
0,0285662729886486
0,0118466104836948
0,00921979779236191
0,00407992065199056
-0,00129698718986605
-0,00319933459756607
0,00757793797092047
-0,00730412354575291
0,00965780140226301
-0,00253454123632861
0,00399473499065478
0,0128123724977899
0,00276540798342079
0,0174897463439216
0,0205134929526642
0,0268650569783812
0,0274754878044302
0,0208919460012581
0,0271961130619038
0,00616429313192398
