-0,00140534801939751
-0,000492758271513859
0,005435003356745
-0,00481392665524684
-0,0080760642970335
-0,00728889703624365
0,00890355735034847
-0,00946832068239726
-0,00285166649746321
0,00277902116662777
-0,00894755105438994
0,00299901703977912
0,00617036173873132
0,000241584372819207
-0,00109099240558734
-0,00803892781866664
-0,00699098114715469
-0,00154943114684403
0,00222203042927293
0,00212506760476393
0,00174766602541677
-0,00727232705674708
0,00713116440788431
-0,00604289079832048
-0,00347975388796989
0,000756195406781601
-0,00755602318679729
-0,00345700276710885
-0,00344765278205632
0,00738402260345594
0,000586670576867961
0,000546586993404938
0,00265951240918572
-0,00170749504896011
-0,00932509007324205
-0,00743373877127369
0,00068336033839964
-0,00265486910935487
-0,00519343906019746
0,0055987618764757
0,00504627431942195
0,00720691230698278
-0,00839262561389395
0,00479374095760561
-0,00768352548581769
-0,00112525634826542
0,0034814747272958
-0,00102446848229653
-0,00965501130874513
0,000432964834177154
0,000626198467118672
0,0078200223285309
0,00788726910850372
-0,00704231988500912
-0,00395114092805942
-0,00413302096265043
0,00237607732060183
0,00147789415506548
0,00866582723272304
0,0011677402961849
-0,00973336210671371
0,00236029142356392
0,00397484315921793
-0,000256420952268356
-0,00784644953790687
0,000435473153320447
-0,00976142349537299
-0,00221607486966475
-0,000538328886846565
-0,00377746085044081
0,00114557941508615
0,00552189661632952
-0,00652645592763828
0,00644445060610483
0,00691130528057733
0,00440713511665435
-0,00896230560509964
-0,00770841887735185
-0,00838674725719891
0,00763006361135964
0,00726925599230936
0,00346607480308826
-0,00380576224709198
0,00611702301358666
-0,00324396351037732
0,00276524237020185
0,00265931788490122
-0,000298160721258186
-0,0077571359352683
0,00480960055406886
0,000186989585756346
0,00918537831535583
-0,0013727283579475
0,00355317655071616
0,00521333531330506
-0,00740961710620835
-0,00684189610729448
0,00173772097008332
0,00241940430601806
0,00156301649669768
-0,00176560921664197
-0,00474693265853476
0,0090217763346174
0,00364689189715437
0,00888365531901943
0,00479242853092723
0,00409070855703092
-0,00876686993733375
-0,00412008022564552
0,00152271485254724
-0,00524265447759062
4,57052374471471E-05
-0,000157983540630891
-0,0089732537058248
0,00389793853378886
-0,00319775975414008
-0,00383506865450812
0,00786415773046813
-0,00698677029615703
-0,000571000618078725
0,00784274887226208
0,000659376648264965
-0,00425247840141023
0,00506222295527471
0,00663742447464009
0,00264033814706468
-0,00244528202305717
0,000527508975449018
-0,00828031314681307
0,00463085653596942
0,00135923790683382
-0,000812579704105344
-0,000413887113020776
-0,000314649416038149
-0,00100407581727315
0,00159677709640767
0,00402334711699214
0,00217634289277096
0,00694895278588581
0,00177657845535468
0,00856876696393302
0,00137433736183417
-0,0061995313587913
0,00072065048830383
5,38038168964661E-05
-0,00983558441670255
-0,000588676655369694
-0,00224412248263066
0,00992867710316173
-0,00109915097609972
0,00719775762659398
-0,00351733280411237
0,000261226767352851
-0,00517910776037298
0,00570972677460211
0,00968943783392518
0,0116807323933518
-0,00388152347505138
0,00896803868606717
-0,00211282858568892
-0,0014726574260441
-0,00547530503162444
-0,00983641891083549
0,00157367412299501
-0,00976029987352139
0,0055066282737675
-0,00967509816792146
-0,00997910357453643
0,00192932813052522
-0,0077631302445224
0,00274973317834106
0,00398385155322234
-0,00908659304833447
0,00124631358671472
0,000911037520225045
-0,0033771233071355
-0,00284700526785611
0,00549019192347598
-0,0044014455080306
0,00721536838428856
-0,00587924159275175
0,0108705821597119
0,00184073062489891
0,00444066114563753
0,00961220577656925
-0,00232122824804819
-0,00797966409610146
-0,00208503321880479
0,00692308524672527
0,0019301013791314
0,00209662590522269
-0,000423571399486493
0,00438229842459653
-0,000135901691691722
-0,00623837035998051
0,00433864326698489
0,00133902973092116
0,00224663591445362
0,000471433457807294
0,00453361176131551
0,00980265522672997
-0,000685852588915561
0,00572939117198996
0,00759148654747338
0,00601336433138583
-0,0070423918007193
-0,00496192328549513
0,008268368536571
0,00300230529488515
-0,00190086432793553
0,00158597747176601
-0,00435903849773504
0,0107938267979359
-0,00696696288911423
-0,00415243940303354
0,000123923418862865
0,00520829474303333
-0,00174132836308299
0,00434751290481651
0,00467499609702541
0,00526417275887124
0,00385436797844292
-0,00581677035404971
-0,00926404707320217
0,00055042786518463
-0,00664441125244562
0,0096463288591423
0,00102078885066043
-0,00262189513969339
0,00638529695895862
0,0050070359891616
0,00447182943832529
-0,00562152394554641
0,000201551285254595
0,00627266613412336
0,00339553223104888
-0,00647655131513114
0,00249523077185331
0,00657596705536017
0,00497514120074896
-0,00858896920544568
-0,00678240329755442
0,00510839943942132
-0,000557594798850184
-0,00883019042085436
-0,0024985694403033
8,80851081742561E-05
0,00284978298702828
-0,00438122971151305
0,00511035285042718
-0,00966297334685691
-0,00599498354329406
0,00850009016622793
0,00612482954084137
0,00940191279691239
-0,0040611649842066
-0,004982855087606
0,00478782178219988
-0,00325877205559205
0,00215706206711228
-0,00743568803726282
0,00312656837496046
-0,000107730316396187
0,00550162028631041
0,00194265129499891
0,00598240397904928
-0,00987564277971294
-0,000598413859090688
-0,0045006465576884
0,00114325710345913
-0,00442262423249012
-0,00794674841742408
0,00125907375539367
0,00922468652784091
0,00350619512289233
0,00271528057528217
0,00979556258469999
0,00590679428559749
-0,0093696372900464
-0,00607528309337174
0,00392502276413849
-0,00275880874390624
-0,00436161506848209
0,00234840000933459
0,00601468516608213
0,0008760541086369
0,00578652496330176
-0,00210850266940698
0,000212980301232061
-0,000369286815052252
-0,00231292708183305
-0,00189428433862065
-0,0047261466495837
-0,00597557590451248
0,00213999709326751
-0,00204624493076518
0,00248740700421221
0,00816292837842575
0,0060243697893345
-0,00592088358798188
-0,00342241286579975
0,0101368958043271
-0,00287815176461853
0,00457281389019078
-9,88846633371867E-06
0,00904577614732731
0,00358056825006324
-0,00999660335189788
-0,00677962364686418
-0,00285800803082394
-0,00356845547188278
-0,000735061379405615
0,0042230468202113
-0,00719258378404697
0,00815395325427149
0,00509072406434549
-0,00299155849011511
0,0069295379772217
0,00896399291784655
-0,00920194599691898
-0,00987983105816864
0,00228306685571534
0,00938573994818862
0,00589189208561403
-0,00723028694517771
0,00615852863282112
0,00544807719274316
-0,00377637690825659
-0,00354060173212344
-0,00489581118693545
0,00981469724056694
-0,00875843042182827
0,00988804395374981
0,00699766982436954
0,00793204384797858
0,00429323527366712
-0,00945250807424727
0,00141428898297797
-0,00739191987400471
0,00714798899836971
0,00742255274611883
0,00583696703232218
-0,00534079213765751
-0,00710671373911612
-0,00724508060072674
0,00792410118378112
0,00357873964279935
-0,00753635474703997
-0,00387432356226894
0,00737673684348578
-0,00879075395306332
0,00539514722426886
0,00837130353113312
0,00404940032198819
-0,00707573945255492
0,00372039674879676
-0,00937803846842604
0,00106911985153224
0,00120997738204776
0,00307655505274868
-0,00669814692780236
-0,00240413034857929
0,00388004850707859
0,00835581616096987
-0,00249557038419674
-0,00467594931192069
-0,000470420208288082
0,00738375546465179
-0,00498942815893282
-0,00603838992354715
0,00459175347045527
0,00553049056490719
0,00411118568115594
-0,00836852402166375
-0,0066899862535859
-0,00555201251308046
-0,00206844402172661
0,00668089546187469
0,00294048925717744
-0,00565611356838295
-0,00815556110423213
0,00216763573320464
-0,0104132324845997
-0,000816034414638588
-0,00569049339797478
-0,00562740607708892
-0,00796270485580575
-0,00519176283669595
0,00356942191044011
-0,00577488159928602
0,00377118541217806
-0,000547254672150398
-0,00987734155310142
-0,000546029984674046
0,00386296319707979
-5,30287503969066E-05
-0,00786511575708384
-0,00351300672960462
0,00555688710733529
0,00758300225642827
-0,00160867487795486
0,00616375875358967
0,00747511714890314
-0,0078828414889105
-0,00743714868817209
-0,0047342538604429
0,0106783183035021
0,0063259818648223
0,00039022390067851
0,00816010643982404
-0,00413768721082608
-0,00548273678167389
0,00867899902573297
-0,0033941185619466
0,000222616191616727
5,9355338027131E-05
-0,0025801861357453
-0,00553545708092101
0,00385999149909021
-0,00715471119714345
-0,00701419991871372
-0,00551947047862683
-0,00626715191831117
-0,00911335153872662
0,000434935986116672
-0,0044991465744835
0,00580590315045537
-0,00496837280443808
-0,00212389022537282
0,00330551617147328
-0,00790538268086613
-0,00912960471699612
0,0102818513485578
0,00448463961017188
0,00528047712903973
-0,00456731210485366
0,00476640164455783
0,00757595601533363
-0,00286274473749485
-0,0101066926354557
-0,00581774813255621
-0,00465402870790708
0,00348441892937311
0,00445674634047992
0,00769634606487282
-0,00121554335716344
0,000338024586276695
0,00303087765470755
0,008760333649442
-0,00651839752614926
-0,00757441676876983
0,00775347785257239
0,00292881768464006
0,00324648045696665
0,00526107179853547
-0,00549376098280356
0,00263782421621442
0,00640292012215477
0,00123252947046383
0,00623677141250639
-0,00150339231193452
0,00483773101791905
-0,00212859329979474
0,00688700115679052
0,00627349504371385
-0,00460520069250392
-0,00499871226953034
-0,00491553755346823
0,00172026279633272
-0,00547790386442306
0,00464813273779106
-0,000854795423810642
0,00675291271548589
0,00346917110639054
0,00816797028846451
0,00708023651924731
0,00050652110507084
-0,000999204026812895
-0,00687391324637103
-0,00827822206442851
0,00546580346448188
-0,00661271265180586
-0,00289560367680863
-0,0047766642490184
0,00133476628158251
-0,00561734069521069
-0,00235979145903281
-0,00356231667428403
0,00871006742212272
0,000391835271119376
0,00246918248986614
0,00821385049302804
-0,0034825856288217
0,00124517853177771
0,00212399736956065
0,000115957289227794
0,00783244460699566
0,00643148292503739
0,0077990187478215
0,00189413658191282
-0,00658661055250484
-0,0050899923876779
-0,00906679871124438
0,00383443311664255
-0,00147732892608146
0,00318448780980916
-0,00898578750455949
0,00952605510976579
0,00531594600993209
0,00875554558163732
0,00489562479880003
-0,00532150052302442
0,00410046658213008
-4,56730975142371E-05
-0,00910714716069403
-0,00505027234964447
-0,00231471548404774
-0,00721022692832151
-0,0043084495311114
0,00191436720384789
0,00776980632438628
0,0086709913355315
-0,00315545068931013
-0,00813372124226283
0,00223751460872773
0,00627419018982059
-0,0076243634143865
-0,0047879991907879
-0,00893921625299444
-0,00214205216203178
0,009101082311456
0,00393374861312538
0,00114822229889604
0,00130281678929061
0,00840094441572384
0,000547837822057056
-0,00747149403950324
0,0036596341521305
0,00748490292504871
0,00924599011369702
-0,00558756355831451
-0,0010750543614974
0,00162383933637352
-0,00981501021180437
0,00586341037848874
-0,00156613062012273
-0,0053610262601558
0,00676484042159872
0,000425877517322354
-0,00273276082052678
-0,00731221072760797
0,00527917602111711
0,000799695817053343
-0,00425568613438859
0,00388065958398191
-0,00562372695464831
0,00780287686799968
0,00905789935713593
-0,00830211658145531
0,00235835559806474
0,000998311848844547
0,00600614460041915
0,00856276095618498
-0,002665252578785
0,00948674924066921
-0,00894351700084034
0,00403546034511351
-0,00627351259372756
0,00270654409669559
0,00147680938022935
-0,00660901782791887
0,00489388838372207
-0,0037395964103462
-0,00246289356984529
-0,00155872760065115
-0,000517886299700032
-0,00247011969747046
-0,00297811400823145
-0,00377621043223934
-0,00605141559008614
0,00157303656233307
-0,00466088344665116
0,00442719915941438
0,00347123669848013
-0,004870579640285
-0,00597784261255418
-0,00650372024217211
-0,00416170103768034
0,0078202824656946
0,00429844262299531
0,00280483570636442
-0,00675003590826571
0,00156000280493602
-0,00517612133858902
-0,00172253511017569
-0,00107386118997142
0,00140038163124108
-0,00429061378364115
-0,00766571065272817
0,00655100758905037
0,006262439800514
-0,00705495138659057
-0,00397010159165346
-0,00928874956390806
-0,00465191562570938
-0,00121739578451561
-0,000479336554804726
-0,00671554416449094
0,0068731506524277
-0,00613440031875235
0,0064833176398378
0,000780548699368802
0,00317988405030688
0,00835639556012381
-0,00852439418889203
-0,00370673201569399
-0,00797439569513052
-0,00466532017787235
-0,00776247010741852
0,00519290759650515
0,00697373605964504
-0,00254710276245515
-0,0046991013365832
0,00820277793889136
0,00906936783504191
0,0112089546321607
-0,00497906728435057
-0,00621022087185179
-0,00782384462458339
-0,0071857206392028
-0,00858868203765431
-0,00521638766019764
-0,00296583110184777
0,00116705629745997
-0,00167786876090593
-0,0014100425009402
0,00898116593651312
0,00355422242929224
-0,00165171656785924
0,00692104681148385
0,00533045269756983
-0,00888879891713403
-0,000256043315327931
0,0045277559172835
0,00815931536171553
-0,00780445969561323
7,76887733310022E-05
0,0029646355986018
-0,00727503620385263
-0,00903434877186173
-0,00430132704831544
-0,00508453734687569
-0,00734731670657258
-0,0031756618814676
0,0100103980670168
0,000232243013865602
0,00998537723231948
0,000629663778216638
-0,00562648276800139
-0,00352370586014285
-0,00438573541951482
-0,0029719004970279
-0,00812870862530567
0,004552264266651
-0,00706872668852886
0,00231110219108517
-0,00546025093468015
-0,00706665494810053
0,000965903211985693
0,00366500967102633
-0,00210572020199491
-0,00115058857535505
0,00720686375964752
-0,00458921276712288
0,00985672396541362
0,00571148933792472
0,00724520099440148
-0,000154281015712466
0,00871352817016754
0,00525026030077845
-0,000629874254940898
0,000323986976053318
0,00951577429706966
-0,00980583862510843
0,00671195004909192
0,00644653208237422
-0,0077264671324363
-0,00968583456685055
0,00126799887087101
0,00834250049728823
-0,000902104583725107
-0,00102923772143394
-0,000203147771464209
-0,00755306893221875
0,00190813515544955
-0,00114704290677531
0,00969036012000297
0,00554509993939617
0,00183611679030831
-0,00398717454354613
0,00775525350019115
-0,00281133013442686
-0,00799612845389247
-0,000989693882221289
0,00288244519103509
0,0064089226762193
-0,00301927952844936
0,00619351127241135
-0,0043117890801857
-0,00717681413246483
0,00129166478665767
-0,0015776662019702
0,000347805568709485
-0,00224312566302452
0,00591077821779819
0,00415307456966007
-0,00349604511332865
-0,0090345527533559
0,00743550990712557
-0,00374512738048951
-0,000158584892287772
-0,00598713162416815
0,00151317698099891
0,00252176005030224
-0,00547086339398805
0,00892202573249167
0,00905547396382385
0,00476834588440524
0,00351629809174514
0,00101381217642399
0,00603151963838912
-0,00828580218734636
0,00802263949568642
0,00269397761770739
0,0074493612209616
-0,00790177996621245
-0,00175734289896169
0,000445309421236244
-0,00284719235631264
-0,00997541010685893
-0,000844222160185629
-0,00427964687110472
0,00424241878934659
-0,00203514543443659
-0,00349536955721723
-0,00984684027004572
0,00816267604794642
-0,00841602764935402
-0,00394691104119489
0,00727609273170435
-0,00804936936564437
0,00843846601444037
0,00793609290412059
-0,00451124398713524
0,00612386610178457
0,0037181054957761
0,00566513673200511
-0,000520231132637817
-0,00551634613215753
0,00397516352775281
0,00739170511364219
0,00227961209569268
-0,00719303009010609
0,00488612513260406
-0,00288797316965318
-1,24292505758443E-05
0,000788478214862867
0,00799688209556442
0,000666525455797222
0,00418773165800585
-0,00376364408549177
0,00628176453966154
0,0039168642213055
0,00741921142190648
0,00702677587676342
-0,00605600696798368
-0,000469244026843852
-0,00669617840029808
-0,00420098881836131
-0,0057820591619606
-0,00934096997573086
0,00741514150864219
-0,00130877540042101
0,00622948722738283
-0,000941476258887665
0,0075924058526719
-0,0062218810786595
0,00253739883775702
0,00658167449598279
-0,00624638669949322
-0,00352590500075645
0,00883714237196238
-0,00392762939162908
0,00330580551796863
-0,00724169983400111
0,00701704206737552
-0,00687384195480209
0,00961274644341913
-0,00889878393099587
0,00673047227632742
-0,000482943174654126
-0,00974123559880128
0,000956768128535138
0,00185495642565887
0,000996043826917209
-0,00437672391271997
-0,00552298108838637
-0,00951886234782583
-0,00156105666959708
0,00216860199913783
-0,00581800597525109
0,00235895331593182
-0,00632244078271205
-0,00973488584148459
0,00331613350348367
0,00997670172712612
-0,0064112609207559
-0,00342193356209163
-0,00416991306018206
-0,000475249543642579
-0,00378472596785924
0,00825917531617289
-0,00857449333220567
-0,00306830880613095
-0,00225074918162963
-0,00254482597719208
0,000263420258328258
-0,00933795578316787
0,00469618786675529
-0,00996698856066387
-0,00916990770202383
-7,59620059595223E-05
-0,00779430103956631
-0,000927823594880155
0,00470176900825918
-0,00959953078144399
-0,00354162661989295
0,00683626817392012
-0,00476655659953438
-0,00656475234616769
0,00311538694105828
-0,00670301873083367
-0,00590154449264591
-0,00558692750315504
0,00957170426443298
0,00411519584790388
0,00515948349672752
-0,00418916007674735
0,00999701817501396
-0,00720260202078152
0,00345261239273985
0,00657513862312133
0,00381388818716294
0,00161767993009367
0,000569231357884661
0,00132418898573164
0,00888826837679532
-0,00593295490001722
-0,00586135442198682
-0,00643306299804717
0,00537659832344662
-0,00617388794405903
-0,00421312152165413
-0,00159252728227774
0,0013402480780802
0,00425890652784428
0,000153985968862654
0,00460582184354114
-0,00443636872546578
0,00291586788041325
0,00351832834701907
-0,0032475104590001
-0,00865551400867191
-0,00760176590160267
0,00641539660917237
-0,0070668157572272
0,00419138520328309
0,00707272959094773
-0,00255097006345435
0,0037469230015302
0,00244487012172542
-0,00534769935750431
-0,00909908382934114
0,00215090185634135
-0,00321042339975258
-0,00556335879496368
0,00626662218173435
0,000699007509203599
0,00858528405718301
-0,00655052741203287
-0,00843903264242724
-0,00757270513450203
0,0027271374749841
-0,008310437369514
-0,00192852091609326
-0,000705342614420384
0,00751250792178908
0,00569231816311594
0,00307358449132325
-0,00468651290065855
-0,0060360190488966
-0,00942463850245917
-0,00971147955638355
-0,00284975535254212
-0,000611873063191381
-0,00312760108445194
0,00552444431263463
0,00189372761440547
0,00586495099246604
-0,00167696133790086
0,00764478647398874
-0,00782929800580314
0,00693272702051854
0,000750882825824603
0,00150168613773726
0,00107963561638105
-0,00673251723399008
0,0039411307939155
-0,00816633855029106
-0,00294441497995473
0,00809940468923952
0,00951828738550181
0,00605108834477732
-0,00787720616460297
0,00135222104906674
0,0010873314417374
0,00402396334777557
0,00965887794910394
0,00434392376232544
-0,00282876284493081
-0,00451979166735406
0,00856708458828852
-0,00593446792733756
-0,00776325734143924
3,76271724842954E-05
0,00244160474303842
-0,00475198426513125
0,00459364916833587
-0,00662706287618958
0,0103021159802632
-0,000843358474828326
-0,00526621799230654
0,00550403015349945
0,0010200489758243
-0,00352364607180707
0,00978874555703357
-0,00430612490123636
-0,00786974281730457
0,000341493662324173
0,00712178846634596
-0,00386439326424806
-0,00635692763625416
0,00389057289524496
-0,00398490705165556
-0,00280403296564629
-0,00554794465124317
-0,00545453759920066
0,0081923869242312
0,00581816453517212
0,00825590926372908
0,00276814087996944
0,00569444701701213
0,00732900415915508
-0,00130952539002007
-0,00681453828136251
0,00961071149004104
0,00870014870947417
0,00513810163389622
-0,00907413777038726
0,00935244564793722
-0,00347521345801522
-0,000618949706702268
0,00111114985840266
-0,00835032539165371
0,00754558787924013
0,00295212065662239
-0,00617859156498124
-0,00500170339223513
0,00576260124081162
0,00161390077029473
-0,00467406136667079
0,00176886168886555
-0,000784801304867481
0,00718577925787259
-0,00895526506777531
-0,00814392360773885
-0,00532927328274472
0,00796655126247644
0,0048758073873327
-0,00479734113043077
-0,00274164606939693
-0,0036296523881551
0,00847792934425249
-0,00486542714842438
-0,0020937625462702
0,00403147100459319
-0,00216627800565275
-0,00282037880193536
-0,00164981629306535
-0,00273291856737208
-0,00857665850872703
0,000599970395766835
-0,0092683329298691
0,000293385395776123
0,000124677587816751
0,00644924212247417
0,00240312561183765
0,00201543174091771
-0,00196645092942001
0,00382930784610369
-0,00962579596109137
0,00943766479404093
-0,00757301452896969
-0,00579069872643521
0,00293385698577206
-0,00912988684973185
-0,00382131690857859
0,00957111161299788
-0,00322787284390839
-0,00979519867641718
0,00401276674369538
0,0101709157891915
0,0101416269760553
0,00592496791142145
0,00244951970837835
-0,00946316307440831
0,00119734634866821
-0,00400595546110606
0,00381995622634444
-0,00636017904957911
-0,00514712327373545
0,00599892399562265
0,00602287706769934
-0,00203589552659239
-0,000247603694252039
0,00418884673294776
0,000314423977543797
0,00827854395659417
-0,00328392858997879
-0,00556299927764549
-0,000569072524747301
0,00262242493268819
-0,000144029270059309
-0,00919335627699079
-0,00563375584901733
-0,00291163002255156
-0,00713857741504989
0,00275583995138873
0,000866802443049031
-0,00384841694045346
-0,00243555870931768
-0,00157021056647256
-0,00904601593409986
-0,00145195438765357
0,00316007349496573
-0,00902519912302654
0,000403209331868738
-0,00513352046970114
0,00777134383775929
-0,000771812070028161
-0,00539617763003608
-0,00443045160772719
0,0074050817967814
-0,00641987522147115
-0,00185152715348342
-0,00629586624603258
-0,0069266663655494
0,00429649213046463
0,00439534011946623
0,00861623493615676
0,000334000632094936
-0,00248748742465188
0,00226882310580072
-0,00859471763568801
-0,000473826893540881
-0,0101860228320385
-0,000983569661342758
0,00875404729580198
0,00167152733672837
-0,0040624789681595
0,00826625037329536
0,00850224825138882
0,00486106761310901
-0,00261126021508237
0,0062475303833013
0,00686234036923814
0,00542659364561748
-0,00251650347494887
0,00423701040203402
-0,00217610802601354
-0,00718442232242976
-0,00557355581344816
0,0096122094237124
0,00686263908607553
0,00951232263753402
-0,00632140180436837
0,00515893401037546
-0,00387610828970642
0,00234963143378489
-0,00976195939662738
-0,00656719603475765
-0,00231119827766106
0,00716348904481814
0,000888903031834865
0,00501069068654425
0,00986909466672798
0,00660253483478847
0,0102362630596274
0,00921266200348465
0,00305765637311191
0,00178192722288929
0,00185907692011432
0,00427456631001239
0,00328384465819953
0,0020844640374207
-0,00355543104612815
0,000421448064085292
-0,000803827495897187
-0,00368424229662493
0,000252533845979864
-0,00264356880727115
0,005043606788785
0,0098168276742906
-0,00355370119917349
0,00581656300756396
-0,00418245872018218
-0,00236679806277836
0,00507312912008161
-0,00855625263597532
-0,00498733709976825
-0,00657467120620612
-0,00848971263034334
-0,00464950628703499
0,000948282670646292
0,012665226546075
0,000674956958154566
0,0107597882324522
-0,00682599665758432
0,00229260445062329
0,00730381776692346
-0,0076484115465568
0,00779191823199495
-7,99433980082076E-05
-0,00828160767744944
0,00589399349259036
0,000215633408948344
-0,000765745049170321
-0,00461318700500567
-0,0061180302482648
0,00253821918589679
0,00308485062965993
-0,00407372934554452
0,00992631657965134
-0,00787925704546379
0,0027373621550839
-0,00187718271957304
-0,00251113509878208
-8,23001191463735E-05
0,00373606991632712
-0,00256383807509315
0,000506992954924264
0,0102302729428282
0,0078715661793287
0,0031242968478837
-0,0021318379319839
-0,00144338499236576
-0,00380819247521786
-0,00543369636650661
0,00339298544666474
-0,00534312154554929
-0,00238980435159738
-0,00226309230314672
0,00649803033478976
-0,00184127049373959
-0,00305763630529836
-0,00135529549282897
-0,00575789916747226
0,00750767149724486
0,000321909285709082
-0,00438610652218175
0,00680930193982164
-0,00758054050196667
0,00117505640087095
-0,00121519958295545
0,00184804217146372
-0,0128094090503773
-0,00937372853509696
-0,00849448086024757
0,00602956035295332
0,00236217291397479
0,0111447395824315
-0,00150240106373732
-0,00360575058453006
-0,00755138632563954
-0,00363079036222324
-0,0063586416609303
-0,00695336767465623
-0,00981050606792227
0,00577559892406264
-0,00260628776763525
-0,00691271401417179
-0,00646047064907188
0,000832180680585735
0,00826984207409808
-0,00593314894698741
-0,00533245026189742
-0,000900971833904215
0,00181307585205509
0,00555438779777342
-0,00554875750233806
-0,00585234235687339
0,00029538215241031
-0,00978276356020405
-0,00128822231692284
0,000575242992998869
-0,00303106331607376
-0,00303168305213126
-0,00333753898653269
0,00881024203154361
-0,00228167612299377
-0,00533293228318912
-0,00748543023786995
-0,0015595653927192
-0,0068630016927834
-0,0030760199261327
-0,00763119940909058
-0,00723486718417864
0,00345229770889184
-0,0096707958494396
-0,00813901828455286
-0,00561715773876671
-0,00678889171002506
-0,00902677357979658
-0,00778276368506958
-0,00786571488699222
0,00336887978919302
0,00212728760616451
0,00348038637790771
-0,00475069148096819
-0,00205121650903342
-0,000730749163119611
2,17969386795507E-05
-0,00342959181812469
0,0009998576589433
-0,00365185334585802
-0,00152860847799068
-0,00421261347615059
0,00504990370629121
-0,000274722223927327
0,00845583134597635
0,00758396977628736
-0,0108845683049595
-0,00512999822599737
0,00072542130513631
-0,00664523080663378
-0,0105136404834145
0,00331306939559246
-0,00377882695410617
0,000347493333235945
-0,00891197994255982
-0,00873218054824145
0,00498000182067918
0,00111024498832467
0,00385481215827097
-0,0092984990213376
-0,00839880505475511
-5,74520849732367E-05
-0,011117689455254
-0,00224475788814308
0,00815092939717506
0,00516921951869458
0,00268346197575152
0,00933984109917916
-0,0017446847019084
0,00609329899442645
0,00303875535326919
0,0053916871354713
0,00806239907638752
-0,0113010770898042
-0,00858609395543799
-0,0103696516674652
-0,000505006605647857
-0,00624576603819777
-0,00951052564297501
-0,00756943750237495
-0,00605756838055329
0,00759004720130324
-0,000233812781111156
0,00832904434685085
-0,00789669866815744
0,0097562851644195
-0,0038895178277408
-0,00619965900362401
-0,00502482478987233
-0,00259476383036605
0,00507191928723013
-0,0103248361439474
0,00309779878139823
0,00010357187282778
-0,00642281092235305
0,00622767519864053
-0,00586606797375711
-0,00473844401947074
0,000856935738280081
-0,00588973107900349
-0,00329123604026006
-0,00772159586293044
0,0092965413105998
0,00685902002218548
0,00129511364503381
-0,00618478385879018
0,00395072132518992
-0,00402641776372762
-0,00206094844752279
-0,00907106789624465
0,00137049479905728
0,000809681783807317
0,000237937857347635
0,00121752981824449
0,00697804761897558
-0,00528101642194102
-0,00885326024940575
-0,00848386188405264
-0,00349514978385475
0,00893060409132967
-0,000935663256600536
-0,00170034429998477
0,00297254215538621
0,00867187156974574
0,00861434602684136
0,00179536049890031
-0,00775025460578572
-0,000414185077813131
0,00746225380138969
-0,00245662092780535
0,00742587164180211
-0,00450465944253036
0,00334983743123465
0,00618155407501798
0,004834331035672
-0,00932421727976307
0,00767257138938249
0,00254690851382092
-0,00331674955781073
0,00797447100187394
-0,00445178897594906
0,00998256553508723
0,00603458538480966
-0,00535563462526767
0,00697939207808922
-0,00464721349799221
0,000406378775089001
-0,00762997765546287
0,00293023363049614
0,00800379711921239
0,00372352943055685
-0,00900426041008869
0,00717276544721093
0,000954033389893232
0,00528620315136547
0,0100761725835022
0,00134710402867357
-0,00761058013075288
0,00936505302083293
-0,00993636044645402
-0,0081813215558788
-0,00557081629671146
-0,00192639261286704
0,0098225419126802
-0,0068772521493846
-0,00441937541136278
0,00717137704911881
0,00385680277545787
0,00625353061326945
0,00619714731784245
-0,00289295499284933
-0,00100478391220267
0,0055390649789489
-0,000573537515726018
0,00427294263069687
-0,000356707286702022
0,00216541017718898
-0,00240582116539529
-0,00939318605670427
0,00221261329965014
-0,00941391291031312
0,0093626737359439
0,00692692842149572
-0,00919858618076811
0,00541437546872741
0,00755279531001626
-0,00116110106946139
-0,00737052445277737
-0,008851184173669
0,00500759547503432
-0,000802144261954263
0,00502012130677956
0,00293747586059257
-0,00360053338741585
0,00596421487920918
-0,00898088710335125
0,0018709377347822
0,00613200394747243
-0,00849988624791001
0,00158870352098332
-0,00142999665122504
0,00703300246176339
-0,00333917997765837
0,00711701719463948
0,000876457089876009
-0,00579502001043207
-0,00532396228642893
-0,00293508061324245
0,00606451397155385
-0,00467715101601349
-0,00183678343235717
-0,00520453615952923
-0,00716263412285307
-0,00234887291199579
0,00945387877985093
-0,0076313503925779
-0,0023216348103209
-0,00240069623246281
-0,0054573903387339
-0,0044741959889167
0,00660009519722372
0,00439060531459203
0,00260627424383753
-0,00879246656726695
-0,0030104044140365
0,00202762188749562
0,00598296753299946
-0,000863989313153028
0,00353467701911083
0,00338554439958042
0,0078653178896248
0,006144605262045
-0,00394956033073697
-0,00133361736720312
-0,00675129666611488
-0,00672454182916761
0,00256278492846844
-0,0102805471056586
0,000216561372196773
0,00184531627488476
0,0031980793240174
-0,00846823659732655
-0,00404858919886492
0,00537126710715724
-0,00308209933114707
-0,0051545189508409
0,00255417588935308
-0,0046219777124281
-0,00316038694687176
0,00349833126107572
0,00326812394581182
-0,00575587725069182
0,00156804340498897
0,00592386539741205
0,00489179523084829
0,00403120152124375
-0,00572737666551021
-0,00473717464888835
-6,78413092456366E-05
0,00873179386929882
-0,00176685258154046
0,00568217066906238
0,00385406160705442
-0,00673880533131656
-0,00208801393621303
0,00217621177064579
0,00868312269784613
0,00389862769972343
-0,00604298266611557
0,0055794410138376
-0,000827119081895834
-0,00240920964705098
0,00757784586594037
0,00325980920832238
0,0027095817415267
0,00511935202590035
-0,00165490907287841
0,00710353017015524
0,00422158382563925
-0,00788063389150455
0,00945825837527321
0,000580609183360005
-0,00779127777761773
0,00986232337287768
0,00985898424297396
0,00331390823463238
-0,00577631314187981
-0,000103522826052572
0,00392279397833297
-0,000296256602443035
0,00975419406491976
-0,00189745009893955
0,000395273985071032
0,00160355185005626
-0,00667189864988936
0,00718648765033468
-0,00258762073309729
-0,00753490290976736
-0,00270067741286626
0,00466733533776888
-0,00372127996765231
0,0088503068849417
-0,00850322010483904
0,00121987803381263
-0,00575121635469038
-0,00440319362725193
-0,00338241942850054
0,00828749130400246
-0,00679199772737548
0,00976581247512522
-0,00434837113576653
-0,00292526295010377
0,000897157748326084
-0,00240058474428921
0,00900247696163349
0,00745999303062743
0,0035503277930692
0,0043205042596535
-0,0061673532183576
0,00500862833213763
-0,0017498094964589
-0,00112751106672652
0,0099301921481279
0,00425865201730378
0,00589885109966698
-0,00882451444520937
0,00732517630950955
-0,00391497265772372
2,82059770004339E-05
0,00562819785778533
-0,00221532629937446
-0,0040758899619035
-0,000165663869197323
0,00957894982750479
0,00585197567746601
-0,00939219830529401
-0,000920540108774109
0,000987389744719206
0,00560757499914969
0,00424052816635836
-0,00334881788559072
-0,00413889926306133
-0,00341067840914175
0,00407529048082604
-0,00597339393821754
0,00269249882064963
0,00721174862326
-0,00721914245281248
0,00257924505473497
-0,00416067711556612
-0,00641545960440654
0,00305439642023706
0,00863550619992542
0,00230806511854278
-0,00354958361230115
0,00746308417063605
0,00897590991271408
-0,0027005150086947
0,0053681162293665
-0,00689497918677283
-0,00170560561665595
-0,00945128714640219
-0,0017327266054846
-0,00241808486749329
0,00198118810168523
0,00972746237168436
0,00723879909945596
0,00131463398752484
0,00173890796105326
0,00837653827777902
-0,00164665254375276
-0,00747293672406717
0,00868144929347627
-0,000449629989662035
-0,00168551010623831
-0,00766608061160244
-0,007782480315204
-0,00419890303825909
0,000176952607080784
-0,00683756628857812
-0,00606749419871135
0,00452387399716483
0,00349553323047959
-0,00580730893453923
0,00205130128751104
0,00473874293954053
-0,00270432719621078
0,00753109554645191
0,00313118767604753
0,00839076347574162
-0,0083672227982279
-0,00821910547009628
0,00561939077247837
0,00250255418592252
-0,004053884564924
-0,00389759515828515
0,00759361614175178
0,0090054453013336
-0,00791095781779508
-0,00570968635968986
0,00544211615877318
-0,00411703176329352
0,00102581423897289
0,00418313092769765
0,00746348842675892
-0,00896224412521674
0,00435817673655384
-0,000925607631416527
-0,00601606006291717
-0,00588987069866435
0,00524121446288172
0,00317118452667188
0,00711994317971146
0,00220441034457261
0,00917166665656468
0,00377052038617922
-0,00294682037688178
-0,00592541767094537
0,00553061384499567
0,0072424451621447
0,00243178956789514
0,00970770355300405
0,00818344631147731
0,0033478080481613
0,00674355832937806
-0,00343022222238066
-0,00310736238356109
-0,0038499962179096
-0,00645636286141755
-0,0078758013629132
-0,00535161444330223
-0,00689621450526577
-0,00641831668590633
-0,00426138158960518
-0,0024370787725415
0,00788717793600563
-0,00665318472617957
0,00918154442304134
-0,00337051019996193
0,000950762820423459
-0,00965340509731241
0,00820258758379281
0,00353633420900407
-0,000985193386787025
-0,00685375141342005
-0,00154115032942088
-0,00534071822433766
-0,00658617448834059
0,00333003917398399
0,00217559504889678
0,0090491145318711
0,00351877422507439
-0,00652352275140323
-0,00515869097990022
0,00182834223928994
0,00566131142736955
-0,00243297916141864
0,00749719734493596
0,00725050488666372
0,00067139966693081
0,0038271495805395
-0,00221910675508967
-0,00498609420729644
-0,00869446631098222
0,00891515664279166
0,00161302408112637
-0,000878236042137826
0,00101103222195244
-0,00564780129281315
-0,0089375861634496
0,000253278202024063
-0,00225947401383898
0,0073547929165593
-0,00547329492469182
0,00686813436302735
0,00421417880533923
-0,00383460984821099
-0,000833926276439255
0,000200904769806462
-0,00171562355178848
-0,00809053798437755
-0,00652089032181503
0,0027942940541116
0,00130456109640933
-0,00703470818967559
0,000969493662943426
0,00947021283687511
0,00851977178979449
0,00356602159205254
0,00143310168595684
-0,000247763175505413
-0,00486720980300954
-0,00886247939639683
0,00515776244448875
0,00632037525428546
0,00178545740030985
0,00252012096622773
0,00165948503937271
-0,000397625096288113
0,00110220459172206
0,00898962248753823
0,00341653159001682
0,00891774010398343
0,00219369194106836
-0,00811050935560395
0,00129490103518708
0,00616615004294719
0,00895354031072611
-0,00201200162696022
0,00763230154366826
-0,000510211818919283
0,00835890783446272
-0,00280567124422458
-0,00118156756778526
-0,0013575117967462
0,000209227633182191
0,00485209433142575
0,00352497856320652
0,00809349453216814
-0,00242317004189534
0,00167909201382377
6,52907053973113E-05
0,00675661171123765
0,00217720084131185
0,000659639680846538
-0,0055398539580807
-0,00408210653772153
-0,00843251428957522
-0,00232442691755143
-0,00531734311709203
-0,00852991713895236
0,00439969783388064
0,00952237054012697
0,00908911871794426
-0,000697947211613312
-0,00148365579190732
-0,00540078063094923
-0,00934811849046267
-0,000568188790461045
0,00167604296862745
0,00481769148136892
-0,00937134896957975
0,000826454852237489
0,00634937000397356
-0,00750075916913456
0,00204610028091017
0,00865887777804098
0,00298022705400849
-0,00300536670669752
-0,00364713514160569
0,00685308440553644
0,00870571028151027
0,0032628181930688
-0,00838247623745092
0,00893140346813502
-0,00151222524321569
0,00623373103998678
-0,00359940086132317
-0,00861823339653245
0,0073964886913991
-0,00461268038465228
0,00462857390577026
0,0013073048393727
-0,00665276960778383
0,00624094799997183
0,00521731794905535
0,00899958439129424
-0,00161571619124117
0,00994446633169078
-0,00925078654437118
-0,00353000479885695
0,00526093598504146
-0,00463041689594499
-0,00203526966201126
0,00453838932936606
0,00289179970790316
0,0108515735810835
-0,00823951112392801
0,000771060342080688
0,0095297753271112
-0,00340761739729608
0,00350470829009266
0,00494134581613524
-0,00840239945616352
-0,00210324277648862
-0,00721479006158672
-0,0087509519611144
0,00803129105764464
-0,00972652363006044
-0,00907305358064221
0,00236317587936738
0,00827976831452015
0,00939685976191981
0,00225614545355683
-0,00338594357245948
-0,00932038113591287
-0,000183044268804207
-0,00199600180980456
-0,00931331625439705
-0,00205386757178156
0,00389227336438078
0,00147516871567921
0,00464017244792992
-0,00190050982108963
-0,00842012689021777
-0,00671372050893611
0,00505507063209684
-0,00285734041282094
-0,00103524227650892
-0,00233513352467653
-0,00108687231897596
0,00547738509387807
0,00631478105603015
-0,00764108701338245
0,00120696621353636
0,00215489769920469
0,00991769996523911
-0,000128124054871812
0,00555681092311156
0,0035378054015905
0,00408402033969212
-0,00884194826736388
-0,0016237174569855
0,0093201617047661
-0,0014341466504951
-0,00178473809001983
0,00578119896479766
0,00303697842896769
-0,00866641263431099
0,00409261930773859
-0,00637272644617432
0,00360561058410747
-0,00815500856399478
-0,00624282094181085
-0,00304271790895841
0,00693595989684299
-0,00904591256238853
-0,00125239715314032
-0,0084512274390828
-0,00417316504146059
-0,001338206582722
0,00485568135330797
-0,000364638979756343
0,00296786686604017
0,00226375681305256
0,00702824266092366
-0,00796826139303332
0,00705915001290826
-0,00889729494994886
0,00451989802839517
-0,00920092175723402
0,0099584328522898
0,0023639594698585
-0,00301067307171671
0,00363220061266519
0,00237490266153399
-0,00729591144603101
0,00501995949049465
0,00938093260266737
0,00327606019034904
-0,00265278058288236
-0,00786515620999145
-0,00356332831814857
0,00612940374750628
-0,00434990906880644
0,00675991055936443
0,00480176409212871
0,00339688216273821
0,00611266221414614
0,00492618510234604
0,0017254334470831
0,00153826512980773
-0,00145490536117823
-0,000152915395062819
-0,00509721385761723
0,00920390490279226
0,00150436399744839
0,0053600752900102
-0,0030328362176891
0,0014312990952939
-0,00384238190708389
0,00876305911871462
0,00188540492647487
-0,00345523788989195
0,00300662355661696
-0,00662163853411478
-0,00901435326399885
0,00438972513552018
-0,000356316926493197
0,00431398855111326
0,00440449844437083
-0,00330666952897636
0,00032176253161259
-0,000841472807723148
0,00897585929454581
-0,00323915656060568
-0,00129783979940182
0,003898050498331
-0,00232244177746088
0,00577045716955102
-0,00762853756283822
-0,00133697209190047
-0,00907868331410616
-0,00387499612729183
-0,00724519196388253
-0,000848757300327144
0,00129955749733552
-0,00759100469264944
-0,00787321495413341
0,00450572399530076
-0,00922122801827786
-0,00296239555889388
-0,00227259330440371
-0,00237096906782369
-0,00328179940224114
-0,00189673643579582
-0,000195425388463577
-0,0104244622358205
-0,0067136350914074
-0,00712050933063218
0,00635918855138416
-0,00927496795374128
-0,00633281783739198
-0,00849628199496527
-0,00963115828464497
-0,00487677991462893
-0,00868230776900677
0,00950610054633864
0,000926474956974146
0,00808962229747807
0,000423646260209166
0,00755120021487989
-0,00234654716804116
0,00102321282171739
-0,00117800908264944
0,00715690401995806
0,0075606556766988
-0,00455121506461333
-0,00673387408410891
-0,00696628233986183
0,00112929242615515
0,00764212175306438
0,00148438565134016
0,0046019302745258
0,00309301672278641
-0,00282750860113233
0,00919714915095476
-0,00678407069532177
-0,00736521645092688
0,000554452729792757
0,00633243143989958
-0,00154054987864598
0,000262705831862088
-0,00527222408747974
0,00934717316628411
-0,00833349408502136
-0,00498775201806639
0,00934086411158008
-0,00435435406875373
0,00753335181983045
-0,00221062676080969
0,00157835024861394
0,00105756541429105
-0,0066648006069188
-0,00670700810084866
-0,00759937252030276
0,00831297143081199
0,00522360960159574
0,00717432738858618
-0,00200742402209718
-0,000550418109468877
-0,00635732176361167
0,00574811981842777
-0,0101046839377731
0,00167543689880452
0,00874272085533539
-0,00131473766541218
-0,00193883357126551
-0,00264005212866758
0,00242859633719699
-0,00439685047320146
0,00805068437497742
0,00680233209973522
-0,00967975561191526
-0,00826515259868396
-0,00810188850490518
-0,00283066060932407
-0,0072182171418412
0,00164367402856665
-0,0030173943231723
0,00174462839000946
0,0074207936814401
0,00883747783128911
-0,00519911593040167
0,00413262802932576
0,00813859541568781
-0,00504446324552318
-0,00342764585444275
0,000126005319827257
-0,000169915535840491
-0,00202538212674271
-0,00687913841577573
-0,00460685759559225
0,00390570512535437
0,00987447784698495
0,00124669395200599
0,00156813365791867
-0,000204306146956381
0,00294926159208881
-0,00930214295358146
0,00294725070580831
0,00686137382325442
0,00193072268381995
0,0031628309012391
0,0018229632335209
-0,000377880467405203
0,00481772478902496
0,000787909219234489
-0,00848115366075859
-0,00906661607217875
0,00458383152332175
0,00494425719475681
-0,00709462992552586
-0,000706766023835637
0,00509780022443931
0,000758067808662517
-0,00634130267472622
-0,000167310283467607
-0,00560388667373205
0,00205629986655915
0,00242869685285836
-0,0093474562680746
0,00632295069848765
0,00608264930573742
-0,00640925040061956
-0,00773323667922696
0,00284542936157713
-0,00688856006827107
-0,00960671856330599
0,00038284368365204
0,000271659411470334
0,00731536666301965
-0,000278738556754144
0,000885072537401042
0,00421446089235246
0,00524691103022161
-0,00416850848998876
-0,0042674300044328
0,00277827854973063
-0,005775939467614
-0,00709563448281567
0,00358078244498345
-0,00570035079485267
-0,00187769766288103
0,00398733384503265
0,00157586854424471
0,00835988379747026
0,00401719020228597
0,00686629723727392
-0,00264096613241695
-0,00406966512815292
-0,00950578808416637
-0,00520207035516987
-0,00917417425524033
-0,00157440418600663
0,00233899137679965
-0,00959929449127417
0,0057116541898398
-0,000510758906396344
-0,000537658764778408
0,00665441835404634
0,00170962957940823
0,000698528912652537
0,00170833020621224
0,00128606125346054
0,00778759521411595
-0,00442562382780817
0,0022177767234197
0,00505634959042576
-0,0103108295163354
-0,00544592611771493
0,00718177278726762
0,00586404370217966
0,00849944777336132
-0,00294776810183765
0,00662283682264609
0,00442058900989516
-0,00356408544732676
-0,00939836232301646
0,00114458013469147
-0,00642661513833414
0,00874957255517538
-0,00382247613446388
0,00287472264761672
-0,00575153556121656
-0,000344665958706599
0,0024109758401456
-0,00121276778211439
-0,00763182306089795
-0,00809551658147821
0,00513846136937414
0,000738712299608907
0,00705557258804137
-0,00572713673584133
-0,00144652354107459
0,0019984075021495
-0,00661804598945255
0,00288910551937065
0,00691218657755521
0,00586511464978573
-0,00494751554042995
-0,00529925215074861
0,00719915531320851
0,00540825268268662
-0,00873088739864668
-0,00266771666755195
-0,00651354118743927
-0,00426188907097527
0,00355769476623655
0,00166720279655997
0,00774079025373298
0,00372617973079874
0,00490790004256601
0,00825832723558803
-0,00421348667755088
0,0077971267865566
-0,00454823923600943
0,00780432808893985
-0,00236121359359387
-0,00781529591110833
-0,00377370513816173
0,00796435800829212
0,00120872159672055
0,00439458583131206
-0,0045220114531452
0,00445824357719907
-0,00948780155690209
0,00160489152882523
-0,000505626795069761
0,00420385288025932
0,00210494137484308
-0,00970690109900384
-0,00160125589713945
-0,00629292883560728
-0,00469391679961457
0,00857410960878622
-0,00857264169744922
0,000628328853022379
0,00143255663959945
0,00670832064558027
-0,00399679552987904
-0,00342220625533825
0,00510981126313285
0,000591994843876659
-0,0059222908093281
-0,00868241835430403
0,00584582517742087
0,00915939024644789
0,00920678064274859
0,00192046876903611
-0,00186678997971486
-0,00275898176720528
-0,00329247188129851
0,00590900877611616
0,000582520815305972
-0,00222924522108227
0,00388960284675439
-0,00711278932830952
-0,000431724840318435
-0,00388470014576095
-0,00402019830723265
0,00111011782070763
0,0058304691804518
0,00934573661670164
0,00963887695841593
0,00741606017831365
-0,00477812860141244
0,0010547826549248
0,00281101171510406
-0,00290512414318748
0,00624431845557146
0,00472318798135792
-0,00369464637952046
0,000798370831212582
0,00605441384474367
0,00973701432260047
-0,00674467533684856
-0,00846523029477143
0,00183979955782444
-0,00395046655408377
0,0106277887648442
-0,00664735930307317
0,0042606314106982
0,00910841166998656
-0,00264252359382489
-0,00414979099868512
0,00405997411583949
0,00242523261303934
0,00280111910483195
0,00730640712545836
-0,00514556685028533
0,00901149365557964
-0,00857839344843479
-0,00456024672759158
0,000632823130557889
0,00472280481864478
0,000561600223268682
0,00559590402785498
0,000835724310407286
-0,00339812531288158
0,00605613501699306
-0,00530757397180036
-0,00384757438012253
0,00192500451138903
0,0056707474726706
0,00374837190614661
-0,00820161090032527
0,00727582480363381
-0,0084485911371313
0,00267976579461271
-0,00376585104423828
0,00380756955629818
0,00241379454571444
-0,00509963854469692
-0,00334977435258376
-0,00644315640382197
0,00757458019705924
0,00744972404242099
0,00289588901579258
0,00467712483611775
-0,00611318066500586
0,00291983155428286
0,00809822178973317
0,00526486163282764
-0,00800368231628262
0,00706798665088973
0,00322239841018915
-0,00916389541529332
-0,00985101887461206
-0,00872492920386977
-0,00100905751987858
-0,00265571770477558
0,000291791980668287
-0,00516720502259404
-0,000223700748430257
0,00596602503813628
0,00741792641386418
-0,00728758376412213
-0,00609013935989111
0,00412885588636674
-0,0051201770598058
0,00803701422088926
0,00238744513679408
-0,00834857572508478
0,00240721626373647
0,00225521725556124
-0,00233929372017685
0,00732746593694927
0,00920401995512305
-0,0028520916094827
0,00700578858629498
0,00289503105958851
-0,00748587014967849
0,00605872844162338
-0,00732857677961168
-0,00688309393460336
-0,0034350357572913
0,000814345569568192
-0,000243440984144938
0,00824220703732087
0,00995266071377143
0,0101883624108399
0,00626155084340762
0,00945880567351275
-0,00699842379238087
0,00844962036757186
-0,00666946414944049
-0,00235842364888229
0,00555363110930206
0,00156363678376806
-0,00275284507335777
0,00603111811117343
0,00463924545013952
0,00970978274744139
0,000574454853054843
-0,00358691151904409
-0,00913902729027257
0,00656746894196906
-0,00715205489895699
-0,000306809825403895
-0,000631537582088046
0,00587495774769921
-0,00837272849789482
0,00298962567606458
-0,0057643764678096
0,00602311644462723
-0,00532819697748217
0,00392437882869849
-0,00834294020144542
-0,00403469047885383
-0,00138751603753184
-0,00415185230896946
0,00228093726937472
-0,0048704438552937
0,00385423860123082
-0,00543823199035929
-0,00812609960729186
0,00326802369321238
0,00916491989744865
0,00455293463848269
-0,00047583671390988
-0,00945443293675019
-0,00777150108668877
-0,00197193442235846
-0,00980974922464309
-0,00884939464353324
0,00835805105900301
-0,00713001414999832
-0,00447327987964883
0,0062809095980045
-0,00773626332065848
-2,13378574798542E-06
-0,00204944852369346
-0,00997898672109807
-0,00121454525357803
-0,00610196317454991
0,00826826134768031
-0,00712749660947508
0,00475114071365031
-0,00350853019544099
0,00329896815011439
-0,00105393058006064
-0,00440408611894115
-0,000719548922840524
-0,00728735145139882
-0,00873542111804757
-0,00625912568289613
-0,000422274745191304
-0,00401323914341322
-0,00381508703376791
-0,0052861149708699
-0,0022372375732479
0,00753411722239688
-0,00161506759543673
-0,00977385496710141
-0,00114187630412256
0,00366548751185904
0,00360558340028188
0,00279986784458154
-0,00691506686476761
0,00766130106414729
-0,00820815801537044
-0,00162459097412629
-0,00466471075763214
-0,00636930031532855
0,00850896303472526
0,00777552484431096
0,00211979231430208
0,00618968662628424
-0,000232446207773148
-0,00391465495988478
0,00880938215125789
0,00834449720491865
0,00254445409055075
-0,00882837101762573
-0,00946539878820321
0,00493735205146361
0,00296593617320337
-0,00465795289476307
0,0089544735098977
0,00743275294892152
-0,00120448560975701
0,00689095496055249
0,00934624234183982
0,00156890954429699
0,00450319171627201
0,00246409822835778
0,00956561907174327
0,00979477381324152
0,00992708899349024
0,000232054532838057
-0,00533999089355379
6,73260563438686E-05
0,00165908972819652
-0,00118049050902785
0,00149375362974995
-0,00944756281225046
-0,00976706351105754
-0,00439069712910538
-0,00583317935541294
-0,00654226717561741
0,00159755853445648
0,00337181700412572
0,00621044995323216
-0,0099054049746548
-0,0040981104315973
-0,000584433771536092
-0,00501115647149634
-0,00278712820574862
0,0096915438211018
0,00392077164441383
-0,00930044866134433
-0,00173646370495505
0,00384539433468385
-0,00434781981368913
-0,0011342133260957
-0,00509911297592293
-0,000970941988192852
0,00376633195165916
-0,000873166880839952
-0,00396194446275107
0,00819633593723404
0,00229349748495553
0,00621762574591216
0,00948789641658231
-0,00862860641439439
-0,00132109992038662
-0,0033844330640127
-0,00634650061133032
-0,000387669015701067
0,00992840086880231
0,00466149418479034
-0,00267529951491194
-0,00884520599658116
0,00548578100275594
-0,0041703936545829
0,00542023118637752
-0,0093224035131438
0,00925018710707029
-0,00433370835815263
-0,00491285604187886
-0,00252521566698571
0,00235231564955428
-0,00989677000786027
-0,00399377497699693
-0,000467538451143249
0,00639841448020735
0,00621995359753807
-0,00401105714113437
0,00991120191513392
-0,00348323433002432
0,00142746730680215
-0,00362364628082245
0,00638110744331847
0,00798737669408706
-0,00492561915218241
0,00907948088787632
0,00692026799269772
0,00649497779701936
0,00850453267437177
0,00702042258209072
-0,00735882086923392
-0,00878970997703864
0,0075107828193914
0,00970167742495903
0,00921549949533806
0,00334585523645577
-0,00290794664398827
0,00835068030206053
0,00981747526666963
0,00344314539746861
-0,00577859511107193
-0,000222010706687314
-0,00189907307206726
-0,00595891858369381
0,00856628609218286
-0,00416716094694812
0,00216382091670836
0,000175699894781643
-7,74175596423686E-05
-0,00500986405667429
0,00250805856409065
-0,0093082322171436
-0,00619472692618408
-0,00686548752105246
-0,00157795752986831
-0,00190996181280989
0,000682326974060812
-0,00713078113978518
0,000106246054921221
-0,0034946380026141
0,00829406652323823
-0,00600130115710657
-0,0094197939883031
-0,00149715008413972
-0,00764726748876811
-0,00379488186231108
0,00481086548176169
-0,00961125061829167
-0,00321450975110778
0,0061897721610611
-0,000687829323327868
0,00788631354234261
-0,00380526891351272
-0,00352798097533884
-0,0077173099311277
-0,00838130742705571
0,00826389166233478
0,00243013820112421
0,00960617385656274
0,0095353542155733
-0,00272965351480959
-0,0028574043244757
-0,00305865743355846
0,00382009030936581
-0,00524585777561011
-0,00791401863653372
0,00750093716502153
0,00453010702520724
0,00134122085973306
0,00104071295133968
-0,00749124693479135
-0,00594299165395651
-0,00189145920588917
0,00325568685666892
0,00513071535859756
-0,00978206343153913
-0,00080109312115605
0,00960521785279089
-0,00829326854564529
0,00238942757080773
0,00105176679596254
0,00176048035942201
-0,00664481839818308
0,00368634163446821
0,00567272616002667
0,00472766169024421
0,00464646731080909
0,00753233770369488
-0,00888401046573113
-0,0027803707624991
0,00037283213954338
0,00886988385442725
-0,00611112361125699
0,00108961223007052
0,00971047149283044
0,00170955629452823
0,00754450992865796
-0,00291766047542243
-0,00605483997626169
-0,00967434308609445
-0,00129255819802194
-0,00965675533264843
-0,000877039335145168
0,00579345908079409
0,00370938749204837
-0,00472805957090327
-0,000204419827847365
0,0029693490049374
0,00137649172346382
-0,00790698684196791
0,00246809260847647
0,00872843993263592
0,000802840051414269
-0,00267798030052956
-0,00140256492118897
0,00563003070366809
-0,00598903507119793
0,00362693773530186
0,00867183309117606
0,000643927771206674
-0,00185550109382101
-0,00932264235033465
0,00415453750597625
-0,00505592314625742
-0,00856504124358996
-0,00570104651536134
-0,00930091512161163
0,00731212963825931
0,00375698810250755
-0,0063266881380527
-0,00711226376539723
-0,00773984771235251
0,00574695847194472
-0,00857287772774383
-0,00628578375051892
0,000749765373271389
-0,00728932765894861
-0,00234615296028402
-0,00990049148281359
0,000456888846923638
-0,00509505456290387
-0,0083746053379262
-0,0038712111077605
0,00905908688896035
0,00495830920132066
0,00204644919134162
-0,00147710790924992
0,00690955773295004
-0,00703480252931913
-0,00530793159920517
-0,0014684624486138
-0,00508306265465833
-0,000626922685146915
0,00414461098421847
0,00286831046054555
-0,00149802371408762
-0,00341634162120815
-0,00544338991947149
0,00465675226163899
-0,00034612114444987
-0,00528376674791943
0,00255360785808181
0,00924821542815242
-0,00225656829360812
0,00925443311968863
0,000275283787652604
-0,00695896964062227
-0,000664416154060752
-0,00653579116323141
0,0076628030588931
0,00282778092934644
0,00641459846941069
0,00374649277731097
-0,00156414000286468
-0,00419822520284533
-0,00362772314476581
0,00449028997538624
0,00540858284223413
0,000804717514600179
0,00050163156080117
0,00679143854305752
-0,00542786086378717
0,00493493807023119
-0,000469714302995947
0,00561116809898156
0,00841427698292801
0,0032412575255229
-0,00811269603714117
-0,00128526770216264
0,00527427795681401
-0,00582441817078788
0,00816411574399378
0,00298821585020061
0,000434805637318715
-0,00430493070136211
0,00227647130683586
-0,00770797416658989
0,00833302503226006
0,00985674344589213
-0,00514936981631015
-0,000826877544341349
0,00920317809389422
0,00319456273219496
-0,00529955648099816
0,00138691908220068
0,00221741779304444
0,00195486762867105
-0,00804744115708034
-0,000874879325195011
-0,00305077552602576
0,00417192779786454
0,00138649489754729
0,00414382607371179
-0,00539615116547622
0,0032615191381948
-0,0095540112059399
0,00778037322951276
-0,000231152649631106
0,00212986476221414
-0,00916709288535494
0,00701151587573552
-0,00888797297382632
-0,00942232898045144
-0,00173883347341318
0,00365090702958954
0,00487295004781214
-0,00641526624180745
-0,00652027956570627
-0,00718590948852915
0,00346579868316456
-0,00633817626952621
0,0055429168378754
0,00516819127307948
-0,00385773003872645
-0,00792654074591787
0,00834168125990408
0,00183255617264126
0,000149511968103443
0,00776215219744396
-0,00675985506149871
-0,00331084765865994
0,0016790427983554
0,00315760120715894
-0,00795284526679049
-0,00878725431654188
0,00281475618457461
-0,00598821184889196
-0,00160112545560919
0,00715300341801688
-0,00475886196459163
0,00449041652622985
0,0026418260308765
-0,00367612566647964
0,00897836282648219
-0,00236506772814258
-0,00218147499815297
0,00838965202536618
-0,00529465627044244
0,000763849604305886
0,00630557005093988
-0,00136225276000453
-0,00101971564219359
0,00990584554898366
0,00614590132443851
-0,00674373095335332
0,00802683154992479
0,00543419702511534
-0,00244592041239264
-0,00740881843493036
0,00517941419710929
-0,00103789818987152
-0,00211230938133952
0,00207355295558819
-0,00110785545713355
0,00414698456229677
-0,00462605330247173
-0,00210108933721107
0,00842973317394789
-0,00315382534477528
-0,00938967083833122
0,00039279519068978
0,00434248395413527
-0,00477346634171714
0,00643027233301757
0,00804911537536291
0,000502801162732318
-0,000949386033753434
0,00610075040556521
0,00872077168375296
0,0047967725473996
-0,00945963864906809
-0,00281391111235979
0,00877099182752627
-0,00953387157965628
0,00362374328887213
0,00722596769330311
0,00179612602904806
0,00719335009319173
0,00909447338534084
-0,00656708638392833
0,00744492978982891
0,00644980782355744
-0,00421861318077991
-0,00799104320936892
0,00618746144381263
-0,00366931939825465
-0,0099519265031089
0,00676347209532862
-0,00617761225745337
-0,00923765517586704
0,00808920635696469
0,00818293417406029
0,00644261461868495
-0,000622979177932509
-0,00459227493538847
0,00382672468371751
-0,00649517882840293
-0,00656726447812449
0,00806696497630839
0,00209751680760078
-0,00223342628912531
0,00799817071821067
-0,00211870457369291
-0,00255225992379915
0,00473058566704429
-0,00803097467096518
-0,000632963338259546
0,00183253099331342
0,00535569040707522
0,00691254234323233
0,00352400119940331
0,000771717114747272
0,00930356176631222
-0,00683256120786749
-0,00737252163015021
0,00326872084267377
-0,00227722816641268
-0,00797507748080047
-0,0112097638473302
0,000219137458197645
-0,000849708898371995
0,00132367655596747
0,00142087005505209
0,00691071159028557
0,0057057036499716
-0,0083551114136569
6,804877941691E-06
-0,00189310045816213
0,00335605133636897
0,00830970993251783
0,00296287101199183
-0,00175480750294264
0,00938240620356152
-0,00276599547971916
0,00588450191873237
0,00965350438201123
-0,00132784517903392
0,00833248983907196
-0,00275039851821522
0,00437165216220531
0,00715733912620075
-0,0016759655675056
-0,00875743976596784
-0,00336765139583007
-0,00306790908793836
-0,00314753014647417
0,00814455429072809
0,00232243377829818
-0,00427478194419239
0,00125906869369458
-0,00483758217830612
-0,00986147659297103
-0,0068028437532685
-0,00338363519106379
-0,00839535675562483
0,00463439694839144
-0,00537586168051432
-0,000404337173511851
0,00127200854027549
0,00324452281924712
0,00234910517180859
-0,0085008209097717
0,00869104481241249
0,00724221024817621
-0,00596659625291501
-0,00474750723497464
0,00139397710429898
0,00232855197873596
-0,00224796509191144
-0,00651279935303996
-0,00506233456556028
-0,00045752216825548
0,00482274610994396
-0,00569816613471614
0,00268191764999423
-0,00970821250067719
-0,000527638872377584
-0,00580717997208857
-0,000857492649868452
-0,00255861553608886
-0,00824309606460992
0,00600033883984044
-0,00937321092284642
0,0100463154110815
0,0012917508642543
0,00171264438295977
-0,00522328704845148
0,00297768350417676
-0,0040921916375841
-0,0085803244773568
0,00519858576133781
0,00921835993218343
-0,00291947095522208
0,00392741750662668
-0,00795113628357679
0,00596552591861319
0,000189453726669408
-0,00529895740402879
-0,00664068471694368
-0,00760131862693728
0,0060591145596247
-0,0037924678788309
-0,0052404842646936
-0,00764018866802717
-0,00357132312877517
0,00557211824633532
-0,00524791224006006
0,00764219501361962
0,00225119053471083
0,0096056452575029
-0,00671083821330977
0,00855053942606393
0,00911054576435592
-0,006807899250146
0,00140563204293632
0,00648564941137337
-0,00897786909561923
0,00877220356626719
-0,0038855801028598
0,00239934655948522
-0,00956140672422122
0,00833050913095885
-0,00357305163617096
-0,00345348584007475
-0,00125421221231948
-0,00359450280814964
-0,00652929017821615
-0,00786909663472346
-0,00654917617407569
0,0076938428744012
0,000978335235942416
-0,00432393249821096
-0,00831437824715816
-0,00277057125066606
0,00130607850047415
0,0048037898212368
4,42188567160372E-05
0,00686591996095212
0,00203117449516588
0,00434605645974835
-0,0037759209681046
-0,00306154115028457
-0,00918357716423279
-0,00356179618058403
0,00824359350550916
0,00677572272479912
-0,00974388440127665
-0,00608624975193513
-0,00755178703058768
-0,00452665269277391
0,00487569476949382
0,00146197806515153
0,00884595772661908
0,00146454644161874
-0,00710902546334898
0,00904932479148806
-0,00876312258075553
0,00961303341305634
0,00501435795093358
-0,00854268510872739
0,00342974736498862
-0,0063795765620306
0,00464245081953814
0,00434957215133156
-0,00209270375592772
0,00656745282231212
0,00573500879485727
0,00108975571043764
0,0017065973909377
0,00674756440489185
-0,00335288609951816
-0,00566791687357505
-0,00313446016161208
0,00187070077463816
-0,00376450827986212
0,00344624507142719
0,00741670790299001
0,00988079690774901
-0,00185835342993658
0,00182661456226546
-0,00382554627221147
0,00978601601298829
0,0102936109536215
0,0091113157496292
-0,00566197970805777
-0,00879346107972629
-0,00135148319048039
0,00208205052011412
-0,0039319556173373
0,00368866514638035
0,00452616476960097
0,000725001090217621
-0,00843164331488663
-0,000111075864695852
-0,00971664880630351
-0,00756099662920922
0,00258761952341868
-0,00313075529674057
0,00880356077581456
-0,00817838483206221
-0,00889243129258211
-0,000827273417553821
0,00215287726938393
-0,00440489139147331
0,00872271556497792
0,000453393611017995
-0,00560455710167465
-0,00331176197740928
-0,00500477827721058
-0,00066600720388069
-0,00816700382304718
-0,00792979711085659
0,00272147406199252
-0,00508897061115097
0,00735044255273707
0,00572853300757917
-0,00487398454721447
0,00709398944207141
0,00127220249000741
-0,0025132526036099
-0,00184093245500387
-0,00640016762780289
-0,0048973604277048
0,00849404288854434
-0,00710210468051964
0,00644843739935881
-0,00697930495265427
0,00697939376651037
0,00148123033025793
-0,00635394522747141
-0,00930232066628631
0,000423133713390277
-0,00899265223545868
-0,00373720009018686
0,00054950604702176
0,00665168480173478
-0,00282348762758726
0,00427495829543888
0,0100976673076198
0,00389195716652646
0,00722125061221561
-0,00713738097571204
-0,00165018604730574
0,00797415141225556
0,00289066547731531
0,00348894785923014
0,00910552713096859
0,00769040195912038
0,00346939686173958
-0,004623107699744
0,00815024240537746
0,00644272968239406
0,00641882284249516
0,00176843314103032
0,00372149120294848
0,00731226851325957
-0,00621481569164013
0,00338108285953341
-0,00749810193548822
-0,00782576557147585
-0,00260522743917989
-0,00260800584200905
0,0051012400259406
-0,00895259666503229
-0,00185544956244143
0,000769049928151917
-0,0096764739136666
-0,00427704528712663
0,0036842480220672
0,0101474524933336
-0,00184828985119951
0,000571119292060313
0,00683154572095417
0,00756717186460443
0,000867561374986849
-0,00373848936557518
0,00640561313410857
-0,00175774774287183
-0,00339648342247577
0,000234403901850433
0,00784625830112255
-0,00452927620056173
-0,0066181604219909
-0,00417354855407622
-0,0048250789276198
-0,0060031155198827
0,00384934385020721
-0,000833299071916052
0,00251243894649839
0,00320898870744076
0,00278491132956465
0,0035952774082561
0,00138449395557481
0,00734064441756896
-0,00427356374818422
-0,00106272250891883
-0,00320874040660104
-0,00367526864697754
-0,00100561778968194
-0,00850787292580706
0,00276174647866287
0,00335594664654601
-0,00566218687392891
0,00384002000563797
0,00783093301990858
-0,00183106553405768
-0,00992592347674604
0,00917329795482438
-0,00897806992445069
-0,00259927953904733
-0,00924318636715067
0,00535747536494931
-0,00340083744311878
0,0021354124565308
-0,00574829645256898
-0,0081079328237604
-0,00600694810785677
-0,000752336284297747
0,00582126989103227
-0,00595910485987457
0,0067259270007122
0,000855476934735001
0,00280292985409731
-0,00997011240332469
-0,00304206347542205
0,00419676959288127
0,00890852242566389
0,00933490701898978
0,00177591683579848
-0,00798375675125843
0,0096962267963372
0,000353328447142254
0,00952159785784184
-0,0046305812437499
0,00765384627669658
-0,00539526096821901
-0,00882578942188074
-0,000479617542346096
-0,00204412875878347
0,00696445994869082
-0,00611673511383903
0,00465030878533158
-0,00186809602746186
-0,00489378447406636
0,00245079025274645
0,00741922490178571
-0,00301763401246637
0,0092223582543983
0,0030351717938819
-0,00624630190453315
-0,00515617436045826
0,00743442532206611
0,00041373403047848
-0,00511810115059985
-0,00530573723434387
-0,00813035244103712
-0,00946272427673657
-0,00567564339143456
-0,00306361862637311
-0,00630851181691235
-0,000684888594097333
-0,00918419999928772
-0,00252933804045794
0,00906800317925639
-0,00224689502933994
0,000431474553359572
0,00585283134870829
-0,00876594278903955
0,00447906352322505
0,00964579851350086
-0,0092823167048778
0,00447218959893668
-0,00870818029097662
0,00885746502264285
-0,00984193102449269
-0,00792483009301351
-0,00728201663926338
-0,00231316674142758
-0,00243386984450457
-0,000472303186763218
-0,00278899521231139
0,00967953036524334
-0,00373470773628666
-0,00202442103625481
0,00712398646265454
-0,00777991694294844
0,00991219873536015
0,00462462468753784
-0,00932446752643421
0,0057960995919053
-0,00591767202872675
0,00686343138891432
-0,00740327290138382
-0,00572589081513038
-0,0023447318339463
-0,00692997271983417
-0,00281959298663754
-0,00093573114412638
0,00735383853193086
-0,00798050046804384
-0,00843360644692257
-0,00425172532640944
-0,00525681640590494
0,00338920334422158
-0,00696619395760224
0,000364517546634639
0,00613030933787404
0,0015396569612474
-0,00529720539735216
-0,00740547048753811
0,00912113004592995
0,00282159506660549
0,00673380175403153
0,00738834811965134
0,00646616577040011
-0,000376539982202851
0,00454302574504341
0,00949121979989642
-0,0080599665947733
-0,00447000789232637
0,000517319462395553
-0,00877318507847092
-0,00944147526260534
0,00868296393131975
0,0055634705422276
-0,00614574809379212
0,0018754625003205
0,00701771052415376
0,00120219685658915
0,00708804169534149
0,00489427753700404
0,00365345356627328
0,00032891655577844
-0,0044754073947107
-0,00208058446028205
-0,00862103060191245
0,00481525702674358
0,00275420540286704
-0,00519580751218317
-0,0033981265735725
-0,00408426888541315
-0,0018144891421715
-0,00028004110444956
0,00788571223000647
0,00649911251311085
0,00112583778932687
-0,00995250357709662
-0,00483800071687789
-0,00221834205013717
0,00801658251493124
-0,00148045573297969
-0,00231436824152287
-0,00287937979813636
0,00182154459497963
0,00150040754652601
-0,00966181310809302
-0,0048102500638041
-0,00393989509677947
0,00782502493208318
0,00917965333867125
0,00848056145060225
0,0090731914589509
-0,00975823773159091
-0,00255590135346446
-0,00253776417385874
-0,00478655491765519
-0,00779755717305417
0,000810496162803889
-0,00105937911446275
0,00444380341383464
0,00411197089707655
-0,00891016438556442
0,00400571669710117
0,00473438127668342
0,00913316538789678
-0,00803284966821717
0,00122318079759172
-0,00755135334405488
-0,0079933472975763
-0,00568457600879057
-0,00626508499592197
-0,00332482621694208
-0,00078562086950318
0,00317658611116715
-0,00143407319462828
-0,0027917569896253
-0,0034680834523663
0,00850079868564979
0,00401216585279694
-0,00246744704262089
0,00608791073078657
-0,00141676662653468
0,00467620481587261
-0,00463091980579623
-0,00217912705478522
-0,00357730119694314
-0,00264014149622916
-0,00843996134117729
-0,000421871244848497
0,000386684493590022
-0,00197853924776885
-0,00164309730106272
0,0054023013365925
0,00260566798213942
-0,00676003300609604
-0,00319703696297586
0,00311022137258155
0,00192398101002766
0,00236701397097848
-0,000662385051312504
-0,000987949069118104
-0,00730823309035424
-0,00596895838256204
0,00350808308429791
0,00544236571803924
0,00181103034910022
-0,000116654655920714
-0,00291960215668552
0,00885120580885257
-0,00981197953268448
0,00854579072573632
-0,00646742492829869
0,00658428544243758
-0,00883037261981832
0,00799197487067832
-0,00494717954884314
-0,00406745897646182
-0,00177790896814042
-0,0034895828082121
0,00226815888657895
0,00409713651917823
-0,000885969577516748
0,00222481851675007
0,000907125174708408
0,00559682259622864
0,00481937136405586
0,000910369466663523
0,00641852283322335
-0,000155676477661204
-0,00828417882813158
0,00407862268519507
0,00460691369847235
-0,00384952048417975
-0,00527166578790246
0,00862700802437259
0,00352798468655617
-0,00532113737110638
-0,0087196702517785
1,77121584122774E-05
0,00604586753238678
0,00652883244340436
-0,00974549105191528
-0,00749483044192766
-0,00093640097059797
0,00159770416210767
-0,00555335158204994
0,00177764525674905
0,00418439690797237
0,00436914848708145
0,00782329886638782
-0,00950020572124414
-0,00547628098372611
-0,00491158745624697
0,00989497232643547
0,00518554142852128
0,00995324255906999
0,000534097724842884
0,00316764723959887
0,00793612375864553
-0,00935502012407342
-0,00905776179343892
0,0035729664083555
0,00742722464771003
0,00739432669397947
-0,00363913986160383
-0,00578205809596154
0,00766812560989218
0,00218349279674066
-0,00702286948027853
-0,00506613900263419
-0,00933652735292902
-0,00527943297009382
0,0083452083590669
0,000788395719293958
0,00605274790059128
0,00402605419502377
-0,00354668367195148
-0,00721922402583001
0,00903833860573475
0,00112617958706638
-0,00681685035022378
0,00700280739599379
-0,00763407854852441
0,00232939450490096
-0,00851230846289269
-0,000254862354488165
-0,000370873501691371
-0,00367381799521653
-0,000380156868649982
0,00881498892741065
-0,00679390899332371
0,00177660739277877
-0,00640331081116252
-0,00037829679625125
0,00540079296598555
-0,00651733010341406
-0,00640986549248837
-0,0040611781981518
-0,00657521780851263
-0,00198818050453234
-0,00254628014497549
0,0102818718978302
0,00188468211200045
-6,15141970745767E-05
0,00729677965515641
0,00567283460283342
-0,00372421309678864
0,00481785445190065
-0,00544954990274456
-0,00810754445274442
0,00410103354296261
-0,00179460016496102
0,00451324345288484
-0,00288873512527493
0,00762236649994919
-0,00596453078232185
0,00126852115945162
-0,00480266003315028
0,00601123698434403
0,00675816540724782
0,00477001730061688
0,00155218381889826
-0,00711562343705784
-0,00534757646268647
-0,00762570781901781
-0,000461665733060827
-0,00831257446361272
-0,000748056708236649
0,00589892993164686
0,00317388161947419
0,00111653286353791
-0,00897272582091166
0,00961470356796525
0,00131924700388401
-0,00566002953399378
-0,00600834706514668
-0,00368170565352569
0,00349405062253629
0,00579253219754375
-0,00365999914585583
-0,0061082630288696
0,00511290670658645
-0,00809240723552496
-0,00222842980907538
-0,00529416223083285
0,00501979451597986
0,00725834635621833
0,00653384663396178
0,00208725647741587
0,00156400250308688
0,0024819038737238
0,00871901751625895
0,000330551295154797
-0,00300882486090424
0,00345518443242119
0,00598561143209789
0,00741964025767068
-0,00267785388989023
-0,00231071331741858
-0,00214560683968677
0,00407215540637123
0,00739146538581108
0,00983413774217078
0,00267098446308666
0,00205793032156395
0,0041025706541854
-0,000724938983360357
-0,00628295910687547
-0,00681968042327294
0,00386788497428686
0,00778467418557525
0,00775470304973238
-0,000677528205672279
-0,000372467086718772
0,0028526405604254
0,00966164005540762
-0,000306676743936247
0,00528938401448929
0,0102281282242082
-0,00235873661661867
0,00238151327001497
-0,00490117220788072
0,00698429582929551
-0,00610496828314577
0,0100706447806996
0,00177286679519843
0,000226428343544525
0,00231092262528038
0,00774136867315445
-0,00133655168037936
-0,00256444548451556
0,010036179202942
-0,00336336271796139
-0,00146989671145934
0,00265805326503095
-0,00315572977386034
0,00557415986059851
-0,000637922914085591
0,0056963968330527
0,00053116006881306
-0,00436859086578329
0,00351890649040403
0,0033832618819253
0,00827352575876235
0,0038410429897609
0,00489911920735556
-0,00035019597942924
-0,00931929158028517
0,00380520160298824
0,00325206675509878
-0,00449273521805699
-0,00891277535136261
-0,00394324303476801
0,0091602461795007
0,00467486028136439
-0,00151047290230292
-0,00977319950080241
0,00601261896857571
0,00298704445667632
-0,00936635288817773
-0,00598820946229118
0,00701880257325802
-0,00397046190415772
0,00458481194774985
-0,00345035855353361
0,0077556611418946
0,00103912119657115
-0,00929530948757743
0,00690375679877518
-0,00396499990689724
-0,00585117793645336
-0,00963019515272235
0,0095405200752489
-0,000299602122133354
-0,00805181907034948
0,00850089853786534
0,00102684971583768
0,0077670475697851
-0,00108452073201799
-0,00600658482875605
-0,00874268845491419
-0,00129646320755634
0,00768157751704842
-0,00602887324753104
-0,00713000352971989
-0,00402066098848969
0,00364212860725422
-0,00294469795602592
0,00337641139992567
-0,00608095724378149
-0,00350244874981112
0,00943672228859182
0,00633096207984728
0,00501094337585841
-0,00355896161084162
-0,00145547873820374
-0,00255220299961694
0,00884754202596644
0,00176405495262049
0,00601113548292872
-0,00637738407544566
-0,00135788134870333
-0,00650512215185357
-0,00270943426089641
-0,00159389229878512
-0,00567653170431256
-0,00931648195942661
0,00580183294178848
0,00682674506945547
0,00557980964094733
0,0066652157177323
-0,00815888101402909
-0,00344914986606289
-0,00188230643504491
0,00841827589184557
0,00440054977458354
0,00867394228677879
-0,00821842979524486
0,00160554370152771
-0,00958565052484045
-0,00601385448092884
-0,00609161921726604
-0,00274011550597351
0,00292840040622636
0,00948517291863718
-0,0052670117087176
-0,00595863519639126
-0,00562929381495989
-0,00718260359008314
0,00294311811885716
0,000784009582891807
0,00196583345890909
-0,00424250098893962
0,00261440856853555
-0,00981727714653016
0,00264704015411388
-0,00478521043954685
-9,70007580435387E-05
0,00472623586655375
0,00777289300492121
-0,00553907718577815
0,00676071093801692
-0,000950977776366589
0,00691177400133225
-0,0031635986358032
-0,00542876852133131
0,00286375453785874
-0,00195760251697976
0,00641821561229796
0,00196448554782302
-0,000175559458862849
-0,00440321379489844
-0,00283962467200924
0,0013666230621647
0,0020724298702236
0,00955078426881203
-0,00910028616654228
7,59616400206204E-05
-0,00240595272579443
-0,00636796313201768
-0,00968955729723627
0,00634051690165324
0,00300621367138964
-0,00593759680190681
-0,00526927038564194
-0,00600194307075541
0,00505797968465464
0,00300680212164306
-0,00303696582097801
-0,00527979752929018
-0,00182343853634878
-0,00178169108533132
-0,00304763061802163
0,00383842426920582
0,00588261001672067
-0,00304959329714524
0,00463148717518499
0,00027226677988195
-0,00394287537604874
0,00481229987336065
0,00178838278848989
0,00607352435389081
-0,00187932828065606
0,000817898062906578
-0,00723941079140035
-0,00517088759239743
-0,00539836468445439
0,00424123666398464
-0,00953391930737608
-0,00941807144184348
0,0015954765398632
0,00491633340362232
-0,00839459188493579
-0,000257503311054704
0,00610590260702902
-0,00299917837089473
-0,00721152131366881
-0,00592176662604247
0,001487695849973
-0,00744581109683697
-0,000523966709006674
0,00973662793896294
-0,00923088856568449
0,00130080635349419
-0,00651433110074807
-0,00850015562735397
0,00858971703128054
0,00318783012637146
0,00539155332355462
-0,00478819552564044
-0,0048375240697801
0,000808134459832683
-0,00597732930162403
0,00271774354546934
0,00170867192901752
-0,00607643074873628
-0,00208787560561488
-0,00806609020729359
-0,00908523464450512
0,00914877860376048
0,00787905147432215
0,00888775859633305
0,00092768796061317
-0,0046920269870848
0,00227529058534758
0,00262052913533209
-0,00384908392154245
0,00685550615752661
0,00742322773786713
-0,00160075540532919
-0,00641707856663736
3,42047572486799E-05
0,00845632418918252
-0,00663217571334553
-0,0047209019758275
0,00192178638873924
0,00519068014100618
0,00687241232356865
-0,0024008157290816
-0,00836867394982571
-0,00338635652416785
0,00176927482515226
-0,0110305224637739
0,0049873930267133
0,0049565285093524
-0,00968345256856109
0,000230616682740188
-0,00228385477897489
0,00619869061795635
0,00023755772365068
0,00766409291847526
-0,00998389807148048
-0,00738663908134321
0,00191709784093282
-0,00591480583697422
-0,000125640624183858
-0,00189468936759693
0,00470807663311427
0,00831366468359332
0,000335955873269399
0,00506745132387963
-0,00838452870730093
0,00571906444170347
-0,00309752901227449
-0,00847941027562294
0,00515770928308572
0,00262205196504146
-0,00885860627316738
-0,00185620844560491
-0,00941627227281405
-0,000751255652014658
0,00105126342342316
0,00390345178174578
0,00856957786196445
0,00167828639217411
-0,00490354058186874
0,00856318860138233
0,00456337958755844
-0,00070880755146442
0,00134382288898335
-0,00798829450257387
0,00797909016382413
0,0098390802749398
-0,00373992445934488
-0,000115952073840233
-0,00721448286847835
-0,00322029951827719
-0,00385817288335978
0,00908058713147444
0,00531049364348816
-0,00621639286133417
-0,00955766396778296
0,00849203249849922
0,00729981851406569
-0,00315964122067841
-0,00446995468200826
0,00686967582494529
0,00312983820910694
0,00439966123241876
-0,00966471835688172
-0,00229196690785393
-0,00125887625593307
0,00926518800234213
0,00547787623296794
-0,00939355011525592
-0,00401322787491497
-0,00453166226045849
-0,00656405483758757
0,00966007620866886
0,00830407460464955
0,000427435397587089
0,00271909404267547
-0,00530729648086713
-0,00360551965385908
-0,00208867249590786
0,00685752801390434
-0,00835044233051615
-0,000616463139008946
0,00699708090369302
0,00873280880658608
-0,00165787829913738
-0,00349935790293457
-0,00771992596359451
0,00330654628408267
0,00762494059407064
2,81790012754677E-05
0,00396085297767653
0,00799141108308037
0,00292172674868518
-0,00285700534177541
-0,000731113803876609
-0,00346433691845209
-0,00921946388522152
-0,000884952725256622
-0,0066348214801386
0,00280228220983553
0,00822765305594425
-0,00608681517505727
-0,00480613624575449
-0,0065296925633863
0,0069536361685892
-0,00696953958812767
-0,00374907239819192
-0,00936937567788345
-0,00522206007280483
0,000998865697066703
0,00573605212410375
0,00210713919197713
-0,00063403983785031
-5,03428075109976E-05
-0,00607425922226692
-0,00228980383998021
0,00660610514090356
0,00659533683215644
0,00333262430951332
-0,00712752750971567
-0,00179526616758213
-0,00246469316103457
0,00938058562183124
0,00204578632529089
0,00316059683554863
-0,00172491255260663
0,000991618996317942
0,00285030268298274
-0,000627586398477088
-0,00578524679671801
0,00207901395875318
0,005580644516562
-0,00706976299974058
0,00497182678528183
0,00848022012087953
0,00761628411599262
-0,00589810514631593
0,00348105429368143
-0,00822334996875923
-0,00467199637252156
-0,0097690418685496
-0,0084401411278287
-0,00162420392244438
-0,00358815482073893
0,00409158874662957
-0,0081613813790922
-0,00117144908436562
-0,00664171173648554
-0,00636958229644914
-0,00799546654964655
0,000500826986376695
-0,00494910424166927
0,0067658169614247
-0,00847382875535799
-0,00441091454598961
0,00157567118080486
-0,00467050212925079
0,00379353329461646
0,00064995751742166
-0,00119767952064171
0,00201712920736937
0,00331906045390553
0,00117051557977566
-0,00952857254051071
0,00884703598862842
-0,00988209337921911
-0,000831318668913048
0,00439289039426627
0,00144121465763283
-0,00379100035540265
-0,00662172379125807
-0,00723576074626986
0,00427356822756987
-0,00265632219760128
-0,00802974779426097
-0,00403161857983382
0,00856370500039546
0,00250924090587305
0,0077472553391064
0,00155738645548671
0,00992320968653947
-0,00180388056310232
-0,000238057503511888
-0,00211164049583106
0,00422991342456953
-0,00254304842776171
0,00902776657911878
-0,00854110721150823
-0,000634139944862183
-0,0031443961548961
0,00222313137735687
0,000245101717414849
-0,00721511707511503
0,00294762654832919
0,00330006482698958
-0,00310293785751469
0,000354209118200929
-0,00216968069964928
-0,00255518455457687
0,00378023504734233
0,00232299387575906
0,00395068384131284
0,00141401789274001
0,00694046374401674
0,00816101977948628
-0,00264739388558646
0,000540179605116666
-0,000526546619390809
0,00980431283701042
0,00986576392533072
0,00320420183019447
0,00304879171095306
0,0063106261954724
0,00934410058685992
-0,000992263813345641
-0,00616080772568272
-0,0064605489952286
-0,00676151951624151
-0,00381985730203793
0,00134243131212072
-0,00893362688782328
-0,00229939492060775
-0,00497713547897392
-0,00542422027114044
0,00397350389462016
0,00311592623318947
0,00994521183412954
-0,00873551088524395
0,00391648037211755
0,00487180552659078
0,00544854002230126
0,000623464915681934
-0,00508955941031822
-0,00622337325896095
0,00906445068129663
-0,00408069761160511
0,00682301763425224
0,00285582430128955
-0,000218959449664316
-0,00298707201207665
0,00707142180838829
-0,000298756762847237
-0,00823601797956916
-0,000436384067243163
0,00368438292000647
0,00917819495274601
0,00391861661054129
-0,00656965381306114
-0,00606187725256285
-0,000539544648742091
-0,00664225627511845
-0,00288281306292993
-0,00835035546605957
0,00610330443647844
0,00271026110868447
-0,00538944943593324
-0,00108977467338079
-0,00318282291907017
-0,0070223561381094
-0,00494909818049013
-0,00265986122780473
-0,000829671868509461
0,00543586412232177
-0,0051642527967525
-0,00564438400587271
-0,00745066132277747
-0,00185667690441789
0,00257281129833908
-0,00967594224944522
-0,00687648931372747
-0,0029525211979414
0,000708767059589161
0,00347284367935399
0,00917409971317933
0,00427278994315899
0,00136614418186533
-0,00406127644426249
0,00545978385743675
0,000891396808853091
0,00479523809384333
0,00919714090452534
0,00651478878359251
0,00732763697626919
-0,00554141168508966
0,00151980178693645
-0,00165998686025416
-0,00101658295493553
-0,00119173491143303
0,00105311707099139
0,00442655354545465
0,00698205665921503
-2,21303789955319E-05
-0,000145784711129615
-0,00528308973916093
0,0096676981175109
-0,00209986939108763
0,00426555471533374
0,00692698608249152
-0,00479164556846086
0,0011358595198822
0,0010348718571639
-0,00865419468779778
-0,00689371156361593
-0,00918538793883537
-0,00758702345080069
0,00264897666529239
0,00364434325771609
-0,0075244551792389
-0,00816928422414005
-0,00865580610931211
0,00867339116137383
0,00346249982528701
0,00594952004680845
-0,0017652643803634
-0,004072321581975
0,000900544065665124
0,00192673502354579
0,00107432882605201
0,00342091703781242
0,00612173153057026
0,00366757586056859
0,00942314402803246
-0,00840671198653732
-0,00404750816108758
-0,00382381085830769
0,00708847437681135
-0,0091346772998334
-0,00123739905791317
0,00951083055640387
-0,00362535028304414
0,00710177937387572
-0,000987410764669724
0,000252319187974706
0,00975635256606915
-0,00623963376332057
0,00785146236202827
0,00340874790336709
0,00650952055781673
-0,00795201903258971
0,00889762096905753
0,00476110590786854
-0,00337554818911904
-0,00287320383554555
-0,000153121031655692
0,00590364075559815
-0,00626402263505953
0,00432690362844913
-0,00800839148809582
0,00918725712881734
-0,00084158282151634
0,00635245047660941
-0,0064541239661939
-0,00621393564218659
-0,000695552962921269
0,00762536759078281
0,00172048374579019
0,00982968425287093
0,00720395240401156
0,00466723008776905
-0,00465954866011606
0,00179327752059013
-0,00511380879501891
-0,00703264523908166
0,00545705105030735
-0,00575878034377517
-0,000344293941569643
-0,00680125352594815
0,00620311224344862
-0,00548676457237048
-0,0018592247448402
0,00756959049763521
0,00542878529532068
-0,000984009295233383
0,00455915771570415
-0,00848847155773336
-0,00268874698807365
0,00274527562509597
0,00230577116031642
0,000634856056530832
-0,00695993495944241
-0,00664657382936786
0,00936551801663106
-1,5068885639689E-05
0,000711034363194985
0,00033901735424799
0,00382583636888442
-0,0045902320561604
-0,00893013802840415
-0,0078021276266324
0,00207021950374833
0,00803437261384635
0,00620014987965384
-0,0081688495191715
0,00667391551966876
-0,00293744866271248
-0,000128601835198835
-0,0062900777358513
0,00179506473484453
-0,00424963984997704
-0,00372545406907108
-0,0095344489146478
0,00799160641745146
0,00740213805956988
0,00104488742041753
0,00172245233995127
-0,00886866132208386
0,00471821252430152
-0,000468804323102499
-0,00183549601769437
0,000639177651947893
0,00939100290510629
-0,00195488684802992
-0,00292647965274306
0,00205407477414897
-0,00768290957538818
0,00260855423399289
0,00498909078305079
0,00229965796031802
-0,00486420956246783
0,000404959451925244
-0,00579057009725704
-0,0079301130166167
0,00393520157251356
0,00245786440490404
0,000173951999686309
-0,00852392183685077
0,00363673361449059
0,00216503778106241
-0,00282090233367722
0,00117243470403449
-0,006966488791981
-0,00970416137929678
-0,00407213415381731
-0,00616147852831191
-0,00785531694508269
-0,00477572846874213
-0,00796185478073608
0,00905728306269055
0,00929374816732952
-0,000345101549529454
0,00949820747536743
0,00627376829972082
0,00322357902309598
0,00171870379704261
0,00275671441702019
4,65986910894692E-05
-0,000847049731049397
-0,000234952388559557
0,00430538940078949
0,0043478277473601
0,00473025016450589
0,00125037217487297
-0,00357419115125608
0,00503512701270032
-0,00834677819114566
0,00780956205636843
-0,0067461979935451
-0,00608006842173889
-0,0104848064280003
-0,00140189584969249
-0,00422204736331657
-0,00897713571439381
-0,00900602646694533
0,00590784598107282
-0,00332352217471641
0,00829459946828126
-0,00838864662019785
-0,00700934991500777
-0,000234982425231067
0,00717911920210473
0,000671999720569961
0,00595018477808839
0,0030553369982282
0,0055412531618368
0,00092186808557367
-0,00209535565239422
-0,00124422937158035
-0,00794282841066995
0,00942327212416215
0,00977106776546144
0,00187910630264108
-0,00645805968765805
0,00759804726376122
0,00258007846326628
0,00606906223539191
0,00113068882060544
0,00271036177884785
-0,000762899031854867
-0,00971159106902521
-0,0073374886521768
-0,00968990431630781
0,00648064493555132
0,00770796561264328
-0,00126424448603106
-0,00775040311779638
0,0073204320313225
0,00450287262434104
0,00691761254417764
-0,00521301074324087
0,0043086580035851
-0,0015645434481858
-0,00382618450330787
-0,00999697062234665
0,00708919473683445
-0,00640865194623936
0,00864305100588781
0,00798765372912846
0,000634358090265348
-0,00609030799518943
0,00377814441587127
-0,000690610189479363
-0,00837027339039087
-0,0051910115825729
-0,0102111442487861
0,00631700055762945
-0,00852445415962683
-0,00749793933436918
-0,00236863041767502
0,00899672118903
0,0042525880679709
-0,00644678279013613
-5,56608844507333E-05
-0,00946062103664873
-0,00445631176752157
0,00588028483482173
0,00361093831481777
0,00779850000544719
-0,00597657261591997
0,00318696167551608
0,00357489576560982
0,00342307745062395
0,0018570442565763
0,00727750978065862
-0,0049113430858363
0,00133048516809951
-0,00425749819568247
-0,00632812776841053
-0,0091622867341105
-0,00058141725132345
0,00789990623043427
0,00358091431096984
-0,00768263871786421
-0,00462862397379756
-0,00356434487901753
0,00333001478876871
0,00896329552282869
0,00169491886992437
0,00717152778256581
0,00063112050759435
0,00852036457344585
0,00287750560989404
-0,00446012806639777
0,00729220492880324
0,000162317220576172
0,000350703486809057
0,0081623693459843
-0,00456997134688482
0,00439130567315267
-0,0087692459113595
5,30009310836383E-05
-0,00908414156359776
0,00403255846289058
0,00756261867500841
0,000496644213314181
-0,00943488896965707
0,00763090132069652
-0,00554060693119504
-0,010139858924478
-0,00128408885714206
0,000778515296535678
0,00799273533372605
-0,00816047270761889
0,00879596562088647
-0,00820375357115878
-0,00905811884626759
-0,00936584675876663
-0,00703760554331416
0,00225166032241728
0,00066306360519984
0,00621595680280324
-0,00813086760102003
-0,00936422046909277
0,00315674430821506
0,00437932751076833
-0,00952812092095572
-0,00221169001243562
0,00461960644203137
-0,00278268311191759
0,0048275949834276
0,00322732822809866
-0,00954876967203249
-0,00060345889849996
0,00973971515440503
0,00945298531368324
0,00717007101848679
0,0100224734048698
-0,00447012514897204
0,00565821352841813
-0,00347656398273798
0,00637498898872976
0,00530463542271422
0,00246755659992791
-0,00139955049714612
0,0090120236344251
0,00892198592890701
-0,000509068103606079
-0,00414377009724859
0,00549103675003483
-0,000296548860853016
9,07459176637446E-05
0,00515535315714669
0,0030528144355831
-0,00645291717557838
-0,00508579402627352
-0,00174910991488348
-0,00960950553467259
-0,00907033717046341
-0,00681939660353631
0,000185870394914158
0,00300667815962611
-0,00659359160414313
0,00780467817918861
-0,00400593876356141
0,00700016682986485
0,00233019302343427
0,000681716964240625
-0,00606218554533125
-0,00919250825168155
-0,00419747414509281
-0,00809179585314223
0,00535751827712633
-0,00338465901301956
-0,00561801547075419
0,00334070457023093
-0,00909774137721985
7,91740696991987E-05
0,00292840182260209
0,0046192921351498
0,00550457873549732
0,00097678516053373
-0,00819667560965874
0,0090198036169962
0,00756654948153047
-0,00515089032245746
0,00815494708581646
-0,00262872181838482
-0,00398557013675966
0,00523037538508199
0,00192862562531767
0,00778464125947423
0,0105845401146558
-0,00547116797736545
-0,00167945123838589
0,00647700496272669
0,00565279284984836
0,00959901227583327
-0,001593180198918
0,00329272878206261
-0,00234104644691504
-0,00169643397332994
-0,00496916726610828
-0,00483848385061798
0,000656576591851078
-0,000827524874679143
0,00580331304795628
-0,00105092599369482
-0,00131041033831719
0,000186800276440807
-0,00605468637975767
0,00809067259238581
-0,00251435212817791
-0,00358672812886796
-0,00221679714809063
0,00912468769306165
0,00123780471085077
-0,00536472210746564
0,0107894480022711
-0,00814094432855452
0,00977366488269251
-0,00354310700181807
-0,00318784160643296
0,00115248536198914
0,00129812419771363
0,000259146402938584
-0,00640636352708497
0,00311139917769375
0,0100924416104198
-0,00131846253482736
0,0081026398605204
-0,00765406305328672
-0,00654721339115832
-0,0086468054404501
-0,00211377843761095
-0,00262364732542373
-0,00424922699958418
0,00653195090478096
-0,00169921121066987
-0,00167057543567267
-0,000951233498104462
-0,000724351698610124
0,00872353596149625
0,00561731258352002
0,00101135878405664
0,00357195423026967
0,000230952887859196
0,00414230861518192
0,00674255784912769
-0,000420973672048622
-0,00369697985055935
0,00255701119610043
0,0106477927614549
-0,00158215684649915
0,00558850268541182
-0,00639043660369642
-0,00636161348703337
0,00522740691082676
0,00507259530453347
-0,00782951879792519
-0,00225198002645526
-0,00571529095276458
-0,000541695088148602
0,00983863689335253
0,00169721995812221
-0,00853801322588634
0,00455927034586634
-0,0039316993335298
0,00854131722952319
-0,00951962238048719
0,00333386111911655
0,00435668466907966
0,0057425806588939
0,00174548908317343
0,00221118845867887
9,00397011077046E-05
-0,00253749179050804
0,00133770655177442
0,0109230300387467
0,008840547869317
0,0113781945800182
0,000841343856645117
0,00807731770392017
0,00274585912916961
-0,00528947858816681
-0,00259976613962436
-0,00659003656316503
0,00719793479441797
-0,0021154110279091
-0,00435131007330212
-0,00580996080833758
0,000394466574098994
-0,008711418049074
-0,00389015458201803
-0,00944034003626571
-0,00524688242659248
0,00989811392652725
0,00899232520920641
-0,00619842197570713
-0,000934671373400359
0,00827866221379225
-0,00669291273741941
0,00471843252173685
0,00544476344226013
0,00558913415834278
0,00177400270425596
0,00719364680570472
-0,000470114696346657
0,00686285157025325
-0,00372683034283659
0,00738670556619662
0,00415382269147697
0,00638077689666628
0,00802384172471901
-0,00727764201941748
0,00900975132524571
-0,00219191540042284
0,00760149853912221
0,00546376101374681
-0,00560636222978598
0,00813327036286715
0,00744856514822651
0,0081728253784463
0,00294371002907992
0,00641965878175854
-0,00697756540985237
0,00290180194263844
-0,000872270246424625
0,000414211627409391
-0,00346721717779232
-0,000986737911243355
-0,00289309343507551
-0,00370971840898348
0,00111209604527155
0,0102751032747471
0,00793365962574816
0,0060101977824114
-0,00721276390438974
0,00767630700590059
0,00400112568449202
0,00156644274392999
0,00530417255357353
-0,00796962559579076
-0,00676218720334099
-0,000801718490791249
0,000448442851233517
0,00418351755545942
-0,00658197255974163
-0,00643072288905968
-0,00832767157582897
0,0069504912369654
-0,00760886392279769
-0,00631083245579197
0,00948968100394921
0,000834996448245884
-0,00955784169872459
-0,00556355919560041
-0,00912010328687787
0,00780298079895959
0,00105932971822643
0,00735447711776946
-0,00314818332424303
0,00820570216998751
-0,000439221560446344
0,00660077016069255
-0,000192089929879321
-0,00231657924220149
-0,00436942768704559
0,0085336729059164
-0,00413363794136681
-0,00574453863464106
-0,00398994172621971
-0,009792019636562
-0,00851144861784934
0,0028901774559601
-0,00704783468608416
0,00560266773078188
0,00509018790201645
-0,00616050378240668
-0,00386910095707835
-0,000988808507743541
-0,000397607799496661
-0,00439775582767704
-0,00141673076108858
-0,000906078205189389
-0,00409389215957575
-0,00762493263379927
-0,00467066341664027
0,00859039701825027
0,00820205311518295
0,0019988195823881
0,00373661620452696
-0,00623769737765043
-0,00446871918326212
0,00575587699444853
-0,00558049013175915
0,00741043250982782
0,0032554687460229
-0,00257187221913782
0,00966184779993322
-0,00750736002317216
-0,00171503690949369
-0,00513754766106911
0,00784835570456164
0,00763292043090274
0,00115781251837644
-0,00762827353441542
-0,00761197295860014
-0,00323443213582563
-0,00200994965986646
-0,00502816484511606
-0,000596562936342897
0,00688294971810859
0,00129437897811155
-0,00868047117359821
-0,00346590678428693
-0,010370915647617
-0,00230512843777
0,00837111586441658
-0,00125630205349236
-0,00417172632559212
-0,00917033025726743
-0,00441541126794238
0,00935372618659096
0,00361927537530932
0,000708199552437068
-0,00767578130287871
0,00420999374681537
-0,00503256873040571
-0,00199681396273049
-0,00452473643033574
-0,00738163462655233
-0,00197498167550426
-0,00547979801796915
-0,00608340330239544
-0,0090867281235227
-0,0051516109700506
-0,00216924240883633
0,00108417003634944
0,0081440323639433
-0,00627963125175434
-0,009974275958087
0,00838501832464534
5,00761892727051E-05
0,00229948798429497
-0,00876659490642351
0,00523185879588515
0,000964671885653641
-0,00700626372495592
-0,00212133422685248
-0,00680496411690675
-0,0017206235933006
0,00372868288393007
0,00784564347200171
0,00299390034870205
-0,00945740115831656
-0,00835368701305537
-0,00500492378516503
-0,00570146724188002
-0,00264606396741068
-0,000672878785276551
-0,00140095536196649
0,00770409924802561
0,00890357356467451
-0,0074247217613583
-0,00760388254504021
-0,00852025560732469
0,00260957901839306
-0,00223421626351539
-0,00909597069115013
-0,00776876123531054
0,00222914876584067
0,00687267946545912
-0,00967794602925113
-0,00508867604726403
-0,00440862695208937
-0,00780854076196495
0,00481771243433534
-0,00421356588834396
0,000766215350603112
0,00382285621105944
-4,82291419653278E-05
-5,64665755170582E-05
0,00590667593862261
-0,00603971554867517
0,00689686548059668
-0,000964897753790721
0,000576100182361476
0,00198107909750429
-0,00627469667991376
0,00946329376635295
0,00994378855449324
-0,00642671606766429
-0,00621190754334716
-0,00105367446495508
0,0053791370804084
-0,0071948115612856
-0,00980729693206494
-0,00161030043867498
0,000853179244151566
-0,00938182342282188
-0,00666673492310998
-0,00637012246009804
-0,0077427226978353
-0,00437966470103233
0,000499849185365409
0,000416763925751394
0,00223197174134642
0,00174839067907939
-0,00368219642189557
0,00744565489370614
-0,00393506489233519
0,00871002835164253
0,00334341073261699
0,00357222442296421
0,00954093732867667
0,00884103840864317
-0,00806661826468381
0,00501871254994474
-0,00429163471529802
0,003384795996074
0,000960400578925857
-0,00925351008794664
-0,00573424419690599
-0,00816562204334984
-0,00711638984862301
-0,000571379254044624
0,00388536944554441
0,00202134678153709
1,76940837216244E-05
-0,0068945600879109
-0,00789235160708889
-0,0035895032162413
0,00468399408330128
-0,000367315737480753
-0,000158850067260882
-0,00435878633879669
-0,00299377150575985
-0,000300829950309517
0,00296225888755613
-0,00391286806907666
0,00655040324690913
0,00869535946999616
-0,00439870523959338
-0,00374963440641278
0,00338224865187996
-0,00877283092531042
0,000230452302019322
0,000218296810154941
-0,000571895628502543
0,00659371972197244
-0,00901912757933765
-0,00461667792647408
-0,00699687552949567
0,0078863769266766
0,000125794726345244
-0,0069783399027393
0,00975983854626523
-0,00917866961746163
-0,00691851903345793
-0,00864968438429868
0,00673238787205998
-0,00970910447119636
-0,00830275425399115
-0,006888522908695
0,00515068417176698
0,00941993509543483
-0,00620361963764083
-0,00650287494991587
-0,00642548983916919
0,00379615297252133
0,00177519837011359
0,00220364589812404
-0,00795971792096259
0,0096153972668645
0,0068342421561639
0,00226510677126474
0,00514869962593014
0,00802573058662272
-0,00152528290242203
-0,00829872902403526
0,00927469018812976
-0,00622169964770866
-0,00728643786967101
0,00355078932528886
-0,00773492624877716
0,00693002093440388
-0,00634933854283268
0,00702784357454062
0,00971299996586191
-0,00302820413048761
-0,00402221496869913
-0,00377161029436235
-0,0033828057876708
0,00157714241723397
-0,000685438956453203
0,00621842412101963
0,00696479058683142
-0,00753161008354817
0,00108925988482743
0,0039568181214653
0,00742821574091363
-0,00327003315709067
-0,00335681214619279
0,00563195139897612
-0,00518137134387222
-0,0012224868276801
-0,00665641173913595
-0,00660906763549616
-0,00894010648257385
0,00787201294522415
-0,00211142040977489
-0,00824600856509868
0,00237626439471688
-0,00857358991472023
-0,00786264136814476
0,00300645292887022
0,00762233716232896
-0,00181654152238939
-0,00912747050541159
0,0082344815908867
0,00577698352285257
-0,00322632772123906
-0,00621092519919412
0,00660449577126775
-0,00218070715775368
-0,00445319133552406
-0,00441354831420516
0,00046313966180344
0,0003008362233177
-0,00938418196485573
0,00530031618443333
0,00268030970947832
-0,00306352929820471
0,00451822615845911
-0,00572676220579773
0,00254776092901105
0,00714986939048468
-0,00289046880197213
-0,00121260808861885
0,0035667315781304
0,00366492394543767
-0,00965141713172587
0,00606741357548362
-0,00805255028627074
0,0091966147547572
-0,00564516775816786
0,00398534085244362
-0,00468551478283448
-0,000466485966373176
0,00636452638286282
0,00862745274185622
-0,00119932602796703
-0,00839319359955345
0,00285970209313392
0,00818223342348561
0,000657105981678285
-0,00705751865033876
3,98747669718563E-05
-0,00218641654224434
0,00927181999165184
-0,00680886158157697
0,00288109177527026
0,0030875341850162
-0,00955384525383451
-0,00740971233769986
0,00525891829335748
0,00490781953460301
0,00798181193283679
0,0072708483948994
-0,000286088860236309
0,00604214112269841
0,000781355115782734
0,00975232920012566
-0,0022755215925302
-0,00498655844404094
0,00587360799707958
0,00110877223117008
-0,0078355701131901
0,00765282902812386
-0,0063386294358273
0,00172208044345654
-0,00959989609554501
-0,0089843398114612
0,00398702788761511
-0,00798403849731387
-0,0034847014180779
0,00107971016922035
0,00407831990905743
0,00633577899300724
0,00361308475574002
-0,00041014640770173
-0,00291980478671209
0,00927032531971406
-0,000494307011808507
0,000399455820297541
-0,00915590566996607
-0,00271562732011546
0,00566002188946203
0,0095222868394454
-0,00565342945898773
2,16459209532122E-05
0,00666019414296161
-0,0013457244995959
0,010354910149864
-0,0091870538125265
-0,00170330702382169
-0,000537757066617926
0,00428441685125242
-0,00173604273293128
-0,00729675805995761
0,0098703834640807
-0,00899476445236159
0,00253069052884371
-0,00576771150146039
-0,00240858223867071
-0,00718988974772583
0,00186334841969789
0,00908325424818382
0,00836789053124564
0,00596701103623836
-0,00592859567699345
-0,00920785541037536
-0,00829415013649229
-0,00618074059111057
0,0103275238187307
-0,000807919908639875
0,00186188846735465
0,000869174146210744
0,00818249056941189
-0,00492234617246362
-0,00068510629126358
0,00591043274147276
-0,00700859929084646
0,00371510916187762
0,00420951005564268
0,00575512575921607
0,00241782289671017
-0,00877631857939327
0,00357274682538848
0,00395959688610345
0,00717837504369323
0,00685944532829311
-0,00413530094099054
0,00366522157302304
0,00373900729248012
-0,00145663025046545
0,00445224454956456
0,00488306331013977
-0,00820235636149672
