0,00185681965754219
0,00849357454036063
-0,00972335506217711
-0,00648662769072066
-0,00291006915872454
0,00808344505638045
0,00250398691394552
-0,0065856307915345
0,00794472777188976
-0,0095367343814749
-0,00637420005927524
-0,00832715337086802
0,000680838994819947
-0,00959640354292786
0,00742032226065275
0,00364823217906871
-0,00636065509000824
0,00576255506638556
-0,000925067323690777
0,00520082223005631
-0,00112191915098667
0,00681194932982882
-0,00863142871234167
0,000793408542309613
-0,00355243515854349
0,00566337928905309
0,00563915801962798
-0,00292516118517386
0,000976843047410643
-0,000377969886352294
-0,005494074987012
-0,00147192366955426
0,00566300594649037
-0,00678133514431323
-0,00714076046669608
-0,00914393745310677
-0,00156363982400093
0,00576914922558425
-0,00562969969510832
0,0117201942109315
0,0143929562896602
0,0111076049822023
0,00932424483338009
0,00523319376502646
-0,00658975509379467
-0,00438404041170923
0,00491515621085777
0,00212861222459841
0,000620065282359598
0,00561739997966179
0,00227124645261809
0,0023854074044213
-0,0079503150367878
0,00590517313028927
-0,00605617751183742
0,00504487032771337
0,0071250032527023
-0,000516763604486716
0,00706652441804928
0,00145392339961716
-0,00750460431923558
-0,00454852005084603
0,00299407832206894
0,000406827490511265
0,00859346893654379
0,0080062794944525
0,00402452783368748
0,00874339073155503
0,0184922134217487
0,0251663939278724
0,00494485264735272
0,00255335471184943
0,0082419843430016
0,0085131614570822
0,0157274953624261
0,0179538086082696
0,0160290754420056
0,00307713209944576
0,00374187840524886
-0,00410055472960805
-0,00565214113937219
-0,00372895705480267
0,0082075145832298
0,00652701207274898
0,00815443836997935
0,00247671864576485
-0,00358777903120119
0,00984084837163961
0,00940373310207403
-0,00373153620055765
-0,00589424909543916
0,0114706031631505
0,0129688954710987
0,00128168864371055
0,0216642730675224
0,0281427976920127
0,0209740527799492
0,025453812830963
0,0568538548479832
0,0387486316770948
0,0412483103013849
0,0262170403205976
0,0257009056255778
0,0381409070623733
0,034220095493813
0,01415756316976
0,0156643558179169
0,000730650802286966
-0,00942082295460337
0,0034458764152847
0,00922145249744059
0,000161916795262096
-0,00970181738012555
0,00312858363469725
-0,00378526970908505
0,00607227423594103
-0,00072425271388366
0,00537855008830873
-0,00601044184048338
-0,00981891098902616
-0,0232374807500618
-0,0164784223186369
-0,00268591321132528
0,0260570197714364
0,0338649348046754
0,0428411621974294
0,040196607557747
0,0595484965542101
0,0469270727781669
0,0530961747937309
0,0584442501549639
0,0472409163088845
0,0136143999605254
0,0236221682028421
0,0342104626353483
0,0278717884555256
0,032995886206974
0,000751561047018511
-0,00439148809404463
0,00570570078928149
0,0038081404258535
0,00561180379037364
0,00897172097661197
-0,00519226042908107
-0,00712753955721701
-0,00298860548172611
-0,00616474915771657
-0,025009122469382
-0,0206251548219989
0,0234298140595697
0,0299913883478571
-0,0373715847203606
-0,063373049674102
-0,0207140867003172
0,0265491104609278
0,0179856332067872
0,0457517275244182
0,061996722823731
0,0648257347421041
0,068645038940976
0,0558857372202472
0,0479473192499964
0,0698933832294752
0,062717253982441
0,0343231262401038
0,000251959405364717
-0,00550424817231469
0,0084187561267445
-0,00431256882581514
-0,00509357863723617
0,0102430954211173
-0,0151098859404648
-0,0124415030146589
0,00450826811751838
-0,014109141327311
-0,00483739245645556
0,0229675904554906
0,000934042799994688
0,0110124112042019
-0,0373892582215339
-0,0343313622493548
-0,072332203860583
-0,00446374887871631
0,0285605616710166
-0,0143187979716927
0,00725410786303744
0,0231336128514688
0,0573265060868209
0,0401351515206753
0,0358642534690441
0,0801031810024995
0,0757503232461036
0,0606824570974627
0,0135498869441266
0,00537899939222702
0,00850112759807759
-0,00952038345092717
0,00961052047606003
0,00493539395070431
-0,0179919044026425
-0,0157666672456836
0,010967171706118
-0,0153603334702909
0,0266275275945507
0,0057162533016266
0,0161442864473366
-0,012799275885127
-0,0105024559654758
-0,0667261695522554
-0,0890916799604358
-0,0102600512101651
-0,0067297473305211
-0,026367102493272
0,0266552142952969
0,00546843052169148
-0,0147923048670738
0,0292064873584732
0,035469255863246
0,0626450058168191
0,0754353881022401
0,0502876006186134
0,0322007596210182
0,0165528703747403
-0,000173751872133206
0,00950746494792398
-0,00518190556816324
0,000797474931568157
0,000177542020880581
-0,0237620703697367
-0,022101773318483
-0,0531935207961141
-0,0414004183418193
-0,0360978968142301
-0,00585933890162907
-0,0739732807017573
-0,0719209906300023
-0,0797480424906988
-0,0997603009607394
-0,11460727454991
-0,0653723616335613
-0,0137755746861842
-0,0158228832327913
-0,00851750051369737
-0,00441922882546431
0,0475911261737561
0,0491936376916836
0,0501884188040385
0,0884790389355354
0,0879939913090746
0,0668906880398943
0,0145893570253638
-0,00963084506142332
0,00227108247535188
-0,00419919994297229
0,00985615143240752
-0,0182477547896868
-0,020753263559387
-0,0524008715525886
-0,0891460612807508
-0,0622481811322867
-0,0306377245199588
-0,0511352101529347
-0,109187360690497
-0,107099288067132
-0,0976398990885533
-0,100870758724004
-0,122365445129822
-0,124121386001773
-0,0505660402040745
-0,0551142553442664
-0,040222853322768
-0,0542884297458055
-0,0304111782326791
0,0171752299836435
0,0569180123864852
0,0632447276897582
0,0934130379890359
0,0574234632152394
0,00867157355313846
-0,00171777291536202
0,00181128544749415
0,00645175172187137
0,00134243144202932
-0,00461380187160685
-0,0112780441653573
-0,0643043743005119
-0,0824402994988172
-0,0578302018263175
-0,0371189844817304
-0,057977061079154
-0,112658117625789
-0,110462510098127
-0,0579584061285808
-0,0519369611726915
-0,0945490416624011
-0,0662797114984774
-0,0201071553455809
-0,0125064794854302
-0,0886854604770835
-0,0820585335154389
-0,0298860360323604
0,0365138691639633
0,0545989724742019
0,071486801225825
0,0895296138078092
0,0749238878000209
0,0198031801697165
0,00216754327907499
-0,0032972421429648
0,00811297099062953
-0,00962685731038123
-0,00562444413212192
-0,0169774388665909
-0,0617570355071774
-0,0699419337070527
-0,0454954616336581
-0,0645693511041257
-0,101790952613749
-0,0472650189645997
-0,0519336572114321
0,0272749958591031
0,032376395933349
-0,070815472650086
-0,0424348636015847
0,0154922414178846
-0,0197563033655406
-0,0814611740544002
-0,096601347037309
-0,0606173306845047
0,030242932058939
0,0250036143264628
0,0273702569206556
0,0371506598129081
0,0263728428630359
-0,00866901420793638
-0,00906080973946669
-0,00261422969067858
-0,00474757196028309
-0,000998440318013296
-0,00595032073376302
-0,0277735393176388
-0,0367548466535518
0,0161040441584737
0,00454596007242027
-0,0220954063694017
-0,02713667811162
0,0888897910448681
0,124326367805707
0,156879986706041
0,121487302303918
-0,023006320502626
-0,0721794667861975
-0,0581811109707003
-0,0968732772751473
-0,0889391943873534
-0,106694545819959
-0,0621874980707781
-0,0348113678137112
-0,0096373876876836
-0,0342980337132757
-0,00862300630529781
-0,0122958581802499
-0,0172012816678431
0,00402712837847041
-0,0059153505208668
0,00817689585631752
-0,00271109891761185
-0,0139701895654572
-0,00956725559300555
0,0426557591056631
0,0909135880399037
0,0639354909323839
0,0319574040670174
0,0424279552271186
0,140240951100384
0,154314210709844
0,129973916118455
0,00712265603719762
-0,0746604739062615
-0,093355771954505
-0,105983485570177
-0,0874849384440866
-0,0842745785871691
-0,0624549834886584
-0,0433617747627376
-0,00387344048060283
0,0111553563949296
0,0417457150433971
0,0318002898644837
-0,0186819119948035
-0,0136027722667162
-0,00385262531163751
-0,00293194299932296
-0,000142555702045709
0,00864551666857922
0,00989835166162938
0,0101583379671869
0,0933040788006304
0,124309439712317
0,129000939354685
0,13573400668332
0,168087661054711
0,173986176539172
0,0792912492247862
0,0385193027153658
-0,0884460662582422
-0,0639677645127232
-0,0125350480500471
-0,0121350358991333
-0,0331303524791561
-0,0612526347364173
-0,0474343953953228
0,0765253189871342
0,0626770053604741
0,0663047413040007
0,0840098234330771
0,0476107944805327
-0,0202491453919367
-0,0247401711009427
0,0023715807361141
-0,0012120152066518
0,00225518648309805
-0,000865917968987297
0,00809319568960979
0,0170354505519435
0,0910564929862395
0,148690592852419
0,190504708637791
0,165475564524386
0,172030671424101
0,118915110311895
-0,0399434216949666
-0,0702606752716378
-0,138034902633975
-0,102237506799238
-0,0616187370818075
-0,0758666043303721
-0,057074757236549
-0,0285534670394404
0,0123765805179685
0,102608442795127
0,134852035521193
0,100088360474436
0,0816924738644546
0,0415935225118936
-0,00979954804775563
-0,00429834397422582
-0,00765263620034452
-0,00330780404620883
-0,00640131085856501
0,00582309620307085
0,0112579338998893
0,0194427031692386
0,0771176582915767
0,152873117548416
0,145679884331005
0,10978475359352
0,0273602731300432
-0,0397937175818326
-0,0876175660857619
-0,0984092993377202
-0,104844656568659
-0,122948690184455
-0,0565481135547984
-0,0799283307408317
-0,0105765563011289
0,0265455252981053
0,0752285044568257
0,125097208201636
0,113048474664682
0,0723198049491545
0,0727312337545492
0,0299044186379846
-0,00167929929498504
-0,0139428935462977
-0,00708507303187098
0,000369435898200345
0,00692764812841826
0,00813560660424607
0,00083198157196551
0,0343251068410432
0,0994274225771937
0,158196146996091
0,0864133840214804
0,0185453784744866
-0,0163100774085569
-0,0523721117354935
-0,048178724551819
-0,0931459891709966
-0,111179558998885
-0,0859320951743692
0,00112883117565275
0,0476629595065465
0,107216892599867
0,129980223035005
0,113564675369645
0,105088163256236
0,0909096299165593
0,0624811735525666
0,0460401903228256
0,0108262294039799
-0,0200010642388119
0,000413840586661427
-0,00787582343076245
0,00534548769347919
0,00499089137325318
0,00700872106980514
0,0137869164475894
0,0449887119431422
0,0835311613193255
0,113721880004059
0,0743292248875871
0,0539198516442641
0,0151774227633586
-0,0107475643965184
-0,0235240539000276
0,0120866492123096
-0,0483211449619842
-0,0229009836702014
0,0610184362510257
0,119032482645057
0,0986763454481699
0,105520538253153
0,0724861735811146
0,0675003771322736
0,0544777349482518
0,0329284131919816
0,0197207153170808
0,00136518738827007
-0,0093452277830198
-0,00488669982350608
-0,00836721010873721
0,00825639394344915
0,00205792037219103
0,0116566115510962
0,0140286377004991
0,038904276023246
0,0874295764547827
0,0821098713804503
0,0237472312083647
0,0218839287161397
0,0367881210452445
0,0134393794602071
0,0691732072554422
0,0496421567287076
-0,0271293054014084
0,00767180178160009
0,0612184553368115
0,0751823672147134
0,0680399488671152
0,099493815858921
0,0583364862084224
0,0465721891396235
0,0355201420263809
0,0100159131667848
0,00598649498564794
-0,00769787540841504
-0,0147808818401073
-0,0111051518798768
-0,00566103337193524
-0,00786416371253513
-0,00434769643528879
0,00033645808810687
0,00748157972076966
0,00497455951613225
0,0854786910663627
0,0540922330216297
0,00345867912865415
0,029901111568824
0,0675149017003404
0,0474798874368989
0,0551892529848066
0,022279143548873
0,0131084158131737
0,0314560236003515
0,0664834107555228
0,0653252185243195
0,0605382627656101
0,0745797743007179
0,0382253698501285
0,0182698778498876
0,00402948207323445
-0,00530252904483427
0,00608255881963301
-0,00783892147601462
-0,0128384935659034
0,00219232237351322
0,00555324434442836
-0,00909736044579088
0,00939067836895453
-0,000647978289461025
-0,00670334946204193
0,0163656733165792
0,0121844596109232
0,0242799475402337
0,0497568767623373
0,0522450719208071
0,0533043300139433
0,0379274138803501
0,0674681920519517
0,0504325322316836
0,0215447640616004
0,0335074087306157
0,0302892445015586
0,018288925865138
0,0489092055133855
0,0329551798290843
0,00887976570019143
0,0106802490872269
-0,010365011218853
-0,0117576324107008
-0,00595331415851835
-0,000256934170715003
0,00543080414914625
0,000717724242992378
-0,00197471837185271
-0,00200950281183063
-0,000914274035794977
-0,000955601840367796
0,0101803311088285
0,000201656047702916
-0,0317782135469263
-0,0493230018432516
-0,0460444481551217
-0,0239485002911522
0,0348834108625407
0,0268135409971181
0,0460208413108672
0,0269065927298196
-0,0018832479021513
0,00199934069220138
0,0412541611235082
0,0511474181043744
0,0110069253468176
-0,00874914782687933
0,00900310099870837
-0,0276457329228301
-0,0150118751827326
-0,00749285287414854
0,00387925096266263
-0,00845961553615369
-0,00786590481653487
-0,00399327136709574
-0,00225686572646003
0,00945587136757368
-0,00539998270357027
0,00907594577526728
0,0135114084897781
0,0188138336570295
0,00761634702358541
-0,039977128519451
-0,0692275656326562
-0,0830929859828887
-0,0446761095245091
-0,00957910987473513
-0,0182563552250887
-0,0390360150025882
-0,0655743409219082
-0,0187799059578784
0,014315181190612
-0,0231818660352818
-0,0421989089850475
-0,0675071653643908
-0,0230593419032861
-0,0122624366524072
-0,0322858752849898
-0,0366717932548176
-0,0138317209739584
0,00237194107600729
-0,00668130771822074
-0,00424584677745202
0,00427104638622657
0,00241491086427817
0,00323941364569562
0,00336824785504004
0,00195117976937954
0,0175645395607344
0,0183953254185865
-0,0132618838070327
-0,0186165698761308
-0,0563036108161712
-0,0362583502246003
-0,0488459418871688
-0,0262803529113915
-0,0154087675412205
0,00316933874080506
-0,0210851162159762
-0,0285129767162428
-0,0234525886002965
0,00630031528713957
0,00587635172477291
0,00541351372070002
-0,0124843731890718
-0,00912529323445796
-0,00608089851800093
-0,0103124934376595
-0,00258582599238107
-0,00266800850245814
-0,00372445878577878
-0,00306399686870351
0,00984316950656621
-0,00754235079397557
0,00794399324231686
0,00593823939637982
-0,00228818552473279
-0,00127506500380918
-0,0301395980780438
-0,0308603247438607
-0,0394947981428024
-0,0285440372610029
-0,0340509598609332
-0,0138433915589341
0,0174869336048618
0,0161714085025356
-0,00967717851806911
0,0280560616349939
0,0177319171575883
-0,00507473674296242
0,00201432700479764
0,00575487745043543
-0,00500270675435523
-0,005891135771877
0,0203187281303578
0,0143277531142234
0,00809489250393955
-0,00357167148219255
-0,00764840125730542
0,00413131739670938
-0,00121476326660009
-0,00298844548547102
0,00398975628148287
-0,0003473278225718
0,00193799469754596
-0,0146412210740052
-0,00749309859425104
-0,0251843056435654
-0,0266970503866647
-0,0385426474378232
-0,036411267634018
-0,0205108383914699
-0,0165733934371014
-0,0292135335443146
-0,0610500129664229
-0,0226165094039298
-0,0153044941432079
-0,0226897172892258
-0,0281825608129502
-0,00585160521875222
-0,00932676512591453
-0,0129368574267273
-0,00232685909489406
-0,0051313602607972
0,00475013946371331
0,00998353752358497
0,00835734899079304
0,00164660077153081
-0,00542162947143504
0,00989691814402906
0,00859648290024906
0,00817746912975678
0,0042080482033707
-3,58634750854328E-05
-0,00906379054139427
-0,00972495528464065
0,00223037956935976
0,00575837846162012
-0,00597643561513325
0,00254651911899482
-0,00391728500476489
-0,00654210668521307
-0,01764389806216
-0,00982515970598832
0,00618903618629867
-0,00546350702960335
-0,00241673186665241
0,000592550117812754
-0,00811348721146014
-0,00137480116269621
-0,00533375575921782
-0,00295027415508404
-0,0069560484667104
0,00609058233727263
-0,00300227843830468
-0,00918128472714745
0,00766943736824647
-0,00146328242098134
0,00481599139739573
0,00354917930138725
-0,00704929966342137
-0,00536019772075126
-0,00979940043752985
0,00518363436459733
0,0016527796777211
-0,00358747281766845
0,00202915762179958
-0,00894477565723694
0,00171474954164456
-0,00891657367572762
0,00119192079232586
0,00290552031384183
-0,00935965106792732
-0,000791632854748347
0,00687598701420985
-0,00923743170650556
-0,00344058148257461
-0,00623513048339408
-0,00367916254963687
-0,00273788114671497
-0,00526491251553638
-0,00670842966842858
-0,00106374425397429
0,00372160550845862
0,00180603603450862
0,000944231949254979
0,00513351759646717
0,00812120055692326
-0,00700896142559946
-0,00917980629902499
-0,00396613117142207
-0,00340247475625261
-0,0090181312933723
0,00239483326836193
9,41147832521228E-05
-0,00770519413583644
-0,00743000366981116
-0,00602705944136676
0,00570259239340013
0,0106501939395408
0,0113892967017805
0,0060316702417282
-0,0075490502766406
-0,00993462638993408
0,00873448710532335
0,00460939985933652
-0,00329181846354034
0,00365857403220447
0,00921459532306278
-0,00376484673179912
0,00425929675542717
0,00390456785164055
-0,00778411987134447
-0,00244612745588931
-0,00118706160040225
0,00954935642242587
0,00565026157102012
-0,00354906443528628
-0,00729615523635195
-0,0115394560354379
-0,00492537408984936
-0,00699080409549915
-0,00375051043915453
-0,0153218392637028
-0,00643248100841869
-0,0100345245461443
-0,00637717497192127
0,00135927828804983
0,00853048948377776
-0,00439797089682084
-0,00706109020943058
-0,0210971219464118
-0,00820518103714644
-0,0037441714119754
-0,00303513432648907
-0,00180350728374711
-0,0107631728077746
-0,00233615176015059
0,00405770418888782
0,00662071352667208
-0,00606767006966643
-0,00870206679157078
0,00901239011405892
0,00649109707623877
-0,0024486832770238
0,00776783311223849
-0,000941908339751899
0,0118942436832287
-0,00707791898414007
-0,0188100510150271
-0,0332974466479423
-0,0234831414080291
-0,0119747664168835
-0,0117719873241547
-0,016749896741942
0,0167259615392222
0,0192747336990406
0,000722881182303327
-0,0133597560909902
0,000877491430252625
0,0052883053032688
-0,00178937696978815
-0,0124174491696055
-0,016183434167803
-0,00775066873654382
0,0026844909806754
-0,00756470686691973
-0,00138528325193808
0,00584641965844036
0,00827581363947488
0,00995412231087782
-0,000573907601907121
0,00588191887006125
0,00613981187922794
0,0186391337515346
0,00624026488082849
0,00929079760131835
-0,0376801279741389
-0,0395421874094388
-0,0528431112286422
-0,0448468814852443
-0,00738810021061745
-0,0253196322209837
-0,00947274384795679
-0,0491674755263909
-0,0615384144609087
-0,0226869231832196
-0,0105563703619513
-0,0202467106311578
-0,0273879234327547
-0,0222315118658315
-0,01761314635562
-0,0188634114726826
0,00230674950496116
0,000634366336394791
-0,00546689236360316
-0,00457638759844768
0,00182710354767139
-0,00476615039298253
0,00813647062642098
0,00935478396302081
0,0406139714976409
0,0439913112315532
0,0217169765427557
0,00271018654278663
-0,0292810743778732
-0,0274534589284951
-0,0581995675720978
-0,0816630069890005
-0,0645937264961293
-0,0704710043890636
-0,0480642222362726
-0,110332058300592
-0,150351524832379
-0,07059381251405
-0,0904001964425548
-0,0904713930587916
-0,0594840941630587
-0,0368771062942236
0,00250818555110133
0,0122225050406684
-0,0130861533439293
0,00595267793003402
-0,00365911995390483
-0,00613498087792424
0,00163360553200128
-0,00287093465096249
0,0223510919603292
0,0344447146877562
0,0510546712525506
0,0654557942737936
0,0401382946586427
0,0264600599219306
0,0167296250156869
0,0524024150920338
0,0127214118551238
-0,0107413770900437
0,00748317026256949
-0,0114301554527079
-0,0762792196550127
-0,0412132217164509
-0,0733370194298807
-0,0267597099585175
-0,0648833966593714
-0,0362888908840105
-0,0173055092713917
-0,017728952981255
0,00091936034711246
-0,0162352277035372
-0,0141922788077041
-0,00200114439460128
0,00695628034884493
-0,00215245378535959
-0,000917678336983003
0,00640880227067331
0,0158447753731833
0,0438445855374084
0,0607034862360002
0,06680410938887
0,0497061115091469
0,0335184208694198
0,0521023750219314
0,0770565221584531
0,0913814300269795
0,137874735513093
0,0575676856829222
0,0765842160522351
-0,0169906838233596
-0,0244329794092923
-0,0250972389525112
-0,0751003591387617
-0,0176939857476695
0,0489890394818603
-0,0267921443835257
0,0111620423589712
0,00342269260936574
-0,0483381197302311
-0,0191401021395829
-0,00941184816468346
-0,00550797101751888
0,0012412538463186
0,000195656271817542
0,00548174277324772
0,0285605553801817
0,0629300967593049
0,0719130753956974
0,0753961394816064
0,0679627140351271
0,0604370903173376
0,0444385827415743
0,0657137210482486
0,0798210821751178
0,101409835540323
0,0393105947215601
0,0159727751789441
0,0190338136544885
-0,00825270136266497
0,0291325308523802
-0,0031105957899101
-0,0241919692842447
-0,00206542210273714
-0,01005863017699
0,0277051106613944
-0,0450351394293447
-0,0585064273800327
-0,0291120237410707
-0,0117124996567902
-0,00503837768812528
0,00931013303070185
-0,00632771551738104
0,0119932363156614
0,0269519118048489
0,0641519146156446
0,101930602882114
0,0689798923756249
0,0625866782596747
0,0325272169196806
0,0158835092295257
0,0195888952211308
0,0587045869023148
0,0269125733740344
-0,0178331512444645
0,0331484942093809
0,0766098825200833
0,0785171388228117
0,0601766122491341
0,0519529908752199
0,0147912150351651
-0,00902626874336738
0,0380452953594955
0,0491513684693481
-0,0505236636216713
-0,0555308732731058
-0,0195223614066113
-0,00605343886986071
-0,000704160377665458
-0,0090377646533604
-0,00177752362765941
0,0245118972694658
0,0496789055239429
0,045397032153449
0,0642422024992251
0,0494353921625882
0,042089345938798
0,000251763546206997
-0,0639403509974562
-0,0109136810255845
-0,0319250280557219
-0,0525696749903695
0,085487021517954
0,0922548625204914
0,137213175675229
0,165668451993109
0,15803875641073
0,109302242595503
0,0728471122048683
0,0496841518502071
0,0663121445759435
0,0417138191580684
-0,0487812699220647
-0,0333626765358146
0,0113289816787873
0,00521063313613182
-0,00469799093792636
-0,00395319283301033
-0,00286261093558969
0,0203179622622546
0,0486427920089587
0,060134348783517
0,00583339347926981
-0,0113137189623676
0,00671059384336185
-0,0605987901741991
-0,0917604679084104
-0,0460064730113183
-0,00805846518870003
0,029132754511084
0,136167979191607
0,106651774716237
0,169077612609837
0,13414347003083
0,176167075641104
0,151306078832037
0,0448858164561796
0,0464826947181604
0,0497711312590286
0,0481570259346199
-0,0241692391375155
-0,0295193496295571
0,00195308316379297
-0,00637090424956374
-0,000342167969657672
0,00147979217147323
0,00394948154754246
0,017016683062829
0,0301237221149061
0,0454888957353272
-0,00595100056364251
-0,0378672055926522
-0,0193723092041923
-0,055953106064826
-0,0776065454574644
-0,0858410769747955
-0,0658505145111705
0,0230731335055854
0,00358945147735734
0,0780830954481828
0,0861216686749716
0,0945986059666916
0,122865373433913
0,106516965520368
-0,00860937083493616
0,0114199832688977
-0,00268831548863721
0,0451254690718042
-0,0135423497729063
-0,0349345484452694
0,00316692452079061
0,00424201276415927
0,0114734908580026
-0,00290270169096819
0,00750388948620033
0,0185882209559287
0,00900670748642826
0,0221165586113279
0,00313450590939068
-0,0243419112535501
-0,0921365461769581
-0,108799152166115
-0,175620506929831
-0,208402298333644
-0,170950052468749
-0,154310955290264
-0,178058513199006
-0,0444711778820048
-0,0161283272731815
0,0485929945146596
0,100701680872567
0,0603263572871645
-0,0340163558097119
-0,0102887680982148
0,0153240920938535
0,0129343551289498
0,0134787322541121
0,0068036877193178
0,00254399616354141
0,00937508420167335
0,00128505296557754
0,00639975858114213
0,000739147520454263
0,00169490005408658
0,014746773152385
-0,00541520576628353
-0,0115783938153497
-0,0369810102384675
-0,098092021770582
-0,124619446015825
-0,166567528136867
-0,170670693706543
-0,206689813965876
-0,192820773959795
-0,212508875336898
-0,0633323108939372
-0,0127818659866556
0,0346365364831662
0,0428317156099609
0,0440838416693826
0,0546747141596383
0,0299775259128928
0,0440894557618706
0,0584675858266232
0,0625777718821186
0,023017232371552
-0,00469920438471924
-0,000459726092625857
-0,00865363541593167
0,00455245760388827
0,012617570973104
0,00897609625966164
-0,00157510037793089
-0,013621927817351
0,0238092775348467
0,00553068569915084
-0,0329389552713579
-0,0645148093277463
-0,122250867478364
-0,121797993246222
-0,141956448671799
-0,192417125627743
-0,125860301459916
-0,0146550741646853
0,0217808814583479
-0,00630029066656555
0,00168731275421953
0,0165550033641907
0,0648072409698806
0,0916711259938579
0,090421551276169
0,0662710859414696
0,0558113231671157
0,0133883026213415
-0,020721360295947
-0,00137535210816036
-0,0013478078677385
0,00235710774899968
0,00672647709804247
0,00513675918608249
0,00058170617293142
0,0373065635149361
0,0039213604376654
-0,0155018189789346
0,00323695309739862
-0,0547372671122593
-0,110199122786391
-0,16965723297249
-0,214436945632611
-0,193654030818736
-0,088190535219033
0,0342649405297101
-0,00557673891822949
-0,0351276318212049
-0,0751592366129937
0,00687769597796223
0,0458008367305077
0,091692192489691
0,0613292989358384
0,045061058790366
0,0308386012290884
0,024998569265841
-0,0175235020145142
-0,0023659643615389
0,00560765383076784
0,003981522216453
-0,00922926073774354
0,00516769206003215
-0,00160711100675417
0,0249195056095861
-0,0006822109634752
-0,0379063825864472
-0,0161273051896889
-0,0404893817968356
-0,0836521563143295
-0,135150096727707
-0,190233704385363
-0,0919633658066128
0,0093947296217883
0,116631055263925
0,0520033106319123
-0,0307285061579028
0,007617805991619
0,0460150075113791
0,0697736110425559
0,0763901305590401
0,0485310595315269
0,021489795369428
0,00543650175819059
0,000975093457740231
-0,0257229016455471
-0,00787117301663426
0,00890891902043739
0,00645184145271172
0,00470164703047421
0,0110911323383949
0,0124038932201287
0,0292727083186831
-0,02845581787253
-0,0744952120245116
-0,0784804465591157
-0,0343841140036998
-0,0207063983230169
-0,085323100271081
-0,059698458571894
-0,0309917646068585
0,02336473822024
0,128828861593821
0,0932120926949015
0,0157823626285793
0,0413903981259254
0,077318263407705
0,0570729587715528
0,0252512578025764
0,0241928560601246
-0,00444002003642932
-0,0380677512800289
-0,039503280702271
-0,00619472766475032
-0,00569416161682506
0,00619929733628021
0,00557697011177529
-0,00636579346480956
-0,00344235230174288
0,0281273990265481
0,0358649071563315
0,00498515970175713
-0,0585061876812254
-0,032430848289304
-0,00647693976463576
0,00975842202579964
-0,0376706944036695
-0,0310720461705877
0,0437329129132444
0,125411368337514
0,102289520165779
0,0520310627358428
0,0324431870493164
0,0171601683839682
0,0319522506265242
0,0230164283643521
-0,0552548749428083
-0,042226032596586
-0,0471036191621912
-0,0260189623312765
-0,00884834771837715
-0,0174348291593566
0,0071267949289183
0,00985723983595666
-0,00275449158286419
0,00610010904950965
-0,00343986308138853
0,0162183345693175
0,0160158550838458
0,00250934948426495
0,00528712147844592
-0,00187965980276856
0,0414210166389354
0,00936395772706201
-0,0385399829644361
-0,016823368151094
0,0621777206226526
0,0789607099285783
0,0552079579062107
-0,0416234667838504
0,0539124686324626
0,0604675024455689
0,04142957313717
0,0156710880397101
-0,0737481802928757
-0,0707234736049738
-0,048745371126591
-0,0103944576501338
0,00140641966523423
-0,00317260921843911
0,000519682382290348
0,00978289263877026
0,0045655497945159
-0,000803991929639678
-0,00655783903861447
0,00711274877458276
0,01826569383111
0,0216643843355181
0,0213389379485682
0,0117482462835274
0,0218208455722457
-0,053679053163632
0,0116863287003186
-0,0146129787333917
-0,0224713615266076
-0,0359544723986592
-0,0268194220367719
-0,0154896777824746
0,034273483717689
0,0252319036097487
0,0504080438308712
-0,0107925690921873
-0,0579657166965471
-0,0597866652551198
-0,0557599280975573
-0,038011442598961
0,0082777561553256
-0,00077484065649239
0,00172894795645881
-0,00399435721624629
0,00258909681222214
-0,00190807389817834
-0,00848175550106176
0,00371875462057989
0,0144131849443043
0,0561846740225643
0,0529757961617955
0,00841486406542457
-0,0297938700847193
-0,0447762103908246
-0,0612280172731503
-0,0780452006643198
-0,091451812300439
-0,073478525497947
-0,0305660381091098
-0,0200633042598656
-0,00399800457651613
0,0279379260270579
0,0194793125951264
-0,00810503401253695
-0,0255466013665123
-0,043292700085253
-0,0457730710546713
-0,0287269276203576
-0,00650547732256244
-0,0123581019884867
-0,00172316909870938
-0,000846890208704621
0,00391406445480607
0,00471699804752925
0,00665331949843413
0,00497267126936081
0,0383861972802103
0,07394793490512
0,0994960980762245
0,0560119731512402
-0,054182309435169
-0,058185672168926
-0,0473199903834448
-0,0566560728027124
-0,0433363500864131
-0,0514141950372625
-0,0845127322377489
-0,0401215333617146
-0,0297670967001338
0,0369290770271716
-0,0159639081832071
-0,0447466384004296
-0,043024665267005
-0,0392283503387509
-0,0539585682977817
-0,0273036643726542
-0,00384006643025891
0,00295968843615302
0,00424222132852921
-0,00885145861601991
0,00744813350841782
0,00577338042472181
-0,00740299909566114
0,00483004028502092
0,0192452967262368
0,0635597362417708
0,084002560339189
0,0619680583952839
0,0152414305345304
0,00481571491303883
0,0147454638362929
-0,0107868081308925
-0,0268117880578189
-0,0274875992033135
-0,0219139072839594
-0,0287171881877288
-0,0211850089688725
0,0232072259271487
-0,0569295547310161
-0,0756039499107445
-0,0660749009303242
-0,0079252181801599
-0,0240050487835409
-0,0216853965735028
-0,00124808593904048
-0,00243222843810804
0,00175383707950345
0,00417082838442681
0,00398736284765758
-0,00756478721162527
-0,00989862115798141
-0,00662461756851201
0,022688107825028
0,0328623311005809
0,0138723737404086
0,0255664184422509
0,0538328653906175
0,0588147151445771
0,0316135636384107
0,0267254966320842
0,0525251303898669
0,0284719366020211
-0,0103735736343181
0,0144076125776856
0,0308532725484561
-9,02605260631209E-05
-0,00146629165973316
-0,0196545528583371
-0,0380598156893816
-0,0162412863269774
0,012852029369702
-0,00392843855200115
0,0022664116117789
0,00803222921404448
-0,00954476469182848
0,00828941306950963
0,00277343363164618
-0,000253514978221393
0,0016603922153173
0,00169966922364187
0,00617705677470172
-0,00895877099395574
-0,0042608447629054
0,00325820812306041
-0,00962860541382382
-0,00760101676891344
-0,0266387380769615
-0,0388445148504864
-0,0365949543619843
-0,0179381718414032
-0,00116061749760142
0,0304825543193121
0,0210009549732878
0,0274886758926328
0,0118815554389056
0,00406638625502264
-0,0181215889511883
-0,0136296181921621
0,00683269307909848
-0,00574798554606611
0,00182062793420231
0,00622911322707503
-0,00164597650600876
0,000382550363607031
-0,00596236680446303
-0,0019701349325339
0,00216720635637977
0,00508237022677547
0,00470651679597341
0,000194632454275867
0,00345124596260762
0,00972718736848675
0,00231690537525556
0,00744086274294716
-0,00293721878296022
-0,0104056252860819
-0,00590014287593458
0,00503745841449149
0,00602399504637771
-0,00450247933490543
0,00150630561422
0,0103692677725437
-0,00718466529490113
0,00886366849807785
0,00382618831842172
-0,00100799174724571
0,00379352757807981
0,00457736896159143
-0,00270568952556033
-0,00646896594039582
-0,000167369595806752
-0,000902492315928682
0,00692236042438185
-0,00414355725708583
0,00992282039482278
-0,00792038682751376
0,00252439970733803
-0,00748176430234768
0,00430777819562134
0,00512974275049276
-0,00830774491574045
-0,000723602180706152
-0,00122741802187051
-0,00649969678209149
0,00473878974664231
-0,000688457779680837
-0,00902544276138627
-0,0024280278098553
0,00227082316403781
-0,00219089331673034
-0,0040319951782152
0,00610025628288288
-0,00248848707996704
-0,0021464338582691
-0,008843115679381
0,0066314298643877
0,00441796864122989
0,000417304248743366
0,00498416229848944
0,00807853964067928
-0,00898092853789261
0,0094602887609323
-0,0022119402476642
0,00116232308147583
-0,00970157818087122
-0,0058201199963722
-0,00632755653751934
-0,00156121755760787
0,0114423563160992
-0,00525182364621522
0,00112090471412046
-0,000369205443133227
0,0102811070215408
-0,00622963232410647
-0,00660632226325189
0,00671718098624508
-0,00250773801016443
0,00941115602644218
-0,00625029172178001
-0,00324811281181515
-0,00478512090909674
0,00953289189536144
-0,00930079846709124
0,00980790880480048
0,00756302923781938
0,00373237412131036
-0,00841400523596164
-0,000931205717349054
-0,00530044157770483
-0,00670860946956492
-0,00233828631243394
-0,00789005035154749
-0,00245073966029982
0,00624155780365032
0,00513510362872668
-0,00395160419637228
-0,00426569146059498
0,00675095127485217
-0,00525284984497154
0,00284844098263539
0,00438333755239288
0,0194931468194135
0,0104723745034295
0,00931193188230233
0,0181556834297727
0,0159380240851948
0,0144380839306762
0,00231923451076719
-0,00256369618248246
-0,00260521228541395
0,00143557233324926
0,00681367900201591
-0,00304077206693037
-0,00148584058804336
0,00310642514988148
-0,00841923237704636
0,00902419432952264
-0,00169714403883421
0,00359802534042454
-0,003449889602216
-0,00736017110470967
0,00270982405762082
-0,00711707270544549
0,0128358176018399
0,019359592563154
-0,00443392920115121
-0,0143469090254991
-0,0111248570207753
0,0181146088249487
0,0282176668551809
0,0430102041481199
0,0324433320167923
0,0323618934824432
0,0155270421668466
0,0208391805488422
0,0182238175450538
0,0131213800079178
0,00496076354218456
-0,00854385976187425
-0,0116767378962445
0,00685992511100573
0,00512766887292813
-0,0054438893641343
0,00891334143416646
0,00306957723250127
0,00155210415088873
0,00501740089253941
0,00953873603092638
-0,0044596947416444
0,00467144672448468
-0,00199283266990193
0,00942905062502103
-0,012251948102569
-0,0115153352793582
-0,00865914242866934
0,00287611529765658
-0,0216758411612299
-0,0413245510619697
-0,058648810039901
-0,014930043412526
-0,0101550972566963
0,00530648437747847
0,0293753370420369
-0,00109552330181096
-0,00629798890462844
0,0086150338051123
0,0102953559507932
0,0163463259907508
0,00624350687260767
-0,00403464487683536
0,00225551821199251
-0,00297805552230484
-0,00378215755977768
0,00359560125209186
0,000881850905567595
-0,00233781295267876
-0,00247500348864395
0,00440967210641533
-0,00276085722432324
-0,00713723119237102
0,00829964694954541
-0,00492587286683078
0,0295120448530462
0,0204717123083826
0,00453471964275268
0,0138968266857777
-0,0351457177095998
0,000843561962255549
-0,0343284077275876
-0,0244869039337715
0,0211931442936683
0,0284073159473034
0,0130913293043524
0,0184694888196047
0,0225646418038895
0,0319033938378502
0,0176338350366072
-0,00700148382093615
-0,00185845088148577
0,00171918714381635
0,00054505271396835
-0,00916951604741072
0,00130820986605082
0,0128226324772353
-0,010343869945683
0,00861541007296685
0,00283698945079012
0,0148046019105834
0,033243047380389
0,0202938082576828
0,0517064027142938
0,0459782282936512
0,0355514085850148
0,0297106887774159
0,0703481742057367
0,0178302747300594
0,0205713339818655
-0,0397238539981348
-0,0223894397929469
-0,0429459656946616
-0,0295700267361639
-0,0127066317374441
-0,0144174444771863
-0,0286105747918989
0,00318284554386891
0,0137079733062602
0,000302832326961361
0,00290471524113681
0,000277646902322754
0,00151987323820072
3,9908016760888E-05
-0,00251077541268027
-0,00333958074379413
-0,0100433856125292
0,0349785299379546
0,0307105297595435
0,021943095276923
0,0495013308492625
0,0767123173259354
0,104309878759217
0,126318563513498
0,0917563715813401
0,063885891262257
-0,0219656444799267
-0,0736955245859802
-0,0862060797268885
-0,0773007216155566
-0,068888314018245
-0,0296841205678401
-0,04512904098341
-0,0934007033847697
-0,0685419787114539
-0,0155631265269946
0,00457010811856629
0,00600266942346582
-0,00183333940660624
0,00164388710882659
-0,00292290617185306
-4,18781319766796E-05
-0,0137745695248931
-0,0137652957735758
-0,00843653921630577
-0,00265967139080964
-0,00713525127355207
0,0460948987774428
0,053172442495636
0,0729345097293752
0,155785175561387
0,138843626091102
0,0187883370908679
-0,0161754753793735
-0,0614073543496603
-0,0633033093546779
-0,07829877997607
-0,0692656015960642
-0,115049483840039
-0,0715340052621316
-0,0740899920907747
-0,123617582688535
-0,0930131397254394
-0,0233231277931798
-0,00248114417297959
0,00431885335860738
-0,00883982576779105
-0,000464040006784829
-0,00793605078666929
0,00358862149259012
0,00979275500911248
0,00622390632288727
0,00513440536209974
0,0325039865190827
0,0494713329917311
0,075055218482979
0,0918191998399022
0,18477022611927
0,256062826892508
0,123885078875262
-0,020495764742531
-0,0251001375194294
-0,0693260279437165
-0,0645204343850831
-0,0499531568767457
-0,0846280059497237
-0,158468050685685
-0,135359074250994
-0,110200966679177
-0,0971424242734054
-0,0859972892422501
-0,0109912142668187
0,00578413917222476
0,0108397923759612
-0,000319402032807646
-0,00518620460791936
-0,00417731725194324
-0,00550581375635196
0,027331352030528
0,0106692617025397
0,0350443798519277
0,0687843131153991
0,0491228918923772
0,0912256371431132
0,143780871669307
0,146968015739092
0,108368490224135
-0,0440924049596419
-0,078025917527615
-0,143033563683215
-0,122729760895469
-0,0209851750857403
0,01273961898511
-0,0853187565667961
-0,143218759228312
-0,0566218637328742
-0,0307684320367004
-0,0649117641047349
-0,0650286908960384
-0,00324391003640138
0,00143548791948882
0,0106539595535382
-0,00334800034197194
-0,00767057080884351
-0,00834054598557188
-0,00217105587103849
0,00706796958304199
0,0332166065723048
0,0342719312279385
0,0669294389090069
0,0512895885229823
0,0718897618189459
0,0790741118532397
0,0658269055434854
-0,024533840401264
-0,124172085231771
-0,128314468690669
-0,159528123609943
-0,0791745648374552
0,0622342299767035
0,0977425966334187
-0,000888702621563708
-0,0528167289176233
0,0300898627756134
0,0317418946100294
0,0149497518554034
0,00418976958056227
-0,00709536259659725
-0,00859810355044173
0,00898759169177501
-0,00355933414206605
-0,00555965801092262
0,00993987703019368
0,00994617614768974
0,0149534314000353
0,0593359662889481
0,062812432016391
0,0671565400261496
0,0430070578534697
0,0453562127452246
0,0526591961279752
0,0469656709612517
-0,0899705980745523
-0,167831791485961
-0,116216309985166
-0,0507324395898519
-0,0459639076792884
-0,00688278979360087
0,012641242042723
0,001375948698648
0,0189127440981447
0,0909398581720809
0,038220825159551
0,0581536502527959
0,0536164742076914
-0,00351621284625016
-0,0106183113524182
0,00197112417971694
-0,00755240444136169
-0,00904839249537774
-0,00946019662174714
0,00952486786624294
0,00103257246383285
0,0852190781931104
0,0572579890667496
0,0231898543648982
0,0272930328730827
-0,0228080248333905
-0,0128410565169951
-0,0122455280723246
-0,137433533252974
-0,125002555991932
-0,0827166653092225
-0,0523299697340633
-0,106248472877329
-0,0556316115038169
-0,0403480149867265
-0,0509599513398481
0,0122978545646172
0,060512892603279
0,0550221036280879
0,0501258180423295
0,0486652143286435
0,0146689953985458
-0,0190594858903761
-0,00674112824596512
-0,00326127213027837
0,00955364765124638
0,000516960560397061
-0,00374212808263023
0,0153367656730122
0,0313412316542585
0,00340525087002178
-0,00835952627601
0,0173169918319475
0,0256693140923465
-0,0080478840745549
-0,0279181060788659
-0,1489573491035
-0,116110101608903
-0,10398805448857
-0,0812481622932427
-0,0761555114318856
-0,04991574975517
-0,07114887280286
-0,0220411872341065
-0,0209261677648152
0,0838178521090202
0,0743050173977719
0,0658130473464888
0,0603432188218276
0,0353606001424462
-0,00597834950086776
-0,00320679586761394
0,00155089345113832
0,00434289049773895
-0,00285023456987503
0,00163894293670685
0,000558641226899256
0,00724074166513096
-0,000199754168434653
0,00204358239955236
0,0275803760302985
0,0172328966747983
0,00157496865918304
0,00711368500796577
-0,0807078638646339
-0,103421932161844
-0,110525786696543
-0,0908586039001781
-0,0469625410048876
-0,0981184788798035
-0,0427457852418906
-0,00668008566795734
0,0344828587339089
0,0734958393323874
0,10146971329642
0,0485106574981926
0,0395957820203415
0,0140072163168059
-0,0159952104425125
-0,0149854827785489
0,0042699268386916
0,00310097689074549
0,00663459279796007
-0,00563400364998979
0,00366080358103298
-0,00356919361415443
-0,0128067626906735
-0,0463514839759986
-0,0300200196463424
0,0185788971207815
-0,00299323884241294
0,00681238423356631
-0,00488399388159267
-0,0259496762858219
-0,065722727989585
-0,0906321648106965
-0,12158368864401
-0,138217962610959
-0,0631293652915536
-0,00325164775980016
0,0388715745751637
0,023412222738579
0,0154875420734878
0,0501554195643742
0,0429299479565632
0,0170663423766856
-0,018103686160035
-0,00668237929696035
0,00377133438938427
0,00136928495549098
-0,00346043866582822
-0,00173455535344432
-0,00702632978886582
-0,0354315075616711
-0,0327821251109516
-0,0546735320199822
-0,0452177129890835
-0,0045734506987776
-0,0137923672351694
0,03755704704224
0,0195424946385899
0,0412289137498904
-0,0568972782712371
-0,161201001760558
-0,14711804634625
-0,12696690767409
-0,00938256607933859
0,0402365782451293
0,0747221427349113
-0,00656657553188271
0,0027670784499881
0,0315878161458939
0,0252121762243017
0,0012113296558114
-0,0116775771614772
0,00305724975946586
-0,00207621415264959
0,00398116912101985
0,00358681668840696
-0,00325678719795624
-0,00341928903844153
-0,0252882464666885
-0,0736451014777008
-0,0597052839083614
-0,0516777948937952
-0,0166859537151822
-0,00648180506581137
0,0348205198099827
0,0443455220164595
-0,0606733579835957
-0,222733420774762
-0,26783940684694
-0,131473971169269
-0,0239346180042722
0,061368139818363
0,0570700017821162
0,0546269941275219
0,0345174746504448
0,0444064263865975
0,0447966975014742
-0,0142026721988077
-0,0237810974852709
-0,0193075472205002
-0,00955424154110674
0,00701047163701432
0,00387516802460153
0,00346726973029999
0,00376993790895272
0,0140217592262521
0,00396632406743457
-0,0590447738586991
-0,093120657481912
-0,0666632323899391
-0,0221165018677364
-0,0321307847932009
-0,056462329227309
-0,0355239867084252
-0,131323048378984
-0,275127238782282
-0,23724096236592
-0,0408732959423835
0,0865434807914303
0,0927279391739593
0,0849719917375699
0,0679744200968889
0,0327108791368341
0,0403211168213861
0,0304335198592158
-0,0197396677871947
-0,00865059410667049
-0,00296267310165496
-0,00689952426366203
0,00865168260202222
0,00878814230616584
-0,0026542842823164
0,00289991508829848
0,0183766195958625
-0,00955751182047717
-0,0249142670358819
-0,0933951748032247
-0,0889009523906375
-0,0416391153515507
-0,0376326034094989
-0,0871175164726504
-0,0910851456230591
-0,160548704660682
-0,169309857112276
-0,102778821181195
0,0469886105567051
0,165215889625454
0,120257711822248
0,0614635690411626
0,0760529300239934
0,0409339998826593
0,00651228247264623
0,020173930280377
0,0170499996375667
0,00590733813854557
0,00549879042879067
0,000916386304902101
-0,00593349803692432
0,00589022898873515
-0,0069537578007833
-0,00701961107143108
0,00922164568716639
-0,00295513831965358
-0,0183468236457912
-0,059840475822967
-0,0636408381317764
-0,0664399650724949
-0,105846748977152
-0,0489871561721888
-0,0517834824220634
-0,0315479999893672
-0,0559596580215849
-0,0149243710392408
0,0682229767728703
0,143355597081384
0,0284656207505049
0,0394330995896719
0,0471402764474889
0,0534048369330081
0,0157869511994006
0,0158611557716212
-0,00234278968506093
0,0282734770604738
0,011168007869901
0,008875202121597
-0,00886583566139057
-0,00613465619017504
0,00669079909421166
0,00217512429525755
-0,00015230016564573
-0,00496458813564487
-0,0222835299976518
-0,0464385287212483
-0,063727535642821
-0,0833514642861013
-0,107397862045245
-0,0451250670562781
-0,00251445991396618
0,0203203317048958
0,0347849235831941
0,0413041852231211
0,045982366797477
0,0740901040883021
0,0600763270036913
0,0686737142827462
0,0145008617227752
0,00968561666673729
-0,0167320822526235
0,0219088762225993
0,0251066903212765
0,00154808070815712
0,00493293986870792
0,00117082795100338
-0,00650810965015988
-0,00644560902213939
-0,00958138654920337
0,0101986356083138
-0,00104368712254219
0,00991324095791411
0,00411578943873026
0,00361647716585187
-0,0459948721376763
-0,0605397217903105
-0,0714446172103357
-0,0238221180716437
-0,000425148905884395
-0,00227246835458498
0,0214802330711919
0,064934483219725
0,0530842882233491
0,0259404746292927
0,0392964156620101
0,0157170874927549
-0,00275034100941272
-0,0243749711953832
0,00609981723888213
0,0086207566324055
0,0238033250381139
0,00575389881531679
0,00841726208291669
0,00438338441086735
-0,00204071849213947
0,00774581191025014
-0,00147151390624769
-0,00556277604799205
0,00803581044859512
0,00999903113376417
0,0324395531645677
0,0448213206874928
0,0297321591585098
0,00176031233684985
-0,00710642856899426
0,0251816756054829
-0,00513630710399276
-0,0102614706448988
0,0247521352732138
0,0278643542856382
0,0327311969275626
0,0605684465718398
0,113179236532146
0,0344326891889195
0,000703702356458999
0,0138729213513265
0,0362743035138392
0,0258357596514172
0,0247596769843258
0,01062918858636
0,000781697078342259
0,00369826973497017
-0,00430196984405721
0,0081233419934862
4,69166832263185E-05
-0,00572039771503663
0,00973170562797426
0,00424968326747609
0,00504529139153051
0,00809848745243705
0,00823987455555054
0,0266365044436165
0,0236694583245934
0,0111253557541218
0,0503851469016845
0,0589438601471796
0,0372770107354893
0,0289533181530579
0,0131318106335007
0,0723312688338421
0,0675056392212641
0,0689789806332159
0,0588509970287551
0,0384648754069742
0,038080473676488
0,0158630801562078
0,00808392756238369
0,000137238452516682
0,00418570748440018
0,00465867064207554
0,00176755290095115
-0,00430328773069349
0,00459732722239444
0,00780792109566178
0,0065266012726339
-0,00462197131760281
0,00624291590546722
-0,000645793778233962
0,0074752817474793
0,00539125491158959
0,0267110124173928
0,0170920132890779
0,0360726387110123
0,0425691854105168
0,0524532191845202
0,0639268431902306
0,0663166475794234
0,0775834934265802
0,0793823916851156
0,0598825602750737
0,0452907441995055
0,0430118336289705
0,0302015462399525
0,0111988102206262
-0,00889996281293519
-0,00708189344584817
-0,00452786714304157
0,0091646737787708
-0,00519122045263239
-0,00556954916360301
-0,00709327412633843
0,00547209210482989
0,00417811406505206
0,00103231586811241
0,00511319328830368
0,00647595710018905
0,006039542177435
0,00404069999082915
-0,00212579028106353
-0,0013126788346009
0,00472932426593419
0,0082437768279551
0,0100747849002204
0,0025449738769321
0,0148534127589691
0,00961939135568833
0,0103397625385452
0,0122273349473342
0,0117886536263363
0,00472010873005704
0,00342534429932596
-0,00130015838314093
-0,00542435518096876
-0,00597050727157412
-0,00531009456855715
0,00645339681601776
0,00428721213447266
-0,00639568392950841
0,00760445849858432
0,00384587114390259
0,00926485315862338
0,00478226632568159
-0,00987790661858297
-0,00217564900972678
-0,00609376526255802
-0,00689718087059314
-0,00103961217731219
-0,00510876716818137
0,00725692006631611
0,00339064083674621
-0,00411976624591377
-0,00814688505671932
-0,00148621858212016
0,000717994855119843
0,00708836937187629
0,0053478423763755
0,006904854987238
-0,00319981294367454
0,001403060476949
-0,0038699028239911
-0,00408090171128553
-0,00160180130582387
-0,00786469823581385
0,00161193821188618
0,00298021697112369
0,00748765085706843
0,000851435787440947
0,000148621336626178
-0,00366343684199426
0,00863132620547422
-0,00816454815824222
0,000641003840394788
0,00467038205070753
0,00345908177520091
-0,00111514067302335
0,00939108396716169
0,00577323401024174
0,000551825181238009
-0,00927790231154237
0,00630026896203007
-0,00544704438905158
0,00172855037380991
0,00961898555010197
-0,0063951761654714
-0,00264294197098171
-0,000403617273414143
0,00688081809177918
0,00391721330944194
-0,00305045649322743
-0,000657936944932647
0,00954854182877976
-0,0025129749218528
0,00220125559354259
0,00147436132257542
-0,00207322714481187
0,000866883023275865
0,00259464961827386
-0,0015111486859534
0,00486331516105608
-0,00335321426389832
0,00262925316407099
0,0097131287273935
0,0104201501001127
0,00982194952122002
0,0042201781630349
0,00801228692051737
-0,000419497771263611
0,00697943886863218
-0,00585221108068396
0,0116677483307053
0,012585955634972
0,00087809567580906
2,61948231040257E-05
0,00798462440011037
-0,00709083438401287
0,00502523252125994
-0,000959016430775695
0,00857358085413643
-0,00568909156849646
-0,00662641048274301
-0,00941803893047294
0,00694877432517185
-0,00679250201992341
0,0069954951238979
0,00895372691976955
0,00453315848430472
0,0100944642474146
-0,00511018787652777
-0,00355680434249704
0,00838674633650208
0,00624979070681768
0,00681113353632663
0,0153736706276295
0,00753599497536567
-0,00843517685840239
-0,00298605408899726
0,0110411769472911
-0,00376459625462376
0,0063162823523528
0,0105598288350036
-0,00328230184936522
-0,00490940890517876
0,010195291626726
0,00268144641208252
-0,00129058894722513
0,0020226745424783
-0,00851476895222493
0,00732824529251147
0,000457241744947268
0,00384137793157314
-0,00771586081629684
0,00416653193678825
-0,00577913557629163
0,00111058283251672
-0,00218182142518135
0,00667036776435418
0,00627290676770326
-0,00410780018804838
0,0205257129811059
0,0207490545514588
0,0159594027425997
0,0131306297443327
0,0163500292152512
0,0208065380707091
0,0375640950061534
0,040147868994599
0,0382749389779054
0,026904868174495
0,00686030479669738
0,00219636848089193
-0,0138585913376491
-0,00926851849060916
-0,00858930254184768
0,00173463732408043
-0,00836331077813383
0,00866260589665488
-0,00530757908931461
0,00407808437667698
-0,00275856665929713
-0,00413100540311073
0,00260329735805682
-0,0144906328864159
0,00078973941720443
0,00456298545811344
0,0116839498501124
0,00897706427992121
0,0066684604392612
0,0119646731565783
0,021079711428298
0,0269229838428006
0,0244693688313009
0,032011563618993
0,038737160767867
0,0538832984450089
0,0473134992850881
0,0307954264173976
-0,00960176903093285
-0,0183486669609448
-0,013036113111001
-0,00740563980949868
-0,0175093866763363
-0,00159836210817144
0,00021001945780207
0,00645293839591539
0,00315305151548539
0,00489016865142163
-0,00222637978770743
0,00233249364189636
-0,00235756237478321
-0,00761531986262646
0,00597884959282879
-0,000610991786751979
0,0163343152956109
0,034506968846421
0,0296234559041452
0,029803872454273
0,0486119983792733
0,0658071981059017
0,0407832111503565
0,0610145332065477
0,0558342042277598
0,0508048420095865
0,0196545970912082
-0,0229589906215855
-0,0498835692111048
-0,0383727110091239
-0,0280206438587152
-0,03766565738708
-0,0203566746208227
-0,00155534058926976
0,00799197778628932
0,0121579680629335
0,00729686799371395
-0,000172020230909151
-0,00677019345666596
-0,00569538990364919
0,00323083291182007
0,00499196904666445
0,0130800287946416
-0,0133254119542752
-0,00893993531416482
0,0283970130411699
0,0269952876456578
0,0287650746384768
0,0610043971841426
0,047898287112674
0,0495955967901431
0,0505450061098397
0,0565079890768512
0,0439037174777791
0,000790468775820754
-0,00737409595108745
-0,0323587677394101
-0,0107300891661938
-0,00928763619897514
-0,0235858269694206
-0,0498995020309364
-0,0142901392833885
0,0139456273953939
8,24393079146504E-05
-0,000465963868212952
0,0061301094755143
0,00506595787619844
-0,00158521339620698
-0,0103210640709378
-0,00143163046281114
-0,00840613298402464
-0,0237854272422793
-0,0217542329563323
-0,010640178818761
-0,00485414229695971
0,029872458079854
0,0410944266104741
0,0318714834276244
0,0389505269963013
0,0500667297594379
0,0434568359399072
0,0159355654456913
0,00473870989570286
0,0105733925879377
0,000556041207325163
0,00441653309849575
-0,0183843961843506
-0,0259051560646173
-0,0496758897456668
-0,0106928861483457
0,0237146702385158
0,0125897291343198
-0,00784112149156652
-0,00314954687568193
0,0066068395106066
-0,0013115116270678
-0,00928772011885301
-0,00333883777814549
-0,0189297335870364
-0,0370825678140786
-0,0235088118114039
-0,0121534875065449
0,00536794149365847
0,00848148232432079
0,00866782851081252
0,00663163116565022
0,0161767445733763
0,0376914052005298
0,0625291176909271
0,0444331308938295
0,0484120612331938
0,0187298604615266
-0,0136216799249668
-0,00978659490338231
-0,0427286975686696
-0,0510980163873212
-0,0630560598481197
0,00193775858886334
0,0221483690678496
0,00929175059998603
0,00559117213355502
0,00860057919873281
0,00288600317649132
-0,00219320911589192
-0,00209020229354049
-0,0225571034070166
-0,0512860513687455
-0,0598814508039082
-0,0449862005320469
-0,0116621841614408
0,010394319350549
0,0166354994857172
0,0223363616865086
0,00644227542675381
0,0166237500921119
0,0278141154410076
0,0274215052964797
0,0617565526393504
0,0447725836635386
0,0367713217797351
-0,00613219981833634
-0,00614454849325461
-0,0176239928784334
-0,066646848013316
-0,0562666863771333
-0,0150635904322694
0,0225795188306
0,0114054123040991
-0,00686837612233188
0,00307765450627574
-0,00325344041886637
-0,00704512124825405
-0,0196711001475899
-0,045096925134664
-0,0535070247545835
-0,0623486147085948
-0,0499892165058092
-0,029293073023317
-0,0132072333052186
0,0282991239147725
0,0553702250568861
0,0688769599735076
0,0536981226888016
0,0455054665016972
0,0364499042523239
0,0439987932705147
0,0586883291945672
0,0712859450898033
0,0336397716655556
-0,00783367800613942
-0,0466184870792652
-0,0951642910402562
-0,074265795494434
-0,0232292761090288
0,0124251774417148
-0,000583781668533204
-0,00940541119134983
0,00215781529298873
0,00518789850081174
-0,000129422813601428
-0,00513036179508275
-0,048146329360555
-0,0971763556547995
-0,0951380627799988
-0,0585949411102465
-0,0323443189574511
-0,0174101024970797
0,063112149941704
0,0881117686346576
0,083179756467155
0,0844253490105144
0,0759129310258462
0,0590195142125722
0,0430642318915585
0,0444690630993677
0,0589830052233752
0,0447258511750392
0,0118269804645706
-0,0407185958343122
-0,112378084908409
-0,0885184257176662
-0,0446040280407059
-0,017396070468098
-0,00300011380137661
0,000575869532916867
-0,00496148936965472
-0,00778395879008091
-0,00283326671598644
-0,00769498647854922
-0,0557672145447933
-0,085388844342199
-0,104530740574905
-0,0687079043277239
-0,0274049066775382
0,0318141737117585
0,0864530181248167
0,109191591432119
0,103300831699319
0,0729224911185542
0,0514366041816761
0,0485121908923388
0,0386581347989239
0,049255633042539
0,0425669797610322
0,0514106386663303
0,0308824888229698
-0,0424417951399759
-0,0935940621858936
-0,0854135534295616
-0,0425221796782449
-0,011143908084314
-0,00129608792459228
0,00511390649210972
0,00406701723024147
-0,00215496852637714
-0,00625410854948374
-0,00598639729719904
-0,0318331547768004
-0,0744149447633103
-0,0977434587671501
-0,0828260599693972
-0,040051405249137
0,0296721079524268
0,083489288712209
0,102875236512828
0,104752506014264
0,0767274186577566
0,0553133608734089
0,0504648646423822
0,0686397730884008
0,0837913710331621
0,0721316088799288
0,0444761093488828
-0,000968628159183696
-0,0522476285050609
-0,0925740227634988
-0,0719396885510125
-0,0326870591358155
-0,0245376526328634
-0,00737357787322368
0,00324439151813721
0,0026568909678241
-0,00579811745579314
-0,00524696725320027
0,00642249533580687
-0,0288635075760473
-0,0872874032278012
-0,087517885018291
-0,113954559697432
-0,0410490978096168
0,0452038292057176
0,095188873169988
0,108744242182739
0,0852636219600168
0,0512641661131629
0,0509899985943421
0,0630768272401652
0,0749659453202116
0,0946592025102528
0,0633577217028931
0,0264252898308436
-0,033914991566586
-0,0573340764955568
-0,0676040873655034
-0,0394007995317476
-0,0117290269866377
-0,0185901564501089
-0,00612194404062066
-0,0062940720765143
-0,00557618348142349
0,00968228793905606
0,0109461556239364
0,0119683763384926
-0,0165711495411024
-0,0818438302714004
-0,0930802875701176
-0,0966235006431911
-0,0315074984516683
0,0609174214439959
0,0877892304696506
0,0990840064138451
0,0913342543192036
0,0465258482004892
0,0298810402418303
0,0638818006121168
0,0874883532214757
0,0958581763657605
0,0624946527006331
0,00398053390339345
-0,0548180470616605
-0,061979733148568
-0,071878854698548
-0,0341542568093531
0,00354616378545195
-0,00335193016999129
0,0107547330572908
0,0107224498760517
-0,00163456409780056
0,0032563150075899
0,0108222524830272
0,00670975451472288
-0,0242856000401977
-0,0476140093716652
-0,0660213683597271
-0,0650155611056904
0,0019068533234339
0,0482138445132572
0,0788725483360889
0,0671085986477548
0,0381174558799286
0,00996190020026978
0,0281447531660653
0,0568528719549406
0,0851742427732525
0,0907123615217328
0,0412904712210771
-0,0213114420798343
-0,063885898963084
-0,0633144669696025
-0,0597578309331508
-0,0187008280769549
-0,00678755086436176
0,0083640803977493
0,00198351422817898
0,00750216413760462
0,0073301548591269
-0,00488950290649865
2,46006158216251E-05
0,0156287198485567
-0,0115501263535566
-0,0339982391205053
-0,0327887905506451
-0,0373798702220296
0,0217412791514536
0,0234269371561258
0,04958546760188
0,0512981408554279
0,0385718063434049
0,0299384068037882
0,0535072032377075
0,0552960851628063
0,0889087574991123
0,0497868329876122
-0,0054551908676521
-0,0268721734993839
-0,0396753267775676
-0,044098485467578
-0,0470763313711177
-0,0125647986702817
-0,00300908532548635
0,011944339801211
0,00261304216621019
-0,00199388393017279
0,00533980495974431
-0,00807241786238368
0,00782247593546234
0,00787276800964519
-0,000220151128952604
-0,035047082771213
-0,0328413924618439
-0,0432265038427912
-0,00211867213354187
0,030217451193928
0,0440084455777636
0,051420267722609
0,0383716003588171
0,0463720785282226
0,046580008705957
0,0390939210870381
0,0203288596921622
-0,00656869786901432
-0,0136039060340376
-0,00527914007443708
-0,0359940078282685
-0,018677049132881
-0,0300021823059356
0,00266659246164602
0,00308746040094148
0,00137440813866556
-0,00348442662264827
-0,00725227618595473
0,00634113184937329
-0,00687528660761754
-0,00325212162776805
0,0082335248889094
0,0109640595814819
-0,0026639589213228
-0,0142359372356945
-0,0317864077459639
-0,0274228904090479
0,0019332388033429
0,0129735050017713
0,0219174455427424
0,0295455034407635
0,0166010909064763
0,0113748967114363
0,00889811532383692
-0,0119204265545237
-0,0241838082248693
-0,015622167379766
-0,0219134197606071
-0,0167195161459236
-0,00428682264048553
0,00119525141726034
0,0105926403758692
-0,00160478168613683
0,00121268271101141
-0,00389847024133613
0,0099286862905694
-0,00974469737410556
-5,21393262855443E-05
-0,00176267319191994
0,00829739560760054
0,0129273490332872
-0,00268629284565469
-0,0108092641488984
-0,0174872697684249
-0,0281903058130029
0,000651026512704696
-0,000975799248647242
0,0250360490615869
0,0390727058685368
0,0388337509613481
0,0329848154579809
0,0256342661069182
0,00366681740433274
-0,0165671977682684
-0,0244037528140917
0,00799493998095669
0,0188853909399127
0,0233651348040316
0,0147361706198246
0,0118357066895951
0,00632996516602094
-0,0105248212502029
0,00901570970123321
0,000719865702589249
-0,00849049858855458
0,00360951830236854
0,00764495207660068
-0,00433599523001257
0,00109883385227227
-0,0110733580092879
-0,0103059468510336
-0,0125858622097134
-0,00522176887171237
0,0122276648854965
0,0291548376684446
0,0425308182398997
0,0417277464243847
0,0194233706361001
0,0442803612034807
0,0410112210667336
0,0115735942701497
0,00272562216174822
0,0083820191295175
0,0220387355955964
0,0201809567539047
0,0130111962357312
0,0107592533351489
0,00669674789169714
-0,0065577118255107
0,0033973079819228
-0,00542554944852427
-0,00850745848223421
-0,00459077976392153
-0,00971956447685117
0,00675354656996311
0,00886375826999196
0,0111409100924869
-0,0133841502592445
-0,0108276257875066
-0,0158647689704893
-0,00900570079409642
-0,0105212462470469
0,0186106864615915
0,0159512788952731
0,0272860005025692
0,0326074020337168
0,050458356553398
0,0436731489027187
0,0345102759203745
0,028171654933315
0,0326540984148112
0,0393876170337181
0,0195575425636366
0,0158015490956121
0,0067709420346198
0,00672836444188686
0,0027164686535409
0,00132836658511761
-0,00813523011621303
0,00565255326947782
0,00149105835309767
-0,00253696304398447
0,0068800133956297
0,00215630367381278
-0,0021923234160117
-0,000488927797251967
-0,00377650933205916
-0,0017575304447656
-0,00996358338502636
0,00123633222167419
-0,0111724710712285
0,014541966581644
0,00965904153500059
0,0264679623725861
0,0277477315344271
0,0313807539045388
0,0223249423344602
0,0296655175979555
0,0234242779369899
0,0202171035543181
0,0178423022015883
0,0118444839368311
0,0173009824010243
0,0162804920129481
-0,0043651849751272
0,000479519796504505
0,00974417527019029
0,00356354267036707
0,00620274317273998
-0,000938620795932887
-0,00488996665623823
-0,00652876951878745
-0,0102506245447501
-0,00790904724767666
-0,00779592111996231
-0,00459851166612775
-0,00359387856358149
0,0139408859800586
0,0129262826656309
0,0136413187783282
0,0255186836753419
0,0349872538168563
0,0175245259339375
0,0289941511586652
0,0156696150530894
0,0378834141927718
0,0247765805788088
0,0219548416409269
0,0139560182890629
-0,00643164171475939
-0,00265165051473591
-0,00196708737515669
-0,000648185031348134
0,00340333457324248
-0,00399830691500337
0,00748377997311008
-0,0021049514469248
0,00908295910762761
1,46457506411905E-05
0,00763253327471757
0,00309870554923404
0,00794519590999789
-0,00588682414570922
0,00691789579794481
-0,00247541806741855
-0,00837301569040825
0,00714684844820675
-0,00570488916047392
-0,00319410276990703
0,00607876130906053
0,0101527804383949
-0,010945941550046
0,00163995554417177
0,010258838015721
0,0139765374967208
0,00875242899712873
0,011751047016702
-0,00239433673787639
0,0048348335001015
-0,0060983511635121
0,009385446487528
-0,00743610791068688
-0,00812911651941441
0,00537360584147908
-0,00749303169431772
-0,00982497875570552
0,00516392984202315
-0,00288212021481345
0,00598290525015676
-0,00658800961111453
0,00711135646395907
-0,00561946494651488
-0,000524185326231315
0,00663453193242924
0,00697414056364139
0,00183623957940608
0,00359989254701289
-0,00524349048759741
-0,00271096855079424
-0,00750672719793021
-0,00741921310047019
-0,00131024437631277
0,00255212520725201
0,00626556175690397
-0,00779937729638517
-0,00601522126124738
0,0013127896979525
0,00387792702961275
0,00421916455692573
0,00312720214628019
-0,0043043898205759
-0,00536130892828168
-0,00501044307603056
-0,00346761344627832
0,00826640168124177
0,000333798374204804
0,0055918352657891
-0,002178162491032
0,00432261040169867
-0,00169043966182062
-0,00451734925364952
-0,00258967057456713
-0,00461446952755305
-0,00974978756147893
0,0079440486962079
0,00511368403681039
0,00125188530405994
0,00568403299363961
0,00708321662483887
-0,00268567957574766
0,00926221500116504
-0,00360136008523468
0,00542930814224729
0,000967520070712791
0,00973589869203786
-0,000225974139862681
-0,000922742705290551
-0,00472639810048342
0,00417884587039186
0,00690101578687365
-0,00223236865933629
-0,00853605904548246
0,00289871522826083
-0,00714058098250096
0,00773450789019537
0,00252408515447818
0,00948321743530976
-0,00696541275342387
0,00853737952308585
-0,00308515540066602
0,0064792758085479
-0,00352377297956378
0,0014883712381928
0,00982972209451948
0,00733091826499752
0,00357622804803218
-0,0104036451256797
0,00258259733275612
0,0109471776500903
-0,0025844743778777
0,00490354946998376
0,00720386126544577
0,00659610356850625
-0,00310545558005169
0,00386498714511515
0,00929697026465878
-0,000790617070528967
0,00402203685325665
-0,00320351213831618
-0,00150762417889555
-0,00874359187331923
0,000331561651397067
0,00366241450596366
0,00741996632163261
-0,00950068035339647
-0,00608928527338927
0,0033850119544146
-0,0111340708704044
-0,00838093506972638
-0,00322303689739641
-0,00241599362071111
-0,00974840274337632
-0,00552791342369063
-0,0131509395891862
-0,0088984392546175
0,00160590913942722
0,00931091837213235
0,0132146151336263
0,00765011270326009
-0,00241568342255239
-0,00205652867277415
0,00666933671783893
-0,00440046524022792
-0,00273088775726014
-0,00743731907449538
0,00104492994539669
-0,00515283130814919
-0,00400612890441256
-0,00102584346358976
0,00845377838766536
-0,00673926104948134
0,000749054852647292
0,0118023878500295
0,00878000899891595
0,00158375498999211
-0,0126541063262023
0,00522298195445069
0,0294604931651469
0,0383362269469191
0,0248301951439889
0,0112333241666329
0,000731013043183351
0,0059957581474904
0,0245871174702156
0,0228108496281582
0,017881845232869
0,0426142873182448
0,0130247850958872
0,0138234568971288
-0,00813377549585628
-0,0073599604734373
0,00493109044936431
-0,00767472005908809
-0,00660337975090527
-0,00707797395860682
-0,00458186021973066
-0,00634701295150575
-0,00307168586005388
0,00969492513660167
0,00829433215307175
0,0232662275066689
0,0232846853298828
0,0354510979550929
0,0217299514169549
0,0357734182942545
0,0776596071978724
0,0626333337421892
0,0474580230278191
0,00923587042926003
0,0228559330787293
0,024383972767107
0,0118484786760106
0,0239938023780886
0,0197854357898455
-0,000973304691612069
0,0143930343606309
0,0119703112970531
0,0163930207246843
0,0227479228813224
0,0135278446765602
0,00233679445262334
0,00866679146737171
0,000137771931541046
-0,00138832868607171
0,00446760559569604
0,0020853002196994
-0,000238296606526884
0,0206461701078904
0,0215378179224272
0,0266430536501542
0,0373842294609176
0,0375708035648422
0,0498276271238626
0,0180046555321998
0,0172983917814448
0,0431264629470524
0,0375095913094134
0,00540845077201639
0,00907773699302543
-0,00314098821529959
-0,00242215245262426
0,00166821576771336
-0,0228852421254722
-0,0236528622431514
0,00831249324381262
-0,000851470425888725
0,014208944748809
-0,00228815900356285
-0,00653961342847338
0,0092213524529449
-0,00970131046124795
0,000361401823760659
0,000454727694952413
0,0137040689292142
0,0202696733547014
0,0205606601848
0,0378375624347722
0,0238306536980856
0,0362641765155842
0,0131298243234812
-0,00265210612045197
0,0139853091283427
0,0191364769505349
0,0182543433780225
0,0214827418521195
0,027587715388767
-0,0120080311580836
0,0123457976144832
0,0337071105955315
0,00328272260977124
-0,0228769726736518
-0,0329314022059088
-0,0188310226689541
0,00740927448470257
0,00282471167447649
0,0169980159671951
0,0108355455731283
0,00921595209313033
-0,000425304443436382
0,00238747052231728
0,00312006647034014
0,00500171064262792
0,0242956642731692
0,0349924064882602
0,0452451968478562
0,0223754062639754
0,033214515841613
0,0186336698177555
0,00824299025217913
0,00147602582834767
0,0176254423885595
-0,0237523849142108
0,00723297079270298
0,0394678161096863
0,0257998936969999
0,0255699965649775
0,0122839413423369
0,00179294795805067
-0,013566555788869
-0,0344663551508775
-0,0146524034726563
0,00791126331970754
0,0220338591799344
0,0192966502435558
-0,00287840159021048
-0,00773097410906974
-0,00224155248369236
0,000652317710133713
0,00825681953486081
0,0200815962438154
0,0113540301592079
0,0144972363248672
0,00390691435931761
0,00965308821124396
0,0362502988612891
0,0277761089875814
0,00130601398413979
-0,0241051995524203
-0,0341353967375711
-0,043850821818013
-0,0525484727921957
-0,0446870634471736
0,0465228601589513
0,0275109876311133
0,0762270571395348
0,0026859482329901
-0,0226905359816006
-0,00935383352810895
-0,00909488052462788
0,0151509588680517
0,0321619708819054
0,0117570736914514
0,00396234871443328
-0,00478768746218764
0,00281936888457933
-0,00507821190654529
-0,000383005311587276
0,0129968450523944
0,0137132351444938
0,0100544555555788
0,00589026454975284
0,00861586494968946
0,0178703212642281
0,0117388685575315
-0,0159867767910887
-0,0649183853597326
-0,0819189988171114
-0,0645534577404142
-0,114986323445205
-0,100807093303626
-0,00960525069422636
0,0677122225221648
0,0624555824340773
0,0394539117254637
-0,00505911838756312
0,0223117722223059
0,0299684696927904
0,0256396918490532
0,0342110203554649
0,0247199581733517
-0,00873493964293234
-0,004321892412614
-0,000864975915488118
0,0004202309165001
0,00247594660037712
0,00841474839409522
0,0149808032640691
-0,00585711842464972
-0,0107954644812841
-0,000771636030565087
0,00678561807174284
-0,0300460530418413
-0,0676341840439461
-0,0864709477315194
-0,128971209504145
-0,134549647232134
-0,155282913846805
-0,167101079235999
-0,0401302278270462
0,0599384900398687
0,0525860206181199
0,0222116625351675
0,020536904056211
0,0101635086708942
0,0335610984970131
0,0415977851536575
0,0500343498787906
0,0336374345826703
0,0111652406745322
0,00609665834096304
0,0018630189116387
-0,00692876635237566
0,00746657697825201
0,0166245574007816
0,0186632865561074
-0,00736117605071042
-0,00781126378056864
-0,021787756442249
0,0117317358997207
-0,0533237956175943
-0,0237968705036399
-0,0305562537438624
-0,0863061199307359
-0,0903316814298754
-0,130423503515515
-0,115608845252924
-0,0499107939591914
0,0883232581199418
0,104726247822498
0,0728947258880817
0,0546306726348599
0,0183133136067535
-0,00587361421236183
0,0092273664546203
0,0197560130917995
0,0201473559830026
-0,00395428615862089
-0,00910705739614951
0,00208473788558103
-0,00332375160943886
0,00530339457779122
0,0114108237719011
0,00600307762130852
-0,00402422110143319
0,013483495034399
0,0156976851716763
0,0174017905737318
0,0334426386511806
0,0956939191805292
0,0563232342481768
-0,0217512694682526
-0,00793089542518995
-0,0452469985074439
-0,0851124006719712
-0,0355487294483655
0,0516875277363544
0,0864012975594609
0,0569649452016493
-0,00634339189712795
-0,0270718858854314
-0,0229945252709492
-0,0255104083402462
-0,0289693146823526
-0,00647836110605709
0,0031871913883924
-0,0088594696432765
-0,0093275151822195
0,00454450561931915
-0,00204971385172356
0,0170763470130946
0,0262371541950397
0,0383597714313042
0,0601740963088119
0,080264662678425
0,0699242102627136
0,0916679921351987
0,126595171278007
0,091390591398618
0,0490950298848089
0,0472533771618479
-0,0103124527397745
-0,0794328677710247
-0,0323041739536276
0,0349610127783133
0,0910975778916038
0,053983039865796
-0,0144296022655473
-0,0103988227954132
-0,0118700220407859
-0,00813354595545583
-0,0246484320541779
-0,0300109444118918
-0,0133234929870764
-0,00505148798805426
0,00458977659664447
0,00328800938152304
-0,00146245057996094
0,0117400094375044
0,0267460686230231
0,0601273701322742
0,0766349086044308
0,098671811942194
0,0798600207038622
0,0965437755234752
0,101777348871098
0,107967378213808
0,0821736966851646
0,0407200165961964
-0,0267867331591593
-0,0122522148005281
0,00121543022379789
0,085661689012868
0,114537806200035
0,0814898276789674
0,0495690433832851
0,0500518057610281
-0,00373455789780765
-0,00483441354042869
-0,00351682987883998
-0,0242774273537679
-0,0123496594397986
0,00120799070456424
-0,00923314037940047
0,0010964603012665
-0,00210858395838677
0,000816185560948812
0,008121892774009
0,0495140317191443
0,083099510891097
0,0977671353218611
0,0602786517834513
0,0382318032539615
0,0855239947513731
0,0612158483130473
0,0153627045868344
-0,059446698871255
-0,0997978657685875
-0,0394220746582055
0,0245498435387419
0,146497615954656
0,132999004963609
0,122272100360962
0,0949963051582512
0,0695578635585375
0,0620651945391938
0,0310993915694538
-0,0027280739397256
-0,0258089668037303
-0,0177570906854579
-0,00978992281079322
-0,0050796169302295
-0,00465317808723558
0,0002459333667816
-0,00735418066717984
0,00337596696289956
0,0636487104127249
0,0755490652339315
0,0675431168196455
0,0411515557498409
-0,0122912861391251
-0,0191195089874484
-0,0165019830398536
-0,0433410514253714
-0,0865704085428659
-0,122696983146481
-0,0176489954349003
0,050723207808316
0,123338778046217
0,134202235754864
0,107442771859997
0,0972760492020673
0,0599369639486819
0,0670941971508157
0,030304531248345
-0,00530783106448807
-0,0486250670248185
-0,0306300460017847
-0,0147178125148705
0,00111455522995189
0,006184865811923
0,00568916456397209
-0,00339226898274216
0,00706387991814977
0,0421422939227229
0,0685818865697399
0,0691632922016164
0,0452624915625749
-0,0146800272793555
-0,0903665743963283
-0,100740046099213
-0,099232515891208
-0,0589406009145731
-0,0649504283439064
0,0409504132569613
0,138067561359256
0,16769145143734
0,0913265543115165
0,063448242729025
0,0386357269051572
0,0322352720642895
0,0310036170326168
0,0242191619025949
-0,0337689064668526
-0,0426815441355172
-0,0186331166458785
-0,00838529425487522
-0,00121769369842646
0,00591167795822741
-0,00201807605458926
0,00636519794461253
-0,00174944576732561
0,036934227696065
0,0591810677508328
0,0593586813310218
0,0418093935229066
-0,0751835177877646
-0,111855940041602
-0,0852339540583874
-0,0818289517181028
-0,0276741810672392
0,0343871396738322
0,0845815637759827
0,12798673347343
0,130188504502468
0,078931418763891
0,0306305399740248
0,0172234920329517
0,0197171569795719
0,0142438371086148
-0,0171171880202299
-0,0522697402763409
-0,0328355828970946
-0,0108437207976777
-0,00781775534625064
-0,00167438761326188
0,00977118492645902
-0,00796993608724276
-0,0056336585539534
-0,0101388978303102
0,0392464705407187
0,0418115903395452
0,024189117513689
0,0130183219906096
-0,0835804404218158
-0,0977778603782242
-0,0816029457989108
-0,0367258817695564
-0,0135861240702808
0,0432928504345333
0,0088207072878295
0,0530164206824474
0,0697092767991199
0,058829464432677
0,0123223937131695
-0,0164347218227515
0,0266429521392329
0,020257760483226
-0,0125973184008424
-0,0246367036292682
-0,023121046673436
-0,0143106379967169
0,00701425678816566
0,0023934803402021
0,010118564838999
0,00915557935393339
-0,0058052884098558
-0,00787065552611704
0,0293812429636762
0,0010709189760895
-0,0209111535989244
-0,0544845426278524
-0,0437601555219668
-0,0810041814491004
-0,0800438162962757
-0,0661265292265352
0,0262309922089201
0,0344370439368377
0,0268906654758772
0,0128718423857677
0,00254669087638573
0,00495706773625569
-0,034440613669719
-0,0127516885738126
0,0161852426095562
0,016007143393715
-0,0113548829559311
-0,0212319287823882
-0,00717822127649255
-0,00305452088899208
0,0026853276063692
-0,00265355597765993
-0,0010899013697071
0,00734473374791007
0,00600914862672592
-0,0175360697252886
-0,0308639789610753
-0,0248323620710379
-0,0142784568774238
-0,023554356901978
-0,0331229669873147
-0,0396118817314061
-0,0233064430084237
0,0157051628496055
0,0299934677370326
0,038224803765731
0,0456607970531082
0,0192956787370203
-0,0330944515738905
-0,0681511204417637
-0,0667274991507489
-0,0407345336464015
-0,0145377820414444
-0,021738513403166
-0,0342220999513891
-0,0215577044414538
-0,00236765220808097
-0,00989703784970025
0,00349424236782955
-0,00623037502097591
-0,00535598512181618
0,00417267637921048
0,00690203578256852
-0,0167525956087261
-0,0657367924743653
-0,0493220340693691
-0,0261085963347378
-0,0244667832835101
-0,0345037084455344
-0,00179887798690872
0,00221559234176444
-0,00560326861258187
0,0361318336697758
0,0327944623186011
0,0446942562539926
0,000999258698422192
-0,0320232166369095
-0,0776887524522905
-0,0548587907512041
-0,0493955863418945
-0,0475608467213825
0,000471818242215118
0,00415616509844752
-0,0107539178130415
-0,00113100243346271
-0,00801816833693491
0,00148419788232428
-0,00136431336000763
0,00227569188562952
0,00269836950928696
0,00916415775016043
0,0177992081572719
-0,0101453395070705
-0,0180632686072207
-0,00652114013384035
0,0133439920458621
-0,0485674068488268
-0,0229971782350909
-0,0267850703930926
-0,0501707181963414
-0,0096288935383516
0,0363029413203554
0,0430181132375782
-0,0214642113204356
-0,0416124380642803
-0,0701744942644294
-0,0735391835161692
-0,048468481566897
-0,0152098753222389
0,00692502681934556
0,0109376266680984
-7,19167242020836E-05
-0,00801130200182983
0,00895083894910623
-0,00769460777644748
-0,00312993080035314
0,00181209154045772
-0,00380423050364075
0,0161445282395908
0,0172061642468025
0,0429976540714598
0,0370774253243023
0,054547723970324
0,0501341440301176
0,0117329825223704
0,0112517785652308
-0,00727629380904955
0,00375217510622129
0,0100009628891392
0,0205043870481177
0,0300973046036542
0,012515275147726
0,0135484640727965
-0,0133772933968028
-0,0308074363943534
-0,00998044622464115
-0,00140705225644023
0,0185113285382521
0,0129157158656819
-0,00641703457964837
-0,00733526295290182
-0,00421049436453644
0,00184162431947963
0,00311970819398747
0,00434917798002678
0,00509205101956141
0,00156282359200224
0,00381648726500408
0,0158834124550243
0,0314736514715532
0,029838964298073
0,0660292831061087
0,0574348981611987
0,0508519707296956
0,0498497547043787
0,067909966222728
0,0679643897199473
0,0628464196380778
0,0631211778503094
0,0782306746177992
0,0571290843954289
0,0354310282586274
0,0494145725320743
0,0272647098084872
0,00659350792786819
0,0103838816173969
0,00624821165098621
-0,00517837721106655
0,00690030756071176
0,00230432862768761
0,00640718716029413
0,00409505663164661
-0,00233008104950659
-0,00555321373769697
0,00619556177870974
-0,00187238335392102
0,00487602557617789
0,0159635138840137
0,00469604708631317
0,0111049949775429
0,0153269671028998
0,0150776062587375
0,0254051735969706
0,0448780425521536
0,0451318408746511
0,050179424080568
0,0346157353180728
0,0334812077025665
0,0368283108005755
0,0221235350697221
0,01241842743313
0,00782369907631099
0,0210958614089433
-0,00258256703793944
0,00195146027258051
-0,00235625351037608
0,00401092097579722
0,00988556630904114
0,00287185405980416
-0,00779272593455051
-0,00957180998268156
-0,00433084342364727
-0,00620961954640673
-0,00197453430307862
0,00685965343654787
0,00301335452596299
0,00315128915853702
-0,00390434932212237
0,00034985217975604
0,00811549788316312
-0,00846003497397912
0,000886292490348685
-0,0024827159869353
0,00311669274999394
0,00230460607135376
0,0045046523128058
0,000271594455204385
0,0079038618092278
0,0047802881248623
-0,00734628380191901
0,00618812921571446
-0,00604629973940536
-0,0022595999529932
-0,00228324491171317
-0,00102782896302074
0,00544204918455428
0,00452229023655983
-0,00450371527788402
0,00271146474998047
-0,00149626928916959
0,00224928713042722
0,000822479245635903
-0,00714014923066839
-0,00874384225287654
-0,00150170088349921
0,00990405715066197
-0,00841235775426606
-0,00660058572730077
-0,00878651870358108
-0,00478100974946133
-0,00221841507100407
0,00154417575462812
-0,00770213715409421
-0,00965126642941091
0,000243979315387076
0,00645079270771276
0,00493082572469992
0,00035498701518168
0,00163614146021946
0,00871510598748695
0,00847903135161802
0,00900760089932364
-0,00406913195460529
0,00217434719771815
-0,00368219113614512
0,00768185144182381
0,00776755956828946
0,00607362536530645
0,00905436176762653
-0,00858749851582626
0,00821749176565266
-0,00369299469994721
0,00219602242353075
-0,00823837417890914
-0,0057514622381639
-0,00145591316646072
-0,00570818470405926
-0,00617281286809045
-0,00984390387308986
-0,00227514642733591
-0,00225355168969416
-0,00494412694868662
0,00298100015490703
-0,00227516116381455
0,00220578428960204
-0,00597983036916693
-0,00976406178965522
-0,00247464095133488
0,00746857956416229
0,0025213783292665
-0,00948877654014564
-0,00583269677862185
0,00386014326189651
0,00399635876249352
2,46993592123972E-05
0,00323976295842587
-0,00504795570556137
0,000699892418091559
0,00484776528659872
-0,00121059779663136
-0,0107573847085846
-0,00624021469567014
-0,00759590975465722
0,0026114165382531
-0,0149084056814061
-0,0209037772848974
-0,00937939273697409
-0,0356251819734795
-0,0222074216137194
-0,027581894094174
-0,0136942970588569
-0,00658382211645947
-0,00725593768237407
-0,0125341264870952
-0,00637689590422801
0,000448266064345881
-0,00564747594521588
0,00794568366060068
0,0101279197052686
-0,00803682656867282
0,00723298629616992
0,000214696130815286
0,0086008495924067
-0,00346885183111578
-0,00916699650289627
0,00262966654100557
0,000736912501055096
0,00569878108871765
0,00185386740317076
0,0138571326517694
-0,00804864629321097
-0,00772217406617839
0,00574789003528962
0,0454443427604734
0,0479742864075444
0,0360273963897492
0,0406783055529014
0,0451706861959079
0,0185497790239032
0,0110871640341835
-0,0164369528018961
0,0149116816726093
-0,000334421979364178
0,00616093055614947
-0,00437422647665845
0,00554718247974807
0,0100483858112723
0,00343240799549277
-0,00328617394589175
0,00729965006806871
-0,00197405513873736
-0,00231428366619714
0,00264811514994131
0,00136176870639629
-0,00400442617194504
0,00492257157371646
0,00450884427615192
0,0427482465234163
0,0447147788771232
0,044080909034349
0,0983409136563558
0,0936905771930478
0,0689847128928025
0,120399588644257
0,139580087784848
0,0810518764088096
0,0461241737287467
0,0726100558244999
0,025575384299445
-0,00265313578913334
-0,0184895327391118
-0,026834099356646
-0,00789928575718133
0,0186775606196397
0,0222768689683927
0,0106969021478133
0,00815026597022919
-0,00786728447203864
-0,00491106172786609
0,000541367616374345
0,0131342739674755
0,00491561396945926
0,00187155606004214
0,00340693083771048
0,0215815263407462
0,0607270120437073
0,0638636471011245
0,0910310271541117
0,137680011803965
0,0926533427803308
0,130017652065627
0,0998140349628468
0,0521872919339739
0,0974246244802663
0,0527936683963299
0,023003637949851
0,0255769063037834
0,0346416704889905
0,00622583881397769
-0,0323538646278362
-0,052278967197666
-0,0140248384079539
0,0144520805197873
-0,00141604309546528
-0,00499437776210495
0,00679252953119228
0,00208037461817843
-0,00434019823609311
0,016859303906106
0,0185888254472615
0,0273594751429033
0,0368789520373093
0,0716045320101894
0,113100662171674
0,122795879819617
0,118643972610823
0,133000826037657
0,120000969208834
0,129676082164529
0,126248599621136
0,149942245919223
0,140309472555585
0,0979351192731532
0,0464052679195075
0,0222285534557777
0,0183867921780237
0,024673012522461
-0,0187944396448612
-0,0504592485727991
0,00163357732920975
0,0189928881224213
0,00636317776281932
-0,00768420331108191
-0,0099648769257592
-0,00909144181470479
-0,00390392324087587
0,0326557882522839
0,0313279756009326
0,0437331661387929
0,0772498994482472
0,108017044859755
0,144354844655371
0,145974446795901
0,112684224776668
0,0559189089840036
0,083800602093103
0,0914976147570404
0,0451867730400895
0,131739889966177
0,141734194657713
0,0608851274566704
0,0459256156550995
-0,00121602580402713
0,0354310851875731
0,0235031768430283
-0,0198321195395092
-0,00435234802083537
0,00337805874214139
0,00952344027113618
0,00691002023740795
-0,00866941571554892
-0,00514886729697407
0,00849260000129853
-0,00733467022003265
0,0199124625637423
0,0257717325813029
0,0308754582674616
0,0862377547643743
0,124147546973024
0,148230884389748
0,145170294379678
0,0740460539179768
0,0353714310886998
0,055205507054594
0,0427211832550565
0,0442310577697215
0,0651082875482351
0,153091455814522
0,0895696534856779
0,12310341629255
0,0254874443583691
0,00261178944010974
0,0316166236095743
0,045226796110341
0,0506181504945063
0,0707578828010297
0,0223629889519886
0,00929609027246066
0,00167006653478386
0,00393056160127525
0,00558288854580415
0,0100009290161036
0,0193668455120835
0,0458633966868043
0,0551615404475405
0,123741065755217
0,105435903014763
0,108916553314268
0,0783329326458234
-0,011297181412216
-0,0114876151274899
-0,00397960337972577
-0,0545181030918049
-0,0336218262382194
-0,040019640530563
0,0115211664547017
0,13113443343798
0,099814364952765
0,0256954319694393
0,0168276822463096
0,0584832742508437
0,0823328981738254
0,112517119128807
0,106683385454319
0,057060755229714
0,025143836025608
0,00262556693896999
-0,00753341630162242
-0,0065987157371959
0,0105656645183925
0,0400813859153252
0,048760066518996
0,0510205603504989
0,0999453054891558
0,0658015979752847
0,0255290357847359
-0,0506042401872213
-0,0485867474253766
-0,0764562042878841
-0,0939218559837007
-0,133690495976796
-0,0808479441234611
-0,130614938491733
-0,0398986854278879
0,0348336479519257
0,093042238124605
0,0200190976378635
0,0389154822047313
0,0766133331611559
0,106221282159303
0,114086340871879
0,0928720598544151
0,0670789961270692
0,0170219465476801
4,59211443075765E-05
-0,00536139031829258
-0,00395836358856971
0,0188741076965828
0,0320821942955895
0,0349222624357643
0,0263964194256183
0,0396873026814507
0,0390749772793736
-0,055267865444014
-0,120165468412772
-0,109371568430839
-0,0913230040156377
-0,125200054901249
-0,0708293301467937
-0,0416873403629326
-0,0951808436390724
-0,0905448010535835
0,0245415453516778
0,0684510185385736
0,0260982798125814
0,0157874756431741
0,0151614953721667
0,0436730640246303
0,0622802525334326
0,0630080085054395
0,0400548245736335
0,0163924541459259
-0,000566056583090938
-0,000671464521178812
0,0111645093932216
0,0213907482054433
0,0154318564333878
0,0218248623387901
0,0135177137080497
-0,00180799498781288
-0,0280240956815652
-0,0765783862721589
-0,0962886904405322
-0,0650367683871706
-0,0988580976196995
-0,13879187685479
-0,0897923484841269
-0,0491326648558503
-0,0663370597226836
-0,0203650617349584
0,0254583564925419
0,00567639821351423
0,0566423227335027
0,0507264848933469
0,0138941833159625
-0,0214417071214811
-0,00218716732641715
0,00776752322694701
0,0226024823020477
0,00911037021906855
-0,00535144529853339
-0,00783590650183905
0,00136776089095271
0,00342762679881693
0,0137432844737366
0,00227910242145692
-0,0220602466953586
-0,0670534556726591
-0,0682773599863682
-0,118400537923086
-0,0919475443513656
-0,0650811929328902
-0,0602503489933211
-0,124330690951907
-0,090033252613291
-0,069365966722635
-0,053765968360737
-0,0357277355178185
-0,0256867873890286
-0,00964871466982063
0,0498049751473614
0,0828229835911032
-0,0176848717874565
-0,0397954337604526
-0,0390098531477267
-0,0187362438822831
0,000636737085830614
-0,00400103322571468
-0,00420927142163743
0,00106459299826971
-0,00701333200899146
0,00637315926661944
0,00607978613230096
-0,0228452313482418
-0,0876799286656164
-0,0912462424365993
-0,138089817008964
-0,153897758505669
-0,14838760966503
-0,0550835720354515
-0,0421962428599304
-0,1028600215463
-0,0655307385549173
-0,0466550983882867
-0,0648312276044272
-0,107989740153015
-0,0681760395765577
-0,00541184255605568
0,0384128977613585
0,0235219778786806
-0,0204679419988025
-0,0599373818393666
-0,0439907318444519
-0,00992023349634354
-0,00378806364769214
0,00565446688763015
-0,00441829455514695
0,00571978176238881
-0,00193268879125385
0,0066307098224339
-0,019354124836414
-0,0092314096733255
-0,0793493971832907
-0,0933671133716011
-0,139663421320562
-0,181113551407888
-0,149914951684745
-0,069195871465024
-0,0609862634378835
-0,0884376155196273
-0,0874177698203145
-0,0724809722982774
-0,0438241472364294
-0,0904418883901415
-0,0430431476703097
0,0449171807914666
0,0544378834263015
0,0170084176741232
-0,0152523681181396
-0,0438347732239229
-0,033181297261645
0,012823206762781
-0,0062566686225342
0,00927208890888007
0,00730231248370145
0,000774647928090063
-0,00770844581160364
0,00998704886354799
-0,00818838887048119
0,0231818857999843
-0,0521416094822535
-0,116383113049435
-0,135489614740766
-0,18956223664704
-0,149098820049279
-0,0934561332255083
-0,117847941313818
-0,0632940590096832
-0,0894351850847824
-0,114136277249302
-0,0959687133421163
-0,0595164888563762
0,0180319355050257
0,0292743314895157
0,0293183942270747
-0,0205102952569754
-0,0486378318475751
-0,0220019482856028
0,00806364182822738
-0,00122737092459219
-0,0070201679298126
-0,00607909958889281
0,00516648756136895
0,00747180913457266
-0,00147160331658386
-0,00671233119391301
0,00872157206078759
0,0223438493900093
-0,0138113401067646
-0,0567161513632181
-0,126589160259127
-0,176797603227551
-0,159797076715595
-0,133079134459366
-0,0853563540910852
-0,100535778148871
-0,124612166124524
-0,157817725233653
-0,0413488733535625
0,017174437405048
0,0519250331929537
-0,00134528913762421
0,0113385308109869
-0,0451004649723403
-0,0511556327193117
-0,00697336589703861
0,0202104133038559
-0,0136832281047656
-0,00983719467105171
-0,00046047338833859
-0,00640178275749226
0,00848677599861277
-0,00603641232843394
-0,00313545718087304
0,00188496198248172
-0,000899485559076025
0,0188702486334519
0,0301008553967085
-0,0409216795051741
-0,11418288151374
-0,149813825838593
-0,102608557122797
-0,0726208402311181
-0,154018370678373
-0,148623831031751
-0,131765119316459
-0,0172807530085046
0,0264341960742107
0,068049596145278
0,0177219435522591
0,022955058177297
-0,0187694743125648
-0,0210582204437293
0,0506542945037198
0,0265728068365718
-0,00693100202263413
-0,00541616928457333
0,00208563386916331
0,00155289275113945
0,00777300350248608
-0,00490247672933343
0,00788320910068952
0,000505238926146064
-0,00234048365860922
0,0612124950620705
0,112058188145173
0,0729077000251069
0,0215726108105701
-0,0335886545711643
-0,0143242038237116
-0,0634768676510625
-0,0293571696104503
-0,0341167525088134
-0,00802664820352908
0,0260948896545738
0,0434496794582668
0,0646942623867477
0,041481231834837
0,042033059731852
0,00966634046401152
0,0199365366618384
0,0602709732532444
0,0323055916770688
0,0100587505271958
0,00544124637139066
0,00693732825997459
0,00226508374711111
-0,0027489040106297
0,00479740310576055
0,012829497727578
0,0101157285454696
0,0233168009358484
0,0961713894819794
0,139125350125247
0,119170368460925
0,0881609908101494
0,0256853067819908
0,05734468832839
0,044468694990136
0,0608675910162591
0,104594974838678
0,0482248892176746
0,0993365845005558
0,0295315889042421
0,0271341620081961
0,0134826584995602
0,05142449341805
0,0313596396195047
0,0129311322318461
0,0411256417744414
0,0138601983403063
0,00371927979573353
0,00515800751187238
0,00166664479422276
-0,0073203081209249
-0,00314755980570147
-0,00712345356783811
0,00929960517935529
0,0104605083744264
0,0153171358226155
0,0430521786040453
0,145157973680713
0,149650812906306
0,117837662904321
0,0720517949102526
0,0517022933100093
0,0856646480281366
0,0779587976927131
0,098969802356274
0,0622038645873072
0,0698197660726269
0,0977543257100011
0,0578544081790898
0,00689624311306991
0,01274548601958
0,00567994722955554
0,00400069635906592
0,00753158683242342
0,0138179654503413
0,0027010130444065
0,00829761623033522
-0,00769182019557962
-0,00334589915851757
-0,00821036439715512
0,00802471463989125
0,00438629084678988
0,0157863929873802
0,00538769731745726
0,00136030049150472
0,0758586855999249
0,122636433251494
0,152185196792713
0,0988469993735
0,0636295182867504
0,0850145977823783
0,0327899915101642
0,01641445308842
0,0453979880204066
0,0183601319822876
0,0114307551846229
0,0117688626132206
-0,0265711402247715
-0,0336585123565494
-0,0202474214991864
-0,0262114455166756
0,00530586300243401
0,0239461819470447
-0,00853179339002132
0,00184302537051537
-0,00581083417103781
0,0085315874699879
0,00481938738134661
-0,00745098823562776
0,00382460508218952
0,0156905241255374
-0,000738653514847934
-0,0216896250936242
-0,00305199973628085
0,080254426989692
0,114111332305275
0,107852113771751
0,113626164634334
0,102390680748593
0,00568985770906937
0,00268837147493475
0,0198636964326458
0,0483036503308074
0,017664695861278
-0,00965963186883716
-0,0159577174590653
-0,0342521692099352
-0,0153375999290717
-0,0177305924561515
-0,00670570610121076
0,0082872007983629
-0,00163958351083505
-0,00660094982817406
0,00336701133409225
0,00818268651989414
0,00381612331318489
0,00359221922866638
0,00673602283460639
-0,00504679785941455
0,00076501932729908
-0,00155489384616398
0,00241945363472796
0,0416264088157265
0,0731399039704094
0,0720191473559819
0,0823656909803419
0,122555278061501
0,151486143197706
0,11244816577108
0,104182191525115
0,108680904971065
0,0764165395492311
0,0264859721298457
0,0270545468521115
0,00532305458428225
-0,00339188427132036
-0,0244811287729457
-0,00930363272809497
-0,00183369476670718
0,00186432529520734
0,00801705424001213
-0,00560568857664282
-0,00755302658190626
0,00972242144854852
-0,00714727355034429
0,000729936576947929
0,00790131526893903
-0,00473986776355113
-0,00900643297594917
0,00505343922637546
0,0194835774964131
0,0423053344180595
0,0360896776435046
0,053779647464278
0,080230891033574
0,119325141899116
0,0861096421221893
0,0734101637772805
0,0506216071771271
0,0731184399517356
0,0795419799101563
0,0525166299889883
0,0439662968191974
0,00429597008724509
-0,00423080939351539
0,00424774342417342
0,00458661702733326
0,00250535569566342
-0,0012526720957242
-0,00251142293791753
-0,00137032057688121
-0,00380242371643075
-0,00460403280081415
0,000853305501329388
-0,000462693127430398
0,000488543820182049
-0,00332329369848384
0,00585708468263375
-0,00190444186607542
0,0219061165933711
0,0117113197483378
0,0322437670127688
0,0348816205501776
0,0462397789928551
0,0488947421741188
0,0512405406852114
0,0269837900123038
0,0355269418121976
0,0340472281695107
0,0344680442629271
0,025086311201327
0,0126247851175181
0,000238532219938062
0,00918158356912929
0,000311545695430612
-0,00551954077257513
-0,00166566694512579
-0,000238604177831954
0,00140761182243359
-0,00274541425180874
0,00671368311006282
-0,00226456581254702
-0,00873189372882801
0,00696531179227236
0,00405383812364348
0,00655585150766023
0,00549612421801855
0,00848765861891308
0,00841149055600511
0,010475475593378
0,00148719165496398
-0,000622133459097367
0,00538772693300211
0,00297481741018311
0,00278095710034106
-0,0027904706384158
0,00439503303558821
-0,00421412639781711
0,00737479125758645
0,00319210011249296
-0,00123685704016927
-0,00300551206683088
0,00928387947727349
0,00812402908602917
0,0069028878197553
0,00740713944537898
-0,00769445142601358
-0,00313220311567756
-0,00970755551928075
-0,00479540751073296
-0,00800496500823878
0,00708224170705408
-0,00813924120652454
0,00494911928425968
-0,00989260623226529
0,00433689372350317
0,00531754191746821
-0,00144123503539769
-0,00881029207204016
-0,0089857752087959
-0,00825533538728239
0,000958861347651003
-0,00109170588533511
0,00423272234119136
-0,00823753266513233
-0,00606959021467231
0,00946234109786448
0,00721048935186606
-0,00212007877049971
-0,00165454679711468
0,0046775873073738
-0,00264064620837599
0,00439560394473169
0,00868017611963683
0,00913918286521881
-0,00087866326369283
-0,0016975636834733
-0,00685592281485718
-0,00994936654341843
0,00660546449117034
0,0038611230140612
-0,00414661018561204
0,00460071175065222
-0,000910885050517245
0,00273548414644858
0,000770231879602022
-0,00672496695914875
0,00327417515587543
-0,0061436646111495
0,00819549942227968
-0,00626608793290361
-0,0131482111201027
0,00867331244357435
0,00391886328391139
-0,00200461826847471
0,0055980746563915
0,00830259578338292
-0,00577758260134095
0,00583526694194341
0,00297247803442761
0,00794479834751449
-0,00490494077787965
0,00898787565482216
0,00194699127783393
0,000527005181893242
0,00463560623246023
-0,00750351938051743
-0,006883960652178
0,00580019901586707
0,000441256529188956
-0,00657594064081784
-0,00247319667463716
-0,00583341946204545
-0,0123045303882201
-0,00952371652395839
-0,0067605740562723
-0,00334723945609484
0,00608723142705663
-0,0146115358386092
-0,006414270155625
0,0117894462960132
-0,0103384927659033
-0,00372407119481534
-0,000155541906905021
-0,00898186930826571
0,00257838545861165
-0,00334246533797219
-0,00983761124279448
-0,00203708098873508
-0,00799923424515838
0,000438039661589097
-0,00689783921320822
-0,00321748456601868
-0,00292323276783645
0,00808968384244057
-0,00122407106824776
-0,00358156181127297
-0,00765558078441589
-0,0118857884536018
-0,000480292897126
-0,0140653251093232
-0,0258525887031103
-0,031626865389937
-0,0294421394401265
-0,0336613830061159
-0,0155446479742677
-0,0237716429857364
-0,00180510122255436
-0,00168614650110119
0,00226473584433892
-0,00696389847107699
-0,00461654252122896
0,00742339772442062
0,00560309142432986
0,00888570110173935
0,00704185224574291
0,00463762375220787
-0,00251504161758686
0,000499403975205219
0,00697349752158555
-0,00294106372677327
-0,00751452959348976
0,00498409923567923
0,00538214735186706
-0,00823011797033123
-0,00896946685425872
-0,00565162287570762
-0,0208681074559757
-0,0284095334976719
-0,0434530597349485
-0,057289014243712
-0,0509879772714863
-0,0302026569271495
-0,0595744452842997
-0,0670594357714307
-0,0234291271891066
-0,0513287872841086
-0,0397709097530069
-0,0062398180280117
0,017137923837438
0,0165202082117561
0,0243581268016866
0,0245552616191491
0,0104673812588119
0,0078150453505826
-0,00326031111170329
0,0084527115557628
-0,00963769139705118
0,00317997646200469
-0,00668341438308342
0,00399757079502775
-0,00661754785641199
0,0138888860745974
0,0137369698336484
0,0212628920920487
0,0158823183063183
0,0153381955813172
0,00969222443400845
0,0249911593584544
0,0448893743511804
0,0657659052849499
0,0465557735287509
0,035581940990563
0,00476444530098521
-0,0124774255533163
-0,0381322059795393
-0,0085984644184347
-0,0102312340976344
-0,00364516089286715
0,0055022387983484
0,0166644673414493
0,0115831659653383
-0,00841293550790528
-0,00823772485055832
0,00595135961870596
0,00468423764905158
-0,000755539945728016
-0,00754772133143371
0,00686630236330063
0,00917101314105775
0,00953481815936563
0,031252064913773
0,0420746284144086
0,0198499841848301
0,00755830274996816
0,0241492152611984
0,0323536960884835
0,036049919212019
0,0268645002774331
0,00523183947095102
-0,0304927361638514
-0,0328887509804178
-0,0522778572062596
-0,0309091082151791
0,0270917942002939
0,0101379831893584
-0,0197494400170528
-0,0203508781623029
-0,00923315596225839
-0,0224054180786457
-0,0218790058955388
3,71225459606847E-05
0,00379987095977747
0,00668164585246686
-0,00101068432278773
0,00567911617989661
0,00734564643280709
0,00453944032529684
0,0187807288893013
0,0556230110350387
0,0610420993672502
-0,00257762985582124
0,0153546888785064
0,00839008401363927
-0,00138112012583601
-0,0147610505463561
-0,0427049787789846
-0,103086520123687
-0,0663409143356917
-0,0395313606578898
0,004986582058612
-0,00231615779851811
0,0209926756037651
0,0255924663553218
-0,00659433082456299
0,00393384992874967
0,00270192216595143
-0,0209764115276437
-0,0237065432951382
-0,0087464503492944
0,000970516330442705
-0,00646332760611881
0,00683948582630271
-0,00500114228327864
0,00136074634155259
0,0146136570385905
0,0361747018392582
0,0603025309880149
0,0460967406371154
0,0380647384980528
0,0353509452671984
0,00651840341273179
0,0194560943229577
-0,0702180143101765
-0,131979983432586
-0,130087861444698
-0,0686520349537297
-0,0241882477111902
0,00854301581102869
0,0131047567928666
-0,0209038130072977
0,0283084696220468
-0,00157747619054722
-0,0176484173287245
-0,0169208990708559
-0,0521919801569056
-0,0391918807373379
-0,0185663808249045
-0,000969421436134406
0,000554011576375626
0,00550474049627615
-0,0089080900177614
-0,00733410474866369
-0,00429162501723701
0,0340440545005848
0,0389374499748742
0,0258930500292796
0,0160181031738011
0,0538864307726676
0,0486235470380215
0,020135699360754
-0,0499193466104822
-0,123704390269507
-0,123224997021383
-0,0351637733392449
0,0120594130170184
0,0810582792156453
0,0325171242275899
0,0251552703471468
0,0407792109987822
0,0127103691485046
-0,0352295029318594
-0,0609459588966778
-0,0681712058300953
-0,0378530161876803
-0,0108050879849778
-0,00708322176310343
0,00212626414867338
0,00371461272505788
-0,00118422999711994
-0,00200600378704607
0,00526146473423649
0,0232680667369646
0,0148149393589852
0,0250179658564147
0,0269012246668312
0,0222034508499373
-0,0113414071664537
-0,0164718251259745
-0,0781534815990376
-0,160506168038254
-0,170596285553848
-0,0613572602294612
0,0422269988269592
0,113928835551877
0,0568954629114698
0,00888302897875599
0,0170434782380963
0,0319740393808561
-0,0111799869760295
-0,0643881718254188
-0,0903906096137614
-0,0486226354381388
-0,0134007012309979
0,00216086277907684
0,00326200271549599
-0,00992814657560459
-0,00311148421224496
-0,00604481991522695
0,00799575222086193
0,0189984507897983
0,0252862347532375
0,0219281508620214
0,0259882799303906
0,0258812675998397
0,017483331056773
-0,0383022470393736
-0,0867439871653943
-0,172374521220113
-0,169733501733354
-0,0454759255662844
0,0806521626927105
0,110479602146247
0,0401023691041353
0,0147049243800417
0,0504134107541846
0,0574750972227148
0,0236467684642393
-0,0377837621685205
-0,0746410657892758
-0,0331777707143481
-0,00212906610227699
0,00322915316850641
-0,00035628816890799
0,00942661564589316
-0,00472063206881669
0,0115700644563665
0,0176440922240543
0,0201797547592973
0,0221872880946767
0,0218163765516754
0,0688309490189099
0,0360420548661567
-0,0167987987477238
-0,0334595730138901
-0,104711468204957
-0,165085740318938
-0,20647583946309
-0,0727321057844972
0,0491147594184543
0,0816853928204189
0,0479007270962088
0,0240608231396967
0,0150206866108209
0,0578642666934131
