-0,00909155503804402
0,00895504265043654
-0,000892403456798011
-0,00987296232947752
0,00488869165763664
-0,00550893274858079
-0,00558743739295166
0,00938023988128651
0,00587914081098472
0,0028166645173061
7,1128779124064E-05
-0,0095430307274419
0,00518580725529096
0,00869718967237403
-0,0030632611113581
0,00185638121700653
-0,00336955297429559
0,00440536296665918
-0,0045824405432597
0,00303380665044943
-0,00387407443200893
-0,00276198407298046
0,00928388059105905
0,0014087226294953
-0,00321905656401955
0,00768940340619972
0,00685584398771443
-0,000487485048588126
-0,00682483495996559
0,00535380012139389
0,00961108800937007
0,00839239937178437
-0,00120683646624059
-0,0083140631401543
-0,00617028300993748
-0,000737063012677889
-0,000828184686969674
0,00565783971657757
-0,000989075876352626
0,000933332330574189
-0,003055660949866
0,00869083984471313
-0,000329776691761007
-0,00797126981140192
-0,00325914464731169
0,0019547976921774
-0,00137376406097668
-0,00707851584735819
-4,90017900676056E-05
0,00733210488182516
-0,00709400664060477
-0,00640666147310284
0,00756664582414862
-0,00205545995014508
0,00136298803210397
0,00367042903493644
0,00967116205937749
0,00769887391370669
0,00334598577831758
0,00720060682301095
-0,00235941627427094
0,00490030063599306
0,00621271725021021
-0,00925103574685135
0,00646460881704409
0,00739155584580752
0,00651966821744052
0,0108910832695936
0,00982588075663664
0,0116256852645914
-0,0102790939289498
-0,0111742902560916
-0,0118402384033497
0,00807539218551706
0,000151475294200199
0,00129392415942933
0,00607869656276706
0,00266944665527282
-0,00577571927141752
0,00480618084100003
-0,000410309796853485
0,00433419415552188
0,00968249267883715
-0,00420517380079496
0,00238026282395248
0,0060119786467459
-0,00919578249254415
-0,00915662880639166
0,000295184868886154
0,000336482711081953
0,000342162525683144
0,00442139873931858
0,00412754281342316
0,02578588675956
0,028202526989572
0,059191332872434
0,0463985107356591
0,0445149628374791
0,036098266836946
-0,00345620140666258
-0,00195707724767493
0,0313240122327152
0,0231439172486974
0,0153345997091639
0,00915559949828052
0,00431566975252987
0,00958284670069409
-0,00542760575261556
-0,00762706124466639
-0,00570848047492411
0,00831648079476816
-0,00282511177138664
0,00372705493761555
0,00855444621450675
-0,00209600909666129
0,0037139704489879
0,00598231671076944
0,00344343363261147
0,00629970621812398
0,0241524065649739
0,0349560105234192
0,0534408406576212
0,0571812507912907
0,0866676489720763
0,0723757037093981
0,0375617489418004
-0,00942249372004879
-0,036400014387412
-0,000108120220744176
0,0407917061241701
0,0265480561675311
-0,0111451771911377
-0,0265607064247781
-0,0448390690321619
-0,0442574811846876
-0,0352821017247104
-0,00801846514786567
0,0012728978691256
0,00330147826363854
-0,00905679390689637
0,00806400317608565
0,0078179469321938
0,00904552830435351
-0,00328789715512614
0,00243105483691592
-0,000484888595311146
0,0283693499076399
0,0351897774692139
0,0796475975466748
0,106819752150059
0,114428282018611
0,100711456907571
0,0762812820989257
0,0511686253070931
-0,0355957756241948
-0,0447570865647184
0,0243994216569086
0,0419323992238398
0,0104710479893286
-0,00171103544319813
-0,0265146106835198
-0,0834779683713956
-0,106497191502018
-0,0877194892458667
-0,0301734672200442
0,0147969510426873
7,33062167561105E-06
-0,00474052765376172
-0,00591482950184254
0,00371723420905378
0,000102969040933042
0,000168993462503739
0,0142653038185953
0,0248727939085895
0,0633783130421
0,0971111170981454
0,137139871014494
0,150135643873877
0,117673557336693
0,0807738166398569
0,110866256639608
0,0724646551816025
0,0308613198744919
0,070025575246416
0,0836620109681179
0,0887596308592946
0,0258391559038184
0,00705606541586125
-0,033352268008319
-0,0651271178313091
-0,0897390611252712
-0,0787977788024122
-0,0167905291264912
0,0167795922075982
0,0119036245103559
0,00385220447167778
-0,00385432555601326
0,00151752903824094
0,00160000269144906
0,011801314204889
0,0190837018714318
0,0473975917685974
0,0938796710797367
0,121612296122998
0,159075684086412
0,156653977902195
0,132518681828702
0,103999911170206
0,100537331255167
0,10687879608511
0,089809156257486
0,144036964204028
0,122155018468186
0,0922942545724333
0,072181712000867
0,0234580204701872
-0,00140972669146111
-0,0193740218246958
-0,0428339947527801
-0,0342026425304723
0,0310791065069189
0,0172906215130547
-0,00377403747401382
0,00916364077670412
0,00120466074471628
-0,005377954535409
-0,00431759882338584
0,0034845366111298
0,0193812844232098
0,0436217760417823
0,0850892953009787
0,119181611216568
0,159664813263472
0,174459350098044
0,134545904664423
0,069608108576106
0,0745201097417487
0,056807128536737
0,103904401588964
0,101303093738141
0,0791546681978327
0,0333623654046122
0,062689239186947
0,060983262543404
0,0740699114211726
0,0537010668512645
0,0396209375319577
0,0442555263426281
0,0539153902207455
0,0251596471350603
-0,00355734598328839
0,00650035910385076
-0,00891886032306748
-0,00447694879706846
-0,00410367848540449
0,00261028269041811
0,0294099176687128
0,0488869646995869
0,091535451763004
0,108472330233979
0,123923623349419
0,113861671239603
0,0399720790572082
-0,0293113929838893
-0,0155128992202409
-0,00501574881997669
-0,00411656344568783
-0,0186868162110889
-0,0159809153870537
0,0355447609094513
0,0527977486710038
0,111542745023132
0,13419001404556
0,0966330163015766
0,0860758414435984
0,0901800943205323
0,0613112671619277
0,0384818007258868
0,0066395078450013
-0,00716624293379354
0,0018895092652854
0,00915107359035583
-0,00122472300980468
0,00480361882622115
0,0181856943845994
0,0341789510158981
0,0545366141375911
0,040844357734189
0,0484564647474274
0,0156430076455103
-0,0454729748415928
-0,120501614314555
-0,133464323693928
-0,138877823843557
-0,148427035827521
-0,165067152828903
-0,0755666706040775
0,0168428715270079
0,0782146683500895
0,112688778585523
0,142808020489511
0,101871484889379
0,0920566328508267
0,0702538341910002
0,0389299285569205
0,0152541956336004
-0,00121350227982065
0,00874547575884437
-0,00701651309926502
0,00772931740675208
0,000269928917884515
0,0155756451493294
0,00631359677342127
0,00237514740502053
0,00294827733294593
0,00542811738906724
0,00656942973722825
-0,0160234662610959
-0,0240614402282022
-0,0492173358982503
-0,127333967764207
-0,18288493972602
-0,172379192644236
-0,222344588238905
-0,0944965278150802
0,0164452647930742
0,0703376314132125
0,090181205544416
0,0744602439453554
0,0367703704460865
0,0264254791875544
0,00841587275291357
-0,00401205609609398
-0,00107854108462477
0,00165258663162204
0,00469808273594087
-0,00909459442457683
0,00146841431030595
0,00678191811237441
0,00656714628891154
-0,0154960710142108
-0,0283591801488777
-0,0024063756497235
-0,000890433148418009
0,0111150271307493
0,0243692263942012
0,0578374574983466
0,000482855308759799
-0,166243578993572
-0,148910301181469
-0,174932887283577
-0,172343532290774
-0,0446490048958192
0,0118951847045503
0,0462280281453511
0,0615554763800995
0,0468316515462183
0,02736616023492
0,00550510340410118
-0,00283162537781832
-0,00353989897754202
-0,000166703289146957
-0,0152351432049265
0,007533731590991
-0,0031535484307004
-0,00875852167768353
0,00707706369052285
-0,00959695032742712
-0,00998478832107219
-0,00924918215125295
-0,00687026603283881
0,021066816380883
0,0256447406229164
0,0594806683901544
0,0780589304698608
0,0185676702838743
-0,126303226244112
-0,0867666547451708
-0,137219546753304
-0,0983256119865805
-0,0413963504211328
-0,00919873785686453
0,0757240964302463
0,0653408637217991
0,0391622890730745
0,015790926908784
0,00430518029606153
-5,63644839192986E-05
-0,0129715125777082
-0,0110255339149241
-0,0175805886961162
-0,00686563913476101
-0,00700230921056056
-0,00589625257906348
0,0090285628184707
-0,00764305870569479
0,00263224482431764
-0,012843203178093
0,000956173127871208
0,0264120304276862
0,019112174401086
0,0619005958089738
0,0897623466320487
0,0221656228365942
-0,0319705654807887
-0,0155469354937744
-0,0732021267025035
-0,0625345904535737
-0,0645439952322071
0,0472116702465818
0,101777663732144
0,0776868900701856
0,0366583537065703
0,0037023758588782
-0,00808388810256548
-0,00844804827581929
-0,0265018607641492
-0,00283883422507655
0,00259474389624929
0,00481193425007404
0,00749337613279256
-0,00752795961526776
0,00533998569420387
0,00338287894250114
-0,00596605453755239
0,000529496698979577
-0,00443452609196563
0,00902799161558896
0,0367238166882212
0,0764800502392863
0,0691492279190925
0,0123616397632348
-0,0132682043077067
-0,0186596348695694
-0,108583342025569
-0,0754270927505723
-0,0748081878538497
0,0953633144572507
0,114434278895493
0,0945363926870061
0,0499834113783722
0,0222661439538652
0,011441360711558
0,00833658622183345
-0,0110402323391033
-0,00878086590441947
-0,0070272391538594
0,0025777392034792
0,00835652994384075
-0,00623070713390917
-0,00262005394609538
-0,0105044408274706
-0,00972392467569154
-0,00586848971184283
0,0144754048470462
0,026813869303665
0,0395894613548243
0,0312270862630397
0,0338751795858689
0,033547199756962
0,0523810375251337
-0,0621128546646032
-0,157406581821882
-0,0988051331084361
-0,0140612743964767
0,138994297364072
0,141321830983048
0,113124081221147
0,0801161486977491
0,0460661923898723
0,0275780212526294
0,0253278615281914
0,0203704740260784
0,0151142543586297
0,0106161745505397
-0,00287391552994556
0,00382920095409695
-0,00976950819975482
-4,44233804155865E-05
-0,00392538493172735
0,00788298493159626
0,016843085723982
0,0356665887728259
0,0386203811880535
0,0364429334472166
0,0262452101636138
-0,015921567882257
0,0239342483492489
-0,00344704124441309
-0,0812351307503934
-0,132976354396949
-0,0679137626196232
0,0902717181037821
0,149219919981366
0,142868551162002
0,108159021528675
0,0745669034257687
0,0422381556925077
0,0420659488854749
0,0372695337696596
0,0275950321576247
0,0201350785195764
0,0147800328138393
-0,00384056013991764
0,00366316881361724
0,00629434919394118
-5,69228327663665E-05
0,0051317847856055
0,0135586195412712
0,0365715646406063
0,0622353402485515
0,0816364043450339
0,0474094606617173
0,00234725291481792
0,010960251925824
0,00819594218062841
-0,0255233050697288
-0,0422537484526736
-0,0708048838626834
0,0343619476899833
0,122219068881493
0,106548541375152
0,11418469044683
0,104762865959875
0,0810386178679808
0,0647000891963552
0,068719395008083
0,0626579654890551
0,0409985086745239
0,00554631293267264
0,00382104321441575
-0,00126722296273354
-0,00921167485687402
-0,00849164339358704
-0,00675494654843233
0,00400815781862519
0,0112665091974223
0,0561305100694273
0,0807944088263723
0,0772997794356381
0,057333665428933
0,0283665221161541
0,0572486973106607
0,0197808538176236
0,0216605556643688
-0,0207440958759151
0,000667659626466795
0,0501529574365242
0,0556920700045558
0,0486205681228295
0,0503604929689374
0,0323418049403619
0,0494535764866237
0,0584427371106671
0,0701802974935407
0,0583389363305966
0,0255244084440984
4,24330275196072E-05
0,000243871650687636
-0,00522292224402346
0,00988516798237579
0,00182086930952024
0,01178630683762
0,0167307745796649
0,0218350446244042
0,0368398214095415
0,0221232520387476
0,0207581285327346
0,00974690017305041
0,0245111610631415
0,0183503979797666
-0,0164253609373581
0,0229022834563159
0,0190420912286717
-0,0201591658310303
0,0327818551056067
-0,0139112460180971
-0,0209883210170947
-0,00967370406404957
0,014880557777921
0,0579087321568308
0,074602625425615
0,0613032362146961
0,0390764176456186
0,01797540201053
0,00206768119188807
0,00692886576860629
-0,00944716477979523
-0,000428123377204342
-0,00764991331251013
0,0124681158613084
0,00848860238112365
-0,00137489659102364
-0,0336088901017021
-0,0278100882745156
-0,0144951069069756
-0,000755820515616928
0,0404631863233771
-0,0276808776085865
-0,0191898479349728
0,041768354569687
0,052460847248746
-0,0197962349893738
0,00264546220125018
-0,012857646365447
-0,0438346106614721
-0,0337576448142742
0,0129865170154822
0,0447112780215348
0,0507557511373433
0,0550124897573754
0,027294588862232
0,00286393669232733
0,008250257872685
-0,00335998123800172
9,57922485005088E-05
0,00156460186881712
0,00322428572524661
-0,00138625921375699
0,00394878851702061
-0,00243945544277792
-0,0724124259750828
-0,0799406531465722
-0,045042248287535
-0,00318455684393814
-0,00789481364545768
0,0265222742000367
0,0660802368768837
0,0801291709985763
0,093271467724811
0,0392103492575694
0,0467992782255136
-0,00650562724231151
-0,0978053114991033
-0,0791475746695303
-0,0219856544403459
0,0233120083939216
0,0444073790435169
0,0255364976142021
0,011018158031709
0,00924540639062008
-0,00671304891107059
0,00123450083935525
-0,00383735579610246
0,00307711340164631
0,0030747771789668
-0,00187896853555251
0,0124571417752121
-0,00479871989464627
-0,0635689157088237
-0,0705926673766265
-0,0216808673832392
0,0047299559160388
0,00369809562935836
0,0223259324283249
0,0584664691539421
0,038026030526219
0,0838716443418264
0,119405958872608
0,0508337531806333
-0,0183074162054819
-0,0685021977486831
-0,0239254984048711
0,0105359381908401
0,0187998851425151
0,0427934611981458
0,0144228974467398
0,00170752075107069
-0,00135514027394888
-0,00613584779270621
-0,0113089250254175
-0,00847320292073917
-0,000356254507953419
0,00610270996396556
0,00189169291931216
0,0110659620873583
-0,000978051289415801
-0,00305942918181152
-0,00717888733360963
0,0275205314454557
0,055588106137701
0,0608783692133095
0,0978518020750693
0,125944330420374
0,125977676732431
0,126975882864776
0,135693558357341
0,109148642751146
0,0728965273322681
0,0244393947102995
0,00177502531144347
0,00606087393260755
0,00902116420499276
0,00104267379112683
0,0120172371689408
-0,0106445636583413
-0,00172964562766559
0,0075174766903378
-0,00893426824866882
0,00599898258969141
-0,000669492991021599
-0,00311007140814796
-0,00171369542053881
-0,00650193435093529
-0,00315168171257283
0,00240298548689346
0,0148348836109884
0,0336970098171176
0,02334459238032
0,0348813300820729
0,0654230493635506
0,078925604421747
0,0647573619978535
0,0658562123364185
0,0687393350237685
0,0691871453089266
0,0454332768148378
0,0392214225482534
0,00974385592933852
0,00620710586644384
0,0128297324056044
-0,00422381624936782
-0,0105280505618473
-0,00229312111503433
0,00702564260545409
-0,00229076543519762
0,00119117140777909
-0,00293046177035685
0,00879567654747315
0,00180872317022119
-0,00318626248891757
-0,00517305252197529
0,00505716285069646
0,00594913108215474
-6,56721702502767E-05
-0,00136094624293373
0,00659200272974613
0,00705019647464798
0,0143890543683872
0,015904185202718
0,0190320231046399
0,0256619169471655
0,0164303997555421
0,0104105171660644
0,00118628709454751
0,00282941217084264
0,00143697864105123
0,00108611803483238
0,00555468544236857
-0,00251016289156248
0,00688699669331733
0,00126992707297855
0,00468671826092373
0,00775247906202912
0,00623748259443673
-0,00733206615659039
-0,00620873215431754
0,00857537887924136
-0,00502870186931859
0,00701697464893431
0,001851867415168
0,0100088353494825
0,00997950097341339
0,00901540308696464
-0,00929053545962074
-0,00535754155841716
-0,00381375900229398
0,00117146070219961
0,00481132716232328
-0,00635040808159697
0,00849095546387132
0,00206019462106201
-0,00416800713078266
0,00616768360538194
-0,000841298368147723
-0,00803303744856506
-0,00934287219852546
0,00236956602628812
-0,00768237873532151
0,000557007172861822
-0,00965595086089147
-0,00689444244694637
0,00305064266223956
0,00127951348725684
0,00414454756031956
0,00564336877113365
0,000115697844939167
0,00698519244649689
0,00860128899039761
-0,00457230108537353
-0,00823139698162274
0,00347006972575098
-0,00460056320512694
0,00443859298454532
0,00573677966172657
0,00461686865175929
0,00687778545232218
-0,00645474181281587
-0,000262265687098397
-0,00734806998866778
-0,00799552093166649
0,00658048047524899
0,00390024406551395
0,00102345473646347
-0,000229258691067461
-0,00436766185535475
-0,00472994595520661
0,00910829521674118
-0,00100841563707609
0,00503531374737402
-0,00768140507754004
0,00113255731348533
0,00607144323926021
0,00442994667889082
0,00667292550982578
-0,00125874855148548
-0,00305962273432317
-0,00133225688399573
-0,00720177493598617
-0,00972536102713613
-0,00329837966582197
-0,00486862037641882
-0,00245469511827011
-0,00870053582493987
-0,0240480203793108
-0,0153799652164326
-0,00310911010771519
-0,00514539402670291
0,000878605872912804
-7,15309035861764E-05
-0,00892314289460469
-0,000637455899213198
-0,00965475931736652
0,00785092010682772
-0,00459699421316817
-0,00784322878896168
-0,00079468651246032
-0,00797281207422391
-0,0084912278216757
-0,00148779058432569
0,000373314726340265
0,00100740262819799
-0,00201325779242557
-0,00651607868407212
-0,00693113779242791
0,000355541470274616
0,00248091810045339
-0,00985864193076413
-0,0082825923458194
-0,0232839823265327
-0,036479531664535
-0,0418278656546713
-0,0604398824303791
-0,0487145956609983
-0,03782839264741
-0,0346783113596344
-0,0405250844911533
-0,0309591150921309
-0,0200220990089885
-0,020209095698524
-0,00496350975712408
-0,00653296861606948
0,00236231528503535
0,000391248091967717
0,00116909173546
-0,00109295192403468
-0,00174145937512697
0,00622139425772307
-0,00410692570456626
0,00290935684596624
0,00951861433062934
-0,0059482974423699
-0,00485811747863235
0,000923390577284809
-0,00814566698875017
-0,0312523420140683
-0,0272617936691049
-0,0636321169239986
-0,0858925070793917
-0,0846058629590137
-0,115531995992235
-0,133187243967004
-0,119628921616213
-0,105235148065354
-0,0768480504211733
-0,0565343789998202
-0,0453438018332068
-0,0279587035385665
-0,029498503381904
-0,0133924478386946
-0,00765391391625799
-0,0287020966363937
-0,0158756525962294
0,00538204034669151
-0,000990715570464041
0,00656498239215695
0,00174100405152003
0,00314462735877954
0,00118031012706226
0,00379975592792684
-0,00718860214119821
-0,0219079211278981
-0,0323845927315667
-0,0471373297850589
-0,06232955099984
-0,0905627122237171
-0,0985383048516333
-0,0639667144646783
-0,0631231202256454
-0,051127106712701
-0,0392926389626388
-0,0115715899518513
0,00324753317941753
-0,0126333093879782
-0,0462947399867376
-0,048087950429078
-0,0502760913606815
-0,0360180047709658
-0,0220723741673563
0,00505137886181872
0,01987407622823
0,000823576042847702
-0,0049240759364114
0,00120636757496474
0,00355171391440169
0,00548352790786118
0,00256536186358136
-0,000705652813412292
-0,0159742182737677
-0,0183811716331191
-0,051677427488475
-0,0676536309879401
-0,0788123632126544
-0,0765240555742594
-0,0726148849771932
-0,0345829191220737
-0,0114079820720373
-0,0137543019477493
-0,0354414305551074
-0,0806523878895507
-0,0661697164883523
-0,0411234502140384
-0,0687894253974305
-0,0519637978259857
-0,0178687325052015
-0,0235003469715069
0,0013389870037382
0,023711799579953
0,0138880652201438
0,00805317810010026
0,00754524435090853
-0,00530918735593896
-0,00523575770446833
0,0013902375038111
0,00520930844918405
-0,00320228001579028
-0,0130398891548316
-0,0178467242425431
-0,0351303994783924
-0,041847489536349
-0,0264090076229665
-0,034557957969183
0,0108499166127917
0,00549528178379421
-0,0281651894435578
-0,0285598121174551
-0,0285246850343696
-0,0522632072934302
-0,0460353181810902
0,0392746654177405
0,0409902942009248
0,0550893923845694
0,00551196413476913
0,0403223614735289
0,0646156769611861
0,085615805492453
0,0399359609886517
0,0316632954932297
0,00469085081674372
-0,00148714421631747
0,000946665496531443
0,00957903043163593
0,00117215883775431
-0,0115292340204318
-0,032878105501868
-0,0111302998362229
-0,0178728198809987
0,0175161018979528
0,053265834327428
0,0393148332990249
0,0459614793660865
0,0212897582091506
-0,0184528681544965
-0,0187080575302829
-0,0470720545758484
0,0133119503870869
0,0395466186900307
0,101740981352851
0,117871075131117
0,0903044893269237
0,0508423896828835
0,0700507708391464
0,0674503388342774
0,134623796993994
0,0971178006328902
0,034847170462615
-0,00205290294443976
-0,00999506480585663
-0,00900208010200933
-0,0108189737509524
-0,00108771059531319
0,00743821849755953
-0,0304322981890465
-0,00117111062703875
0,0263381175735862
0,0510825617262714
0,0607499925610519
0,0668563091722823
0,0420949368885213
-0,00413839741742333
-0,0235364779314574
-0,0141202656920197
-0,0177663729489369
0,0123527886249765
0,112066514571066
0,101462203286091
0,144640786837369
0,102151248334573
0,0890018819049714
0,0892805084486338
0,118269638310496
0,174578104990625
0,140417108757103
0,0686423717179998
0,00726109702458379
0,00660789808022154
0,00763742011288046
-0,000445487812664113
0,00155841428254288
0,00661389768117729
-0,0145947509274471
0,0147622218936374
0,0156131785178768
0,029625485458039
0,0352653217834035
0,0618707904641067
0,0625493111856903
0,0257106894526438
-0,0142655056307595
-0,0392975742191138
-0,106520939909193
-0,0369412394341671
0,0637975184676286
0,113616701145649
0,119331321118718
0,147027589006597
0,0776882796982903
0,0912212026962514
0,110731904931249
0,173574928590675
0,141979322525277
0,0700460054716862
0,00970746845520193
-0,000495108999535754
0,000425221939716811
-0,00611263316428642
0,00989879393690292
0,00212559940161371
0,0260937418802003
0,0195735195088111
0,0277918108229777
0,0284790259405097
0,0604808046342536
0,113518921964259
0,0825247604098808
0,0982570606882747
0,0712089764767232
0,00921772064717989
-0,0928355421810077
-0,00724287181272105
0,0805291596765496
0,0911609418746786
0,110427561107168
0,0672265919741034
0,0391598868429004
0,0471081118084308
0,0727058247331932
0,0832797830357408
0,0736305561706247
0,0428956946500637
0,00483082639663609
0,00259686676833928
-0,00136982217560149
-0,00104898224960745
-0,00421740529262358
0,00379306471754493
0,0229619126149659
0,0353298762349725
0,0856876633881618
0,107664323205356
0,143652784504967
0,131868934362287
0,184409360743038
0,198780731137801
0,179515093800446
0,0817275461925607
-0,0412215682696734
0,0103593158535525
0,0680471096273442
0,0901661160164324
0,0490649278772558
-0,00415489289277902
0,00291275866430561
-0,0113401785484314
0,010585816419613
-0,00928292004816159
-0,00326274588820157
0,0114539377295215
0,0244897437843311
-0,00212145557648552
-0,00706863580606029
0,00783359089778557
0,00135247512975702
0,00134901108139111
0,0362728920771773
0,0799415255238567
0,161805816007562
0,198218525356543
0,166407034702786
0,161172945421364
0,187879884247999
0,216064657916908
0,199137435422838
0,0823848702407139
-0,0625134961554469
-0,0421340911095325
-0,0074576317732341
0,031480137885905
0,0223051596934291
0,0191538226316465
-0,0186785552165269
0,00895693059889658
0,0154871016769611
-0,0382205828713612
-0,0424058887156733
0,00947958037576315
0,012226017451757
-0,0090917688009897
0,00275039232171563
0,00126431660327293
-0,00587163259562053
0,0035833206075157
0,0544401476000611
0,145964326936357
0,182405974537608
0,210284668682101
0,162192266713355
0,108936691605403
0,0974786199046038
0,132105676825361
0,115534984895068
-0,0253667667052759
-0,109285131128953
-0,0414538591183828
-0,0502173812573568
-0,0206878667172311
0,0168237495047794
-0,00438619443454003
0,0115675362986374
0,0198548135453422
0,00920687971737248
-0,0759420732327315
-0,0689296158246202
-0,0224459462098668
-0,00287886595885039
0,000428912355118412
-0,00675118799547163
-0,00682802926264617
0,00846306884844084
-0,00404216914110216
0,0589219346495225
0,103666944208336
0,0863857050242952
0,107691627519205
0,0580790268040147
0,0427624680040093
0,0763315101890907
0,0738834637952163
0,050695076046251
-0,0843226975245622
-0,11454288898047
-0,0855835981555053
-0,0955368957751506
0,0653051499486791
0,00267215708211381
0,00700220449922789
0,00396202117960969
-0,00494976349370571
-0,0164206797844993
-0,0586290092479773
-0,0432387722864666
-0,0361752896516713
-0,012011865858024
-0,00478517937950468
0,00501639498653884
0,00279844467019735
-0,00348650319735412
0,00151488830679042
0,0223364851587393
0,0022986570246092
-0,0082342729957851
0,0336840343637482
0,0445270123490454
0,0280243411524914
0,0484345276244134
0,0452817460022496
0,0133032838581109
-0,116679221509683
-0,166061495373531
-0,0772638459942112
-0,0385264997656303
0,0541920362633527
0,0220169375743936
-0,000894967296616656
-0,026437039935767
-0,0293241065413852
-0,00805345527140866
-0,028005345777973
-0,0703977703360362
-0,0656291906108511
-0,0229060900954182
-0,00272883945641854
-0,00330371532885086
-0,00629881484628386
-0,00327915589339667
-0,0270201945084978
-0,0404763098049767
-0,0558514504048244
-0,0809879496650373
-0,0112863562987152
0,0564558180460711
0,00731389560619223
-0,0073315400171431
-0,0361045646003824
-0,00887954920168715
-0,0956663780072218
-0,134417447428768
-0,0222571305381386
0,000186174864757609
0,0797105484170875
0,0188357245223964
-0,0413955581511652
-0,0409781989391284
-0,0415976388758385
-0,0595692024977649
-0,0485540140170208
-0,0833530204402951
-0,100929321442691
-0,0308824869356478
-0,0130493444571088
-0,00578172469315199
0,00323137081810517
-0,019170495085328
-0,0517685705000103
-0,0625630038982484
-0,0718597513081631
-0,0981034584417393
-0,0481617065758911
0,00144591088501775
0,0267214851618138
-0,0360906390450342
-0,0432717251399906
0,00411820870639645
0,0282038772035987
-0,0456905687070819
-0,0159832812931383
0,0309310856859648
0,0330836631809034
-0,0163542045601447
-0,0325916966275759
-0,0166698507516207
-0,030448284861211
-0,0686761553618536
-0,0722343058502818
-0,0873784690173295
-0,0915619581608503
-0,0165967523370991
-0,00902328677675628
-0,00782349553768226
0,0060079011191594
-0,00568201802293347
-0,0700910840884715
-0,0815207473268374
-0,085998106199105
-0,0442167972713611
-0,0585651198649573
-0,0385449604762501
-0,0213611461485863
-0,0728161037655213
-0,0580990625252304
-0,0577285652917668
-0,0060885924433117
-0,0326343121486901
-0,0135226266747554
-0,0233374075552718
-0,0552377678150699
-0,0672058447993213
-0,0187116435843376
-0,018981091653227
-0,0547767763443577
-0,0897303463887242
-0,108759322998877
-0,132633737332522
-0,0851692681089516
-0,00221797213788989
0,00344346870062676
-0,000880509360591148
-0,0090713718558417
0,0061529342676101
-0,0459231606264918
-0,0834052700241873
-0,0481301202402256
-0,030809667854663
-0,03769252860125
-0,0759600876763968
-0,140792584601845
-0,15916031892976
-0,143699449746355
-0,0614370289135718
-0,0467437698331805
-0,040794909393944
-0,0668561601497786
-0,0538966120646316
-0,0653408873667309
-0,036943027013761
-0,0263033799700823
-0,0120416496803051
-0,0431279553913596
-0,0592097243051356
-0,0905336444128809
-0,0881602597065209
-0,0499978628282869
-0,0180285836266063
0,000191312394152576
0,00138838830934297
0,00600906564885309
-0,013136754169332
-0,0432473353777975
-0,103774984635622
-0,0683460055267871
-0,0556228747812205
-0,0900685069853912
-0,12689574381634
-0,206314992096778
-0,175600699689516
-0,10661955119152
-0,067084857404786
-0,0163553407398046
-0,0899025730860224
-0,0395257765838176
-0,0517809097242312
-0,0172028216284433
-0,0424520853599107
-4,18979370187692E-05
-0,00672606301181955
0,00679553526291298
-0,0206489442001918
-0,0755419607828608
-0,0652783549273141
-0,0361154665811
0,00163821005840069
-0,00482965462816605
-0,00499232444542821
-0,00063251729935244
-0,00256284921366628
-0,0350634981256295
-0,0817320164451038
-0,0805920930224765
-0,0534798159319195
-0,0496432770814612
-0,106580334736387
-0,151160853737363
-0,186204366193038
-0,131433820279799
-0,0757826733821693
-0,0976569631157903
-0,084644328724026
-0,0553122788988586
-0,0505975212293292
-0,045022991519359
-0,0501640958690867
-0,0340432243800641
0,0207059983204765
0,0393583293884997
-0,0161414488765235
-0,0673383959220827
-0,0344378826300845
-0,026121441448393
-0,00818787586806671
0,00580542249439362
0,00755042708933289
0,00814564849837928
0,000327252071282235
-0,0229027785828006
-0,0656629006145541
-0,0776557928564996
-0,0434207154788177
-0,0346619049229767
-0,0463089625186108
-0,111971249298731
-0,113244828324532
-0,0908337126650833
-0,0425187904931554
0,0332035697140738
0,0156914596125719
-0,0172814597608059
-0,0209703489909839
-0,0172396525719384
-0,0396765042262366
-0,0370010813971036
-0,0403742701444366
-0,0203926817015876
-0,0267802785038232
-0,030846206774099
-0,0172212816936816
-0,0088320645648047
-0,00928029271696857
-0,00073537031132333
0,00313433970004988
-0,00235181565040341
-0,00282500185815374
-0,0131775634515237
-0,0264917976479699
-0,0660151711723926
-0,0407441564052471
0,00310932255170136
0,0308691712974259
-0,00589884523174968
0,0493267072389476
0,078425132263416
0,0777966689505588
0,0911735356058298
0,101744040003199
0,0558244731931862
0,0329958446335665
-0,000635666993462691
-0,0291009319553369
-0,0550503229051014
-0,0436648344785044
-0,0162435012436159
-0,0117955088329829
-0,0139708440709041
-0,00765851813748676
-0,0142420475707162
-0,00499845148584752
0,00152902929649178
-0,00356004489285873
0,00941771089072233
0,00420980384665496
0,00832390455397603
-0,00105870669762935
0,00455274631053967
0,0155822599583235
0,0646359227395162
0,0939195728798659
0,0867014934812072
0,111210995197141
0,0993025806227446
0,0652440593075468
0,0463919764972337
0,0143428261981285
0,0123163479590711
0,0195703573862767
-0,00974446010834505
0,0128691600394517
0,0378550922199475
0,00644431021250745
-0,000686838104930866
0,0211054762480563
-0,0073489734532278
-0,0149969655610824
-0,0103952454284477
-0,00498895537941859
0,00992891760539679
-0,000319311744682171
-0,00978297119950083
-0,00752767894359885
0,00383884608255827
0,00206468648665233
0,0267870481791856
0,0246248694931026
0,0687420746930852
0,0783439885948833
0,0582528806079421
0,0702040077881155
0,0866073096243702
0,0572733000608813
0,0364316575636537
0,0500755367403434
0,0523012382759834
0,0483079929920202
0,050923974779373
0,0426548710407774
0,0474589330155637
0,0160525913546593
0,0122456486826323
0,0236646468597183
-0,00156738535641152
2,96202806074829E-06
-0,00442463147086357
0,00636672453629101
-0,00749814269947733
-0,00785254300471979
0,00177280901548118
-0,0067292679737924
0,000903778443930693
-0,00803169304545195
-0,00648366152622953
0,0150144558080946
0,0122991905637757
0,00683548061460353
0,0187742797794811
0,0218006332793146
0,0240598928748296
0,0191076781888585
0,0210836459149287
0,0315780287743777
0,0140862921668175
0,0100131172712037
0,0168688570685464
0,00819325901792122
0,00807988997430651
0,00825594983805632
0,00596830004453077
0,0117887213558714
0,00455087989977612
-0,000928836414299867
0,00374016627532854
0,00293503449900776
-0,003506046092839
-0,00824477366090043
0,00789428481734092
-0,00941445606733414
0,00448096366342202
0,00716592540289108
0,0081609670835871
0,00539636780594973
-0,00424909225113659
0,00991455200240675
0,00682152104479992
0,00872589937918265
0,0010303552783677
-0,00436245129215754
0,0106719245982928
-0,00750765469484586
-0,00198560479185571
-0,00875181422882829
0,00363361515887048
-0,000950166777532738
0,00872654689672433
-0,00353542971645148
0,00159694110806458
0,00784385515564236
0,00449248774379327
-0,00870759976967592
0,00153861950688931
0,00215123655840346
0,00182125517717621
0,00291751213973272
-0,000811646855814217
-0,00829182915309995
-0,00334087188976857
-0,00214680651768428
0,00324381396791144
0,00221142805750083
-0,00120237202905229
0,00512383226078182
-0,00695447884358209
0,00284379107544375
-0,00147848449250613
0,0025935116398242
-8,68466931475456E-06
-0,00269556180877035
0,000574790592848303
0,00771937992317573
0,00635091014036485
-0,00687673226784763
0,000729798074220214
7,40625290544996E-05
0,00188895826781586
0,00357677820770851
0,00619785575950419
-0,00373551631985955
0,00468602675697116
-0,00928000574897975
0,000324310329893749
-0,00963987610286096
-0,0039124783193285
0,00318856343309794
-0,00438090287818615
-0,00402580210338594
-0,00651166613479665
0,00194486909910872
-0,00117138687317232
0,000593623368420631
-0,0010278233607715
-0,0125961772609317
-0,00432294185228804
-0,012245615138144
-0,00631555964824955
-0,000326739780457112
0,00481887583919002
-0,0174033533391601
0,00554285141976952
-0,00638675973360007
0,00251973801536958
-0,00719255733418071
-0,00479520528775497
0,00408201977887431
-0,00660054579832364
-0,00158464822526306
-0,00857856151581675
-0,00825280735187829
-0,00897144612808314
0,00561157493647727
-0,00448968491260413
-0,00960983212767796
0,00314188889654965
0,00244891426168478
-0,00815285490927534
-0,0024972825649025
-0,00566410607311366
-0,0102068239947831
-0,0209364451956892
-0,0381069164898231
-0,0404614596364752
-0,0408235530523138
-0,0511871500673787
-0,0446748237824993
-0,0430329807396901
-0,032248803254953
-0,0331563705781942
-0,0249913618297383
-0,00664756672389862
-0,0228796794106065
-0,00399252375067589
0,000422136865402584
-0,00641332371008476
-0,00117000647373229
-0,00339696697468964
-0,00379755574921032
0,0034009457255718
-0,00069112064814713
-0,00175292665686129
0,00723625130633162
-0,00567555611028267
-0,00819338404193277
0,00150218801593476
0,00301183837219665
-0,010923898403996
-0,0303074779425491
-0,0552708225316831
-0,0680618264391731
-0,0887296332128377
-0,0900837396768003
-0,121835973277967
-0,0967121996040713
-0,065763318023642
-0,044338130880853
-0,00813483883517326
0,00961023661112917
-0,0188916804934317
-0,00616305316856729
-0,00263292228497917
-0,00242535073844967
-0,00393792090671805
-0,00533503214285409
-0,00846677605775226
-0,00978519184841823
0,00949487624666415
-0,000660197870181966
0,00308443532902155
-0,00648724751100941
-0,00280105675891168
0,0103858481309531
0,0112046276418756
0,0179537195739232
-0,0113399496974064
-0,0227546287443682
-0,0427999687188534
-0,0358420649790885
0,0124565520424477
0,00895525691238004
-0,0262840011870198
0,00935163444156279
0,0412749159909919
0,050678713974838
0,0431971157915664
0,0950777398459014
0,076619342441073
0,0264928571742603
0,0124467248456794
-0,0141592958533674
-0,00508769211194397
0,02308876274411
0,0198767838864439
-0,00655243375093353
0,00808405982330137
0,0071136811175913
-0,00951322687767131
-0,00352011170232872
0,010591349158664
0,000533826400079353
0,0231662523072893
0,0268729659365792
0,00493734694923223
-0,0427731005165883
-0,018857845784961
-0,0178621177610779
0,0651580285261631
0,0139845411544411
-0,0416376041547322
-0,0442295863008356
-0,0328778703675103
0,0353150666118789
-0,00328099922397672
-0,0485399324758873
-0,0214217790519666
0,0264773714685649
0,0283781611930509
0,0395920653619207
0,0287179419983323
0,0385339793227377
0,0292772775084042
0,0081928012609361
-0,00277628916438312
-0,00782576097074233
-0,00166089996680475
0,00446391319938816
0,00802152236636168
0,0121742929609591
0,0225900734073762
0,00442883354807187
0,0078122207447344
0,0616103019268069
0,0647751012933084
0,0499537245205833
0,0851830852307337
0,0164749288325491
0,00335627979185944
-0,0438264195812004
-0,0622328784645828
-0,00557211170267598
0,0291370892630842
-0,0310332430530073
-0,0299231244804184
-0,0132288199433057
0,0203330198893501
0,0796894504211372
0,124518992408941
0,12871867019283
0,0902118075535941
0,0339875848442115
0,00833893815088266
0,00656838012313489
-0,00360149987878315
-0,000981185150164697
0,00916240636446531
0,0149508303680398
0,0456135491537273
0,0257529792526713
0,0562208909740972
0,103217270729033
0,0790486386767811
0,0819154759731793
0,0245336943904672
0,00875618080445724
-0,0419255328108282
-0,084407764485496
-0,0295213065886729
0,0306646724162475
0,0471593613379901
0,00643512913330273
0,0256849129193039
0,045411531325426
0,0513521664931718
0,0977522422852402
0,158179810731357
0,155817096307516
0,0930241476132163
0,0296410470017909
0,00381934822774499
-0,010251039654008
-0,00149927091852071
-0,00511587822465039
0,0289971986136004
0,0309586200898803
0,0413194005673081
0,0444250410546085
0,0445669043188593
0,068649363737235
0,0684603101743639
0,00840083550610726
0,00155299851680835
0,00753622288320595
-0,0265968757026236
-0,122854101663272
-0,0997857113537571
-0,0497812331994913
-0,0114587544113283
0,0476513890662843
0,0717542586691148
0,0200822977452232
0,0665192755630855
0,0982751715151265
0,111630975494695
0,179828564434207
0,101648025444713
0,0252248448646671
0,00639682429352919
0,00383913059658822
0,00169065632608674
0,0121810741752235
0,0282204507081125
0,0272778415522356
0,0118692850609229
0,0434829658036241
0,056936578717991
0,0510334238061056
0,0408230696732603
-0,0131789669682739
-0,00155179354904321
-0,0676410089561587
-0,0954034392264796
-0,146875593238792
-0,155336889501928
-0,0397735732926136
0,0246123495097204
0,0155257930742245
0,0312484849042426
0,0283076720515045
0,0907174644548132
0,0859108040844127
0,103451061278214
0,150946894979457
0,12306311515403
0,0318975650664378
-0,00139545576614303
0,00512344283820441
-0,000146001263221256
0,00960683419883257
0,0165691388650913
0,0273072302003765
-0,00338271030043275
0,04104766362547
0,0816730721654396
0,0758888550665312
0,0572021834053978
0,0820037381947728
0,0549548807712541
0,0351166219692439
0,02112008038733
-0,0597561076358322
-0,029501766872395
0,0305713541397426
0,0160543268037467
-0,0125769072461741
0,00403427227618528
0,0555678782874862
0,0895351597924203
0,0695138121043988
0,0342150914893026
0,077111647259146
0,0986398702361228
0,0332436267127339
0,00939398434239913
-0,00620532197727722
0,0101413584809039
0,00161922506525377
0,00854369901661488
0,0184855601326697
0,0182101435391604
0,0520821086225244
0,0962279502911847
0,0772980346896417
0,0847119538182356
0,109892025178041
0,159215112466873
0,182471061408059
0,16376558610199
0,145387403408004
0,148559257974872
0,0834650837852575
0,0894764505752414
0,00736599597293735
-0,0200783390108273
0,0269921639204713
0,0035467307757669
0,000951023774617522
-0,0105268239666629
0,0306605822104988
0,0720883425732663
0,0385243391327464
-0,00622883746702941
0,0019759419627218
-0,00689176758518824
-0,00698365748557816
0,00967389195653998
0,02545816101931
0,0220368380811962
0,039817879554549
0,118231095821606
0,101939474079638
0,105510228256426
0,158733167066859
0,171247459406576
0,143031134528494
0,126525885060532
0,202013509201531
0,177830026496781
0,135531090270281
0,0484418145653005
0,00924865360154682
0,00202370897245684
0,0351709353747284
-0,0261807655293116
-0,0540858029815123
-0,0454344499508857
-0,0487220344258631
0,0155030648173405
0,00733267748964818
-0,00122924122895509
-0,00119826150463935
0,00506625427439371
0,011573549233642
-0,00631028395472706
0,0124782552246496
0,0332105595224595
0,0130931317569207
0,0654266567691242
0,107171706876581
0,106316898779527
0,0616485057958534
0,110056042420792
0,0839822249168886
0,106938197800765
0,174052905555188
0,201724352184951
0,154347267383446
0,0558737788626432
0,0511866472198772
0,0279950505729259
0,0772474883498743
0,00148846468576921
-0,0530746368168376
-0,100893634690333
-0,0808243698704565
-0,0163257654645448
0,00578853536280987
-0,00647789160345347
0,000691448571256598
0,00117891443442604
-7,96232761012866E-05
0,00820000975959565
-0,0165871389552424
-0,0191251449934441
-0,0654298514649964
-0,0917022729109121
-0,0272447946116265
-0,0100605007673343
0,0224619013312504
0,0382595530143206
0,0786642650010291
0,0950186986088439
0,181864444273789
0,207420747418527
0,129845251532298
0,134187344390645
0,043016328144399
0,0148545979342013
-0,023781850966343
-0,0402821965094178
-0,0415239051543369
-0,0669467501534982
-0,0530159908116957
-0,0269055492689858
-0,0200813841705027
-0,000260511373986732
0,00913031930568852
0,00759187071324449
0,00875168894688833
0,00189010833678691
-0,0487344920594263
-0,144103290839721
-0,152484704821649
-0,190977353835072
-0,1247285338477
-0,03331758819718
0,0108479749471688
0,0729192070568264
0,10202823592997
0,105685612705451
0,164999523606947
0,172912012389194
0,122550670252924
0,0928138231368591
0,0211114836357772
-0,015846734079155
-0,0841576956215925
-0,0181835051587052
0,0164987906824998
-0,00749107614775346
-0,053217224750802
-0,0486416230914708
-0,0151061239471585
-0,00506871229020607
-0,00356032260795225
-0,000383816335103653
-0,00628082075058909
-0,0138527157172365
-0,079269864290945
-0,179254156534498
-0,217034128338968
-0,18872547563685
-0,140626653617226
-0,0877241101623945
-0,0895382009418547
-0,064657787972124
0,0835475076360414
0,140019008184797
0,169011566184449
0,129563786812221
0,044960994828568
-0,0035843562507291
-0,0573315098745011
-0,111251842054678
-0,0996054722787511
-0,0346288882731184
-0,00346390368469593
0,00689199304948119
-0,0500607350593583
-0,0695911088718932
-0,0289621520581719
-0,0100419172385531
0,00258474852544477
0,000253180012662233
0,00240730841597221
-0,013721696283437
-0,0694440347071743
-0,153212322613654
-0,153464787923448
-0,185985110647636
-0,163733730525533
-0,174644618558964
-0,296310299605868
-0,193823610633257
-0,0734831240946578
0,0378712430204978
0,0673894309901646
-0,0127525988004821
-0,0599560143440852
-0,0872681435217523
-0,133368772500212
-0,117277224739983
-0,09626927419309
-0,0317135030576563
-0,0464391527346473
-0,0278277534050215
-0,0812502747670199
-0,0786581495480793
-0,00978287283018361
0,00548978600062416
0,00766457742171689
-0,00731398884080295
-0,00185521984483396
-0,0111632665216384
-0,0673647520099251
-0,108243439008892
-0,0757522010337895
-0,134470341584805
-0,136581600234454
-0,218518230595105
-0,327293240860626
-0,258397872383862
-0,249235160184584
-0,077787640440055
-0,0688151062102075
-0,135716890619796
-0,164289063078212
-0,138377720763353
-0,139773088536952
-0,110314870335431
-0,0709092729689951
-0,0800484975065795
-0,090203487910593
-0,0722833728024224
-0,103333354174999
-0,059705508393666
0,0056970389817733
0,00940742060924436
0,00896484603508441
0,000455519099827063
-0,00271713299435665
0,00727204677033334
-0,0582300827899705
-0,04906851134387
-0,0301107242051916
-0,0561434281080489
-0,0852980664636217
-0,135799906486502
-0,14692084869909
-0,223535060853784
-0,208445904739554
-0,115342072879001
-0,0871749335429604
-0,0986031278232206
-0,0748630753499164
-0,0879153560920861
-0,097357868293454
-0,0755900212149083
-0,0709142698087108
-0,0904379279651054
-0,0789157078919145
-0,050471787386453
-0,0546126705658423
-0,0392526072181604
-0,0090278679824863
-0,00161839366800507
0,00643325558697491
0,00533296881918912
-0,00620199671589103
0,00627981816335483
-0,0508202752018712
-0,0574040126088587
0,00177957183167448
-0,0286976272847385
-0,0288844738884843
-0,0517692162429316
-0,0243386831605823
-0,0448052101593246
-0,104086438786278
-0,07894981984111
-0,0812642561168423
-0,0425114110567189
-0,0619833176373864
-0,0468471114243234
-0,0992661827579485
-0,083627292437867
-0,0797950618757288
-0,0633641278791545
-0,0275848964626356
-0,0532065490001453
-0,0343042802930717
-0,0289015325152583
-0,00524931784034621
0,00262170159795457
-0,00521691057067083
-0,00993967570131491
0,0140919087946601
0,00705396687506038
-0,00915183918775167
-0,0276538905538025
0,00854666766052491
0,0383728273457072
0,0407641180811175
0,0210629340468261
-0,00109085212092236
-0,00255121964954834
-0,0481881746108203
-0,0641838160562823
-0,0295160796584528
-0,00246083541433782
-0,0446281985666251
-0,0569758475318755
-0,120794103488729
-0,111240785070752
-0,0966190668400348
-0,0791222168665834
-0,0743174435254001
-0,094601507373169
-0,0570693975281517
-0,020590468144022
-0,00352139592619744
0,00043573740561954
0,0060176129524607
-0,00186926676368338
-0,00815977111394197
0,00719384433279617
-0,00346381065725435
-0,011983721458466
0,00102405622301142
0,0241511097058529
0,00237886756246527
-0,015175498876949
-0,0252812824737804
-0,0167424940759605
-0,0463664696073133
-0,0158190299422903
0,0258733275051548
0,00658068493926227
-0,00816270907610872
-0,00126250124829106
-0,0580926551785637
-0,0583510621965212
-0,0917335505550642
-0,103446401020476
-0,0850706066349598
-0,085674407221298
-0,0335229411619292
-0,012170538918442
-0,00401372709194666
-0,00864219283582815
-0,00706204940428121
-0,000775257074635129
0,00459149889324782
-0,00208689817824515
0,0157082200643262
0,00504504225657545
-0,00840143077795694
0,00736618147504173
0,000404477355448903
-0,0136824358953811
-0,0107594994272736
-0,00973776007078829
0,00381756189489843
0,0196133948462487
0,0614256415715889
0,102067766546391
0,0857093681326267
0,0724183898581685
0,00298034885705799
-0,0358950142592238
-0,0608150569119194
-0,0919259436454372
-0,0773605463474962
-0,0461828027152584
-0,0362200871074626
-0,00493740214910403
0,00662131719373854
-0,00902381721838555
0,00330023001567471
0,00289330451418334
0,0104533374602694
-0,000779020474153198
0,0170969619715342
0,0404528275753355
0,0422863512611898
0,0785574673302599
0,0642962348378859
0,0445034878551129
0,0676522150145011
0,0682402340298481
0,0273750940965031
0,0337658175658199
0,0696577234448045
0,0943491041782233
0,100248184754408
0,0753782643964546
0,0445086764629749
0,0356036055121631
0,00567399890383665
-0,0279927969700196
-0,0320435596338651
-0,00582638079948862
-0,0152432028897211
-0,00766268276112158
-0,00287989306822475
0,00818553391759542
0,00783372559483802
-0,00668461762214295
-0,0099449088596146
0,00403260210748746
-0,000989384410064078
0,0197564944928913
0,0324139912293891
0,056143894622473
0,100942689122518
0,110184591716279
0,113554260896278
0,121612622109146
0,109747268268508
0,114804585134657
0,117012230384124
0,108215306860732
0,113165662632954
0,102396549436196
0,0872329031964328
0,0421426930074604
0,00701931076693655
-0,00474257386996164
-0,0054147333236285
-0,00674268783772294
0,00482085505624828
-0,00240251506863744
-0,00819321969820584
0,000389910689736674
-0,000328939105537225
0,00951030202187146
0,000287726153753571
0,00761121039940342
-0,00211477177848047
-0,00117038101034278
-0,00658953690253436
0,0107654210946471
0,0153373036881812
0,0420790585278539
0,0233885039598179
0,0167018289935632
0,023895246952151
0,0297628367858133
0,041735927024996
0,0486643060983506
0,0398584794590948
0,0307053482325097
0,0220951988549842
0,0231288786525928
0,000557717113387294
-0,00570141188982007
-0,000222755713004935
0,00455122682281643
0,00136091733208774
-0,00895109157832872
0,000934577524165892
0,00390999459377955
0,00782510714504174
0,00487876293942275
0,00463197733025624
0,00302860837105131
-0,000419085447321334
-0,00970605533093248
0,00235159035572906
0,00337455488511247
0,00858675653339107
-0,00171798131510335
-0,00217759657182379
0,00548851101211264
0,0111144777905789
0,000568562592818708
0,0136779736650666
0,011869728613499
0,00206522568483509
0,00797354509156085
0,00421710917242223
0,00292843019520447
0,00123618943867516
-0,000353415320699279
0,00721401866249889
-0,00170970622240197
-0,0099069061222984
-0,00649726560176223
-0,00500029379269122
-0,00248323169186862
0,0017808773795985
0,0053149327427684
-0,00376679089561421
-0,00323262516094028
0,00559924281928653
-0,00364081581758373
0,00325747348985517
-0,00135660190664074
-0,00893214686723992
0,00518460392727731
0,00511978509608646
0,00536336184263386
-0,00744253195244587
-0,0105792739740498
0,00809194820604395
-0,0062271784050895
-0,00902923022351658
0,00471928212545779
-0,00919479299299177
0,00895267027381466
-0,00539149741427577
0,00166635143182536
-0,00233279033206999
0,00723026755136916
-0,000403690091522267
0,00926706058870398
-0,00544625811998092
-0,00112465034757026
-0,00897659545716671
-0,00272476819005086
0,00293551449334971
-0,00392888214156445
0,00523332989793448
-0,00529284884873006
-0,0106573113929385
-0,0122146191598739
-0,0159823118385084
0,00630479730228477
0,000993059702168934
-0,0107359174766081
-0,0197035878951797
-0,0127734648842291
0,00233137817279038
-0,00367132744664484
0,000448377344050959
0,00201260484713044
-0,00366907815233733
-0,00667839836077286
-0,00322310051263951
-0,00334003526157546
-0,00801911376491493
-0,00618711699586163
-0,00730247260877046
-0,00395296406650588
-0,00709173427759285
-0,00988547405222686
-0,00235227692516161
-0,000997058446983369
0,00716903758952186
0,00610405812498336
-0,00832765887029128
-0,00571298537632739
-0,00520299173838637
-0,00512827010547295
-0,0212958066952694
-0,0148770915182917
-0,0392035907263327
-0,0295873159984072
-0,0414554939765863
-0,0398943987660695
-0,0431910059995446
-0,0425990286709478
-0,0274909708782008
-0,0243734497100092
-0,0219371519260759
-0,0105453767302335
-0,00220819039366265
-0,00171204744604911
0,000399036619116087
-0,000921161826207045
0,000352373623441028
0,00624309983397644
0,00807482745408771
0,000943254703163754
-0,00911074393387453
-0,0024382972588941
-0,00663227616227666
-0,00153405859371551
-0,00788576019616189
-0,00876493481548822
-0,0012996999634817
-0,0150296163376084
-0,0388544456308576
-0,0437372614327151
-0,0501593906630626
-0,0686137016713558
-0,0937564388376844
-0,108586476135444
-0,0877958941799506
-0,0851231667063795
-0,0591024566158874
-0,0447167311126777
-0,0259925094129517
-0,0213626116513255
-0,0244179193684727
-0,011869815955042
-0,000905883722433077
0,00286590876001591
-0,0100121378551481
-0,00301029317684908
-0,00657917157197581
0,00210149322268623
0,000801889500954136
-0,00634035117928775
-0,00461162336765924
-0,00445289761614876
-0,00285335363234294
0,00602735334722033
-0,00781895611889023
-0,0172429925552877
-0,0344182923348706
-0,0464651615787633
-0,0703193052655793
-0,0881073474122672
-0,0948638463037646
-0,104122230466529
-0,126924723771278
-0,130875794037429
-0,0942020587295063
-0,0885543153182908
-0,0747220832791343
-0,039389542016888
-0,024927643139433
-0,00622033187074963
0,00772158955427993
0,00172427727497802
0,0030462464628172
-0,0111833293165977
-0,00897463857898921
0,00531202716494153
0,00886194158292466
-0,000690830932320481
-0,0011180208859668
0,00543178028657029
0,0087680663329028
-0,00166552062438642
-0,00971026966929254
0,00161720418909774
-0,008285934801582
-0,0226982156370036
-0,0416650840108762
-0,0234549961077365
-0,0107370606659565
0,00018309851420056
-0,0126878936358767
0,0190479134444643
-0,01776147593799
-0,0569382901989619
-0,0716634155872772
-0,0833500480451456
-0,104873566608307
-0,0685391860160023
-0,0305280995952818
-0,00813432612511967
0,00852154635384903
-0,00512610757628266
-0,0059914918953315
-0,00747141844303817
-0,00389283979958521
-0,00581866133476573
0,00730775567846384
-0,00624972257526598
0,00461634840571628
0,0198405695597423
0,0303475381264917
0,0225325899521666
0,014154148529435
0,0203932622422322
0,0390996238775467
0,0747565168360307
0,0411193295041246
0,0452240597394381
0,059258387481092
0,0765706349852395
0,112819157373481
0,0762116419962359
0,0145673210629943
-0,0567431301843494
-0,0818743210212331
-0,0504165887366136
-0,0633679443106551
-0,0425024497184367
-0,0378930537810504
-0,0216133609892036
-0,00569518452058038
-0,00556851290572253
0,00351316737936247
-0,00448451050397263
-0,0070303850116916
0,0115469730804614
0,0227806316443432
0,0303769086367353
0,0363366703354713
0,0264427943324185
0,0246206745193425
0,0758739207763918
0,0777498251533592
0,0362353373116348
0,0571180917191014
0,0429866642767101
0,0541677000217662
0,109031665512905
0,133842907149155
0,12394257751605
0,0494853023361148
-0,0112047671943986
0,00275187297666206
-0,0329981282950616
-0,0481825734504822
-0,0733959202057358
-0,0835648263334992
-0,0271631786570362
0,00228950392476346
0,00283476738654766
0,00548725690828724
-0,0102021921130765
0,0120783080815413
0,0140983848402074
0,0360864090390926
0,0418754411774377
0,0327412377651181
0,0350752508603245
0,0415475164536744
0,0505336427546768
0,033383893814678
-0,00221711376852778
-0,0255288467795843
0,00518314397180965
0,0713701581085161
0,102995462105451
0,0721787975058617
0,0559539604946324
0,0460227597023756
-0,00941046458885733
-0,0160760965031801
-0,0380426083440599
-0,0647664756861343
-0,0921577512583551
-0,0955840607383834
-0,058420378624704
-0,0158314027294702
-0,000998904089651365
0,0068328088847977
0,00942532275752528
0,00796648517423352
0,0157466536633021
0,0264553929641955
0,038777456366032
0,0163574345527321
-0,0330093534331806
-0,0391215992131292
-0,0149162528382202
-0,0235203428107426
-0,0274440177606553
0,017269850329033
0,0551735868472552
0,104006382531757
0,170183283422236
0,136514512773817
0,0980952814255254
0,06384098821986
0,0492065026701132
0,0184504567867228
-0,0286085467745285
-0,0609321953148048
-0,132794239551495
-0,117830084670166
-0,0727703485853117
-0,029760535067838
0,00731326346824606
0,00375450453473283
0,00179015195738202
0,00864270753622521
0,0135976599413767
0,000264895951047171
0,00361943544645226
-0,00618450967210633
-0,0730522840188437
-0,0442118656363162
-0,02450300265863
-0,0687331143031638
-0,0373398678018977
-0,00968655801845185
0,00225766838461376
0,0203086544480461
0,1557959226888
0,153587811158172
0,0687383774205749
0,0588411778399263
0,0273618155454023
0,00628381563054835
0,0062923245353668
-0,0476674243086775
-0,109435983864911
-0,127207028970964
-0,0737393018814059
-0,0160964999496886
-0,00662353176693281
0,00448986971288848
-0,00466346657753566
0,00990402883856017
0,0191898474477773
0,0221905539586731
0,00467890370896082
-0,0250608581910525
-0,0465299706501715
-0,011761815295235
-0,0114519143462211
0,0127742305509891
0,0615627183530367
0,0130865932704816
-0,0955508560665806
-0,040456664839663
0,148389904110963
0,155794104069387
0,11435592117098
0,0580975364833412
0,0199489135139437
0,0743705175412534
0,0351439956771351
-0,0211529956190325
-0,0955484848513716
-0,101909087739596
-0,0504592923177396
-0,00568637556890183
-0,00291017703600613
-0,00493671426872012
0,00354882034175928
-0,00308892336516442
0,011261980771278
0,039538307248552
0,0081808786692001
0,00155250762923766
0,0377045422990456
0,0510004349098544
0,0531953267056752
0,0720024758218601
0,0406631572003728
-0,0727311226949203
-0,152037533377117
-0,0352688716774614
0,141298921384692
0,13332535007235
0,0902469336845213
0,0850818221826989
0,0345127810024265
0,0194487322798868
-0,00573553984808154
-0,0198661412852791
-0,0762975360336967
-0,0997580893079978
-0,0173272117337163
-0,00682596720470427
-0,00535259921279872
0,00278091727252041
0,00443195740544548
-0,00192374460884748
0,00816415322629769
0,0560060284624197
0,0459627252620024
0,0634525473362591
0,0695503065645998
0,0964279584138976
0,0474115498157888
0,0659889992966844
-0,00969164474956075
-0,113023121507636
-0,141851019074919
0,0401191412957393
0,104425769709373
0,0969866569445638
0,0763685568085982
0,0472327334249049
0,0243242229990309
0,0348638485041941
0,0417192748809382
-0,0259088096013627
-0,099992564572864
-0,100616516525255
-0,0233968089926963
-0,0150609843502856
-0,00941982501683277
-0,00798147469573838
0,00395309924560284
0,00701629934873598
0,0226771441725941
0,0566245541242015
0,0450173793469606
0,0579009167418717
0,0632620430282393
0,0352144735948936
0,00271662221658865
-0,0108805503301072
-0,0473923367691244
-0,104392992570243
-0,0550110940390119
0,0154998299164391
0,0877849079671706
0,118861734553533
0,114548434013631
0,085582359610199
0,0924902451290724
0,0784938604570222
0,037883470539566
-0,00266321549500623
-0,0638932483715413
-0,0707760092574993
-0,0132222619146605
-0,00123014480154844
0,00663155132677135
-0,00413076410247294
0,00155666302546715
-0,00186470228317837
0,0154560142760696
0,0308328237908929
0,0245320287119539
0,0547035947306302
0,0227287613573918
0,00684484365601786
-0,0575077327186098
-0,063692076153474
-0,0700119254448455
-0,121600597789861
-0,0904600662913941
-0,051626576267267
0,110756344641816
0,166629384616879
0,154589517172894
0,076836303835357
0,0858146222756808
0,0627874683376717
0,0608456979731545
0,0233523278821729
-0,0688795384614386
-0,0692367111228902
-0,0273798553288737
-0,00281630301547726
-0,000444447103371708
-0,0061298553517322
0,0086012160330644
0,00228631266700457
-0,00131515477603536
0,00182081978161758
0,00108872849771312
0,0100749692446235
0,0733894239582585
0,0308999381425105
-0,0914612618082102
-0,120725586222204
-0,117257017953758
-0,0645133665248923
-0,098494495012249
-0,020898794676558
0,0866380843151767
0,0907084188122496
0,0910683483765458
0,0222557915483963
0,0323154038894574
0,0588404236066826
0,0752915036703231
0,0159579193754689
-0,0449448571401428
-0,0678522179231416
-0,0392544318242606
-0,0140507078355693
-0,00658770566210697
0,00890186852724379
-0,00127157139491766
0,00311190184422684
-0,0261974210375914
-0,0299300275564624
-0,0422191652542904
-0,0434451496039612
0,018143867193372
-0,0107294461203414
-0,0796528008053518
-0,125057749565217
-0,110122777256286
-0,038584566628408
0,00449484989720434
0,0173080812629373
0,0557947211519987
-0,000242116004708135
0,00384636543301688
-0,00508931436706678
-0,0499700780356166
0,0239339138627203
0,0272969715098869
-0,0136737138914965
-0,0586875759990903
-0,0534083890392565
-0,0288014284340858
-0,00479579949215671
0,00337576507526503
-0,00871013107500817
0,00774736300823581
0,00120932366450954
-0,0367444210252276
-0,0627812928585779
-0,0580777404200934
-0,0989455820461778
-0,0845716345528889
-0,071850241801002
-0,0849741903416417
-0,0831878158238426
-0,0688531595772415
-0,100923970529027
-0,0740911564879941
-0,0386562717764127
-0,0129216786848597
-0,0545976557082723
-0,0975432109700688
-0,0936792400722256
-0,0657452174723718
-0,00731866141022594
-0,036293264981496
-0,0929295801786018
-0,109998658804286
-0,0796556425897097
-0,0259562512283122
0,00322020216857447
0,00119905976801697
0,00129363067128503
0,00484282839441727
-0,00141385290822701
-0,0204473909077595
-0,0643199523526355
-0,0901900504404079
-0,113915782449755
-0,126339626632026
-0,137229012497125
-0,162572857309265
-0,138699433062691
-0,139299725562339
-0,16962174869338
-0,142567669062138
-0,055091424514878
-0,0605481912967102
-0,0669893492972767
-0,126966082125997
-0,120901800003607
-0,0753892641204649
-0,0850750545965924
-0,0917393948877986
-0,102436019959535
-0,103237388103149
-0,0406003757477486
-0,0205439252130524
-0,0141153641958436
0,000167378472957663
0,00654551241386007
-0,0054287019285845
-0,00327898731940318
-0,0164519834483649
-0,0624235863055124
-0,107701064094574
-0,131855568827614
-0,145571581145375
-0,136376461829015
-0,144384657917854
-0,147733657560046
-0,161479717322089
-0,145332328942516
-0,0640650890107944
-0,0784438926890361
-0,0672041731512235
-0,0284230458607362
-0,0693194772789111
-0,124771596558314
-0,0883898264591605
-0,0927954729502816
-0,079691717377442
-0,10074256582767
-0,0729629348487294
-0,0236217182782366
-0,0103504191976831
-0,0068902376805023
0,00049039682163955
0,00706640523532289
-0,00902248830225238
-0,00568382075799299
-0,0196028396852809
-0,0489606217866085
-0,0992417443909596
-0,121338232282407
-0,116359505573391
-0,0831954752343195
-0,0389305467154419
-0,0390416607664178
-0,0577094096952706
-0,0696225526942675
-0,0782640036178984
-0,074530502451094
-0,0644896938141126
-0,00315424432858665
-0,06485230120894
-0,0819390652387368
-0,0789127235747218
-0,0433559795386181
-0,0496804643096483
-0,0706322470346198
-0,052690628531139
0,0147061944174487
0,00827259340687388
-0,00221498597861547
0,00927420560387303
-0,00887667729534136
0,00876343876684504
-0,00448225490229752
-0,00721565921114445
-0,0361668794766859
-0,0495804432109943
-0,0499570086752959
-0,0519267516153502
-0,0218051808936269
-0,0250684679406661
-0,00992703948410526
-0,0363654983329035
-0,0380776950658246
-0,0506584169376611
-0,0506189213707598
-0,048604480213506
-0,0635109432889497
-0,0644086806499748
-0,061448725032637
-0,0539182130074161
-0,0242571076343009
-0,0180830709417555
-0,0115420819297808
-0,0222734225505776
-0,0013589605914498
0,0130420594414237
0,00293631507913001
0,0015762672740997
0,00169006757982544
-0,00544728339437735
0,00264536266446998
-0,0139763340785273
-0,00668177335325305
-0,006550143137446
0,0206654840501985
0,0182755047594712
-0,0365663991480903
-0,0836602312279593
-0,0460825077867197
-0,0854413966118154
-0,0860339916660757
-0,0740082531599642
-0,0512017947223804
-0,0877761907269767
-0,112293444962758
-0,0927583719453632
-0,0360615138158564
-0,0355789742542565
0,00188745360278532
0,0432066522944468
0,02139318989099
0,000938964435899074
0,010628124535668
0,00733072654839616
-0,00564664994262721
0,00797177565189627
-0,00695428253009649
-0,00192966129255
0,00772294957934493
-0,0066294987098026
0,0220827973819811
0,0754048144806562
0,0909700997246892
0,078064451354801
0,0475441466374791
-0,0443821730677271
-0,0463362071108351
-0,0704919352193652
-0,0773848555036822
-0,0745291736886659
-0,0872008439551388
-0,100713414080326
-0,0850113900236964
-0,0202569264123236
-0,0175983500266644
-0,0102188625028621
0,0470132184045571
0,0596757929864942
0,0153203732449545
-0,00733780491098028
0,00133550502666486
-0,00371868338414326
0,00370022892299117
-0,00498688144375891
0,000434601237268467
-0,00447562194172089
-0,00533211237926815
0,0140098350696679
0,0229945606589085
0,0592590895771276
0,0642030941478494
0,0965382107745259
0,0940292357853774
0,0612499294209835
0,0206902444993871
0,0145480931441708
0,00720984638472297
-0,0140286608815452
-0,00223444208959625
-0,0269040228090116
-0,0179958240672971
-0,00915779407101502
0,0278997856627196
0,0220063670145187
0,036466543981414
0,0284878522904019
0,0137322419136563
-0,0116464877670833
-0,0133658610335966
-2,67529765695067E-05
0,00590428223999359
-0,00111025754879706
-0,00754321492162683
0,00738694287714872
-0,00835951758472226
0,00534838357831962
0,0121218653260168
0,00605601958098178
0,0123166880683136
0,0305918106322064
0,047860839759779
0,0543389470941218
0,0538508234506786
0,0488458073247765
0,0318106763982354
0,069128406067434
0,0902564193200799
0,0567514271658915
0,0387784408267134
0,0286088746758156
0,045113200762895
0,0238492580469063
0,0146872679397535
0,00941586684724557
0,00591362970185068
0,00856864808051842
0,0050665246911693
-0,00392777372285071
0,00500447812257543
0,00774338533996762
-0,00426353983313941
-0,00763947428094199
0,00865434708942396
0,0030590009843274
0,00140617883404239
0,00184331820511565
0,00574416646704549
0,00262806351548139
0,00689564343069005
-0,0046479842427708
0,00292015573426191
0,000803476713621336
0,0023258295029545
0,0116933217984946
0,0161808072561945
-0,00179483591523673
0,00105719744865927
0,0121040708248793
0,00135977548031692
0,00529996290068687
-0,00787468735956463
-0,00304873134477959
0,000567866475568029
0,00696212904284704
0,00242761613448505
-0,000887195771041883
0,00998749467543675
0,00047046313549879
-0,00206569136682232
-0,00635249454358243
-0,00992250535633532
0,00201642730832865
-0,00129128817994673
-0,00567003850623501
-0,0049493091343666
0,00558948779273289
0,000825129081879337
-0,00876094534935474
-0,00365328380542494
0,00365320864769314
-0,00758830840286606
-0,0116806785045494
0,00759130517290647
0,00206186010342572
0,00591654521222997
-0,000273797265381457
-0,00971212726072973
0,00443567156532578
0,00630910376846283
-0,00218149469801294
0,00181104595391594
0,0073451322025364
-0,00827478886501621
-0,00625951952126786
0,00717802443410178
0,00946177524489433
0,00599681645445377
-0,00711312375828304
-0,00936861515015765
-0,00772517337357866
0,00175528717130183
-0,00501901802777214
-0,00663276792231533
0,000783143234335209
-0,00900183766462687
0,00458859821416489
-0,0133778441643442
-0,0112666461499264
-0,00970364836590242
-0,0168775123145921
-0,00222378474944029
-0,00993124585811887
-0,00336883015862447
-0,00308349193190702
-0,00448502399833486
-0,0122177852425301
-0,00333449392649296
0,00276621135307485
0,0090018865809317
-0,0077948084004247
-0,00117506851031215
-0,00444817688988903
0,00416135936703596
-0,00988419666880937
0,00183645950250163
-0,00726763755887171
0,000287128044563342
-0,00512616947632474
-0,00296007883505656
-0,00454056713141244
0,00789169009270874
-0,0077337885352583
-0,0189455317929211
-0,0213754375594132
-0,0353534333679589
-0,0231731327270973
-0,031613999670961
-0,0363925380465428
-0,0312077878648951
-0,0242071391156843
-0,0326451119399325
-0,0189558920235594
-0,026263480749145
-0,0167711303534306
-0,0086849609770163
-0,0172747664452759
-0,0130491578946111
-0,00366892615782353
0,00399845887425361
0,00663490895997547
0,000773984552721485
-0,00830521649602112
-0,00696404939376006
0,00792997144997584
0,00344015586911674
-0,00453499203328097
-0,000381613964988496
-0,00837914633937889
-0,0160945721750622
-0,0202461830965019
-0,0219015026232702
-0,0180046222042307
-0,0298069667038185
-0,055465047882263
-0,0720468619970604
-0,0730852117627215
-0,0612288047356273
-0,0551996110665499
-0,0484111385674732
-0,0387961212723383
-0,0409105982418374
-0,0346765587521373
-0,0298241560653791
-0,0311655843652415
-0,0162385370387432
-0,0110582636306601
-0,0151095896506147
0,00724132114268038
-0,0071236274649868
-0,00503171009711535
0,00670947717349486
0,00925197799613622
-0,000794741823102347
0,000232187732747461
0,00331443009577379
0,00576575902952752
-0,00855348128798098
-0,0181371238271404
-0,0150762656830455
-0,0197202876464162
-0,0545472021803113
-0,0738397684611165
-0,0920182511692733
-0,0759489733743266
-0,0790718732275401
-0,0942172293011219
-0,0579832488716449
-0,0705170622771367
-0,0486464019494848
-0,0245993929424013
-0,0128012774106779
0,0017786252509349
-0,00843436554048249
0,000430202026666574
0,00494692108678296
-0,0063982460636431
0,00296244760478204
-0,0089061347169219
-0,00597039180620126
-0,00949382849014077
-0,00436984326426251
0,00450740661474787
-0,00618045065370145
0,0130720015994115
0,00340685737126487
0,00505163984556373
0,00826810253653178
0,00614278467922727
-0,0216171191462386
-0,0401079549810502
-0,0434611897074788
-0,0511479091288031
-0,0207671046077463
0,00221873491707515
0,00073733733359135
-0,0240004636386452
-0,0350147472468458
-0,0508335526914373
-0,0596417983125874
-0,0232773442615724
0,00820029117748399
0,0213474516066576
-0,00397667396100801
-0,00653709480089064
-0,0111457072081543
0,00767723716630674
0,00700708832452404
-0,00683807882909883
0,00745830649476682
-0,000355494291308488
0,00455499000815315
0,0207467892017613
0,0433923690421111
0,0369001293058579
0,0277264979001441
0,0194042174884
0,00495597429239707
-0,0200493196277763
-0,0506548553224194
-0,0694531280270737
-0,0633544460917437
-0,0506653503606571
-0,00236421125707635
-0,0190594486481338
-0,0342635615543987
-0,0660423989037734
-0,0606177063447616
-0,00665185850570786
-0,0123234959544385
-0,0286832898610325
-0,0316386433285288
-0,0176290476345734
-0,00696956069650536
-0,00805538131498691
-0,00380926722703349
-0,00378072084150558
0,00256514598707193
0,0116995276865699
0,0278857613846371
0,027714880738477
0,047646646373709
0,0254403855320294
0,0128891611932707
-0,00364694821124228
-0,0283320404881963
-0,0275800671847675
-0,0467282873043616
-0,0425050001389751
-0,0562159380910815
-0,0690156564222001
-0,0457324712331494
-0,00953054555561268
-0,0144666760419067
-0,0272564649844054
-0,00992015747833842
-0,024859570684312
-0,0150640142891598
-0,0387953162816721
-0,074966516381828
-0,0515323744785264
-0,00208238028347583
-0,00324345152848279
0,00933765147828062
0,00702446151549104
0,0125140156303601
0,0120269994515391
0,0483053580290375
0,0613269922862666
0,0422188148758616
0,0285681344840112
-0,00501711059514403
-0,024297848971896
-0,0116594121729647
-0,00433516838380046
-0,0287411409472846
-0,0165061802365635
0,0308745753943899
0,0401068375611061
-0,0238151985038017
-0,026478428037931
0,0175565152861134
-0,0185099227985143
-0,0222857881972063
-0,0427936052558779
-0,049674921761191
-0,0563946306060665
-0,100651299517906
-0,0675531851421404
-0,0210816802465819
-0,00895917324876645
0,00921263104557128
-0,00779954485928833
0,0137683775134724
0,0255645231326249
0,0463002541174406
0,0593009016770175
0,0373921171051602
0,00713105285748533
-0,0494084531184091
0,000869995075849603
-0,0050479984145529
0,0135576771500297
0,0489906944021383
0,0956054860841197
0,0966126150986455
0,105549959245775
0,0888900206262314
0,0685280086962009
0,0916767417089554
0,0440010030014274
2,77953411672162E-05
-0,0423055630290672
-0,0577449286748421
-0,143156276309202
-0,163515492087771
-0,104317193333126
-0,0353136148658398
-0,00725490735155517
0,00591856668646862
0,00954955076066212
0,00285814704745105
0,0191412115676361
0,0332630364256723
0,0488136931357215
0,0339399503562287
-0,00749011816040149
-0,032048999423159
-0,0071650246482026
-0,0287981635709134
0,00701535174382741
0,0474825970664041
0,0239897336667555
-0,024578938015996
0,0606207225999765
0,0757234126645091
0,108109903377449
0,0937243839427083
0,0605807432914012
0,0342675462626504
0,0073609718642552
-0,0397818810956695
-0,11919302354833
-0,138834248651325
-0,0759680486275248
-0,0316830324932292
-0,00740686159095274
-0,00453185601212949
0,000267208283298589
0,00465352185169847
0,0252122533106572
0,0408439810998909
0,0379882926290413
0,00648951858417347
-0,0282914660827928
-0,0471353938034492
-0,0276362086756538
0,015702735528035
0,0233529477180592
-0,00249943835349469
-0,1560747117737
-0,141910253419639
0,036204482990521
0,0872582189014114
0,115385796924358
0,110423904936918
0,106347123629777
0,113511828789112
0,084402868835428
0,042893287815643
-0,0553732095062031
-0,0883232958405444
-0,032773634664418
-0,00791378191548479
0,00529496504874482
0,0018128910124682
0,00137703347068712
0,013863687649638
0,0139776765808546
0,0573545655059714
0,0153811857603973
-0,0123512035683203
-0,0213734397095748
-0,00975214761031098
-0,0172156309180116
0,00425462884622286
0,000454386284924213
-0,0624885900510985
-0,181759238387675
-0,127971580378921
0,0281927520408916
0,0944399967851679
0,111155673612138
0,143650480520973
0,131629767911308
0,103117665541564
0,0850369787834648
0,0461910297282864
-0,0388589713305562
-0,0570288843661059
-0,00611427149456549
0,00487352964204892
-0,00163552477537008
0,00510364875101951
0,00556926364017007
-0,003105904662389
0,00175030513579235
0,0474872995858067
0,0258122567505009
0,0124188803803827
-0,00391178232297561
0,00811839640374577
-0,0326255059113517
0,0152250673751082
0,0188408623148608
-0,0645705116259546
-0,146947583818832
-0,0680737520026715
-0,0225595575973481
0,0429199658841252
0,117902734344167
0,103116731567718
0,110639550472546
0,0911735178095137
0,0851123695126784
0,035623402543833
-0,0234172618880376
-0,0466760413021718
-0,011995999517497
0,00660988737556555
0,00331516380294728
-0,00394729385394931
0,00322008014349438
0,00185380942622045
0,00237512703408052
0,0462106650000823
0,0591229025648206
0,0378736046288133
0,0155365583203251
0,0131173249896581
-0,00384755222137404
0,0267689397331632
0,0120125496338056
-0,0543781478547913
-0,0940274269439302
-0,0552353546979545
-0,0219715146287933
0,0718664875546847
0,161292768680387
0,164185060164979
0,197745441953881
0,13631730652288
0,0662716921983055
0,0504761920189241
-0,0200482448962403
-0,029099094948208
0,00122592725486622
-0,00471508131854959
-0,00420472665319133
0,00226844283563272
-0,00331559891559082
-0,00746812246757244
0,0147912938526058
0,0545784962568735
0,0765096720775021
0,0550331402223709
0,0404087949856685
0,0516382880180943
0,0268559849064433
0,0279392199580828
-0,0107076752175043
-0,0961345999686093
-0,117814043918975
-0,0871322674351435
0,0813100515678547
0,128829745690617
0,182277652968559
0,175481027803803
0,173623284515677
0,109395778667063
0,0858216466873123
0,0539662751326438
-0,022521295955362
-0,0307991312653534
0,00957343938341166
0,000574665214037614
-0,00383872816388346
-0,00407956786882232
-0,004473969408191
-0,00290724484937156
-0,000539501196703969
0,047706783839771
0,0520415888102058
0,0604892241112628
0,0684770197295778
0,0699849574702446
0,0385088825133793
-0,0195096262228115
-0,0499212646188684
-0,0559407476531234
-0,0721958861908976
-0,00241489314235171
0,145264275663502
0,193108365035613
0,219693529234188
0,147954471854613
0,125905740931358
0,108324143781959
0,0929856296191028
0,0556875627261997
-0,0119794191143569
-0,0157544417823112
0,00748184115127488
0,00014357025240022
0,00507959886765774
0,006492037696993
0,00785676849512837
0,00369336689654939
-0,00263029655187302
0,0400805803734691
0,0209067256788522
0,0158115065186148
0,0270941986067712
0,00650984780273356
0,00882888809327328
-0,0105137332821091
0,0201083143160755
0,058434306397461
0,065509369073109
0,116190361531142
0,18338245244672
0,167827911193474
0,151711212622745
0,105713785663435
0,0296580405095062
0,0658992634321025
0,0489171112407941
0,0281770654791318
0,0064035611271909
0,010496359297137
0,0157778020168942
0,0118477999446797
0,00469560341283751
0,000398458926890406
0,00897319756652007
-0,00469956676876785
-0,00115961849826826
0,025089820665823
0,030290462908924
-0,0310113188500304
-0,0369948325646079
-0,0555363250711031
-0,017980640906697
0,042822226883754
0,0745337916126728
0,0763963499855418
0,0954260111001943
0,110455123956094
0,111717459449576
0,0708167150738145
0,0128338769023213
0,00110563347321309
0,00555231741786743
0,0206933350707658
0,000564416774771296
-0,0121041658029417
-0,0173471469226348
0,00998903871808181
0,0195375787872074
-0,00739759167204929
0,000810321842701743
-0,00272007859756567
0,000895471009768863
0,00198732010144871
-0,00322667016583919
0,0155607559882561
-0,00666526034452708
-0,0509121511978327
-0,0515331465814311
-0,0658426624868124
-0,0776462150999089
-0,025759304424995
-0,00147179977467467
-0,000761039238066825
-0,0210845489140451
-0,00871136935698942
-0,0397523614548988
-0,056526388248143
-0,0752521485752186
-0,103896723739343
-0,0396873932286207
-0,0523291870346585
-0,0538235635101948
-0,0557660101086956
-0,0461275658181248
-0,00839888228738696
0,0111272533844489
0,010564439480921
-0,00418664047790318
0,000431952863201477
0,00876468262422047
0,00856106195390609
-0,0067378283328351
0,0101507267412096
-0,0199394242491526
-0,0411621118339371
-0,0683411911034076
-0,0651184064831911
-0,0752615507304696
-0,0872470348413164
-0,0861419124485618
-0,0885649628780786
-0,0970918512267006
-0,124906675629794
-0,130861492028408
-0,101835771783177
-0,104963922335167
-0,126112620209368
-0,0942785757953891
-0,0803888859947651
-0,0692381010560148
-0,0691326495223355
-0,0280044283397781
0,0109630052538371
-0,00271541775717086
0,00615148472268019
-0,00357181161660971
-0,00373821876511873
0,000331156045810656
-0,00244170500100956
-0,0207554895737281
-0,0119902118742719
-0,0139693064278999
-0,0492411746294522
-0,063354567323264
-0,0558307849977225
-0,0451858794288839
-0,065180298868828
-0,0960273175239425
-0,124358322292919
-0,157012595849405
-0,141332568499587
-0,12549961168133
-0,0647768272665601
-0,0873806518200954
-0,103205161387458
-0,0921186557273123
-0,0838179029059115
-0,0499206568873699
-0,0476449835815838
-0,0256455530554824
0,00724527097066684
0,0135125276485719
-0,000332900663016066
-0,00448132934440558
0,00808669312583142
-0,00929587247759506
-0,00152926472113095
-0,00585633696814582
-0,0227737052426153
-0,0231149557859999
-0,0225543065862069
-0,0230293768138535
-0,0333311024720903
-0,0580574146856442
-0,0595881178226591
-0,0676145500739302
-0,100700837752156
-0,133001127312128
-0,0993952602931449
-0,0656968267834384
-0,0733896305880111
-0,0857925145183107
-0,0626882517374393
-0,08761597087893
-0,0688334710796502
-0,036498355352311
-0,03288465871503
0,00123916421437557
0,0197862232330628
-0,00360149364100309
0,00899397537216306
-0,00133568878220169
0,00090941935354351
-0,00406342114045444
-0,00265610471859465
-0,0105589697012596
-0,0154953813216314
0,00249649958919761
0,0171456455654789
0,00170355985621556
-0,0639975647201281
-0,0889490643009409
-0,0744253411455017
-0,0689250458160542
-0,110749056059084
-0,0802901985319057
-0,0632033548221373
-0,082000388850436
-0,124517464944254
-0,10461604143491
-0,0768772333965942
-0,0525506850274606
-0,0564754378799845
-0,00936203136224663
-0,00903976611068901
-0,00744233790456849
0,0120262998733207
0,0046746432361709
-0,00952171601145845
-0,0090725341341796
-0,00998988545499271
0,00710069782896931
0,00269103444249256
-0,0136055008759924
0,00344023037783811
0,0387311460735771
0,0185720079547186
0,00181803848156158
-0,0420775690169352
-0,104386535501232
-0,0863593424752768
-0,0854618131083637
-0,104837988668149
-0,0943700833001701
-0,108896772590188
-0,114573157555978
-0,106714525317212
-0,0813868779515167
-0,0714316072334826
-0,0543417625779496
-0,0297281447453229
-0,00040463684232684
-0,00908942050932639
0,00106594044814745
-0,0111984165582332
-0,0014179415794533
-0,00688157602080005
0,00973219422611044
0,00938087809802074
-0,00491482577049864
-0,00186341549166644
0,00579892550999636
0,0223768383757612
0,0350629085931508
0,0209270237626199
0,0104421725958867
0,0063467332627693
-0,0295165154962415
-0,0454614188071081
-0,0266797766511056
-0,0531932920231691
-0,0656708544831957
-0,048847243821959
-0,0535921982685351
-0,0611220906180713
-0,058620886245125
-0,0182121622534646
-0,0204096508346935
-0,00313696657344795
-0,00751982790008815
-0,0122734181727591
-0,00231102401576881
0,00535870586728173
-0,00846781466891184
0,000203666752324788
0,0055713995432348
0,00399438763688988
-0,00951112325280491
-0,00947058628288591
-0,00799500874486075
0,00522242261529192
-0,000172113967636538
0,0114069928746016
0,00861805188116939
0,0283585631738349
0,0414515163183754
0,0226786437592965
0,0291262400614737
0,00404396741039107
0,0329511353729022
0,0457914941810132
0,0334300399235435
-0,00136844346364984
0,0224463012247256
0,0227401508226116
0,0156991993026082
0,00954594876980863
0,00116860340717048
-0,00698889007907761
0,0078845985725801
0,000463084457244259
0,00727173363248682
0,00329976266869333
0,00754975309481367
0,0078340327543365
0,00528791565228622
0,00757009976430335
0,00518031424618341
-0,00182906287066205
0,00808263939840126
0,00260201594589479
0,00599095594704847
-0,00890668509297211
-0,00610824033949655
0,0110382692454294
-0,00825589485672491
-0,00289788070340141
-0,00141448140541085
0,00948170014864014
0,00829980380220581
-0,00613072303997264
0,0127130237502432
-0,00467483484567421
0,00114939610396066
0,00503320659778642
-0,00119807011034174
0,0034337619503227
-0,00876210408495707
-0,00274450805631676
0,00655225769456116
0,0079398362142685
0,00855778755552964
0,00736526680056251
-0,00724363915493881
0,00139758307086191
0,00658368240882814
-0,000532783572810136
0,00374446763365738
-0,00346800134213083
-0,00942949616323667
0,00952248007968184
-0,0043223930123832
-0,00120774403736356
-0,00272164361212479
-0,00407178601762414
0,00293771667884113
0,00799606989509304
0,00817216005032947
0,00936956111312358
0,00343740164928017
-0,000815618397116483
0,00519044306836577
-0,00637469054030939
-0,00100993127143473
0,0063109595311391
0,00108465961696797
0,00629187930202665
-0,00481593020018932
-0,00567400621048827
-0,000803434499913564
-0,00666830623367257
0,00680302398130439
-0,00207517769749983
0,00160560180973522
-0,00992784271297073
0,00388009977483003
0,00826489004861017
0,00784767612987853
0,00272047158933974
-0,0063066946923801
0,00320228151447753
0,00230509921171581
0,00642337766198832
0,00127087500614755
0,00522048437231822
0,00290532939314552
-0,00593529055080434
0,00429382830280663
-0,00492478322248342
-0,00777539838206787
0,0020001256081407
0,00588824337631883
-0,00842731902427398
0,00381879149247143
-0,00263212390832236
-0,00725060685409727
0,00493247809583902
-0,00162480192800276
-0,00355459868607791
-0,00968707654610606
-0,00970463184009563
-0,00583367965186081
-0,00057520450562223
0,00762539087195388
0,0124946451376541
-0,000329030256011419
0,0136453652643876
0,014560413631822
0,00800706689644166
0,0127861312416232
0,00646788648754341
-0,0114710077014722
0,00342979582705579
0,0133025779752533
-0,00434321835825477
0,0260634285980358
0,0309173017083989
0,0380322548330221
0,0300387758823565
0,0141206089632109
0,00349307057397093
-0,00114501607589205
-0,00505803366274721
-0,00615072364151208
0,00871114196195786
-0,000445869160092375
0,00540550931142899
0,0041067320080971
-0,00577045053707979
0,00725741196596581
0,0100007884222381
0,00277027897662449
0,00987124827440421
0,0110852559884491
-0,0126245054012684
-0,0119641009436744
-0,0175222380138685
-0,00755674419489093
-0,0237765270361945
-0,03168187225133
-0,00263087401987989
-0,000850618712372117
0,00512391208465222
0,0363211871435737
0,0591390775499807
0,0872672654440427
0,0634722566047209
0,0568934487562598
0,0514210060664464
0,031674296202617
0,00920100126724101
-0,00671794261152493
0,00439245520734954
-0,00408107186392
0,00981828522859993
0,00769495539884419
-0,00872619700629634
-0,00504184588545805
0,0124243375621524
0,00785128031153669
0,00248094406667913
-0,00634247865117835
-0,0285302223499596
-0,0514746889982624
-0,0737025303484905
-0,116414418927712
-0,127573693171282
-0,117407150101145
-0,129018304259809
-0,118155555814345
-0,0740619460785237
-0,0607771532587791
-0,0181363447235215
0,0394580776668325
0,0674101110137996
0,0754869484275669
0,0847440606199553
0,063399252262468
0,0210229773650432
-0,00698212609655667
-0,0122539089442033
0,000615716045360544
-0,00799862692039396
0,00489462411724712
0,00385800463950129
0,00352028141306255
0,00863339940451449
0,0012328642037539
0,00768885331496501
-0,020812211068013
-0,0287327576369021
-0,0287179100914628
-0,0367453566047219
-0,0816839524618699
-0,0725349346904696
-0,0689054885097997
-0,0796029957641492
-0,0741168744177759
-0,135636384088169
-0,0900050297156457
-0,0485498877742378
0,0328813703415349
0,0223836132647545
0,024165068453395
0,0445110977807109
0,0664390411976523
0,024191549684743
-0,00247797383394142
-0,00999910667990314
0,0028672593129531
-0,00841007511057429
-0,00139744021360386
-0,00393023034980836
-0,0041842150984363
-0,00848920253088113
0,0023324987780969
-0,0119563072097027
-0,0105548770464659
-0,0411746341218546
-0,0379437914973564
-0,0350483922206766
-0,0126227704489363
0,00545461011698339
0,00134281292125818
0,0301215846551835
0,0316692425958754
-0,0478447598590564
-0,0160530930064462
-0,0183943303854571
-0,0416041628673003
-0,0620763612846225
-0,0380361329327966
-0,00752330660605804
0,0184804341737976
0,00110199441694271
-0,00305477347011561
-0,0102626232686046
-0,00682324742702762
-0,00816485114055548
0,000835821992999751
-0,000358192890651817
-0,0116479010939831
-0,0178193511674042
-0,0074198245227079
-0,0382842419368753
-0,0353504134186028
-0,0830278971388218
-0,0633162184688112
-0,048496508197095
-0,0162612254661126
0,00706147995703345
0,00505020672204081
0,0477673765331138
0,0605006649535299
0,0124316800636462
0,000476997530063544
-0,074560145235822
-0,101288254333667
-0,102739984136347
-0,0847484642594619
-0,0655746707804397
-0,0287316653665534
-0,0203304182245175
-0,00506239665922327
-0,00583161642810617
-0,00959817950959035
0,00274255780015987
-0,00138091935579156
-0,0108108455572384
-0,00629441723076495
-0,00871089215027671
-0,0189103556671448
-0,0423333653529425
-0,0875550918135835
-0,0965362886131836
-0,096568579648337
-0,109557086947022
-0,106428707153203
-0,140578874301613
-0,107267958783609
-0,0784525358579392
-0,0774882444230452
-0,122879227127622
-0,147256110598948
-0,171855812819743
-0,171822745724976
-0,132133599347303
-0,109885805373247
-0,104208764691809
-0,0680847813821614
-0,06946854874214
-0,0391363739777989
-0,0174281207811442
-0,00733017444315077
-0,000931176921530113
-0,0101737184013938
-0,00234437005412078
-0,0175237028291787
-0,0171439274895133
-0,037136636579813
-0,0535312414336744
-0,0805497012343185
-0,0796489631540214
-0,0825166819711226
-0,0545182337633661
-0,0848912556527225
-0,0648518138506747
-0,0640855130473098
-0,0508537751066137
-0,0512475279324921
-0,119992032135999
-0,190001680263079
-0,170184567138254
-0,136456861390991
-0,125946217092882
-0,13003022369046
-0,142423561112012
-0,137494187244621
-0,106999486367553
-0,0913155365952958
-0,0339339940072013
0,00906762021592348
-0,00719688425285282
0,000949707669879781
-0,00223842731814571
-0,0119397441842752
-0,0244702844824762
-0,00413208596694968
-0,00651071991490475
-0,0132088154235847
0,0283154156172962
0,0118941326771531
-0,00760660812340518
0,0152346376892562
0,0387081834776609
0,0332228243812279
-0,0403210482776827
-0,0690612907739879
-0,0715160911211868
-0,10258969512815
-0,0911475883206176
-0,100116356211081
-0,069910698762326
-0,0776494046816031
-0,0916072960713015
-0,141825667645484
-0,12942629729449
-0,0767621587502432
-0,028644903797962
0,00629738334452388
0,00902730975693558
-0,00443676546145079
-0,00607157089333776
-0,00171605756201746
0,0236288137227709
0,0511092527207194
0,0699518523984931
0,0647865667514236
0,0992885491605933
0,0655619070909194
0,123321788226499
0,153269731517743
0,154572653300174
0,0862005558698147
-0,00103449202610625
0,0334564038804137
0,0659442497018134
0,0540754005107843
-0,0016605343267282
0,00337151931418708
0,0319670184713881
0,0562888068068562
-0,00196643472012517
-0,0601060215952468
-0,122419462390156
-0,0633701468075685
-0,0144731377657261
-0,00726717824495759
0,005552360698362
0,000555153093035837
-0,00203583889653041
0,00306323585533226
0,0391503151013738
0,09345178311595
0,105291143549043
0,12102014732621
0,119747265299748
0,112275971508974
0,1441515983012
0,1780479503875
0,118360913531851
0,0646223652129222
0,0195357800599218
0,0780475029275345
0,145423316667613
0,124102477519035
0,0894056806160631
0,0670704823874748
0,0623189228158449
0,0903232489235099
0,0693513196056638
0,0202722187340667
-0,0721454961650177
-0,0582133506426252
-0,0287923933940427
-0,00810472742092026
0,00605645670070128
-0,00340506486387891
-0,0044155637242935
0,0122152477305502
0,0715552918409959
0,132338224428644
0,123380458278536
0,0919524542571038
0,092486236459308
0,0667359578501778
0,115087800533396
0,0708417158143163
0,0318359287410619
-0,0251477055566477
0,000829821157211702
0,117879995223964
0,153210168341811
0,156204438982774
0,0713489463164751
0,070143671180514
0,092258849102591
0,123881819324565
0,080597812606227
0,0178827463375054
-0,0295548665083811
-0,0517543470555565
-0,0206619478637372
0,00736535483473472
-0,00953146891107533
0,000565486199200075
-0,00626167009396671
0,00635360491191939
0,04396971856449
0,0908366128201146
0,0890457472792451
0,0441129587670758
0,077511087860396
0,0671878794869537
0,0558370184810894
0,055961526336155
-0,0182695429126541
-0,0815120667718976
-0,0686615343359057
0,0794880002409804
0,128059907649673
0,101680224184628
0,0466555830214152
0,105968630319147
0,147085978473871
0,130507547184092
0,100860576225112
0,0306253067259867
-0,0222994147240528
-0,0480372554918683
-0,0225345973457509
0,00112312999776407
0,00476815721898767
-0,00742143007552554
-0,0109187146104932
-0,00437069528780843
-0,00796038851900054
-0,00194594483750523
0,0173724097437353
0,0137428827977378
0,062937692226195
0,0432783058922647
0,0815908313870641
0,0878063705362779
-0,0020959189430739
-0,0733937294402416
-0,0252250607671123
0,0797716206174011
0,0891891884436804
0,091813864124436
0,0629841544988091
0,0770362907995013
0,0995098261081355
0,11199441597741
0,0764398364357195
-0,00435600277457293
-0,0632719913101674
-0,0592144701361177
-0,0284498123166069
0,00359360832208968
0,00965576413522635
0,0052747172977171
0,0049945289113848
-0,0466168928423253
-0,0682233851431329
-0,0508359309120631
-0,0411496774834656
0,0274728975563294
0,0780048414678311
0,0374094388971633
0,0495722173145235
0,084068518232064
-0,0461832017311966
-0,0967869455853511
-0,0369367957360593
0,0469727314736996
0,0380689672102464
0,0340326755301289
0,0507515867375663
0,0437097705223854
0,0210876116893569
0,0281382218798803
-0,018836302046709
-0,0865227779824754
-0,102220391398603
-0,0774184467342713
-0,0281594887544291
-0,00997804568906796
-0,00912426987622132
-0,00353363407306294
-0,0110966087149346
-0,0374690794552786
-0,0897669964437289
-0,119963312574061
-0,121712633269633
-0,0464608673540028
-0,00359779395277139
0,00679216240260776
0,0178915392562641
0,00193908729620958
-0,0690223706145348
-0,0647932293957204
-0,00711089708075148
0,0287085413078236
-0,00655009568530875
0,0149986144854338
0,0544202912711779
-0,0164873890954177
-0,0322091070002439
-0,0178933557663055
-0,0841752943292311
-0,122112575736619
-0,13620141715888
-0,0633224688138162
-0,0247306509402205
-0,0112587883589023
-0,00339612685473768
0,00162209907672967
-0,00392160612141951
-0,033830792578268
-0,0867628263488014
-0,129936206882247
-0,163714058810914
-0,15014230162959
-0,083178732566142
-0,0638539924615537
-0,0643050318406391
-0,0427857429596865
-0,0626691345475305
-0,0880500847991123
-0,0171836237048272
0,0417366550103879
0,0316536418456744
-0,011629881944081
0,012380139977815
-0,0260033415689776
-0,00474551299542331
-0,0387296690995223
-0,122240225125642
-0,146688869993146
-0,119678480610388
-0,0494581894891196
0,00363122632392987
0,00175916880574439
-0,00962262693257808
0,000917045390617404
-0,0114095705870664
-0,0243878111591244
-0,052778265322495
-0,103872996624957
-0,132438245289951
-0,151271282940745
-0,161972218204334
-0,164923176274263
-0,147955807504867
-0,0720220106816994
-0,0693378208320937
-0,0638713570117902
0,0125140685237086
0,0312961249165837
0,0487491774312298
0,0533391525748533
0,0371584693123992
0,0303457968437398
0,00469540852823137
-0,0447736799001709
-0,124090461011097
-0,132482690905306
-0,075260382295273
-0,0270356654955436
-0,0126866996007217
-0,00777744475461569
-0,00416484059494214
0,0017922851911839
0,000329635421722099
-0,0181847663512263
-0,0650035416136974
-0,0832902783688696
-0,128348660588796
-0,174969583343284
-0,18672834354976
-0,161607026442935
-0,160861361788477
-0,115655571372116
-0,0507185541483361
0,00187283216005553
0,0512493445484527
0,024465720255536
0,0813857186394901
0,0650286585819154
0,0232175181017803
0,00592978959567049
-0,0400537831149292
-0,0779518495329014
-0,122285976154064
-0,0874364058722896
-0,0380969800949319
-0,0109883114880305
0,00147597512242598
0,000454935605060194
0,00704197282996038
0,0054380653363749
-0,00995586386505032
-0,0283933030744435
-0,0528079504129545
-0,0672233453023857
-0,131093107937366
-0,141878392721972
-0,104893114636738
-0,040022794873146
-0,012347343741594
-0,0326424880428178
0,0159998469714983
-0,0132965339136115
-0,0319769773557052
-0,0117865869229333
0,0488076075385557
0,0325408285660846
0,0187822407364079
-0,0355561005444382
-0,0456193330944453
-0,0486537716935
-0,0689755064423703
-0,0397864320601005
-0,00366572952281434
-0,0120853054285264
-0,000581083582115648
0,00482638886993723
-0,000932672859870075
0,00218923158030034
-0,00406545981935951
-0,0136318589639396
-0,0357906429458034
-0,0526842385394791
-0,0940294337090575
-0,0991711138052419
-0,0522811025566271
-0,00122330329482515
0,0254888915411908
-0,0188479596591805
-0,00332510727592417
-0,0462429487335511
-0,0639300096919453
-0,0237242610769715
-0,0244104096918498
-0,0201035183352857
-0,0127274076142257
-0,0445002029470832
-0,0543358799354541
-0,029534613571562
-0,0328630851927097
-0,00812172809149391
-0,00637812403482615
-0,0032444644464247
0,00439306748245859
0,00707494797099262
0,000800231383554745
-0,000507337372054969
-0,0090368631809473
0,00059698834140982
-0,0254959558902566
-0,0224490786114994
-0,0435267828555929
-0,0450577082918554
0,00974370654089316
0,0238853010758655
0,0280080630236287
-0,0140208816085699
-0,0462583906876057
-0,0312869255211958
-0,035591627479513
-0,067574228375704
-0,0930849106047162
-0,0654630782142225
-0,0397033707449
-0,0227057146283505
-0,00303462188701778
0,0321986411287086
0,031061805625534
0,00854617930020577
-0,00255924499947423
0,00604605028054691
0,00327882228446577
0,00203655434401545
0,00043759815880917
0,000576491304941704
-0,00815654022796174
0,00343009162099247
-0,0160875427247362
0,00234985072854843
0,0235918183068734
0,0341661424138935
0,0562721910310346
0,0530468153370676
0,0626898791313016
0,00529154679828737
-0,0186675188315217
-0,0259490900539664
-0,0421372301480757
-0,0387970287790884
-0,0183787300730817
-0,023515294917988
-0,021165839911619
-0,0131554014292682
0,0400417747837654
0,0431859333884845
0,038345610899016
0,0157381960552165
-0,00338558945353739
-0,0107842638561646
0,00551144927953327
0,00159664003718488
-0,000313180056546432
0,00564168159646992
-0,00250211415862804
-0,00283720944768977
-0,00967407895677586
0,00867808950302863
0,0209216124575651
0,0409250070529501
0,0354611634343643
0,0230730225088232
0,0176709836089229
-0,00546106399907862
-0,0197762189152719
-0,0203617540190746
-0,00905702154364272
-0,0204570146884348
-0,0260762282180059
-0,0321315632437212
-0,00648364802771384
0,0103167700606231
0,0271315431827416
0,0371684656259919
0,00743109728351895
0,00182064445774553
-0,00649417263496866
-0,000243285061889197
0,00146576455353007
-0,00333558900902774
0,0050068898103232
0,00821165343663267
-0,00431032220568057
0,00882072351828193
0,00297630970615108
0,00423985581191633
0,0147206840575801
0,0141087666089283
0,0309566158289515
0,0320441436500561
0,0384551464068378
0,024687592740015
0,0254870681645622
0,0264527299735689
0,0355882967564654
8,96374365230817E-05
-0,003008931087535
-0,00207213473664432
-0,00563601132414162
0,01319732049321
0,00446208555413889
0,0170166990338223
-0,00242007301665402
-0,00710023281564993
0,0031486488912706
0,00683090982588394
0,00115881288943757
0,0018916672430428
-0,00193704034757663
-0,00963424786908284
-0,00786084884678053
0,00169367952816825
0,00555486818392662
-0,00564895383786333
-0,00885368736455857
-0,000101837295211828
-0,0046813390440013
0,00275487366852327
0,00360640643131085
0,00246080853293128
0,00270380959691519
0,00822446724426338
0,00787266672295301
-0,00593666473242579
-0,000839027777527147
0,00376713175693932
0,00578204501246252
0,00859387969423044
-0,00595318012671189
0,00912374442320459
0,00795843822818054
-0,00793581461462425
0,000157553586250893
0,00589499539504526
-0,00629453721283681
0,00543467888395986
0,00236247665824484
-0,00662823041743982
-0,00456775437787536
0,00189947459469525
0,00626850782719837
0,00618541749016634
0,00346199799024593
0,00867720427861307
0,00185945177071702
-0,0028975037638552
0,00799474581982696
-0,00642468641345607
-0,00862519544488627
-0,00637592047096402
-0,00669517156930496
0,00813836184730713
-9,12002334795894E-05
-0,00194364912432788
-0,00504909678131766
-0,00633033311754946
-0,00738222323236159
-0,00889211218752531
0,00104187571957795
0,007305223316562
-0,00590991077754177
0,00334366327773019
-0,00207607257742252
-0,000726266713219818
-0,00604555770570671
-0,0096345979532388
-0,00846387405808264
0,00965730934387879
-0,00936144399292191
-0,00430147327848791
0,00755553925717646
-0,00803825602257335
-0,00356798743514023
-0,0080240168849452
0,00576721792670162
0,00459729126424426
-0,00657033304862478
0,00687359106007553
0,00264312589192029
-0,00518440205044475
0,00836003177006904
-0,00127472352918061
0,00583421169997941
-0,0104001574129931
0,00494770701911435
0,00783823578740772
0,00160027378845473
-0,00806134921548764
0,000944092176362914
-0,00996420409528734
0,00281690211632145
0,00125458884577015
0,00232989386298223
-0,00187297769443736
-0,00219101851551399
-0,00707774770285344
-0,00176274723134997
-0,00581953091843645
0,00455845248117131
0,000650826208449401
-0,00677630602118641
0,00344879609150135
-0,0143049005667676
-0,00266656138463345
-0,0120657564485264
-0,013073609638275
0,000623930431200925
0,00156680699119672
0,00409053928050349
-0,00524289748783327
0,00196580960219356
-0,0155599085668179
-0,00775089821524498
-0,00795382882807455
0,00633679005449067
0,00326221901576818
0,00707489370078877
-0,00183840402991237
0,00377506632999287
-0,00431910023760009
-0,00149954729317666
0,00943492323133858
-0,00126348656774657
-0,00939749626417756
0,0028687432163186
-0,0037886463242757
-0,00140077505995288
0,00680317422717994
-0,00180341861904585
-0,000679257272475272
-0,0125974171852578
-0,0280437691456246
-0,0283291722146612
-0,0243732271457895
-0,00922732892534832
0,0109892312683288
-0,0177166062331271
-0,0517670380110601
-0,0356421414579978
-0,0224212603766514
-0,0217711660410793
-0,0189187225675842
-0,00810894025086477
-0,0146335812239393
-0,01063756359381
-0,00174475306014665
-0,00715212402462025
-0,00453844560055921
-0,00133360678857826
0,00288274174918826
-0,00401396998700357
-0,00995597377409657
-0,00113587882787576
-0,000611667956263281
-0,00921526140700369
-0,0117113290821787
-0,0118264977539903
-0,0184456494237792
-0,0118134339387503
-0,0100543138692714
-0,0169340227288025
-0,00762654682415124
-0,00101314474450452
0,00502326574044151
-0,0638289822422776
-0,0795425174836874
-0,0848731355592626
-0,0450244335065516
-0,0186804778840193
0,00538903083175444
-0,00111685773145225
0,0104933161930489
-0,00330320493879873
0,00513225288537018
0,00681160591872543
-0,0066485435112652
-0,0015406411381162
-0,00381544355946381
0,00844456036791205
-0,00612803317548267
-0,00567784109059147
0,00158738301832865
0,00654030460521547
0,00036373185519821
0,00597978771540121
0,010294198544589
0,0217775159623481
0,0183244232105598
0,0140394742956083
-0,00382219226533704
-0,00241573961445521
-0,007814068586421
-0,0657996741063437
-0,125128593181564
-0,102789843099538
-0,079705255547391
-0,0723877869298448
-0,00858322200727441
0,00868812321143716
0,00606818114809301
-0,00263034543888629
-0,00797708908014933
0,00413340561066653
-0,00140270962791531
-0,00581490778169358
-0,000561981954991543
-0,00361585411509708
0,00219302744794398
0,0076002027150191
0,0277642868220878
0,0501595946413401
0,0369804033677888
0,0269316586751613
0,0497854586767203
0,0845120480628789
0,0673743762157283
0,0118265846643369
-0,0148346735618153
-0,0341382822183248
-0,0705879401723721
-0,0593896702582227
-0,102379355450175
-0,0594775373562037
-0,0401548070113511
-0,024383859525024
-0,00150165285331429
0,0137461520301841
0,000793191693055644
-0,0260113261021411
-0,0333830901800914
-0,00301644311629251
0,00495207706663579
-0,00619891276589677
0,00268797123131839
0,00941367061215935
0,0042579067056175
0,0164481236888422
0,0224971265771762
0,0644131678782586
0,0664877685144566
0,035532071646268
0,0328659845844398
0,0438774146718589
0,0490361960470758
0,015404954640901
-0,0227104818473374
-0,0436863493764322
-0,0725606141913391
-0,0424188876021533
-0,0178062898034187
-0,0148207171734758
0,00331797194869642
0,017377547954896
-0,0104440140426733
-0,0226362978389108
-0,0505740714641107
-0,0739261215554829
-0,0466991379401224
0,00447917090700998
0,00925647819170565
0,000672914439426584
-0,00240674877502371
0,0100505875981203
0,0100285803415829
0,0304195251541424
0,0380296343588205
0,073934151760315
0,0668923927360537
0,0331433709150682
0,0141371276619539
0,0582793502340359
0,0981991852224307
0,0637610085712034
0,0173104725814139
0,0101610368658484
0,00487296680827607
-0,0353267558368715
-0,00326772964231084
-0,0177461427823495
-0,0193569386359218
-0,0405841336023533
-0,052911691777775
-0,0623955327333257
-0,0940456282353583
-0,0998000578051483
-0,049614281803727
-0,00747881906465948
0,00230729009438851
0,00148510546170668
0,00652288445814185
0,0171880249734725
0,0149633240044631
0,0212986337988234
0,0589197692983027
0,0555317485080927
0,057129871551174
0,020162572203394
0,0394136785693615
0,0525221502772764
0,0975205289521438
0,0947743893174816
0,0679986165971162
0,0806893076729768
0,107997021455096
0,0689449276048681
-0,0205317554933533
-0,0411743493906555
-0,0447347138609235
-0,0740079939344999
-0,0666338282784282
-0,0797245850098942
-0,100861615930112
-0,10054509578102
-0,0386942547571696
-0,00137407976242013
0,00231650954065794
-0,0059224909353583
0,00526336123180978
0,0179170509247126
0,0242834487820639
0,020283132969893
0,0351408105202511
0,0264876096163751
0,0317432099825097
0,0134845494827142
0,0143496002924455
0,0138767795554677
0,0183646914327333
-0,000489586317683131
0,0231519493731971
0,0772590252801634
0,151993176853977
0,103865314478276
-0,0064501630579283
-0,0588590462418475
-0,0734087997513273
-0,107541258366801
-0,0656212651070159
-0,0935426884723627
-0,0759205533001013
-0,0441409328151077
-0,0175653975881336
0,00048624120591251
0,00539035619435032
0,00642673254253262
-0,00672515730928549
0,00179276807684397
0,00896716807526836
0,00402889530361154
0,00717961953438546
-0,0113223680478053
0,00107227010159031
-0,0214303043838703
-0,052030169771815
-0,0961623144047949
-0,121714654376933
-0,122818085422676
-0,0971334972550299
0,00928282620562955
0,137990178586887
0,0868547449497526
-0,0233168018464267
-0,0695481018001638
-0,107598408615693
-0,0863680574773403
-0,0695299815414883
-0,0691854418565557
-0,0400263282801425
-0,0174108131995707
0,00171883634160135
-0,00532932448007233
-0,000468351883394911
-0,000472087342988755
-0,00340014580850266
-0,00352289771223955
0,00706600957725018
-0,00362249317066381
-0,0464824611846448
-0,0771375158898352
-0,0608533807498147
-0,0680022549263438
-0,144619518740116
-0,224073663724733
-0,231119680140632
-0,157709997476078
-0,17312858421816
-0,0279520345447911
0,0884216712580534
0,0409985055611924
-0,0206096750298714
-0,0409949927200693
-0,0837473591111105
-0,0805728028780238
-0,0815798342229524
